<GAP_2026_3_23_120_0_19_4_47>
<Potential label="GAP_2026_3_23_120_0_19_4_47" init_args="IP GAP label=GAP_2026_3_23_120_0_19_4_47"/>
<GAP_params label="GAP_2026_3_23_120_0_19_4_47" gap_version="1686220958">
  <GAP_data do_core="F">
    <e0 Z="1" value=".00000000000000000E+000"/>
    <e0 Z="2" value=".00000000000000000E+000"/>
    <e0 Z="3" value=".00000000000000000E+000"/>
    <e0 Z="4" value=".00000000000000000E+000"/>
    <e0 Z="5" value=".00000000000000000E+000"/>
    <e0 Z="6" value=".00000000000000000E+000"/>
    <e0 Z="7" value=".00000000000000000E+000"/>
    <e0 Z="8" value=".00000000000000000E+000"/>
    <e0 Z="9" value=".00000000000000000E+000"/>
    <e0 Z="10" value=".00000000000000000E+000"/>
    <e0 Z="11" value=".00000000000000000E+000"/>
    <e0 Z="12" value=".00000000000000000E+000"/>
    <e0 Z="13" value=".00000000000000000E+000"/>
    <e0 Z="14" value=".00000000000000000E+000"/>
    <e0 Z="15" value=".00000000000000000E+000"/>
    <e0 Z="16" value=".00000000000000000E+000"/>
    <e0 Z="17" value=".00000000000000000E+000"/>
    <e0 Z="18" value=".00000000000000000E+000"/>
    <e0 Z="19" value=".00000000000000000E+000"/>
    <e0 Z="20" value=".00000000000000000E+000"/>
    <e0 Z="21" value=".00000000000000000E+000"/>
    <e0 Z="22" value=".00000000000000000E+000"/>
    <e0 Z="23" value=".00000000000000000E+000"/>
    <e0 Z="24" value=".00000000000000000E+000"/>
    <e0 Z="25" value=".00000000000000000E+000"/>
    <e0 Z="26" value=".00000000000000000E+000"/>
    <e0 Z="27" value=".00000000000000000E+000"/>
    <e0 Z="28" value=".00000000000000000E+000"/>
    <e0 Z="29" value=".00000000000000000E+000"/>
    <e0 Z="30" value=".00000000000000000E+000"/>
    <e0 Z="31" value=".00000000000000000E+000"/>
    <e0 Z="32" value=".00000000000000000E+000"/>
    <e0 Z="33" value=".00000000000000000E+000"/>
    <e0 Z="34" value=".00000000000000000E+000"/>
    <e0 Z="35" value=".00000000000000000E+000"/>
    <e0 Z="36" value=".00000000000000000E+000"/>
    <e0 Z="37" value=".00000000000000000E+000"/>
    <e0 Z="38" value=".00000000000000000E+000"/>
    <e0 Z="39" value=".00000000000000000E+000"/>
    <e0 Z="40" value=".00000000000000000E+000"/>
    <e0 Z="41" value=".00000000000000000E+000"/>
    <e0 Z="42" value=".00000000000000000E+000"/>
    <e0 Z="43" value=".00000000000000000E+000"/>
    <e0 Z="44" value=".00000000000000000E+000"/>
    <e0 Z="45" value=".00000000000000000E+000"/>
    <e0 Z="46" value=".00000000000000000E+000"/>
    <e0 Z="47" value=".00000000000000000E+000"/>
    <e0 Z="48" value=".00000000000000000E+000"/>
    <e0 Z="49" value=".00000000000000000E+000"/>
    <e0 Z="50" value=".00000000000000000E+000"/>
    <e0 Z="51" value=".00000000000000000E+000"/>
    <e0 Z="52" value=".00000000000000000E+000"/>
    <e0 Z="53" value=".00000000000000000E+000"/>
    <e0 Z="54" value=".00000000000000000E+000"/>
    <e0 Z="55" value=".00000000000000000E+000"/>
    <e0 Z="56" value=".00000000000000000E+000"/>
    <e0 Z="57" value=".00000000000000000E+000"/>
    <e0 Z="58" value=".00000000000000000E+000"/>
    <e0 Z="59" value=".00000000000000000E+000"/>
    <e0 Z="60" value=".00000000000000000E+000"/>
    <e0 Z="61" value=".00000000000000000E+000"/>
    <e0 Z="62" value=".00000000000000000E+000"/>
    <e0 Z="63" value=".00000000000000000E+000"/>
    <e0 Z="64" value=".00000000000000000E+000"/>
    <e0 Z="65" value=".00000000000000000E+000"/>
    <e0 Z="66" value=".00000000000000000E+000"/>
    <e0 Z="67" value=".00000000000000000E+000"/>
    <e0 Z="68" value=".00000000000000000E+000"/>
    <e0 Z="69" value=".00000000000000000E+000"/>
    <e0 Z="70" value=".00000000000000000E+000"/>
    <e0 Z="71" value=".00000000000000000E+000"/>
    <e0 Z="72" value=".00000000000000000E+000"/>
    <e0 Z="73" value=".00000000000000000E+000"/>
    <e0 Z="74" value=".00000000000000000E+000"/>
    <e0 Z="75" value=".00000000000000000E+000"/>
    <e0 Z="76" value=".00000000000000000E+000"/>
    <e0 Z="77" value=".00000000000000000E+000"/>
    <e0 Z="78" value=".00000000000000000E+000"/>
    <e0 Z="79" value=".00000000000000000E+000"/>
    <e0 Z="80" value=".00000000000000000E+000"/>
    <e0 Z="81" value=".00000000000000000E+000"/>
    <e0 Z="82" value=".00000000000000000E+000"/>
    <e0 Z="83" value=".00000000000000000E+000"/>
    <e0 Z="84" value=".00000000000000000E+000"/>
    <e0 Z="85" value=".00000000000000000E+000"/>
    <e0 Z="86" value=".00000000000000000E+000"/>
    <e0 Z="87" value=".00000000000000000E+000"/>
    <e0 Z="88" value=".00000000000000000E+000"/>
    <e0 Z="89" value=".00000000000000000E+000"/>
    <e0 Z="90" value=".00000000000000000E+000"/>
    <e0 Z="91" value=".00000000000000000E+000"/>
    <e0 Z="92" value=".00000000000000000E+000"/>
    <e0 Z="93" value=".00000000000000000E+000"/>
    <e0 Z="94" value=".00000000000000000E+000"/>
    <e0 Z="95" value=".00000000000000000E+000"/>
    <e0 Z="96" value=".00000000000000000E+000"/>
    <e0 Z="97" value=".00000000000000000E+000"/>
    <e0 Z="98" value=".00000000000000000E+000"/>
    <e0 Z="99" value=".00000000000000000E+000"/>
    <e0 Z="100" value=".00000000000000000E+000"/>
    <e0 Z="101" value=".00000000000000000E+000"/>
    <e0 Z="102" value=".00000000000000000E+000"/>
    <e0 Z="103" value=".00000000000000000E+000"/>
    <e0 Z="104" value=".00000000000000000E+000"/>
    <e0 Z="105" value=".00000000000000000E+000"/>
    <e0 Z="106" value=".00000000000000000E+000"/>
    <e0 Z="107" value=".00000000000000000E+000"/>
    <e0 Z="108" value=".00000000000000000E+000"/>
    <e0 Z="109" value=".00000000000000000E+000"/>
    <e0 Z="110" value=".00000000000000000E+000"/>
    <e0 Z="111" value=".00000000000000000E+000"/>
    <e0 Z="112" value=".00000000000000000E+000"/>
    <e0 Z="113" value=".00000000000000000E+000"/>
    <e0 Z="114" value=".00000000000000000E+000"/>
    <e0 Z="115" value=".00000000000000000E+000"/>
    <e0 Z="116" value=".00000000000000000E+000"/>
    <e0 Z="117" value=".00000000000000000E+000"/>
    <e0 Z="118" value=".00000000000000000E+000"/>
  </GAP_data>
  <gpSparse label="GAP_2026_3_23_120_0_19_4_47" n_coordinate="8" fitted="T">
    <gpCoordinates label="GAP_2026_3_23_120_0_19_4_471" dimensions="1" signal_variance=".50000000000000000" signal_mean=".00000000000000000E+000" sparsified="T" n_permutations="1" covariance_type="1" n_sparseX="30" sparseX_filename="CH.xml.sparseX.GAP_2026_3_23_120_0_19_4_471" sparseX_md5sum="290c38446bff51674aaea8594c0c634f">
      <theta>  0.50000000000000000E+000 </theta>
      <descriptor> distance_2b Z1=1 Z2=1 cutoff=4.0 n_sparse=30 covariance_type=ard_se delta=0.5 theta_uniform=0.5 sparse_method=uniform add_species=F</descriptor>
      <permutation i="1">1  </permutation>
      <sparseX i="1" alpha="7568.4273654678063" sparseCutoff="1.0000000000000000"/>
      <sparseX i="2" alpha="157.38208897528116" sparseCutoff=".34549150281252422"/>
      <sparseX i="3" alpha="-16322.402994626107" sparseCutoff="1.0000000000000000"/>
      <sparseX i="4" alpha="6629.0548363009657" sparseCutoff="1.0000000000000000"/>
      <sparseX i="5" alpha="-2304.7432174628684" sparseCutoff="1.0000000000000000"/>
      <sparseX i="6" alpha="-6324.4195965846666" sparseCutoff="1.0000000000000000"/>
      <sparseX i="7" alpha="-452.79824902761447" sparseCutoff=".17174340948633571E-003"/>
      <sparseX i="8" alpha="4839.4382156248748" sparseCutoff="1.0000000000000000"/>
      <sparseX i="9" alpha="5782.4952551903807" sparseCutoff="1.0000000000000000"/>
      <sparseX i="10" alpha="3999.8732188676740" sparseCutoff="1.0000000000000000"/>
      <sparseX i="11" alpha="-3522.2629563634332" sparseCutoff="1.0000000000000000"/>
      <sparseX i="12" alpha="18589.465863028017" sparseCutoff="1.0000000000000000"/>
      <sparseX i="13" alpha="-13961.223215498419" sparseCutoff="1.0000000000000000"/>
      <sparseX i="14" alpha="-8251.2887326680902" sparseCutoff="1.0000000000000000"/>
      <sparseX i="15" alpha="-4663.9112760457665" sparseCutoff="1.0000000000000000"/>
      <sparseX i="16" alpha="5724.7921679303035" sparseCutoff="1.0000000000000000"/>
      <sparseX i="17" alpha="607.16994460054309" sparseCutoff=".65760272047438639"/>
      <sparseX i="18" alpha="-6367.0263166639761" sparseCutoff="1.0000000000000000"/>
      <sparseX i="19" alpha="-4211.0803217896237" sparseCutoff="1.0000000000000000"/>
      <sparseX i="20" alpha="-3296.9165237870843" sparseCutoff="1.0000000000000000"/>
      <sparseX i="21" alpha="-2231.3825365985012" sparseCutoff=".92908406827382795"/>
      <sparseX i="22" alpha="5910.1115508647345" sparseCutoff="1.0000000000000000"/>
      <sparseX i="23" alpha="-1089.2383022472959" sparseCutoff="1.0000000000000000"/>
      <sparseX i="24" alpha="4270.7558032548122" sparseCutoff="1.0000000000000000"/>
      <sparseX i="25" alpha="21729.823265810108" sparseCutoff="1.0000000000000000"/>
      <sparseX i="26" alpha="4603.0596769971144" sparseCutoff="1.0000000000000000"/>
      <sparseX i="27" alpha="-20819.540686503147" sparseCutoff="1.0000000000000000"/>
      <sparseX i="28" alpha="15890.439430258317" sparseCutoff="1.0000000000000000"/>
      <sparseX i="29" alpha="-46538.899082842901" sparseCutoff="1.0000000000000000"/>
      <sparseX i="30" alpha="34194.845261603979" sparseCutoff="1.0000000000000000"/>
    </gpCoordinates>
    <gpCoordinates label="GAP_2026_3_23_120_0_19_4_472" dimensions="1" signal_variance=".50000000000000000" signal_mean=".00000000000000000E+000" sparsified="T" n_permutations="1" covariance_type="1" n_sparseX="30" sparseX_filename="CH.xml.sparseX.GAP_2026_3_23_120_0_19_4_472" sparseX_md5sum="734d2292c16ea0cc4134a845237cac56">
      <theta>  0.50000000000000000E+000 </theta>
      <descriptor> distance_2b Z1=1 Z2=6 cutoff=4.0 n_sparse=30 covariance_type=ard_se delta=0.5 theta_uniform=0.5 sparse_method=uniform add_species=F</descriptor>
      <permutation i="1">1  </permutation>
      <sparseX i="1" alpha="25946.983779067261" sparseCutoff="1.0000000000000000"/>
      <sparseX i="2" alpha="-4720.9622244775501" sparseCutoff="1.0000000000000000"/>
      <sparseX i="3" alpha="-15650.249331229685" sparseCutoff="1.0000000000000000"/>
      <sparseX i="4" alpha="-47882.336186071181" sparseCutoff="1.0000000000000000"/>
      <sparseX i="5" alpha="-61822.126308434403" sparseCutoff="1.0000000000000000"/>
      <sparseX i="6" alpha="-47215.596529954550" sparseCutoff="1.0000000000000000"/>
      <sparseX i="7" alpha="18251.616095026398" sparseCutoff="1.0000000000000000"/>
      <sparseX i="8" alpha="8105.7456025619485" sparseCutoff=".20222296394730288"/>
      <sparseX i="9" alpha="25877.329773496105" sparseCutoff="1.0000000000000000"/>
      <sparseX i="10" alpha="-64080.923356972467" sparseCutoff="1.0000000000000000"/>
      <sparseX i="11" alpha="-48991.730454483339" sparseCutoff="1.0000000000000000"/>
      <sparseX i="12" alpha="108285.37609481848" sparseCutoff="1.0000000000000000"/>
      <sparseX i="13" alpha="67023.102056995456" sparseCutoff="1.0000000000000000"/>
      <sparseX i="14" alpha="3374.0435033377471" sparseCutoff="1.0000000000000000"/>
      <sparseX i="15" alpha="-80779.130428540433" sparseCutoff="1.0000000000000000"/>
      <sparseX i="16" alpha="15865.570314735724" sparseCutoff="1.0000000000000000"/>
      <sparseX i="17" alpha="-16517.228825320210" sparseCutoff="1.0000000000000000"/>
      <sparseX i="18" alpha="14744.201352894934" sparseCutoff=".78023269557719011"/>
      <sparseX i="19" alpha="-7207.2920623211512" sparseCutoff="1.0000000000000000"/>
      <sparseX i="20" alpha="-21448.025068432831" sparseCutoff=".42593568138239740"/>
      <sparseX i="21" alpha="30790.337392707715" sparseCutoff=".25139847583008856E-001"/>
      <sparseX i="22" alpha="-8049.3346894459264" sparseCutoff="1.0000000000000000"/>
      <sparseX i="23" alpha="16197.200214281807" sparseCutoff="1.0000000000000000"/>
      <sparseX i="24" alpha="7713.3439002864143" sparseCutoff="1.0000000000000000"/>
      <sparseX i="25" alpha="41486.936145724983" sparseCutoff="1.0000000000000000"/>
      <sparseX i="26" alpha="-30612.024695598175" sparseCutoff="1.0000000000000000"/>
      <sparseX i="27" alpha="-6692.9810348344899" sparseCutoff="1.0000000000000000"/>
      <sparseX i="28" alpha="44364.446423895381" sparseCutoff="1.0000000000000000"/>
      <sparseX i="29" alpha="47169.640652635935" sparseCutoff="1.0000000000000000"/>
      <sparseX i="30" alpha="14500.155958654968" sparseCutoff="1.0000000000000000"/>
    </gpCoordinates>
    <gpCoordinates label="GAP_2026_3_23_120_0_19_4_473" dimensions="1" signal_variance=".50000000000000000" signal_mean=".00000000000000000E+000" sparsified="T" n_permutations="1" covariance_type="1" n_sparseX="30" sparseX_filename="CH.xml.sparseX.GAP_2026_3_23_120_0_19_4_473" sparseX_md5sum="67b9d944e49e8bad9038d2e191f1227f">
      <theta>  0.50000000000000000E+000 </theta>
      <descriptor> distance_2b Z1=6 Z2=6 cutoff=4.0 n_sparse=30 covariance_type=ard_se delta=0.5 theta_uniform=0.5 sparse_method=uniform add_species=F</descriptor>
      <permutation i="1">1  </permutation>
      <sparseX i="1" alpha="140022.10245198253" sparseCutoff="1.0000000000000000"/>
      <sparseX i="2" alpha="-61178.751501392064" sparseCutoff="1.0000000000000000"/>
      <sparseX i="3" alpha="-29259.597496474627" sparseCutoff="1.0000000000000000"/>
      <sparseX i="4" alpha="99512.085216069856" sparseCutoff="1.0000000000000000"/>
      <sparseX i="5" alpha="-104549.36744418652" sparseCutoff="1.0000000000000000"/>
      <sparseX i="6" alpha="9382.5682951049184" sparseCutoff="1.0000000000000000"/>
      <sparseX i="7" alpha="29062.098691802217" sparseCutoff=".97561099584066158"/>
      <sparseX i="8" alpha="-1328.3574060125870" sparseCutoff="1.0000000000000000"/>
      <sparseX i="9" alpha="118822.75258060897" sparseCutoff="1.0000000000000000"/>
      <sparseX i="10" alpha="58798.789972782266" sparseCutoff="1.0000000000000000"/>
      <sparseX i="11" alpha="-135744.02484111389" sparseCutoff="1.0000000000000000"/>
      <sparseX i="12" alpha="-89920.141960948342" sparseCutoff="1.0000000000000000"/>
      <sparseX i="13" alpha="-34132.138479295973" sparseCutoff="1.0000000000000000"/>
      <sparseX i="14" alpha="59919.743418902122" sparseCutoff="1.0000000000000000"/>
      <sparseX i="15" alpha="7807.2604838679363" sparseCutoff="1.0000000000000000"/>
      <sparseX i="16" alpha="24111.673667966399" sparseCutoff=".30195235793841535E-001"/>
      <sparseX i="17" alpha="16995.654487942520" sparseCutoff=".45501701308447551E-001"/>
      <sparseX i="18" alpha="47632.638718736620" sparseCutoff="1.0000000000000000"/>
      <sparseX i="19" alpha="-22112.653212795383" sparseCutoff="1.0000000000000000"/>
      <sparseX i="20" alpha="-35019.202074502922" sparseCutoff="1.0000000000000000"/>
      <sparseX i="21" alpha="20552.215650832724" sparseCutoff="1.0000000000000000"/>
      <sparseX i="22" alpha="41979.582011502243" sparseCutoff="1.0000000000000000"/>
      <sparseX i="23" alpha="-17164.471618592921" sparseCutoff=".56756025970660207"/>
      <sparseX i="24" alpha="-12431.300205578671" sparseCutoff="1.0000000000000000"/>
      <sparseX i="25" alpha="154801.30716859343" sparseCutoff="1.0000000000000000"/>
      <sparseX i="26" alpha="52179.684507645208" sparseCutoff="1.0000000000000000"/>
      <sparseX i="27" alpha="-79598.453621473614" sparseCutoff="1.0000000000000000"/>
      <sparseX i="28" alpha="-199640.56459431062" sparseCutoff="1.0000000000000000"/>
      <sparseX i="29" alpha="145941.04819341222" sparseCutoff="1.0000000000000000"/>
      <sparseX i="30" alpha="-169900.70264904588" sparseCutoff="1.0000000000000000"/>
    </gpCoordinates>
    <gpCoordinates label="GAP_2026_3_23_120_0_19_4_474" dimensions="3" signal_variance=".10000000000000000E-001" signal_mean=".00000000000000000E+000" sparsified="T" n_permutations="1" covariance_type="4" n_sparseX="200" sparseX_filename="CH.xml.sparseX.GAP_2026_3_23_120_0_19_4_474" sparseX_md5sum="1c3ee4aede6bea5711078b5e993c6664">
      <theta>  0.20000000000000000E+001  0.20000000000000000E+001  0.20000000000000000E+001 </theta>
      <descriptor> angle_3b Z_center=6 Z1=1 Z2=1 cutoff=2.0 n_sparse=200 covariance_type=pp delta=0.01 theta_uniform=2.0 sparse_method=uniform add_species=F</descriptor>
      <permutation i="1">1 2 3  </permutation>
      <sparseX i="1" alpha="-8744.7657690720789" sparseCutoff=".98536615387162163"/>
      <sparseX i="2" alpha="3713.9351927334824" sparseCutoff="1.0000000000000000"/>
      <sparseX i="3" alpha="354.25002466703961" sparseCutoff="1.0000000000000000"/>
      <sparseX i="4" alpha="-1575.7542660957313" sparseCutoff=".59662359954797661"/>
      <sparseX i="5" alpha="-113508.88404384714" sparseCutoff=".66656761741778037E-001"/>
      <sparseX i="6" alpha="-3151.5771615108265" sparseCutoff=".94776539675400562"/>
      <sparseX i="7" alpha="84364.967997116168" sparseCutoff=".63174972238533481E-001"/>
      <sparseX i="8" alpha="-337.04162217126043" sparseCutoff=".89371445524080850"/>
      <sparseX i="9" alpha="6440.5225546019719" sparseCutoff=".11371306041996770"/>
      <sparseX i="10" alpha="-145924.97578577820" sparseCutoff=".36919948879610580E-001"/>
      <sparseX i="11" alpha="-18724.244806224840" sparseCutoff=".11371306041996770"/>
      <sparseX i="12" alpha="6035.7185402652985" sparseCutoff=".11371306041996770"/>
      <sparseX i="13" alpha="-8211.3139683231439" sparseCutoff=".98371692299602731"/>
      <sparseX i="14" alpha="-15785.470210013793" sparseCutoff=".98371692299602731"/>
      <sparseX i="15" alpha="-172.47269490567899" sparseCutoff="1.0000000000000000"/>
      <sparseX i="16" alpha="28173.802474288983" sparseCutoff=".32467641573674100"/>
      <sparseX i="17" alpha="-64060.274963728014" sparseCutoff=".20468748774750356E-001"/>
      <sparseX i="18" alpha="4135.0655485849811" sparseCutoff=".93597170096542937"/>
      <sparseX i="19" alpha="7326.6957506006311" sparseCutoff="1.0000000000000000"/>
      <sparseX i="20" alpha="3707.5730642025692" sparseCutoff="1.0000000000000000"/>
      <sparseX i="21" alpha="2768.2208973287761" sparseCutoff="1.0000000000000000"/>
      <sparseX i="22" alpha="-62272.325803189167" sparseCutoff=".97663846029626376E-002"/>
      <sparseX i="23" alpha="-31663.602473950894" sparseCutoff=".10495543699335197E-001"/>
      <sparseX i="24" alpha="-28986.330910384804" sparseCutoff=".14004664900669853E-001"/>
      <sparseX i="25" alpha="-5199.9973604404559" sparseCutoff=".10099776839119720E-002"/>
      <sparseX i="26" alpha="39570.288827992343" sparseCutoff="1.0000000000000000"/>
      <sparseX i="27" alpha="3893.8257126381559" sparseCutoff=".22544410527786194E-002"/>
      <sparseX i="28" alpha="-8409.4481679016681" sparseCutoff=".30053990107430156"/>
      <sparseX i="29" alpha="36977.308593658941" sparseCutoff=".61192239825234696E-001"/>
      <sparseX i="30" alpha="26498.911578717951" sparseCutoff=".62792566932248828E-001"/>
      <sparseX i="31" alpha="-337.43926759294197" sparseCutoff=".10629644522020532E-002"/>
      <sparseX i="32" alpha="102865.17995045675" sparseCutoff=".63640178932931279E-001"/>
      <sparseX i="33" alpha="-1369.0373670669126" sparseCutoff="1.0000000000000000"/>
      <sparseX i="34" alpha="5343.0259715254833" sparseCutoff="1.0000000000000000"/>
      <sparseX i="35" alpha="8863.5310903827776" sparseCutoff=".37714124292543394"/>
      <sparseX i="36" alpha="31901.459222868340" sparseCutoff=".50250089245120633"/>
      <sparseX i="37" alpha="4578.5648653608696" sparseCutoff=".72388898577337213"/>
      <sparseX i="38" alpha="-5582.0234410842395" sparseCutoff="1.0000000000000000"/>
      <sparseX i="39" alpha="-5439.7161401158191" sparseCutoff=".66886598457930879E-002"/>
      <sparseX i="40" alpha="-9042.3046491261248" sparseCutoff=".25350198541831481"/>
      <sparseX i="41" alpha="-22551.424689986081" sparseCutoff=".43153007212014538E-002"/>
      <sparseX i="42" alpha="-2433.8042872594774" sparseCutoff="1.0000000000000000"/>
      <sparseX i="43" alpha="-12681.898345064974" sparseCutoff="1.0000000000000000"/>
      <sparseX i="44" alpha="1218.7305634083812" sparseCutoff="1.0000000000000000"/>
      <sparseX i="45" alpha="-1547.8679368677158" sparseCutoff=".63178751910086373E-001"/>
      <sparseX i="46" alpha="-8783.9055151509783" sparseCutoff=".36589562401500997"/>
      <sparseX i="47" alpha="20853.863251109844" sparseCutoff="1.0000000000000000"/>
      <sparseX i="48" alpha="-5193.3040455551782" sparseCutoff=".30564825706866822"/>
      <sparseX i="49" alpha="16434.429628378875" sparseCutoff=".21305348689457015"/>
      <sparseX i="50" alpha="-2152.4647347807140" sparseCutoff=".14614389382577586E-001"/>
      <sparseX i="51" alpha="-761.61466980318414" sparseCutoff=".54346979294280895"/>
      <sparseX i="52" alpha="-528.69596169866884" sparseCutoff=".44815011362991930E-003"/>
      <sparseX i="53" alpha="-1643.9655574173203" sparseCutoff="1.0000000000000000"/>
      <sparseX i="54" alpha="-340.46517445497636" sparseCutoff="1.0000000000000000"/>
      <sparseX i="55" alpha="6953.1703272507812" sparseCutoff="1.0000000000000000"/>
      <sparseX i="56" alpha="10384.761893046991" sparseCutoff=".27913583661549723E-001"/>
      <sparseX i="57" alpha="1004.9362716968551" sparseCutoff="1.0000000000000000"/>
      <sparseX i="58" alpha="-8323.1517820027930" sparseCutoff="1.0000000000000000"/>
      <sparseX i="59" alpha="-30092.729562026161" sparseCutoff=".29313976328637492"/>
      <sparseX i="60" alpha="-5814.9048909148105" sparseCutoff=".79922371873594744E-003"/>
      <sparseX i="61" alpha="3710.9069137662736" sparseCutoff="1.0000000000000000"/>
      <sparseX i="62" alpha="15299.714618677956" sparseCutoff="1.0000000000000000"/>
      <sparseX i="63" alpha="12166.852429924287" sparseCutoff="1.0000000000000000"/>
      <sparseX i="64" alpha="-39559.594293873000" sparseCutoff=".31132211544160127E-001"/>
      <sparseX i="65" alpha="19914.994419662522" sparseCutoff=".48705724740109940"/>
      <sparseX i="66" alpha="-469.90731057405719" sparseCutoff=".98977386939213063"/>
      <sparseX i="67" alpha="6578.2872498628740" sparseCutoff=".96257930150603221"/>
      <sparseX i="68" alpha="2347.2305573435538" sparseCutoff="1.0000000000000000"/>
      <sparseX i="69" alpha="650.56733302236728" sparseCutoff="1.0000000000000000"/>
      <sparseX i="70" alpha="-1626.0884704832320" sparseCutoff="1.0000000000000000"/>
      <sparseX i="71" alpha="-225.56343216349347" sparseCutoff="1.0000000000000000"/>
      <sparseX i="72" alpha="-37902.000065704648" sparseCutoff=".52225956253006576E-002"/>
      <sparseX i="73" alpha="-10591.492336594143" sparseCutoff=".74270362674457491"/>
      <sparseX i="74" alpha="252.99952584469332" sparseCutoff=".25397397954459567E-003"/>
      <sparseX i="75" alpha="-12845.860044849833" sparseCutoff=".17596396143068155"/>
      <sparseX i="76" alpha="7702.4596517297150" sparseCutoff=".39081590948461919E-001"/>
      <sparseX i="77" alpha="3171.6813227257189" sparseCutoff=".68766931621297145"/>
      <sparseX i="78" alpha="15710.093969706957" sparseCutoff=".30241271403160674"/>
      <sparseX i="79" alpha="19392.952602667756" sparseCutoff=".81351376299872324E-001"/>
      <sparseX i="80" alpha="-17218.446083427578" sparseCutoff=".32522295909188703E-001"/>
      <sparseX i="81" alpha="3135.8965125623290" sparseCutoff="1.0000000000000000"/>
      <sparseX i="82" alpha="3816.4316406110047" sparseCutoff=".59273598266911642E-001"/>
      <sparseX i="83" alpha="-8994.6489121035720" sparseCutoff="1.0000000000000000"/>
      <sparseX i="84" alpha="-7816.9163359380464" sparseCutoff=".27752207357272707"/>
      <sparseX i="85" alpha="51226.463533978291" sparseCutoff=".37827128679337574E-001"/>
      <sparseX i="86" alpha="-16943.589638961170" sparseCutoff=".18074830676253625"/>
      <sparseX i="87" alpha="20949.851733336753" sparseCutoff=".22889464185211839"/>
      <sparseX i="88" alpha="1981.9998142512104" sparseCutoff=".54508813200233597E-002"/>
      <sparseX i="89" alpha="-5442.6082212760111" sparseCutoff=".68655590864885307"/>
      <sparseX i="90" alpha="6210.6579776398312" sparseCutoff=".42842185207945360E-001"/>
      <sparseX i="91" alpha="10511.814717940804" sparseCutoff=".57097940988581297"/>
      <sparseX i="92" alpha="-7884.2050311630601" sparseCutoff=".66714877632670810"/>
      <sparseX i="93" alpha="-9202.7151364555393" sparseCutoff=".79299233852208006"/>
      <sparseX i="94" alpha="3458.3854326706282" sparseCutoff=".62449268975944272E-001"/>
      <sparseX i="95" alpha="-11495.278437306240" sparseCutoff=".15525006317406520E-002"/>
      <sparseX i="96" alpha="-2988.5988024255930" sparseCutoff=".14653899426928553E-002"/>
      <sparseX i="97" alpha="29233.404835938902" sparseCutoff=".96405224446344945E-002"/>
      <sparseX i="98" alpha="7348.3216803663317" sparseCutoff=".93953001863590624E-001"/>
      <sparseX i="99" alpha="-16603.915769544808" sparseCutoff=".45725581924979629E-002"/>
      <sparseX i="100" alpha="-475.80347958493172" sparseCutoff="1.0000000000000000"/>
      <sparseX i="101" alpha="-11565.385431573020" sparseCutoff="1.0000000000000000"/>
      <sparseX i="102" alpha="-7867.1430024731662" sparseCutoff=".18523932061212889E-001"/>
      <sparseX i="103" alpha="2109.0622990207362" sparseCutoff=".51447574037246646E-002"/>
      <sparseX i="104" alpha="20866.939303693740" sparseCutoff=".46384660970256120"/>
      <sparseX i="105" alpha="643.10712308283473" sparseCutoff=".57010984615437854E-001"/>
      <sparseX i="106" alpha="20108.705980601520" sparseCutoff=".61936376666922498E-001"/>
      <sparseX i="107" alpha="39491.138537003630" sparseCutoff=".42977127314010086E-001"/>
      <sparseX i="108" alpha="11187.684490871083" sparseCutoff=".22794952553933934E-001"/>
      <sparseX i="109" alpha="-507.93871595458364" sparseCutoff=".20981858474738714E-003"/>
      <sparseX i="110" alpha="4787.2566688378829" sparseCutoff="1.0000000000000000"/>
      <sparseX i="111" alpha="7927.9584388390522" sparseCutoff=".98771675063356268E-001"/>
      <sparseX i="112" alpha="961.85632438436164" sparseCutoff=".11930323013018664E-001"/>
      <sparseX i="113" alpha="-2979.3525789490459" sparseCutoff=".99989564535275233"/>
      <sparseX i="114" alpha="-2525.9053243038311" sparseCutoff="1.0000000000000000"/>
      <sparseX i="115" alpha="-33150.373209894031" sparseCutoff="1.0000000000000000"/>
      <sparseX i="116" alpha="8745.4324408597131" sparseCutoff=".14067120878070383E-001"/>
      <sparseX i="117" alpha="4079.6525201520531" sparseCutoff=".87736075900945476"/>
      <sparseX i="118" alpha="-39139.895117679189" sparseCutoff=".80426526633098183E-001"/>
      <sparseX i="119" alpha="-1115.1025360075541" sparseCutoff="1.0000000000000000"/>
      <sparseX i="120" alpha="997.30559255712603" sparseCutoff=".99313521378720226"/>
      <sparseX i="121" alpha="-7393.6578365246160" sparseCutoff=".11920489163230652"/>
      <sparseX i="122" alpha="12883.241869135920" sparseCutoff=".28652622377198445"/>
      <sparseX i="123" alpha="24895.217023364276" sparseCutoff=".40533040064000875"/>
      <sparseX i="124" alpha="-1248.1305441447696" sparseCutoff=".15277086927911743E-002"/>
      <sparseX i="125" alpha="-19324.315471095517" sparseCutoff=".12923373797613102E-001"/>
      <sparseX i="126" alpha="29018.260747237204" sparseCutoff=".12099206572979693"/>
      <sparseX i="127" alpha="15876.582938759715" sparseCutoff=".26780915177161135E-001"/>
      <sparseX i="128" alpha="-306.13072856981955" sparseCutoff=".64020464400584487"/>
      <sparseX i="129" alpha="-5886.0253055746034" sparseCutoff=".14402099817129022"/>
      <sparseX i="130" alpha="920.08163690693880" sparseCutoff="1.0000000000000000"/>
      <sparseX i="131" alpha="-7782.8053198497282" sparseCutoff=".75086664567295369"/>
      <sparseX i="132" alpha="292.69147725504030" sparseCutoff=".49963665466423629"/>
      <sparseX i="133" alpha="-21746.965757365429" sparseCutoff="1.0000000000000000"/>
      <sparseX i="134" alpha="3922.1782874989731" sparseCutoff=".85560408249113307"/>
      <sparseX i="135" alpha="-2836.8048336560282" sparseCutoff="1.0000000000000000"/>
      <sparseX i="136" alpha="-411.94560285484084" sparseCutoff=".16590021307771163"/>
      <sparseX i="137" alpha="2682.1168452122329" sparseCutoff=".19532056907429057"/>
      <sparseX i="138" alpha="-780.53451485280641" sparseCutoff=".52684332968571668E-002"/>
      <sparseX i="139" alpha="-28666.358131476314" sparseCutoff=".65517065431033839"/>
      <sparseX i="140" alpha="935.97693918069683" sparseCutoff=".68834281425641112E-002"/>
      <sparseX i="141" alpha="1929.6833301760851" sparseCutoff="1.0000000000000000"/>
      <sparseX i="142" alpha="6384.6886918081282" sparseCutoff="1.0000000000000000"/>
      <sparseX i="143" alpha="1718.6972640467111" sparseCutoff="1.0000000000000000"/>
      <sparseX i="144" alpha="-31837.045023345599" sparseCutoff=".22551919511153373E-001"/>
      <sparseX i="145" alpha="-966.96120404023679" sparseCutoff="1.0000000000000000"/>
      <sparseX i="146" alpha="389.07259245836468" sparseCutoff=".18063343146137274E-002"/>
      <sparseX i="147" alpha="-862.74363864615896" sparseCutoff=".12632854451951059E-002"/>
      <sparseX i="148" alpha="-13179.185671954705" sparseCutoff=".85703149814671156E-001"/>
      <sparseX i="149" alpha="-198.73587320045954" sparseCutoff=".20068843121801017E-003"/>
      <sparseX i="150" alpha="3125.5411547018462" sparseCutoff=".81973117820051711"/>
      <sparseX i="151" alpha="240.41409743194629" sparseCutoff="1.0000000000000000"/>
      <sparseX i="152" alpha="-2804.5583958145835" sparseCutoff="1.0000000000000000"/>
      <sparseX i="153" alpha="12718.331003790274" sparseCutoff="1.0000000000000000"/>
      <sparseX i="154" alpha="2648.4008793669650" sparseCutoff=".79860896362828182"/>
      <sparseX i="155" alpha="-8608.7867940214528" sparseCutoff=".46397566328543999"/>
      <sparseX i="156" alpha="7571.6825100450260" sparseCutoff=".30699567283380635"/>
      <sparseX i="157" alpha="378.48823950403880" sparseCutoff=".15350248501872998E-001"/>
      <sparseX i="158" alpha="-708.92308629067418" sparseCutoff="1.0000000000000000"/>
      <sparseX i="159" alpha="-1762.0558105427212" sparseCutoff=".97913445614408201"/>
      <sparseX i="160" alpha="-1.3126243656468870" sparseCutoff=".23852459710462065E-004"/>
      <sparseX i="161" alpha="2334.9639171663130" sparseCutoff="1.0000000000000000"/>
      <sparseX i="162" alpha="-5349.3873345862576" sparseCutoff=".36465226792809835E-001"/>
      <sparseX i="163" alpha="1163.2296496150150" sparseCutoff="1.0000000000000000"/>
      <sparseX i="164" alpha="-8956.1476878937974" sparseCutoff=".75720646793954738E-002"/>
      <sparseX i="165" alpha="-19690.825358971750" sparseCutoff=".21559014918696157"/>
      <sparseX i="166" alpha="-274.57501980435933" sparseCutoff="1.0000000000000000"/>
      <sparseX i="167" alpha="-2904.9173907762520" sparseCutoff="1.0000000000000000"/>
      <sparseX i="168" alpha="-3314.6070948977681" sparseCutoff=".54618673429541298E-001"/>
      <sparseX i="169" alpha="-831.53879109778609" sparseCutoff=".13091231165668515E-001"/>
      <sparseX i="170" alpha="10598.557733160338" sparseCutoff=".52378542489807389"/>
      <sparseX i="171" alpha="-9209.3804404788571" sparseCutoff=".27752123090559344"/>
      <sparseX i="172" alpha="1870.2831150838490" sparseCutoff=".97598674978753697"/>
      <sparseX i="173" alpha="-21425.847212319914" sparseCutoff="1.0000000000000000"/>
      <sparseX i="174" alpha="43.864174619019025" sparseCutoff=".67771414741133837E-004"/>
      <sparseX i="175" alpha="-880.12081984147562" sparseCutoff="1.0000000000000000"/>
      <sparseX i="176" alpha="-7130.8921589722058" sparseCutoff="1.0000000000000000"/>
      <sparseX i="177" alpha="-35997.642969334585" sparseCutoff=".39213299614295836E-001"/>
      <sparseX i="178" alpha="24117.007487875744" sparseCutoff=".87669049563677635E-002"/>
      <sparseX i="179" alpha="-2605.7640300224075" sparseCutoff=".65052831353575757"/>
      <sparseX i="180" alpha="-2765.2637238724365" sparseCutoff=".59540606969782350"/>
      <sparseX i="181" alpha="-6415.2966830346049" sparseCutoff=".14282634269878303"/>
      <sparseX i="182" alpha="1095.1312027380945" sparseCutoff=".49466897587195913E-002"/>
      <sparseX i="183" alpha="-1272.6113598429445" sparseCutoff=".86011672504552994"/>
      <sparseX i="184" alpha="-11146.709083384116" sparseCutoff=".57252703395858728"/>
      <sparseX i="185" alpha="-2072.2644259759186" sparseCutoff=".99179474642535492"/>
      <sparseX i="186" alpha="649.28225731867292" sparseCutoff="1.0000000000000000"/>
      <sparseX i="187" alpha="13021.611378875627" sparseCutoff=".10906664361807406"/>
      <sparseX i="188" alpha="1832.5121590908577" sparseCutoff="1.0000000000000000"/>
      <sparseX i="189" alpha="-2180.2371997224450" sparseCutoff=".97917947007732309"/>
      <sparseX i="190" alpha="22674.467900816064" sparseCutoff=".16290338153413846E-001"/>
      <sparseX i="191" alpha="-18334.534521755213" sparseCutoff=".17827836121390145"/>
      <sparseX i="192" alpha="-4258.7978948924656" sparseCutoff="1.0000000000000000"/>
      <sparseX i="193" alpha="-22502.542592416419" sparseCutoff=".25682437672523323"/>
      <sparseX i="194" alpha="22603.376396852917" sparseCutoff=".80342963999913974E-001"/>
      <sparseX i="195" alpha="-7058.0504581242149" sparseCutoff="1.0000000000000000"/>
      <sparseX i="196" alpha="21401.385241682485" sparseCutoff="1.0000000000000000"/>
      <sparseX i="197" alpha="4094.2400118519545" sparseCutoff="1.0000000000000000"/>
      <sparseX i="198" alpha="17351.797832600936" sparseCutoff=".13685958579802454"/>
      <sparseX i="199" alpha="-2178.9335201785052" sparseCutoff=".36259799796148195"/>
      <sparseX i="200" alpha="10418.672384793865" sparseCutoff=".99997152717184323"/>
    </gpCoordinates>
    <gpCoordinates label="GAP_2026_3_23_120_0_19_4_475" dimensions="3" signal_variance=".10000000000000000E-001" signal_mean=".00000000000000000E+000" sparsified="T" n_permutations="1" covariance_type="4" n_sparseX="200" sparseX_filename="CH.xml.sparseX.GAP_2026_3_23_120_0_19_4_475" sparseX_md5sum="9404e821790a7a43a97a02774eaee376">
      <theta>  0.20000000000000000E+001  0.20000000000000000E+001  0.20000000000000000E+001 </theta>
      <descriptor> angle_3b Z_center=6 Z1=1 Z2=6 cutoff=2.0 n_sparse=200 covariance_type=pp delta=0.01 theta_uniform=2.0 sparse_method=uniform add_species=F</descriptor>
      <permutation i="1">1 2 3  </permutation>
      <sparseX i="1" alpha="17350.653475217743" sparseCutoff=".15869943555217464"/>
      <sparseX i="2" alpha="-4722.0405697898132" sparseCutoff=".15869943555217464"/>
      <sparseX i="3" alpha="-9462.9387818513605" sparseCutoff=".13461805527355239"/>
      <sparseX i="4" alpha="8046.0135810487882" sparseCutoff="1.0000000000000000"/>
      <sparseX i="5" alpha="-28407.605471270650" sparseCutoff=".54952419890736404E-002"/>
      <sparseX i="6" alpha="-48840.179664997835" sparseCutoff=".54952419890736404E-002"/>
      <sparseX i="7" alpha="-13936.823702102756" sparseCutoff=".60255001778240997E-003"/>
      <sparseX i="8" alpha="-44750.913106862397" sparseCutoff="1.0000000000000000"/>
      <sparseX i="9" alpha="-14001.976147289392" sparseCutoff=".97104388833721589"/>
      <sparseX i="10" alpha="-49012.899113560976" sparseCutoff="1.0000000000000000"/>
      <sparseX i="11" alpha="1347.1951497518096" sparseCutoff=".59662359954797661"/>
      <sparseX i="12" alpha="-107036.96170438848" sparseCutoff=".37575922716528820E-001"/>
      <sparseX i="13" alpha="-3073.9825312213375" sparseCutoff=".98806222860001158"/>
      <sparseX i="14" alpha="-5652.0331610125895" sparseCutoff=".98806222860001158"/>
      <sparseX i="15" alpha="-14670.114370889363" sparseCutoff=".14713888518680068"/>
      <sparseX i="16" alpha="17411.148016063024" sparseCutoff=".14713888518680068"/>
      <sparseX i="17" alpha="-2477.0203051422732" sparseCutoff=".13929458024072700"/>
      <sparseX i="18" alpha="-20032.663696825817" sparseCutoff=".20327999249998119E-001"/>
      <sparseX i="19" alpha="26283.595189809887" sparseCutoff="1.0000000000000000"/>
      <sparseX i="20" alpha="87715.411314055993" sparseCutoff=".18545300804286480"/>
      <sparseX i="21" alpha="6317.9355807349057" sparseCutoff=".97104388833721589"/>
      <sparseX i="22" alpha="-5953.7792477094526" sparseCutoff=".87882632178996993E-002"/>
      <sparseX i="23" alpha="-45028.400722073333" sparseCutoff=".40467799657021519E-001"/>
      <sparseX i="24" alpha="-13110.864701978713" sparseCutoff=".24321213651686564E-001"/>
      <sparseX i="25" alpha="26978.748831677505" sparseCutoff=".55841382699397266E-002"/>
      <sparseX i="26" alpha="-90262.840402794536" sparseCutoff=".23260854681335541E-001"/>
      <sparseX i="27" alpha="43921.272253911891" sparseCutoff="1.0000000000000000"/>
      <sparseX i="28" alpha="-3940.1182937408089" sparseCutoff=".85197506174541693"/>
      <sparseX i="29" alpha="-4797.5487401292894" sparseCutoff=".99528260698944115"/>
      <sparseX i="30" alpha="19403.034857450053" sparseCutoff=".33586323526522228E-002"/>
      <sparseX i="31" alpha="-3029.7797000946580" sparseCutoff=".55843435319191448E-001"/>
      <sparseX i="32" alpha="-43661.512128811912" sparseCutoff=".55843435319191448E-001"/>
      <sparseX i="33" alpha="29186.592348197151" sparseCutoff=".30305606807058411"/>
      <sparseX i="34" alpha="64720.351629771176" sparseCutoff=".81021023830171734E-001"/>
      <sparseX i="35" alpha="-6770.6345019631308" sparseCutoff=".36894422835090768"/>
      <sparseX i="36" alpha="12610.639165490513" sparseCutoff=".27192891668376407"/>
      <sparseX i="37" alpha="-25801.070654614370" sparseCutoff="1.0000000000000000"/>
      <sparseX i="38" alpha="10027.490816947564" sparseCutoff="1.0000000000000000"/>
      <sparseX i="39" alpha="-2172.7200903335661" sparseCutoff=".21870211684617467E-002"/>
      <sparseX i="40" alpha="7654.4608989135531" sparseCutoff=".29857712897993105E-001"/>
      <sparseX i="41" alpha="-2494.1160693526344" sparseCutoff=".43856494531613321"/>
      <sparseX i="42" alpha="-738.66716250345723" sparseCutoff=".19165339425358516E-001"/>
      <sparseX i="43" alpha="-41262.060131954888" sparseCutoff=".14143476998047005"/>
      <sparseX i="44" alpha="-34453.980805572908" sparseCutoff=".31077441519448291E-001"/>
      <sparseX i="45" alpha="-2464.5697410841894" sparseCutoff="1.0000000000000000"/>
      <sparseX i="46" alpha="-83772.045437494889" sparseCutoff=".56213188125599389E-001"/>
      <sparseX i="47" alpha="-19321.855040104118" sparseCutoff=".36565942120436734E-002"/>
      <sparseX i="48" alpha="-24112.503712424445" sparseCutoff="1.0000000000000000"/>
      <sparseX i="49" alpha="-18060.538562667982" sparseCutoff="1.0000000000000000"/>
      <sparseX i="50" alpha="-17244.001673944644" sparseCutoff=".15609042220623906"/>
      <sparseX i="51" alpha="-10840.390786295062" sparseCutoff=".10882387361473466E-001"/>
      <sparseX i="52" alpha="363.92455291999102" sparseCutoff=".23959842306544299E-001"/>
      <sparseX i="53" alpha="13590.240814794035" sparseCutoff="1.0000000000000000"/>
      <sparseX i="54" alpha="-4692.8216396787320" sparseCutoff="1.0000000000000000"/>
      <sparseX i="55" alpha="23707.051677683947" sparseCutoff="1.0000000000000000"/>
      <sparseX i="56" alpha="-771.63384477465013" sparseCutoff="1.0000000000000000"/>
      <sparseX i="57" alpha="-3112.8748962738555" sparseCutoff=".73715133623366558"/>
      <sparseX i="58" alpha="10435.498912648492" sparseCutoff="1.0000000000000000"/>
      <sparseX i="59" alpha="-18309.681900211948" sparseCutoff="1.0000000000000000"/>
      <sparseX i="60" alpha="16508.917752081194" sparseCutoff=".57427985232872972E-001"/>
      <sparseX i="61" alpha="6410.3448123358085" sparseCutoff=".38960131918091645"/>
      <sparseX i="62" alpha="-598.32356407914892" sparseCutoff=".66423545477259957E-003"/>
      <sparseX i="63" alpha="2350.5330288395112" sparseCutoff="1.0000000000000000"/>
      <sparseX i="64" alpha="29740.390807884945" sparseCutoff=".10102659185658813"/>
      <sparseX i="65" alpha="-5904.7420344787206" sparseCutoff="1.0000000000000000"/>
      <sparseX i="66" alpha="33624.560727698088" sparseCutoff=".20948823748742549E-001"/>
      <sparseX i="67" alpha="-7312.5544599001960" sparseCutoff="1.0000000000000000"/>
      <sparseX i="68" alpha="-223.46002305558119" sparseCutoff=".64582296543632434"/>
      <sparseX i="69" alpha="-105509.28515610176" sparseCutoff=".44798346054662763E-001"/>
      <sparseX i="70" alpha="-48888.533946026582" sparseCutoff=".67060934769095915E-002"/>
      <sparseX i="71" alpha="6897.0198283259997" sparseCutoff=".56326208726895655"/>
      <sparseX i="72" alpha="-8810.6729114790051" sparseCutoff=".49276486763710964E-001"/>
      <sparseX i="73" alpha="-6832.6558524052170" sparseCutoff=".80635116892907692E-002"/>
      <sparseX i="74" alpha="6102.4391981803037" sparseCutoff=".96509657733134890"/>
      <sparseX i="75" alpha="1182.4418010583947" sparseCutoff=".71729026242173288"/>
      <sparseX i="76" alpha="311.11222504993862" sparseCutoff=".83217995207707984"/>
      <sparseX i="77" alpha="963.70964280275223" sparseCutoff=".96204359846460474"/>
      <sparseX i="78" alpha="4789.0071526661259" sparseCutoff="1.0000000000000000"/>
      <sparseX i="79" alpha="11298.494427383213" sparseCutoff="1.0000000000000000"/>
      <sparseX i="80" alpha="-5538.8027640571863" sparseCutoff="1.0000000000000000"/>
      <sparseX i="81" alpha="-843.25987900363350" sparseCutoff="1.0000000000000000"/>
      <sparseX i="82" alpha="-8080.4555021950828" sparseCutoff="1.0000000000000000"/>
      <sparseX i="83" alpha="-60.715843691950028" sparseCutoff=".52225305010979706"/>
      <sparseX i="84" alpha="25628.559643380810" sparseCutoff="1.0000000000000000"/>
      <sparseX i="85" alpha="-61365.152844134893" sparseCutoff=".15052860255120482E-001"/>
      <sparseX i="86" alpha="-27206.167653521396" sparseCutoff=".26854137965934086E-002"/>
      <sparseX i="87" alpha="-15479.139619405849" sparseCutoff=".48245963968028643"/>
      <sparseX i="88" alpha="-638.43706530584404" sparseCutoff=".15005788237180382E-002"/>
      <sparseX i="89" alpha="-6547.3611737736874" sparseCutoff=".33820453875285633"/>
      <sparseX i="90" alpha="3974.0828994715935" sparseCutoff=".94547341067419910"/>
      <sparseX i="91" alpha="36745.017916351018" sparseCutoff=".45940836902941706E-001"/>
      <sparseX i="92" alpha="-3147.2434197587281" sparseCutoff=".59544692138642922E-002"/>
      <sparseX i="93" alpha="-6710.2587256054576" sparseCutoff=".95916227367982154"/>
      <sparseX i="94" alpha="15377.574613863113" sparseCutoff=".99061863971659825"/>
      <sparseX i="95" alpha="12856.057182552553" sparseCutoff=".10334090135238028"/>
      <sparseX i="96" alpha="-936.96058729791196" sparseCutoff=".10874922604179674E-002"/>
      <sparseX i="97" alpha="-1730.5830436347280" sparseCutoff=".19594624710287637E-002"/>
      <sparseX i="98" alpha="-2625.5211837341294" sparseCutoff=".78322006341300376E-001"/>
      <sparseX i="99" alpha="-10670.613905019218" sparseCutoff=".63386224988467854E-001"/>
      <sparseX i="100" alpha="-2841.7438072122768" sparseCutoff="1.0000000000000000"/>
      <sparseX i="101" alpha="-25478.763317956589" sparseCutoff=".61944185111637873"/>
      <sparseX i="102" alpha="44.686267901771281" sparseCutoff=".80100265133986603E-003"/>
      <sparseX i="103" alpha="2789.8603388631468" sparseCutoff=".96471391704168730"/>
      <sparseX i="104" alpha="36841.181452618956" sparseCutoff=".14820867753910910"/>
      <sparseX i="105" alpha="5922.4905747110397" sparseCutoff="1.0000000000000000"/>
      <sparseX i="106" alpha="7855.3095583842132" sparseCutoff=".99499206016510722"/>
      <sparseX i="107" alpha="4227.2196719898402" sparseCutoff=".48981516719598661"/>
      <sparseX i="108" alpha="16136.433182115317" sparseCutoff=".42311583186341482E-002"/>
      <sparseX i="109" alpha="41116.165414212686" sparseCutoff=".64739247242526965"/>
      <sparseX i="110" alpha="-9381.3866809493429" sparseCutoff=".72397947289533160"/>
      <sparseX i="111" alpha="-914.29186460578069" sparseCutoff=".97030343154666854"/>
      <sparseX i="112" alpha="-797.23761948392178" sparseCutoff=".72515635214912666E-001"/>
      <sparseX i="113" alpha="4013.6640940364800" sparseCutoff=".89506609203980803"/>
      <sparseX i="114" alpha="26073.305985155323" sparseCutoff="1.0000000000000000"/>
      <sparseX i="115" alpha="-11154.034083950943" sparseCutoff=".16295352009126185E-001"/>
      <sparseX i="116" alpha="-22774.208594678523" sparseCutoff=".22556445980103645E-002"/>
      <sparseX i="117" alpha="-4811.0138975935197" sparseCutoff=".72443168260208057"/>
      <sparseX i="118" alpha="-25102.820859171090" sparseCutoff=".16222087010271807"/>
      <sparseX i="119" alpha="2521.2391619849800" sparseCutoff="1.0000000000000000"/>
      <sparseX i="120" alpha="5362.4281300845123" sparseCutoff="1.0000000000000000"/>
      <sparseX i="121" alpha="-8348.6282422586428" sparseCutoff=".93374051465129493"/>
      <sparseX i="122" alpha="35439.583718747876" sparseCutoff=".94787109853555207E-001"/>
      <sparseX i="123" alpha="-39237.940174357907" sparseCutoff=".14827388693341928E-001"/>
      <sparseX i="124" alpha="10586.083655829229" sparseCutoff=".19863159219613205"/>
      <sparseX i="125" alpha="3143.8228158135316" sparseCutoff="1.0000000000000000"/>
      <sparseX i="126" alpha="-29400.495139985418" sparseCutoff=".30803705266587988"/>
      <sparseX i="127" alpha="-39026.876711879719" sparseCutoff=".18287600293325118"/>
      <sparseX i="128" alpha="-10578.269193476635" sparseCutoff="1.0000000000000000"/>
      <sparseX i="129" alpha="2884.2013983716065" sparseCutoff="1.0000000000000000"/>
      <sparseX i="130" alpha="-19644.039531903592" sparseCutoff=".48281763443856585"/>
      <sparseX i="131" alpha="7379.4150669699766" sparseCutoff=".90179469720418282"/>
      <sparseX i="132" alpha="-6817.6557949127373" sparseCutoff="1.0000000000000000"/>
      <sparseX i="133" alpha="-15339.781186210756" sparseCutoff=".60134372893769550E-001"/>
      <sparseX i="134" alpha="6983.6297033964520" sparseCutoff="1.0000000000000000"/>
      <sparseX i="135" alpha="15590.405806182605" sparseCutoff=".65628693949782616E-001"/>
      <sparseX i="136" alpha="-10414.642724931484" sparseCutoff=".50320350572751306E-002"/>
      <sparseX i="137" alpha="13099.284379751642" sparseCutoff="1.0000000000000000"/>
      <sparseX i="138" alpha="14206.679939944341" sparseCutoff=".57334878567767245"/>
      <sparseX i="139" alpha="-19171.255425293952" sparseCutoff=".33748190681425205E-002"/>
      <sparseX i="140" alpha="-1539.6891365944439" sparseCutoff=".64718617351632857"/>
      <sparseX i="141" alpha="50398.020784767446" sparseCutoff=".17565630557670631"/>
      <sparseX i="142" alpha="2213.4081490161357" sparseCutoff=".44074431780908230"/>
      <sparseX i="143" alpha="11607.784332986315" sparseCutoff="1.0000000000000000"/>
      <sparseX i="144" alpha="9499.1587681767451" sparseCutoff=".36917464549180745"/>
      <sparseX i="145" alpha="-40718.173613847510" sparseCutoff=".45471257277225341E-002"/>
      <sparseX i="146" alpha="-583.37679008085604" sparseCutoff=".95977497493080799"/>
      <sparseX i="147" alpha="-2749.4667752153769" sparseCutoff="1.0000000000000000"/>
      <sparseX i="148" alpha="16501.707372596084" sparseCutoff="1.0000000000000000"/>
      <sparseX i="149" alpha="-5469.4888524283306" sparseCutoff="1.0000000000000000"/>
      <sparseX i="150" alpha="-879.01082131825035" sparseCutoff="1.0000000000000000"/>
      <sparseX i="151" alpha="-5430.3514610581879" sparseCutoff=".45535560060522753E-002"/>
      <sparseX i="152" alpha="-4153.3641319312610" sparseCutoff=".69210847085431304"/>
      <sparseX i="153" alpha="-2514.9235623743830" sparseCutoff=".75550801350487973E-003"/>
      <sparseX i="154" alpha="9291.1318614523461" sparseCutoff="1.0000000000000000"/>
      <sparseX i="155" alpha="-11066.058575117602" sparseCutoff=".58861645951063724"/>
      <sparseX i="156" alpha="4726.5865322668387" sparseCutoff=".60242037224025213E-001"/>
      <sparseX i="157" alpha="7602.1969146678985" sparseCutoff="1.0000000000000000"/>
      <sparseX i="158" alpha="36143.277841919669" sparseCutoff=".35988222091957200"/>
      <sparseX i="159" alpha="-28801.602982370019" sparseCutoff="1.0000000000000000"/>
      <sparseX i="160" alpha="-1731.8766689190916" sparseCutoff=".83536052686888373"/>
      <sparseX i="161" alpha="-74635.683658386901" sparseCutoff=".13457401834038679"/>
      <sparseX i="162" alpha="-3074.0412606096543" sparseCutoff=".99370230269902771"/>
      <sparseX i="163" alpha="-7604.7300150411784" sparseCutoff=".44109432133696003E-002"/>
      <sparseX i="164" alpha="-22917.138040465314" sparseCutoff=".20848749858251612E-001"/>
      <sparseX i="165" alpha="-1521.1158931762438" sparseCutoff=".93804367403471319E-003"/>
      <sparseX i="166" alpha="19349.077189941738" sparseCutoff=".32212555374080631E-001"/>
      <sparseX i="167" alpha="-1616.1567313714768" sparseCutoff=".19289738609418183E-003"/>
      <sparseX i="168" alpha="-4981.6194239577026" sparseCutoff=".68638107586780173"/>
      <sparseX i="169" alpha="160597.58534898629" sparseCutoff=".23527423785960840E-001"/>
      <sparseX i="170" alpha="-7890.0090599767709" sparseCutoff=".34539813771479316"/>
      <sparseX i="171" alpha="-17531.155114769703" sparseCutoff="1.0000000000000000"/>
      <sparseX i="172" alpha="150.33428860181456" sparseCutoff=".27467484718434187E-002"/>
      <sparseX i="173" alpha="5908.2764940834095" sparseCutoff=".51275348285461619"/>
      <sparseX i="174" alpha="30357.934392498319" sparseCutoff=".98118963082852673E-001"/>
      <sparseX i="175" alpha="30387.262680422922" sparseCutoff="1.0000000000000000"/>
      <sparseX i="176" alpha="-29622.324333376906" sparseCutoff=".15953097543703426"/>
      <sparseX i="177" alpha="-5575.1297276006917" sparseCutoff="1.0000000000000000"/>
      <sparseX i="178" alpha="1863.8285752802642" sparseCutoff=".22475859913159413"/>
      <sparseX i="179" alpha=".39459693307074106E-001" sparseCutoff=".62574784576163722E-007"/>
      <sparseX i="180" alpha="65328.743368382980" sparseCutoff=".37473745849651074E-001"/>
      <sparseX i="181" alpha="-102478.50794759807" sparseCutoff=".38541267341597346E-002"/>
      <sparseX i="182" alpha="-15822.967879082640" sparseCutoff="1.0000000000000000"/>
      <sparseX i="183" alpha="2997.7209305002552" sparseCutoff=".78276266787983412E-003"/>
      <sparseX i="184" alpha="-12368.843263944975" sparseCutoff="1.0000000000000000"/>
      <sparseX i="185" alpha="4669.5189274490140" sparseCutoff="1.0000000000000000"/>
      <sparseX i="186" alpha="1077.5532266313442" sparseCutoff="1.0000000000000000"/>
      <sparseX i="187" alpha="23274.374172953016" sparseCutoff="1.0000000000000000"/>
      <sparseX i="188" alpha="-29091.765398259082" sparseCutoff="1.0000000000000000"/>
      <sparseX i="189" alpha="-814.91897075504187" sparseCutoff=".39895177386194780"/>
      <sparseX i="190" alpha="-3822.2902626347095" sparseCutoff="1.0000000000000000"/>
      <sparseX i="191" alpha="-33670.059178106851" sparseCutoff=".48357450467526771E-001"/>
      <sparseX i="192" alpha="20594.547056053627" sparseCutoff=".35492841952880244"/>
      <sparseX i="193" alpha="-36098.847319667766" sparseCutoff=".13782720714729312E-001"/>
      <sparseX i="194" alpha="-12203.789918155351" sparseCutoff=".99317852301876974"/>
      <sparseX i="195" alpha="-1727.5454398105283" sparseCutoff="1.0000000000000000"/>
      <sparseX i="196" alpha="3363.4185010865399" sparseCutoff="1.0000000000000000"/>
      <sparseX i="197" alpha="-186.68378147451142" sparseCutoff=".90003592303294707E-004"/>
      <sparseX i="198" alpha="-1278.1597355925817" sparseCutoff="1.0000000000000000"/>
      <sparseX i="199" alpha="16923.219580158566" sparseCutoff=".88267202206261586"/>
      <sparseX i="200" alpha="-69949.045765077608" sparseCutoff=".11295187383141786"/>
    </gpCoordinates>
    <gpCoordinates label="GAP_2026_3_23_120_0_19_4_476" dimensions="3" signal_variance=".10000000000000000E-001" signal_mean=".00000000000000000E+000" sparsified="T" n_permutations="1" covariance_type="4" n_sparseX="200" sparseX_filename="CH.xml.sparseX.GAP_2026_3_23_120_0_19_4_476" sparseX_md5sum="13729cdad0a8e8504927fb0ec8a6b381">
      <theta>  0.20000000000000000E+001  0.20000000000000000E+001  0.20000000000000000E+001 </theta>
      <descriptor> angle_3b Z_center=6 Z1=6 Z2=6 cutoff=2.0 n_sparse=200 covariance_type=pp delta=0.01 theta_uniform=2.0 sparse_method=uniform add_species=F</descriptor>
      <permutation i="1">1 2 3  </permutation>
      <sparseX i="1" alpha="-31842.456507265848" sparseCutoff="1.0000000000000000"/>
      <sparseX i="2" alpha="-43957.426779482419" sparseCutoff="1.0000000000000000"/>
      <sparseX i="3" alpha="-27768.111171481421" sparseCutoff="1.0000000000000000"/>
      <sparseX i="4" alpha="-69436.085148454309" sparseCutoff=".59274799049551075E-001"/>
      <sparseX i="5" alpha="-8027.6297391391081" sparseCutoff="1.0000000000000000"/>
      <sparseX i="6" alpha="-23942.156502972262" sparseCutoff=".84825793365405411"/>
      <sparseX i="7" alpha="20268.695845394977" sparseCutoff=".84825793365405411"/>
      <sparseX i="8" alpha="-19097.363746687879" sparseCutoff=".53514467050350074E-001"/>
      <sparseX i="9" alpha="27004.309584335617" sparseCutoff=".89487321711836931E-002"/>
      <sparseX i="10" alpha="118972.29900066419" sparseCutoff=".59274799049551075E-001"/>
      <sparseX i="11" alpha="17914.458081136552" sparseCutoff=".44893634608438064E-002"/>
      <sparseX i="12" alpha="-30541.208827678180" sparseCutoff=".75071496446729030E-003"/>
      <sparseX i="13" alpha="66035.126811080365" sparseCutoff=".20377030143270445E-001"/>
      <sparseX i="14" alpha="12483.877726979761" sparseCutoff=".17811012704430039E-002"/>
      <sparseX i="15" alpha="194089.39447434194" sparseCutoff=".33401103677031929"/>
      <sparseX i="16" alpha="99253.498267346702" sparseCutoff=".14524336581821795"/>
      <sparseX i="17" alpha="-21842.179548935619" sparseCutoff="1.0000000000000000"/>
      <sparseX i="18" alpha="-114649.27913237763" sparseCutoff=".26935819089258729E-001"/>
      <sparseX i="19" alpha="80595.880348036255" sparseCutoff=".56735902302313401E-002"/>
      <sparseX i="20" alpha="21551.516389651235" sparseCutoff=".37531963769056377E-002"/>
      <sparseX i="21" alpha="3737.7341940008778" sparseCutoff=".99885079828347623"/>
      <sparseX i="22" alpha="4878.9016173309074" sparseCutoff=".77108881707409171"/>
      <sparseX i="23" alpha="100400.11082936286" sparseCutoff=".64244960625895270E-001"/>
      <sparseX i="24" alpha="-663549.40061391541" sparseCutoff=".20031578268747907E-001"/>
      <sparseX i="25" alpha="-15020.017044350461" sparseCutoff=".70013465448076906"/>
      <sparseX i="26" alpha="49193.681713980281" sparseCutoff=".13845882307393587"/>
      <sparseX i="27" alpha="10730.588879443316" sparseCutoff=".13845882307393587"/>
      <sparseX i="28" alpha="30697.900118386693" sparseCutoff=".38841792966251010E-002"/>
      <sparseX i="29" alpha="16752.909047042340" sparseCutoff=".63085623016115155"/>
      <sparseX i="30" alpha="112153.80511791233" sparseCutoff=".44237041964647861"/>
      <sparseX i="31" alpha="-110533.83208542444" sparseCutoff="1.0000000000000000"/>
      <sparseX i="32" alpha="-1596.9079170769789" sparseCutoff=".22694854365590267E-003"/>
      <sparseX i="33" alpha="39773.789688058860" sparseCutoff=".69882526908561764E-002"/>
      <sparseX i="34" alpha="64663.546233595669" sparseCutoff=".90348116164177450"/>
      <sparseX i="35" alpha="12396.154233614721" sparseCutoff=".17595336572278758E-002"/>
      <sparseX i="36" alpha="73424.645876157665" sparseCutoff="1.0000000000000000"/>
      <sparseX i="37" alpha="-173260.36672803239" sparseCutoff=".20896196698833858E-001"/>
      <sparseX i="38" alpha="-56693.208112461492" sparseCutoff=".14147882308582361E-002"/>
      <sparseX i="39" alpha="16365.821761942496" sparseCutoff="1.0000000000000000"/>
      <sparseX i="40" alpha="155936.06599682453" sparseCutoff="1.0000000000000000"/>
      <sparseX i="41" alpha="-17226.739840054186" sparseCutoff=".45028997347806854E-002"/>
      <sparseX i="42" alpha="28567.003945909542" sparseCutoff=".12559920995362645"/>
      <sparseX i="43" alpha="-6250.0427402108071" sparseCutoff="1.0000000000000000"/>
      <sparseX i="44" alpha="-4563.3854280861415" sparseCutoff=".25092461791161518E-003"/>
      <sparseX i="45" alpha="28829.880310106852" sparseCutoff="1.0000000000000000"/>
      <sparseX i="46" alpha="-77412.120854240362" sparseCutoff="1.0000000000000000"/>
      <sparseX i="47" alpha="-9521.7502139734188" sparseCutoff=".21801509632047750"/>
      <sparseX i="48" alpha="-1565.2068798883470" sparseCutoff="1.0000000000000000"/>
      <sparseX i="49" alpha="-105794.35242879651" sparseCutoff=".26189563425197115"/>
      <sparseX i="50" alpha="21522.310567747270" sparseCutoff="1.0000000000000000"/>
      <sparseX i="51" alpha="-3529.9162880778667" sparseCutoff=".17212381056735393E-002"/>
      <sparseX i="52" alpha="22446.701347032802" sparseCutoff=".24304333401567291E-001"/>
      <sparseX i="53" alpha="89230.151369527041" sparseCutoff=".62930926578403323E-001"/>
      <sparseX i="54" alpha="131923.86830118526" sparseCutoff=".10462089571399175"/>
      <sparseX i="55" alpha="-22848.547912332735" sparseCutoff=".91278016998600453"/>
      <sparseX i="56" alpha="54323.595666514790" sparseCutoff="1.0000000000000000"/>
      <sparseX i="57" alpha="12505.117984591569" sparseCutoff="1.0000000000000000"/>
      <sparseX i="58" alpha="-184843.85377207049" sparseCutoff=".23329582212613714"/>
      <sparseX i="59" alpha="-55795.023967134453" sparseCutoff="1.0000000000000000"/>
      <sparseX i="60" alpha="628.50352081862980" sparseCutoff=".14635834855874497E-002"/>
      <sparseX i="61" alpha="-29794.769497853205" sparseCutoff=".10138488192420408"/>
      <sparseX i="62" alpha="-12383.038623766701" sparseCutoff="1.0000000000000000"/>
      <sparseX i="63" alpha="50565.397274209077" sparseCutoff=".17223689322103153"/>
      <sparseX i="64" alpha="33554.154733918447" sparseCutoff="1.0000000000000000"/>
      <sparseX i="65" alpha="32245.164627407234" sparseCutoff=".17223689322103153"/>
      <sparseX i="66" alpha="-264630.37023526686" sparseCutoff=".31133544787450396E-001"/>
      <sparseX i="67" alpha="-34939.709086062481" sparseCutoff=".75463722580445824"/>
      <sparseX i="68" alpha="-40491.675689329284" sparseCutoff=".47153867659552190"/>
      <sparseX i="69" alpha="-7958.3292353309935" sparseCutoff="1.0000000000000000"/>
      <sparseX i="70" alpha="50542.649393258114" sparseCutoff=".96393795390622117"/>
      <sparseX i="71" alpha="-1792.8500248856021" sparseCutoff=".46315360075303651E-003"/>
      <sparseX i="72" alpha="-7034.1293529181512" sparseCutoff=".97377269772862318"/>
      <sparseX i="73" alpha="-19197.906197086184" sparseCutoff="1.0000000000000000"/>
      <sparseX i="74" alpha="-74124.615015554416" sparseCutoff=".11495513397479062E-001"/>
      <sparseX i="75" alpha="-70556.640474675616" sparseCutoff=".22496704329215522E-001"/>
      <sparseX i="76" alpha="16569.285049331113" sparseCutoff=".50559529440460937E-002"/>
      <sparseX i="77" alpha="-68558.004451846267" sparseCutoff=".56835486945094638"/>
      <sparseX i="78" alpha="-106813.47768370168" sparseCutoff=".44740750573781983E-001"/>
      <sparseX i="79" alpha="65725.642370963251" sparseCutoff=".13722642407279706"/>
      <sparseX i="80" alpha="-43425.940562699958" sparseCutoff=".59007720563317156E-002"/>
      <sparseX i="81" alpha="11789.349033655408" sparseCutoff=".53961231225158790"/>
      <sparseX i="82" alpha="-32045.562129831309" sparseCutoff=".97473474081173062"/>
      <sparseX i="83" alpha="18078.995823650792" sparseCutoff=".71693579921901851"/>
      <sparseX i="84" alpha="2826.5666685912433" sparseCutoff=".35756741469741771"/>
      <sparseX i="85" alpha="-2493.2767093617845" sparseCutoff=".35756741469741771"/>
      <sparseX i="86" alpha="-77638.812102250376" sparseCutoff=".61025625992411903E-002"/>
      <sparseX i="87" alpha="-41113.472611442958" sparseCutoff="1.0000000000000000"/>
      <sparseX i="88" alpha="-360.19658194676015" sparseCutoff=".21430771498559542E-003"/>
      <sparseX i="89" alpha="-53803.272327479855" sparseCutoff=".38184190497560888E-001"/>
      <sparseX i="90" alpha="-488344.47042542888" sparseCutoff=".24398833697876321E-001"/>
      <sparseX i="91" alpha="-57784.492868713474" sparseCutoff=".21285568367799035"/>
      <sparseX i="92" alpha="227.60619585885405" sparseCutoff=".72553228654015367E-003"/>
      <sparseX i="93" alpha="-9945.5170352973601" sparseCutoff="1.0000000000000000"/>
      <sparseX i="94" alpha="-196090.05492285223" sparseCutoff=".10128186169693743E-001"/>
      <sparseX i="95" alpha="29514.840445767881" sparseCutoff=".36599101306909354E-001"/>
      <sparseX i="96" alpha="-31853.007866432552" sparseCutoff=".93386837507570125E-001"/>
      <sparseX i="97" alpha="58689.785284154263" sparseCutoff=".76952947170620256"/>
      <sparseX i="98" alpha="58137.843929038019" sparseCutoff=".14267636685153240"/>
      <sparseX i="99" alpha="85390.227699951938" sparseCutoff="1.0000000000000000"/>
      <sparseX i="100" alpha="14985.023156394915" sparseCutoff=".85655906058763309"/>
      <sparseX i="101" alpha="26622.541229048515" sparseCutoff=".59948438025111628E-001"/>
      <sparseX i="102" alpha="49403.217037978720" sparseCutoff=".65418244685214816E-001"/>
      <sparseX i="103" alpha="24634.522779714167" sparseCutoff="1.0000000000000000"/>
      <sparseX i="104" alpha="32462.995355125106" sparseCutoff="1.0000000000000000"/>
      <sparseX i="105" alpha="-4997.5324820211135" sparseCutoff=".38337395681265485E-002"/>
      <sparseX i="106" alpha="-181310.99594738428" sparseCutoff=".63307817327567240E-001"/>
      <sparseX i="107" alpha="-9910.4975168780475" sparseCutoff=".12813633609345965"/>
      <sparseX i="108" alpha="-46855.543446126110" sparseCutoff="1.0000000000000000"/>
      <sparseX i="109" alpha="-37196.931850895468" sparseCutoff="1.0000000000000000"/>
      <sparseX i="110" alpha="-38844.826967165347" sparseCutoff="1.0000000000000000"/>
      <sparseX i="111" alpha="-31614.165649964933" sparseCutoff=".30976176035637992"/>
      <sparseX i="112" alpha="-154782.58974241171" sparseCutoff=".32935328654390097E-001"/>
      <sparseX i="113" alpha="85373.012431267751" sparseCutoff=".49838796646547411E-001"/>
      <sparseX i="114" alpha="-35734.849309154917" sparseCutoff=".23901194659213701"/>
      <sparseX i="115" alpha="-66265.235503676580" sparseCutoff=".87677458362084804"/>
      <sparseX i="116" alpha="13007.675578083927" sparseCutoff=".89995162857774424E-002"/>
      <sparseX i="117" alpha="-136518.56142955463" sparseCutoff=".23193578557550559"/>
      <sparseX i="118" alpha="-47412.434423212617" sparseCutoff=".95735092596587829E-001"/>
      <sparseX i="119" alpha="49589.997274199297" sparseCutoff=".72021017732750211E-002"/>
      <sparseX i="120" alpha="-11530.011097680168" sparseCutoff=".67606131723310525"/>
      <sparseX i="121" alpha="2953.7259493011247" sparseCutoff=".57102442591638103"/>
      <sparseX i="122" alpha="152248.08167932124" sparseCutoff=".17789403529703877E-001"/>
      <sparseX i="123" alpha="4545.7885892288323" sparseCutoff=".82912690888889395"/>
      <sparseX i="124" alpha="-57930.283185322769" sparseCutoff="1.0000000000000000"/>
      <sparseX i="125" alpha="-958.34267478739991" sparseCutoff=".99034563525646579"/>
      <sparseX i="126" alpha="-72643.359291374873" sparseCutoff=".99362056965351497"/>
      <sparseX i="127" alpha="5194.2227011503119" sparseCutoff=".14551888001655650"/>
      <sparseX i="128" alpha="960.54708915419144" sparseCutoff="1.0000000000000000"/>
      <sparseX i="129" alpha="-8899.5592610157764" sparseCutoff="1.0000000000000000"/>
      <sparseX i="130" alpha="-43473.540190521802" sparseCutoff="1.0000000000000000"/>
      <sparseX i="131" alpha="-386.26465351598767" sparseCutoff="1.0000000000000000"/>
      <sparseX i="132" alpha="-63893.294700854065" sparseCutoff="1.0000000000000000"/>
      <sparseX i="133" alpha="-28635.451419106314" sparseCutoff="1.0000000000000000"/>
      <sparseX i="134" alpha="-14553.277595740223" sparseCutoff="1.0000000000000000"/>
      <sparseX i="135" alpha="19960.402898562803" sparseCutoff="1.0000000000000000"/>
      <sparseX i="136" alpha="62255.207967336151" sparseCutoff=".39997891657255413"/>
      <sparseX i="137" alpha="19214.459688408759" sparseCutoff=".29959948784626034"/>
      <sparseX i="138" alpha="-198843.41450646744" sparseCutoff=".10850438048537336"/>
      <sparseX i="139" alpha="115972.56489593117" sparseCutoff=".37829299646101006"/>
      <sparseX i="140" alpha="28657.978095338738" sparseCutoff=".15687966290207381"/>
      <sparseX i="141" alpha="-12458.194686102910" sparseCutoff=".36884917066871603"/>
      <sparseX i="142" alpha="-6347.5633547819907" sparseCutoff=".93171167318297288"/>
      <sparseX i="143" alpha="33609.303411104338" sparseCutoff="1.0000000000000000"/>
      <sparseX i="144" alpha="45708.860494369364" sparseCutoff="1.0000000000000000"/>
      <sparseX i="145" alpha="4650.6135358046631" sparseCutoff=".16218735650688598E-001"/>
      <sparseX i="146" alpha="-34983.247765765656" sparseCutoff=".20806396832458673"/>
      <sparseX i="147" alpha="219087.58290577022" sparseCutoff=".17961901429461491"/>
      <sparseX i="148" alpha="16343.359033690796" sparseCutoff=".83677773353343554"/>
      <sparseX i="149" alpha="-9938.0731578062041" sparseCutoff="1.0000000000000000"/>
      <sparseX i="150" alpha="-89218.975746287542" sparseCutoff=".21905946369401569"/>
      <sparseX i="151" alpha="-18133.728604355299" sparseCutoff=".34091929040202751E-001"/>
      <sparseX i="152" alpha="-9992.0674344569761" sparseCutoff="1.0000000000000000"/>
      <sparseX i="153" alpha="36661.435158197572" sparseCutoff="1.0000000000000000"/>
      <sparseX i="154" alpha="-10662.592680882000" sparseCutoff="1.0000000000000000"/>
      <sparseX i="155" alpha="-31641.165669152528" sparseCutoff="1.0000000000000000"/>
      <sparseX i="156" alpha="-3442.9749146286422" sparseCutoff="1.0000000000000000"/>
      <sparseX i="157" alpha="-15784.287761053005" sparseCutoff="1.0000000000000000"/>
      <sparseX i="158" alpha="-703.57976825991398" sparseCutoff=".39907100562008857E-004"/>
      <sparseX i="159" alpha="11559.203570588696" sparseCutoff="1.0000000000000000"/>
      <sparseX i="160" alpha="7541.2485493492404" sparseCutoff=".11065478508162116E-002"/>
      <sparseX i="161" alpha="5408.5857330959543" sparseCutoff=".71363044639584480E-003"/>
      <sparseX i="162" alpha="-42970.736083101030" sparseCutoff=".21806611272085663E-001"/>
      <sparseX i="163" alpha="-29175.850032700255" sparseCutoff=".98341312096245082E-002"/>
      <sparseX i="164" alpha="-98753.944911194820" sparseCutoff=".27107912655083351E-002"/>
      <sparseX i="165" alpha="31016.717081280971" sparseCutoff="1.0000000000000000"/>
      <sparseX i="166" alpha="4526.1046840578520" sparseCutoff=".36966914451986010"/>
      <sparseX i="167" alpha="-42792.617887502260" sparseCutoff=".93719387067203375"/>
      <sparseX i="168" alpha="-9341.1105029789487" sparseCutoff=".36966914451986010"/>
      <sparseX i="169" alpha="82262.094002068450" sparseCutoff=".12801783766093668E-001"/>
      <sparseX i="170" alpha="24459.270111564318" sparseCutoff=".32030396243006298E-002"/>
      <sparseX i="171" alpha="32409.498138839132" sparseCutoff="1.0000000000000000"/>
      <sparseX i="172" alpha="14170.619265387490" sparseCutoff=".95184715956095844E-001"/>
      <sparseX i="173" alpha="-603.25341061359575" sparseCutoff=".55943818496106967E-004"/>
      <sparseX i="174" alpha="-10101.323094976980" sparseCutoff=".99621147398520393"/>
      <sparseX i="175" alpha="34253.582644955110" sparseCutoff="1.0000000000000000"/>
      <sparseX i="176" alpha="24808.188158780402" sparseCutoff="1.0000000000000000"/>
      <sparseX i="177" alpha="26026.716908168957" sparseCutoff="1.0000000000000000"/>
      <sparseX i="178" alpha="206354.04403962148" sparseCutoff=".41154291768624451E-001"/>
      <sparseX i="179" alpha="33362.154916743646" sparseCutoff="1.0000000000000000"/>
      <sparseX i="180" alpha="-160279.75215607442" sparseCutoff=".13185986767076119"/>
      <sparseX i="181" alpha="-15441.755224987839" sparseCutoff=".92329408881631991"/>
      <sparseX i="182" alpha="31470.884143185052" sparseCutoff="1.0000000000000000"/>
      <sparseX i="183" alpha="25102.606542403628" sparseCutoff="1.0000000000000000"/>
      <sparseX i="184" alpha="33089.469138600878" sparseCutoff="1.0000000000000000"/>
      <sparseX i="185" alpha="-239417.73427211231" sparseCutoff=".26953493856599453E-001"/>
      <sparseX i="186" alpha="-45014.539418572465" sparseCutoff=".48884296180411496"/>
      <sparseX i="187" alpha="7733.7051729352606" sparseCutoff=".20228724446762436E-001"/>
      <sparseX i="188" alpha="210913.10416138516" sparseCutoff=".47073692263602640E-001"/>
      <sparseX i="189" alpha="3786.2419283340123" sparseCutoff=".70240400047135687"/>
      <sparseX i="190" alpha="46247.809472692570" sparseCutoff=".52504567637659705"/>
      <sparseX i="191" alpha="-29441.858270884110" sparseCutoff=".22026737782035455E-002"/>
      <sparseX i="192" alpha="283937.19905728969" sparseCutoff=".12408091978944180"/>
      <sparseX i="193" alpha="-64491.577430960257" sparseCutoff=".42173682300254423E-002"/>
      <sparseX i="194" alpha="-114384.63804938490" sparseCutoff=".18801264624161929E-001"/>
      <sparseX i="195" alpha="-17.002610996971615" sparseCutoff=".20529570563532218E-005"/>
      <sparseX i="196" alpha="30868.789414911418" sparseCutoff=".21439229237226631E-001"/>
      <sparseX i="197" alpha="-64876.322496546534" sparseCutoff=".34678811938106402E-001"/>
      <sparseX i="198" alpha="-29318.465932482013" sparseCutoff=".19101804694368851"/>
      <sparseX i="199" alpha="6070.0252320313530" sparseCutoff=".18176405479904401E-002"/>
      <sparseX i="200" alpha="17564.355047956786" sparseCutoff="1.0000000000000000"/>
    </gpCoordinates>
    <gpCoordinates label="GAP_2026_3_23_120_0_19_4_477" dimensions="75" signal_variance=".10000000000000001E+000" signal_mean=".00000000000000000E+000" sparsified="T" n_permutations="1" covariance_type="2" zeta="4.0000000000000000" n_sparseX="1000" sparseX_filename="CH.xml.sparseX.GAP_2026_3_23_120_0_19_4_477" sparseX_md5sum="009aaf652a1c5d59815a8d2ee3012f57">
      <descriptor> soap_turbo l_max=4 alpha_max={4 4} atom_sigma_r={0.2 0.2} atom_sigma_t={0.2 0.2} atom_sigma_r_scaling={0.1 0.1} atom_sigma_t_scaling={0.1 0.1} zeta=4 rcut_hard=4.0 rcut_soft=3.5 basis=poly3gauss scaling_mode=polynomial add_species=F amplitude_scaling={2.0 2.0} n_species=2 species_Z={1 6} central_index=1 radial_enhancement=1 compress_mode=trivial central_weight={1.0 1.0} n_sparse=1000 delta=0.1 f0=0.0 covariance_type=dot_product sparse_method=cur_points</descriptor>
      <permutation i="1">1  </permutation>
      <sparseX i="1" alpha="3128.0814605319715" sparseCutoff="1.0000000000000000"/>
      <sparseX i="2" alpha="-1327.8727267048196" sparseCutoff="1.0000000000000000"/>
      <sparseX i="3" alpha="9682.5789870792014" sparseCutoff="1.0000000000000000"/>
      <sparseX i="4" alpha="-19484.161227568795" sparseCutoff="1.0000000000000000"/>
      <sparseX i="5" alpha="-2134.9738005879349" sparseCutoff="1.0000000000000000"/>
      <sparseX i="6" alpha="-11275.225318977948" sparseCutoff="1.0000000000000000"/>
      <sparseX i="7" alpha="76528.792488328239" sparseCutoff="1.0000000000000000"/>
      <sparseX i="8" alpha="569.18095983820865" sparseCutoff="1.0000000000000000"/>
      <sparseX i="9" alpha="-1662.0229638786443" sparseCutoff="1.0000000000000000"/>
      <sparseX i="10" alpha="-27937.496283886310" sparseCutoff="1.0000000000000000"/>
      <sparseX i="11" alpha="-2028.2688502062827" sparseCutoff="1.0000000000000000"/>
      <sparseX i="12" alpha="-11023.190726751762" sparseCutoff="1.0000000000000000"/>
      <sparseX i="13" alpha="-14148.579053308902" sparseCutoff="1.0000000000000000"/>
      <sparseX i="14" alpha="-1383.9444269665034" sparseCutoff="1.0000000000000000"/>
      <sparseX i="15" alpha="1559.6843071569676" sparseCutoff="1.0000000000000000"/>
      <sparseX i="16" alpha="-7540.3113152164178" sparseCutoff="1.0000000000000000"/>
      <sparseX i="17" alpha="48016.498101177523" sparseCutoff="1.0000000000000000"/>
      <sparseX i="18" alpha="3150.2450836296889" sparseCutoff="1.0000000000000000"/>
      <sparseX i="19" alpha="3359.6473857648843" sparseCutoff="1.0000000000000000"/>
      <sparseX i="20" alpha="71761.878406430886" sparseCutoff="1.0000000000000000"/>
      <sparseX i="21" alpha="-2586.2263787579168" sparseCutoff="1.0000000000000000"/>
      <sparseX i="22" alpha="9839.1191656819301" sparseCutoff="1.0000000000000000"/>
      <sparseX i="23" alpha="2845.7878702213670" sparseCutoff="1.0000000000000000"/>
      <sparseX i="24" alpha="32889.086486440290" sparseCutoff="1.0000000000000000"/>
      <sparseX i="25" alpha="-15416.222687832895" sparseCutoff="1.0000000000000000"/>
      <sparseX i="26" alpha="-5061.1027304241525" sparseCutoff="1.0000000000000000"/>
      <sparseX i="27" alpha="-18682.042152789763" sparseCutoff="1.0000000000000000"/>
      <sparseX i="28" alpha="19322.885833001401" sparseCutoff="1.0000000000000000"/>
      <sparseX i="29" alpha="23971.583720563969" sparseCutoff="1.0000000000000000"/>
      <sparseX i="30" alpha="-3112.9667422716511" sparseCutoff="1.0000000000000000"/>
      <sparseX i="31" alpha="-2113.1223565403643" sparseCutoff="1.0000000000000000"/>
      <sparseX i="32" alpha="50223.882232675547" sparseCutoff="1.0000000000000000"/>
      <sparseX i="33" alpha="198.67079341072923" sparseCutoff="1.0000000000000000"/>
      <sparseX i="34" alpha="2314.1453323964088" sparseCutoff="1.0000000000000000"/>
      <sparseX i="35" alpha="-42758.375104379418" sparseCutoff="1.0000000000000000"/>
      <sparseX i="36" alpha="-48759.671142683677" sparseCutoff="1.0000000000000000"/>
      <sparseX i="37" alpha="22923.544735390926" sparseCutoff="1.0000000000000000"/>
      <sparseX i="38" alpha="47579.898675574150" sparseCutoff="1.0000000000000000"/>
      <sparseX i="39" alpha="18914.378602468034" sparseCutoff="1.0000000000000000"/>
      <sparseX i="40" alpha="-11436.569918659612" sparseCutoff="1.0000000000000000"/>
      <sparseX i="41" alpha="-6101.5556009200645" sparseCutoff="1.0000000000000000"/>
      <sparseX i="42" alpha="2631.1898164844338" sparseCutoff="1.0000000000000000"/>
      <sparseX i="43" alpha="-1666.9000018846259" sparseCutoff="1.0000000000000000"/>
      <sparseX i="44" alpha="-5703.0036430038399" sparseCutoff="1.0000000000000000"/>
      <sparseX i="45" alpha="6520.5929825269804" sparseCutoff="1.0000000000000000"/>
      <sparseX i="46" alpha="-54401.927171951116" sparseCutoff="1.0000000000000000"/>
      <sparseX i="47" alpha="-15153.523202112870" sparseCutoff="1.0000000000000000"/>
      <sparseX i="48" alpha="-15384.646770170817" sparseCutoff="1.0000000000000000"/>
      <sparseX i="49" alpha="-23389.765279505631" sparseCutoff="1.0000000000000000"/>
      <sparseX i="50" alpha="82416.706022408936" sparseCutoff="1.0000000000000000"/>
      <sparseX i="51" alpha="-22284.213272413297" sparseCutoff="1.0000000000000000"/>
      <sparseX i="52" alpha="-26127.681500180261" sparseCutoff="1.0000000000000000"/>
      <sparseX i="53" alpha="-7754.0936807566795" sparseCutoff="1.0000000000000000"/>
      <sparseX i="54" alpha="-52834.271878363754" sparseCutoff="1.0000000000000000"/>
      <sparseX i="55" alpha="-2084.2128550344855" sparseCutoff="1.0000000000000000"/>
      <sparseX i="56" alpha="-76512.003731604185" sparseCutoff="1.0000000000000000"/>
      <sparseX i="57" alpha="29823.355014527133" sparseCutoff="1.0000000000000000"/>
      <sparseX i="58" alpha="52985.606355737465" sparseCutoff="1.0000000000000000"/>
      <sparseX i="59" alpha="-18359.263389217547" sparseCutoff="1.0000000000000000"/>
      <sparseX i="60" alpha="15050.539978001472" sparseCutoff="1.0000000000000000"/>
      <sparseX i="61" alpha="61466.827751298246" sparseCutoff="1.0000000000000000"/>
      <sparseX i="62" alpha="13942.315339406689" sparseCutoff="1.0000000000000000"/>
      <sparseX i="63" alpha="-21570.125243738341" sparseCutoff="1.0000000000000000"/>
      <sparseX i="64" alpha="-9834.8616679741190" sparseCutoff="1.0000000000000000"/>
      <sparseX i="65" alpha="89475.320468979888" sparseCutoff="1.0000000000000000"/>
      <sparseX i="66" alpha="3101.7599760877993" sparseCutoff="1.0000000000000000"/>
      <sparseX i="67" alpha="-20522.220011013425" sparseCutoff="1.0000000000000000"/>
      <sparseX i="68" alpha="4203.0233561102068" sparseCutoff="1.0000000000000000"/>
      <sparseX i="69" alpha="59.906492439986579" sparseCutoff="1.0000000000000000"/>
      <sparseX i="70" alpha="-18443.235757338454" sparseCutoff="1.0000000000000000"/>
      <sparseX i="71" alpha="-984.71737504831140" sparseCutoff="1.0000000000000000"/>
      <sparseX i="72" alpha="-19342.478575949670" sparseCutoff="1.0000000000000000"/>
      <sparseX i="73" alpha="-25275.306052561089" sparseCutoff="1.0000000000000000"/>
      <sparseX i="74" alpha="-18305.899823456588" sparseCutoff="1.0000000000000000"/>
      <sparseX i="75" alpha="-298721.42626917089" sparseCutoff="1.0000000000000000"/>
      <sparseX i="76" alpha="302749.13745050924" sparseCutoff="1.0000000000000000"/>
      <sparseX i="77" alpha="10462.019648452113" sparseCutoff="1.0000000000000000"/>
      <sparseX i="78" alpha="-33897.222530277824" sparseCutoff="1.0000000000000000"/>
      <sparseX i="79" alpha="-52537.043689462953" sparseCutoff="1.0000000000000000"/>
      <sparseX i="80" alpha="-8924.4387839694864" sparseCutoff="1.0000000000000000"/>
      <sparseX i="81" alpha="18603.385878732286" sparseCutoff="1.0000000000000000"/>
      <sparseX i="82" alpha="43520.188996114244" sparseCutoff="1.0000000000000000"/>
      <sparseX i="83" alpha="15028.829014609588" sparseCutoff="1.0000000000000000"/>
      <sparseX i="84" alpha="47942.682406534077" sparseCutoff="1.0000000000000000"/>
      <sparseX i="85" alpha="19106.651625419650" sparseCutoff="1.0000000000000000"/>
      <sparseX i="86" alpha="50638.434964654298" sparseCutoff="1.0000000000000000"/>
      <sparseX i="87" alpha="270904.34704761568" sparseCutoff="1.0000000000000000"/>
      <sparseX i="88" alpha="-11048.850373921263" sparseCutoff="1.0000000000000000"/>
      <sparseX i="89" alpha="31815.510633820006" sparseCutoff="1.0000000000000000"/>
      <sparseX i="90" alpha="19660.941633796574" sparseCutoff="1.0000000000000000"/>
      <sparseX i="91" alpha="-84794.760599834888" sparseCutoff="1.0000000000000000"/>
      <sparseX i="92" alpha="1066.4082972393560" sparseCutoff="1.0000000000000000"/>
      <sparseX i="93" alpha="2217.8160667446346" sparseCutoff="1.0000000000000000"/>
      <sparseX i="94" alpha="95831.027220129297" sparseCutoff="1.0000000000000000"/>
      <sparseX i="95" alpha="-43829.180566003874" sparseCutoff="1.0000000000000000"/>
      <sparseX i="96" alpha="-14680.107588438048" sparseCutoff="1.0000000000000000"/>
      <sparseX i="97" alpha="-16542.225139853344" sparseCutoff="1.0000000000000000"/>
      <sparseX i="98" alpha="9177.2018255195326" sparseCutoff="1.0000000000000000"/>
      <sparseX i="99" alpha="30177.985734609581" sparseCutoff="1.0000000000000000"/>
      <sparseX i="100" alpha="25525.165429772154" sparseCutoff="1.0000000000000000"/>
      <sparseX i="101" alpha="-3992.2563173365825" sparseCutoff="1.0000000000000000"/>
      <sparseX i="102" alpha="58402.961161792038" sparseCutoff="1.0000000000000000"/>
      <sparseX i="103" alpha="-11783.113902437297" sparseCutoff="1.0000000000000000"/>
      <sparseX i="104" alpha="-5201.5715974109698" sparseCutoff="1.0000000000000000"/>
      <sparseX i="105" alpha="-79670.268683669987" sparseCutoff="1.0000000000000000"/>
      <sparseX i="106" alpha="-108661.92794488667" sparseCutoff="1.0000000000000000"/>
      <sparseX i="107" alpha="-1539.1956860502896" sparseCutoff="1.0000000000000000"/>
      <sparseX i="108" alpha="28309.894356409201" sparseCutoff="1.0000000000000000"/>
      <sparseX i="109" alpha="-37948.734728095609" sparseCutoff="1.0000000000000000"/>
      <sparseX i="110" alpha="-71027.643778004538" sparseCutoff="1.0000000000000000"/>
      <sparseX i="111" alpha="-1200.7444642962523" sparseCutoff="1.0000000000000000"/>
      <sparseX i="112" alpha="11124.998811312675" sparseCutoff="1.0000000000000000"/>
      <sparseX i="113" alpha="2752.8658778618374" sparseCutoff="1.0000000000000000"/>
      <sparseX i="114" alpha="3567.4476600364774" sparseCutoff="1.0000000000000000"/>
      <sparseX i="115" alpha="-15561.672314557927" sparseCutoff="1.0000000000000000"/>
      <sparseX i="116" alpha="-60198.992766993651" sparseCutoff="1.0000000000000000"/>
      <sparseX i="117" alpha="-1111.3910272399842" sparseCutoff="1.0000000000000000"/>
      <sparseX i="118" alpha="-449.66930058640929" sparseCutoff="1.0000000000000000"/>
      <sparseX i="119" alpha="26638.160632788946" sparseCutoff="1.0000000000000000"/>
      <sparseX i="120" alpha="-421.90464689930269" sparseCutoff="1.0000000000000000"/>
      <sparseX i="121" alpha="-625.66265688858584" sparseCutoff="1.0000000000000000"/>
      <sparseX i="122" alpha="1033.9353288912610" sparseCutoff="1.0000000000000000"/>
      <sparseX i="123" alpha="-265.27290376833179" sparseCutoff="1.0000000000000000"/>
      <sparseX i="124" alpha="32584.384307347482" sparseCutoff="1.0000000000000000"/>
      <sparseX i="125" alpha="1026.1776903544219" sparseCutoff="1.0000000000000000"/>
      <sparseX i="126" alpha="-13333.789695830672" sparseCutoff="1.0000000000000000"/>
      <sparseX i="127" alpha="-35572.622657036736" sparseCutoff="1.0000000000000000"/>
      <sparseX i="128" alpha="-17624.645037956456" sparseCutoff="1.0000000000000000"/>
      <sparseX i="129" alpha="9808.2897490320247" sparseCutoff="1.0000000000000000"/>
      <sparseX i="130" alpha="80441.752587894021" sparseCutoff="1.0000000000000000"/>
      <sparseX i="131" alpha="15148.238902600802" sparseCutoff="1.0000000000000000"/>
      <sparseX i="132" alpha="39850.550138872226" sparseCutoff="1.0000000000000000"/>
      <sparseX i="133" alpha="-59050.083635099312" sparseCutoff="1.0000000000000000"/>
      <sparseX i="134" alpha="521.91082975521851" sparseCutoff="1.0000000000000000"/>
      <sparseX i="135" alpha="138.58543661941127" sparseCutoff="1.0000000000000000"/>
      <sparseX i="136" alpha="49591.617690965199" sparseCutoff="1.0000000000000000"/>
      <sparseX i="137" alpha="37564.566480332425" sparseCutoff="1.0000000000000000"/>
      <sparseX i="138" alpha="34508.033674343213" sparseCutoff="1.0000000000000000"/>
      <sparseX i="139" alpha="28626.156777908884" sparseCutoff="1.0000000000000000"/>
      <sparseX i="140" alpha="-41868.312688896789" sparseCutoff="1.0000000000000000"/>
      <sparseX i="141" alpha="505.44968943079056" sparseCutoff="1.0000000000000000"/>
      <sparseX i="142" alpha="-24279.763036669217" sparseCutoff="1.0000000000000000"/>
      <sparseX i="143" alpha="-8925.0668087864087" sparseCutoff="1.0000000000000000"/>
      <sparseX i="144" alpha="-1935.2096561147850" sparseCutoff="1.0000000000000000"/>
      <sparseX i="145" alpha="137.39986183494491" sparseCutoff="1.0000000000000000"/>
      <sparseX i="146" alpha="-1789.9019202669626" sparseCutoff="1.0000000000000000"/>
      <sparseX i="147" alpha="-3104.8238394916243" sparseCutoff="1.0000000000000000"/>
      <sparseX i="148" alpha="-4769.8620423164366" sparseCutoff="1.0000000000000000"/>
      <sparseX i="149" alpha="7193.6832855683951" sparseCutoff="1.0000000000000000"/>
      <sparseX i="150" alpha="432.38029395693974" sparseCutoff="1.0000000000000000"/>
      <sparseX i="151" alpha="96958.064082302764" sparseCutoff="1.0000000000000000"/>
      <sparseX i="152" alpha="26628.679639044163" sparseCutoff="1.0000000000000000"/>
      <sparseX i="153" alpha="-27060.983891205382" sparseCutoff="1.0000000000000000"/>
      <sparseX i="154" alpha="10268.758323410233" sparseCutoff="1.0000000000000000"/>
      <sparseX i="155" alpha="3749.8617290357101" sparseCutoff="1.0000000000000000"/>
      <sparseX i="156" alpha="-9714.5125403768925" sparseCutoff="1.0000000000000000"/>
      <sparseX i="157" alpha="-8067.8831289299724" sparseCutoff="1.0000000000000000"/>
      <sparseX i="158" alpha="13773.033051775854" sparseCutoff="1.0000000000000000"/>
      <sparseX i="159" alpha="22932.169612848254" sparseCutoff="1.0000000000000000"/>
      <sparseX i="160" alpha="-70258.429872498309" sparseCutoff="1.0000000000000000"/>
      <sparseX i="161" alpha="73092.181627119309" sparseCutoff="1.0000000000000000"/>
      <sparseX i="162" alpha="1426.3900908999274" sparseCutoff="1.0000000000000000"/>
      <sparseX i="163" alpha="8327.6632584682538" sparseCutoff="1.0000000000000000"/>
      <sparseX i="164" alpha="-7422.1276145870752" sparseCutoff="1.0000000000000000"/>
      <sparseX i="165" alpha="-495.03536445354808" sparseCutoff="1.0000000000000000"/>
      <sparseX i="166" alpha="-140.79250278079115" sparseCutoff="1.0000000000000000"/>
      <sparseX i="167" alpha="-1476.0757006422402" sparseCutoff="1.0000000000000000"/>
      <sparseX i="168" alpha="-32581.500495669294" sparseCutoff="1.0000000000000000"/>
      <sparseX i="169" alpha="13556.627124355677" sparseCutoff="1.0000000000000000"/>
      <sparseX i="170" alpha="-67567.979525689574" sparseCutoff="1.0000000000000000"/>
      <sparseX i="171" alpha="2021.8218157643435" sparseCutoff="1.0000000000000000"/>
      <sparseX i="172" alpha="-8172.4190616053902" sparseCutoff="1.0000000000000000"/>
      <sparseX i="173" alpha="34468.673152392228" sparseCutoff="1.0000000000000000"/>
      <sparseX i="174" alpha="-6935.6006799226188" sparseCutoff="1.0000000000000000"/>
      <sparseX i="175" alpha="-13478.537351637440" sparseCutoff="1.0000000000000000"/>
      <sparseX i="176" alpha="9309.5010093761102" sparseCutoff="1.0000000000000000"/>
      <sparseX i="177" alpha="2914.9048924240665" sparseCutoff="1.0000000000000000"/>
      <sparseX i="178" alpha="-43804.500574408776" sparseCutoff="1.0000000000000000"/>
      <sparseX i="179" alpha="4460.2411543586613" sparseCutoff="1.0000000000000000"/>
      <sparseX i="180" alpha="1223.4273767327079" sparseCutoff="1.0000000000000000"/>
      <sparseX i="181" alpha="-1918.4959710284684" sparseCutoff="1.0000000000000000"/>
      <sparseX i="182" alpha="-32784.915425922314" sparseCutoff="1.0000000000000000"/>
      <sparseX i="183" alpha="-53730.960944687969" sparseCutoff="1.0000000000000000"/>
      <sparseX i="184" alpha="-34660.559722102640" sparseCutoff="1.0000000000000000"/>
      <sparseX i="185" alpha="-224.39757597174244" sparseCutoff="1.0000000000000000"/>
      <sparseX i="186" alpha="76083.014477467324" sparseCutoff="1.0000000000000000"/>
      <sparseX i="187" alpha="77451.188177779099" sparseCutoff="1.0000000000000000"/>
      <sparseX i="188" alpha="-21809.112690201870" sparseCutoff="1.0000000000000000"/>
      <sparseX i="189" alpha="-39948.579769301563" sparseCutoff="1.0000000000000000"/>
      <sparseX i="190" alpha="-3299.8276184666497" sparseCutoff="1.0000000000000000"/>
      <sparseX i="191" alpha="4480.9720429476110" sparseCutoff="1.0000000000000000"/>
      <sparseX i="192" alpha="35190.434698011908" sparseCutoff="1.0000000000000000"/>
      <sparseX i="193" alpha="32722.748802431917" sparseCutoff="1.0000000000000000"/>
      <sparseX i="194" alpha="5294.9370421740350" sparseCutoff="1.0000000000000000"/>
      <sparseX i="195" alpha="-9118.0577881231166" sparseCutoff="1.0000000000000000"/>
      <sparseX i="196" alpha="1691.2995071807456" sparseCutoff="1.0000000000000000"/>
      <sparseX i="197" alpha="-2100.4386761510814" sparseCutoff="1.0000000000000000"/>
      <sparseX i="198" alpha="36.103054180555795" sparseCutoff="1.0000000000000000"/>
      <sparseX i="199" alpha="-12221.955463116656" sparseCutoff="1.0000000000000000"/>
      <sparseX i="200" alpha="-692799.72080534312" sparseCutoff="1.0000000000000000"/>
      <sparseX i="201" alpha="-3301.5255297619624" sparseCutoff="1.0000000000000000"/>
      <sparseX i="202" alpha="-15854.711114160904" sparseCutoff="1.0000000000000000"/>
      <sparseX i="203" alpha="-73611.161392524300" sparseCutoff="1.0000000000000000"/>
      <sparseX i="204" alpha="139657.94059677664" sparseCutoff="1.0000000000000000"/>
      <sparseX i="205" alpha="26044.528682852306" sparseCutoff="1.0000000000000000"/>
      <sparseX i="206" alpha="36823.004630415686" sparseCutoff="1.0000000000000000"/>
      <sparseX i="207" alpha="4366.3056940768356" sparseCutoff="1.0000000000000000"/>
      <sparseX i="208" alpha="-10684.655121114100" sparseCutoff="1.0000000000000000"/>
      <sparseX i="209" alpha="10790.413513274727" sparseCutoff="1.0000000000000000"/>
      <sparseX i="210" alpha="-8523.6248141102351" sparseCutoff="1.0000000000000000"/>
      <sparseX i="211" alpha="10377.550407875266" sparseCutoff="1.0000000000000000"/>
      <sparseX i="212" alpha="-67930.840851255198" sparseCutoff="1.0000000000000000"/>
      <sparseX i="213" alpha="885.84891256338233" sparseCutoff="1.0000000000000000"/>
      <sparseX i="214" alpha="-47665.997452976531" sparseCutoff="1.0000000000000000"/>
      <sparseX i="215" alpha="8106.8974787660936" sparseCutoff="1.0000000000000000"/>
      <sparseX i="216" alpha="-140255.88704821048" sparseCutoff="1.0000000000000000"/>
      <sparseX i="217" alpha="13472.487395296906" sparseCutoff="1.0000000000000000"/>
      <sparseX i="218" alpha="-2852.1575388084052" sparseCutoff="1.0000000000000000"/>
      <sparseX i="219" alpha="-21735.120639724995" sparseCutoff="1.0000000000000000"/>
      <sparseX i="220" alpha="9059.3595225405443" sparseCutoff="1.0000000000000000"/>
      <sparseX i="221" alpha="-17832.783062604231" sparseCutoff="1.0000000000000000"/>
      <sparseX i="222" alpha="-89068.367192209917" sparseCutoff="1.0000000000000000"/>
      <sparseX i="223" alpha="2978.9717158794565" sparseCutoff="1.0000000000000000"/>
      <sparseX i="224" alpha="-26037.848421808489" sparseCutoff="1.0000000000000000"/>
      <sparseX i="225" alpha="-3389.5047793742087" sparseCutoff="1.0000000000000000"/>
      <sparseX i="226" alpha="-2941.2898932289572" sparseCutoff="1.0000000000000000"/>
      <sparseX i="227" alpha="4376.4105571832624" sparseCutoff="1.0000000000000000"/>
      <sparseX i="228" alpha="613.51807883995968" sparseCutoff="1.0000000000000000"/>
      <sparseX i="229" alpha="-2817.4615516035537" sparseCutoff="1.0000000000000000"/>
      <sparseX i="230" alpha="-42548.645893312379" sparseCutoff="1.0000000000000000"/>
      <sparseX i="231" alpha="8180.9749380098892" sparseCutoff="1.0000000000000000"/>
      <sparseX i="232" alpha="2600.1020530355240" sparseCutoff="1.0000000000000000"/>
      <sparseX i="233" alpha="-6606.5046213435226" sparseCutoff="1.0000000000000000"/>
      <sparseX i="234" alpha="31249.071976280757" sparseCutoff="1.0000000000000000"/>
      <sparseX i="235" alpha="1266.2719236397022" sparseCutoff="1.0000000000000000"/>
      <sparseX i="236" alpha="-15329.821675381902" sparseCutoff="1.0000000000000000"/>
      <sparseX i="237" alpha="-1318.2415037939043" sparseCutoff="1.0000000000000000"/>
      <sparseX i="238" alpha="-6488.1881606833631" sparseCutoff="1.0000000000000000"/>
      <sparseX i="239" alpha="-8969.2671161274920" sparseCutoff="1.0000000000000000"/>
      <sparseX i="240" alpha="5946.9017313438662" sparseCutoff="1.0000000000000000"/>
      <sparseX i="241" alpha="-1259.3399283043241" sparseCutoff="1.0000000000000000"/>
      <sparseX i="242" alpha="31800.201431760255" sparseCutoff="1.0000000000000000"/>
      <sparseX i="243" alpha="16363.333272166708" sparseCutoff="1.0000000000000000"/>
      <sparseX i="244" alpha="-31388.325426169176" sparseCutoff="1.0000000000000000"/>
      <sparseX i="245" alpha="-24215.519020463100" sparseCutoff="1.0000000000000000"/>
      <sparseX i="246" alpha="15896.409069716770" sparseCutoff="1.0000000000000000"/>
      <sparseX i="247" alpha="87237.161951774222" sparseCutoff="1.0000000000000000"/>
      <sparseX i="248" alpha="-25353.786887188035" sparseCutoff="1.0000000000000000"/>
      <sparseX i="249" alpha="11515.366926420642" sparseCutoff="1.0000000000000000"/>
      <sparseX i="250" alpha="4883.8596483428655" sparseCutoff="1.0000000000000000"/>
      <sparseX i="251" alpha="8657.7447686148116" sparseCutoff="1.0000000000000000"/>
      <sparseX i="252" alpha="-11888.149381067864" sparseCutoff="1.0000000000000000"/>
      <sparseX i="253" alpha="34915.637262879070" sparseCutoff="1.0000000000000000"/>
      <sparseX i="254" alpha="-34296.614426923443" sparseCutoff="1.0000000000000000"/>
      <sparseX i="255" alpha="-30420.270909037146" sparseCutoff="1.0000000000000000"/>
      <sparseX i="256" alpha="-6520.0113795059015" sparseCutoff="1.0000000000000000"/>
      <sparseX i="257" alpha="166265.82838151147" sparseCutoff="1.0000000000000000"/>
      <sparseX i="258" alpha="113578.68473608418" sparseCutoff="1.0000000000000000"/>
      <sparseX i="259" alpha="25843.940541144439" sparseCutoff="1.0000000000000000"/>
      <sparseX i="260" alpha="-12296.429326160900" sparseCutoff="1.0000000000000000"/>
      <sparseX i="261" alpha="708.26348617858196" sparseCutoff="1.0000000000000000"/>
      <sparseX i="262" alpha="-10816.606137214792" sparseCutoff="1.0000000000000000"/>
      <sparseX i="263" alpha="-175090.21681745455" sparseCutoff="1.0000000000000000"/>
      <sparseX i="264" alpha="-3215.6684683040703" sparseCutoff="1.0000000000000000"/>
      <sparseX i="265" alpha="1512.1442790557010" sparseCutoff="1.0000000000000000"/>
      <sparseX i="266" alpha="37770.993448374502" sparseCutoff="1.0000000000000000"/>
      <sparseX i="267" alpha="3714.5143161465298" sparseCutoff="1.0000000000000000"/>
      <sparseX i="268" alpha="-47009.522768779600" sparseCutoff="1.0000000000000000"/>
      <sparseX i="269" alpha="-37467.937684386292" sparseCutoff="1.0000000000000000"/>
      <sparseX i="270" alpha="-5683.9455366800776" sparseCutoff="1.0000000000000000"/>
      <sparseX i="271" alpha="-105729.11786953757" sparseCutoff="1.0000000000000000"/>
      <sparseX i="272" alpha="19447.512079626333" sparseCutoff="1.0000000000000000"/>
      <sparseX i="273" alpha="-3797.1413778326864" sparseCutoff="1.0000000000000000"/>
      <sparseX i="274" alpha="-238380.19623187144" sparseCutoff="1.0000000000000000"/>
      <sparseX i="275" alpha="25988.684406467859" sparseCutoff="1.0000000000000000"/>
      <sparseX i="276" alpha="-17236.230255582585" sparseCutoff="1.0000000000000000"/>
      <sparseX i="277" alpha="3263.0426693910945" sparseCutoff="1.0000000000000000"/>
      <sparseX i="278" alpha="-249790.72625081378" sparseCutoff="1.0000000000000000"/>
      <sparseX i="279" alpha="20592.853950645673" sparseCutoff="1.0000000000000000"/>
      <sparseX i="280" alpha="-5761.9637685632888" sparseCutoff="1.0000000000000000"/>
      <sparseX i="281" alpha="-78843.097414886652" sparseCutoff="1.0000000000000000"/>
      <sparseX i="282" alpha="-22156.733517954977" sparseCutoff="1.0000000000000000"/>
      <sparseX i="283" alpha="3840.3764324247195" sparseCutoff="1.0000000000000000"/>
      <sparseX i="284" alpha="-3834.3636297117378" sparseCutoff="1.0000000000000000"/>
      <sparseX i="285" alpha="14020.997449490995" sparseCutoff="1.0000000000000000"/>
      <sparseX i="286" alpha="2202.6372960043968" sparseCutoff="1.0000000000000000"/>
      <sparseX i="287" alpha="4045.9513708931522" sparseCutoff="1.0000000000000000"/>
      <sparseX i="288" alpha="5165.7886270059735" sparseCutoff="1.0000000000000000"/>
      <sparseX i="289" alpha="23470.427291689553" sparseCutoff="1.0000000000000000"/>
      <sparseX i="290" alpha="-67020.669617035499" sparseCutoff="1.0000000000000000"/>
      <sparseX i="291" alpha="-4971.8475340923860" sparseCutoff="1.0000000000000000"/>
      <sparseX i="292" alpha="1624.2884450458182" sparseCutoff="1.0000000000000000"/>
      <sparseX i="293" alpha="-49432.900170453177" sparseCutoff="1.0000000000000000"/>
      <sparseX i="294" alpha="8175.8818039556400" sparseCutoff="1.0000000000000000"/>
      <sparseX i="295" alpha="-2299.2792127948273" sparseCutoff="1.0000000000000000"/>
      <sparseX i="296" alpha="94877.742237502694" sparseCutoff="1.0000000000000000"/>
      <sparseX i="297" alpha="78408.105791255657" sparseCutoff="1.0000000000000000"/>
      <sparseX i="298" alpha="-35540.259759274246" sparseCutoff="1.0000000000000000"/>
      <sparseX i="299" alpha="-25348.903984262153" sparseCutoff="1.0000000000000000"/>
      <sparseX i="300" alpha="-103018.79911933834" sparseCutoff="1.0000000000000000"/>
      <sparseX i="301" alpha="-2435.5105178745421" sparseCutoff="1.0000000000000000"/>
      <sparseX i="302" alpha="50286.658116581806" sparseCutoff="1.0000000000000000"/>
      <sparseX i="303" alpha="-792.39505000986333" sparseCutoff="1.0000000000000000"/>
      <sparseX i="304" alpha="361.75104159409466" sparseCutoff="1.0000000000000000"/>
      <sparseX i="305" alpha="7046.5810303481931" sparseCutoff="1.0000000000000000"/>
      <sparseX i="306" alpha="1544.7471550400189" sparseCutoff="1.0000000000000000"/>
      <sparseX i="307" alpha="-493.92068550574203" sparseCutoff="1.0000000000000000"/>
      <sparseX i="308" alpha="-68836.109946614466" sparseCutoff="1.0000000000000000"/>
      <sparseX i="309" alpha="20909.380138926630" sparseCutoff="1.0000000000000000"/>
      <sparseX i="310" alpha="82697.904995847319" sparseCutoff="1.0000000000000000"/>
      <sparseX i="311" alpha="7259.6430629677925" sparseCutoff="1.0000000000000000"/>
      <sparseX i="312" alpha="-8987.5426077680040" sparseCutoff="1.0000000000000000"/>
      <sparseX i="313" alpha="73616.139170786861" sparseCutoff="1.0000000000000000"/>
      <sparseX i="314" alpha="113194.44250681091" sparseCutoff="1.0000000000000000"/>
      <sparseX i="315" alpha="8106.3656844303396" sparseCutoff="1.0000000000000000"/>
      <sparseX i="316" alpha="45695.493935597384" sparseCutoff="1.0000000000000000"/>
      <sparseX i="317" alpha="-50399.735835832318" sparseCutoff="1.0000000000000000"/>
      <sparseX i="318" alpha="-10848.477583513302" sparseCutoff="1.0000000000000000"/>
      <sparseX i="319" alpha="-207.53815618755053" sparseCutoff="1.0000000000000000"/>
      <sparseX i="320" alpha="1332.7410333434455" sparseCutoff="1.0000000000000000"/>
      <sparseX i="321" alpha="-4735.6212823411688" sparseCutoff="1.0000000000000000"/>
      <sparseX i="322" alpha="-33623.475124395212" sparseCutoff="1.0000000000000000"/>
      <sparseX i="323" alpha="-2001.3513484031917" sparseCutoff="1.0000000000000000"/>
      <sparseX i="324" alpha="-4427.2482632419105" sparseCutoff="1.0000000000000000"/>
      <sparseX i="325" alpha="-128506.89973295196" sparseCutoff="1.0000000000000000"/>
      <sparseX i="326" alpha="-7403.0610523801133" sparseCutoff="1.0000000000000000"/>
      <sparseX i="327" alpha="-27080.409612476247" sparseCutoff="1.0000000000000000"/>
      <sparseX i="328" alpha="-23299.272179879357" sparseCutoff="1.0000000000000000"/>
      <sparseX i="329" alpha="98893.942461164494" sparseCutoff="1.0000000000000000"/>
      <sparseX i="330" alpha="-2960.9249969295511" sparseCutoff="1.0000000000000000"/>
      <sparseX i="331" alpha="-1534.2543756931393" sparseCutoff="1.0000000000000000"/>
      <sparseX i="332" alpha="-5669.8846884891991" sparseCutoff="1.0000000000000000"/>
      <sparseX i="333" alpha="5434.0885247884744" sparseCutoff="1.0000000000000000"/>
      <sparseX i="334" alpha="-14901.441469025138" sparseCutoff="1.0000000000000000"/>
