<GAP_2026_3_23_120_0_25_8_491>
<Potential label="GAP_2026_3_23_120_0_25_8_491" init_args="IP GAP label=GAP_2026_3_23_120_0_25_8_491"/>
<GAP_params label="GAP_2026_3_23_120_0_25_8_491" gap_version="1686220958">
  <GAP_data do_core="F">
    <e0 Z="1" value=".00000000000000000E+000"/>
    <e0 Z="2" value=".00000000000000000E+000"/>
    <e0 Z="3" value=".00000000000000000E+000"/>
    <e0 Z="4" value=".00000000000000000E+000"/>
    <e0 Z="5" value=".00000000000000000E+000"/>
    <e0 Z="6" value=".00000000000000000E+000"/>
    <e0 Z="7" value=".00000000000000000E+000"/>
    <e0 Z="8" value=".00000000000000000E+000"/>
    <e0 Z="9" value=".00000000000000000E+000"/>
    <e0 Z="10" value=".00000000000000000E+000"/>
    <e0 Z="11" value=".00000000000000000E+000"/>
    <e0 Z="12" value=".00000000000000000E+000"/>
    <e0 Z="13" value=".00000000000000000E+000"/>
    <e0 Z="14" value=".00000000000000000E+000"/>
    <e0 Z="15" value=".00000000000000000E+000"/>
    <e0 Z="16" value=".00000000000000000E+000"/>
    <e0 Z="17" value=".00000000000000000E+000"/>
    <e0 Z="18" value=".00000000000000000E+000"/>
    <e0 Z="19" value=".00000000000000000E+000"/>
    <e0 Z="20" value=".00000000000000000E+000"/>
    <e0 Z="21" value=".00000000000000000E+000"/>
    <e0 Z="22" value=".00000000000000000E+000"/>
    <e0 Z="23" value=".00000000000000000E+000"/>
    <e0 Z="24" value=".00000000000000000E+000"/>
    <e0 Z="25" value=".00000000000000000E+000"/>
    <e0 Z="26" value=".00000000000000000E+000"/>
    <e0 Z="27" value=".00000000000000000E+000"/>
    <e0 Z="28" value=".00000000000000000E+000"/>
    <e0 Z="29" value=".00000000000000000E+000"/>
    <e0 Z="30" value=".00000000000000000E+000"/>
    <e0 Z="31" value=".00000000000000000E+000"/>
    <e0 Z="32" value=".00000000000000000E+000"/>
    <e0 Z="33" value=".00000000000000000E+000"/>
    <e0 Z="34" value=".00000000000000000E+000"/>
    <e0 Z="35" value=".00000000000000000E+000"/>
    <e0 Z="36" value=".00000000000000000E+000"/>
    <e0 Z="37" value=".00000000000000000E+000"/>
    <e0 Z="38" value=".00000000000000000E+000"/>
    <e0 Z="39" value=".00000000000000000E+000"/>
    <e0 Z="40" value=".00000000000000000E+000"/>
    <e0 Z="41" value=".00000000000000000E+000"/>
    <e0 Z="42" value=".00000000000000000E+000"/>
    <e0 Z="43" value=".00000000000000000E+000"/>
    <e0 Z="44" value=".00000000000000000E+000"/>
    <e0 Z="45" value=".00000000000000000E+000"/>
    <e0 Z="46" value=".00000000000000000E+000"/>
    <e0 Z="47" value=".00000000000000000E+000"/>
    <e0 Z="48" value=".00000000000000000E+000"/>
    <e0 Z="49" value=".00000000000000000E+000"/>
    <e0 Z="50" value=".00000000000000000E+000"/>
    <e0 Z="51" value=".00000000000000000E+000"/>
    <e0 Z="52" value=".00000000000000000E+000"/>
    <e0 Z="53" value=".00000000000000000E+000"/>
    <e0 Z="54" value=".00000000000000000E+000"/>
    <e0 Z="55" value=".00000000000000000E+000"/>
    <e0 Z="56" value=".00000000000000000E+000"/>
    <e0 Z="57" value=".00000000000000000E+000"/>
    <e0 Z="58" value=".00000000000000000E+000"/>
    <e0 Z="59" value=".00000000000000000E+000"/>
    <e0 Z="60" value=".00000000000000000E+000"/>
    <e0 Z="61" value=".00000000000000000E+000"/>
    <e0 Z="62" value=".00000000000000000E+000"/>
    <e0 Z="63" value=".00000000000000000E+000"/>
    <e0 Z="64" value=".00000000000000000E+000"/>
    <e0 Z="65" value=".00000000000000000E+000"/>
    <e0 Z="66" value=".00000000000000000E+000"/>
    <e0 Z="67" value=".00000000000000000E+000"/>
    <e0 Z="68" value=".00000000000000000E+000"/>
    <e0 Z="69" value=".00000000000000000E+000"/>
    <e0 Z="70" value=".00000000000000000E+000"/>
    <e0 Z="71" value=".00000000000000000E+000"/>
    <e0 Z="72" value=".00000000000000000E+000"/>
    <e0 Z="73" value=".00000000000000000E+000"/>
    <e0 Z="74" value=".00000000000000000E+000"/>
    <e0 Z="75" value=".00000000000000000E+000"/>
    <e0 Z="76" value=".00000000000000000E+000"/>
    <e0 Z="77" value=".00000000000000000E+000"/>
    <e0 Z="78" value=".00000000000000000E+000"/>
    <e0 Z="79" value=".00000000000000000E+000"/>
    <e0 Z="80" value=".00000000000000000E+000"/>
    <e0 Z="81" value=".00000000000000000E+000"/>
    <e0 Z="82" value=".00000000000000000E+000"/>
    <e0 Z="83" value=".00000000000000000E+000"/>
    <e0 Z="84" value=".00000000000000000E+000"/>
    <e0 Z="85" value=".00000000000000000E+000"/>
    <e0 Z="86" value=".00000000000000000E+000"/>
    <e0 Z="87" value=".00000000000000000E+000"/>
    <e0 Z="88" value=".00000000000000000E+000"/>
    <e0 Z="89" value=".00000000000000000E+000"/>
    <e0 Z="90" value=".00000000000000000E+000"/>
    <e0 Z="91" value=".00000000000000000E+000"/>
    <e0 Z="92" value=".00000000000000000E+000"/>
    <e0 Z="93" value=".00000000000000000E+000"/>
    <e0 Z="94" value=".00000000000000000E+000"/>
    <e0 Z="95" value=".00000000000000000E+000"/>
    <e0 Z="96" value=".00000000000000000E+000"/>
    <e0 Z="97" value=".00000000000000000E+000"/>
    <e0 Z="98" value=".00000000000000000E+000"/>
    <e0 Z="99" value=".00000000000000000E+000"/>
    <e0 Z="100" value=".00000000000000000E+000"/>
    <e0 Z="101" value=".00000000000000000E+000"/>
    <e0 Z="102" value=".00000000000000000E+000"/>
    <e0 Z="103" value=".00000000000000000E+000"/>
    <e0 Z="104" value=".00000000000000000E+000"/>
    <e0 Z="105" value=".00000000000000000E+000"/>
    <e0 Z="106" value=".00000000000000000E+000"/>
    <e0 Z="107" value=".00000000000000000E+000"/>
    <e0 Z="108" value=".00000000000000000E+000"/>
    <e0 Z="109" value=".00000000000000000E+000"/>
    <e0 Z="110" value=".00000000000000000E+000"/>
    <e0 Z="111" value=".00000000000000000E+000"/>
    <e0 Z="112" value=".00000000000000000E+000"/>
    <e0 Z="113" value=".00000000000000000E+000"/>
    <e0 Z="114" value=".00000000000000000E+000"/>
    <e0 Z="115" value=".00000000000000000E+000"/>
    <e0 Z="116" value=".00000000000000000E+000"/>
    <e0 Z="117" value=".00000000000000000E+000"/>
    <e0 Z="118" value=".00000000000000000E+000"/>
  </GAP_data>
  <gpSparse label="GAP_2026_3_23_120_0_25_8_491" n_coordinate="8" fitted="T">
    <gpCoordinates label="GAP_2026_3_23_120_0_25_8_4911" dimensions="1" signal_variance=".50000000000000000" signal_mean=".00000000000000000E+000" sparsified="T" n_permutations="1" covariance_type="1" n_sparseX="30" sparseX_filename="CH.xml.sparseX.GAP_2026_3_23_120_0_25_8_4911" sparseX_md5sum="e4c83c76d05e7093f8bfc5db7e6ec790">
      <theta>  0.50000000000000000E+000 </theta>
      <descriptor> distance_2b Z1=1 Z2=1 cutoff=4.0 n_sparse=30 covariance_type=ard_se delta=0.5 theta_uniform=0.5 sparse_method=uniform add_species=F</descriptor>
      <permutation i="1">1  </permutation>
      <sparseX i="1" alpha="1946.2153527017006" sparseCutoff="1.0000000000000000"/>
      <sparseX i="2" alpha="-2188.4201828971900" sparseCutoff="1.0000000000000000"/>
      <sparseX i="3" alpha="2427.4055722177159" sparseCutoff=".59614087879312794"/>
      <sparseX i="4" alpha="-1844.2091622359849" sparseCutoff="1.0000000000000000"/>
      <sparseX i="5" alpha="5481.1248791681146" sparseCutoff="1.0000000000000000"/>
      <sparseX i="6" alpha="45442.943835457692" sparseCutoff="1.0000000000000000"/>
      <sparseX i="7" alpha="-21578.122312614516" sparseCutoff="1.0000000000000000"/>
      <sparseX i="8" alpha="-4767.7207989521530" sparseCutoff="1.0000000000000000"/>
      <sparseX i="9" alpha="4701.4082223582018" sparseCutoff="1.0000000000000000"/>
      <sparseX i="10" alpha="4704.0246256005585" sparseCutoff="1.0000000000000000"/>
      <sparseX i="11" alpha="-5363.3550148766917" sparseCutoff="1.0000000000000000"/>
      <sparseX i="12" alpha="452.10459968736814" sparseCutoff="1.0000000000000000"/>
      <sparseX i="13" alpha="-3135.1947627070581" sparseCutoff=".77357001747833287"/>
      <sparseX i="14" alpha="-5744.6774342647295" sparseCutoff="1.0000000000000000"/>
      <sparseX i="15" alpha="16226.931537693627" sparseCutoff="1.0000000000000000"/>
      <sparseX i="16" alpha="-612.80783390984095" sparseCutoff=".53140035477369396E-001"/>
      <sparseX i="17" alpha="-1506.8576637116951" sparseCutoff="1.0000000000000000"/>
      <sparseX i="18" alpha="-488.69559106121966" sparseCutoff=".14984621333897774E-002"/>
      <sparseX i="19" alpha="275.33369556655060" sparseCutoff="1.0000000000000000"/>
      <sparseX i="20" alpha="-932.26331721564452" sparseCutoff="1.0000000000000000"/>
      <sparseX i="21" alpha="-10983.770996908710" sparseCutoff="1.0000000000000000"/>
      <sparseX i="22" alpha="54.105990319995193" sparseCutoff="1.0000000000000000"/>
      <sparseX i="23" alpha="6331.9115557735777" sparseCutoff="1.0000000000000000"/>
      <sparseX i="24" alpha="4616.8630127158631" sparseCutoff="1.0000000000000000"/>
      <sparseX i="25" alpha="20967.811208921146" sparseCutoff="1.0000000000000000"/>
      <sparseX i="26" alpha="-30334.334786494594" sparseCutoff="1.0000000000000000"/>
      <sparseX i="27" alpha="-3973.8831036538927" sparseCutoff="1.0000000000000000"/>
      <sparseX i="28" alpha="3209.6912874505547" sparseCutoff="1.0000000000000000"/>
      <sparseX i="29" alpha="15504.311940902548" sparseCutoff="1.0000000000000000"/>
      <sparseX i="30" alpha="-39249.035129485674" sparseCutoff="1.0000000000000000"/>
    </gpCoordinates>
    <gpCoordinates label="GAP_2026_3_23_120_0_25_8_4912" dimensions="1" signal_variance=".50000000000000000" signal_mean=".00000000000000000E+000" sparsified="T" n_permutations="1" covariance_type="1" n_sparseX="30" sparseX_filename="CH.xml.sparseX.GAP_2026_3_23_120_0_25_8_4912" sparseX_md5sum="8255f8f827e3b11c27e79ef64bb9080d">
      <theta>  0.50000000000000000E+000 </theta>
      <descriptor> distance_2b Z1=1 Z2=6 cutoff=4.0 n_sparse=30 covariance_type=ard_se delta=0.5 theta_uniform=0.5 sparse_method=uniform add_species=F</descriptor>
      <permutation i="1">1  </permutation>
      <sparseX i="1" alpha="-82248.125341898631" sparseCutoff="1.0000000000000000"/>
      <sparseX i="2" alpha="-21528.284070982467" sparseCutoff="1.0000000000000000"/>
      <sparseX i="3" alpha="26266.368398612216" sparseCutoff="1.0000000000000000"/>
      <sparseX i="4" alpha="-23478.613358411665" sparseCutoff="1.0000000000000000"/>
      <sparseX i="5" alpha="48286.691390659711" sparseCutoff="1.0000000000000000"/>
      <sparseX i="6" alpha="-21561.484232678904" sparseCutoff="1.0000000000000000"/>
      <sparseX i="7" alpha="-110101.10303271459" sparseCutoff="1.0000000000000000"/>
      <sparseX i="8" alpha="83066.660788109075" sparseCutoff="1.0000000000000000"/>
      <sparseX i="9" alpha="-22308.183098889756" sparseCutoff="1.0000000000000000"/>
      <sparseX i="10" alpha="-26031.879275106388" sparseCutoff="1.0000000000000000"/>
      <sparseX i="11" alpha="38734.872425746937" sparseCutoff="1.0000000000000000"/>
      <sparseX i="12" alpha="-39090.928659140329" sparseCutoff="1.0000000000000000"/>
      <sparseX i="13" alpha="19265.173305065036" sparseCutoff="1.0000000000000000"/>
      <sparseX i="14" alpha="8956.1608796201253" sparseCutoff="1.0000000000000000"/>
      <sparseX i="15" alpha="8444.6301104373852" sparseCutoff=".17739374061673469"/>
      <sparseX i="16" alpha="-65439.459925389310" sparseCutoff="1.0000000000000000"/>
      <sparseX i="17" alpha="-8973.0981576442537" sparseCutoff=".42593568138239740"/>
      <sparseX i="18" alpha="4689.0016431868489" sparseCutoff=".25139847583008856E-001"/>
      <sparseX i="19" alpha="-16601.845823075877" sparseCutoff="1.0000000000000000"/>
      <sparseX i="20" alpha="25539.991720916263" sparseCutoff="1.0000000000000000"/>
      <sparseX i="21" alpha="3036.6639032051139" sparseCutoff=".87921905348168417"/>
      <sparseX i="22" alpha="-9745.7336853933957" sparseCutoff="1.0000000000000000"/>
      <sparseX i="23" alpha="27921.597492548346" sparseCutoff="1.0000000000000000"/>
      <sparseX i="24" alpha="36142.557980731974" sparseCutoff="1.0000000000000000"/>
      <sparseX i="25" alpha="-25883.398219424387" sparseCutoff="1.0000000000000000"/>
      <sparseX i="26" alpha="86011.001078934758" sparseCutoff="1.0000000000000000"/>
      <sparseX i="27" alpha="-85089.756208841733" sparseCutoff="1.0000000000000000"/>
      <sparseX i="28" alpha="81194.779729519534" sparseCutoff="1.0000000000000000"/>
      <sparseX i="29" alpha="58245.341821659451" sparseCutoff="1.0000000000000000"/>
      <sparseX i="30" alpha="9850.5881773240581" sparseCutoff="1.0000000000000000"/>
    </gpCoordinates>
    <gpCoordinates label="GAP_2026_3_23_120_0_25_8_4913" dimensions="1" signal_variance=".50000000000000000" signal_mean=".00000000000000000E+000" sparsified="T" n_permutations="1" covariance_type="1" n_sparseX="30" sparseX_filename="CH.xml.sparseX.GAP_2026_3_23_120_0_25_8_4913" sparseX_md5sum="230ac7b7f462ca431c5ecd5d76471010">
      <theta>  0.50000000000000000E+000 </theta>
      <descriptor> distance_2b Z1=6 Z2=6 cutoff=4.0 n_sparse=30 covariance_type=ard_se delta=0.5 theta_uniform=0.5 sparse_method=uniform add_species=F</descriptor>
      <permutation i="1">1  </permutation>
      <sparseX i="1" alpha="-50932.198725117902" sparseCutoff="1.0000000000000000"/>
      <sparseX i="2" alpha="-62763.735693835988" sparseCutoff="1.0000000000000000"/>
      <sparseX i="3" alpha="410.32229250971250" sparseCutoff="1.0000000000000000"/>
      <sparseX i="4" alpha="150523.15660733712" sparseCutoff="1.0000000000000000"/>
      <sparseX i="5" alpha="-19047.634640779921" sparseCutoff="1.0000000000000000"/>
      <sparseX i="6" alpha="60931.325545745436" sparseCutoff="1.0000000000000000"/>
      <sparseX i="7" alpha="10026.240087473905" sparseCutoff="1.0000000000000000"/>
      <sparseX i="8" alpha="-108054.90531091823" sparseCutoff="1.0000000000000000"/>
      <sparseX i="9" alpha="-77234.677380621099" sparseCutoff="1.0000000000000000"/>
      <sparseX i="10" alpha="44489.760345382485" sparseCutoff="1.0000000000000000"/>
      <sparseX i="11" alpha="68710.325004669226" sparseCutoff="1.0000000000000000"/>
      <sparseX i="12" alpha="127121.03899133523" sparseCutoff="1.0000000000000000"/>
      <sparseX i="13" alpha="-48676.689996321853" sparseCutoff="1.0000000000000000"/>
      <sparseX i="14" alpha="-94630.076828250443" sparseCutoff="1.0000000000000000"/>
      <sparseX i="15" alpha="-13916.390404242286" sparseCutoff="1.0000000000000000"/>
      <sparseX i="16" alpha="21147.898092855652" sparseCutoff=".45501701308447551E-001"/>
      <sparseX i="17" alpha="-79387.565173200041" sparseCutoff="1.0000000000000000"/>
      <sparseX i="18" alpha="-90304.834939514883" sparseCutoff="1.0000000000000000"/>
      <sparseX i="19" alpha="8673.6212466454581" sparseCutoff="1.0000000000000000"/>
      <sparseX i="20" alpha="28946.243946095514" sparseCutoff=".95476828743937103"/>
      <sparseX i="21" alpha="29553.174832827171" sparseCutoff="1.0000000000000000"/>
      <sparseX i="22" alpha="-16545.535567050782" sparseCutoff="1.0000000000000000"/>
      <sparseX i="23" alpha="23300.589965117622" sparseCutoff=".30195235793841535E-001"/>
      <sparseX i="24" alpha="-20138.776034587925" sparseCutoff=".56756025970660207"/>
      <sparseX i="25" alpha="25554.192947372878" sparseCutoff="1.0000000000000000"/>
      <sparseX i="26" alpha="-18271.953419009602" sparseCutoff="1.0000000000000000"/>
      <sparseX i="27" alpha="89861.231637112549" sparseCutoff="1.0000000000000000"/>
      <sparseX i="28" alpha="49363.468855992120" sparseCutoff="1.0000000000000000"/>
      <sparseX i="29" alpha="-262780.23030883231" sparseCutoff="1.0000000000000000"/>
      <sparseX i="30" alpha="262116.33322090891" sparseCutoff="1.0000000000000000"/>
    </gpCoordinates>
    <gpCoordinates label="GAP_2026_3_23_120_0_25_8_4914" dimensions="3" signal_variance=".10000000000000000E-001" signal_mean=".00000000000000000E+000" sparsified="T" n_permutations="1" covariance_type="4" n_sparseX="200" sparseX_filename="CH.xml.sparseX.GAP_2026_3_23_120_0_25_8_4914" sparseX_md5sum="c22a61c27f80ca24615a99bb48cafd01">
      <theta>  0.20000000000000000E+001  0.20000000000000000E+001  0.20000000000000000E+001 </theta>
      <descriptor> angle_3b Z_center=6 Z1=1 Z2=1 cutoff=2.0 n_sparse=200 covariance_type=pp delta=0.01 theta_uniform=2.0 sparse_method=uniform add_species=F</descriptor>
      <permutation i="1">1 2 3  </permutation>
      <sparseX i="1" alpha="-1816.9151513544814" sparseCutoff="1.0000000000000000"/>
      <sparseX i="2" alpha="7414.1242086760640" sparseCutoff="1.0000000000000000"/>
      <sparseX i="3" alpha="9151.4566101091059" sparseCutoff=".69382435518140920E-002"/>
      <sparseX i="4" alpha="-64.598409052245131" sparseCutoff="1.0000000000000000"/>
      <sparseX i="5" alpha="1591.3550820943765" sparseCutoff=".59662359954797661"/>
      <sparseX i="6" alpha="27922.322996357259" sparseCutoff=".66656761741778037E-001"/>
      <sparseX i="7" alpha="-13608.090645404818" sparseCutoff=".94776539675400562"/>
      <sparseX i="8" alpha="1031.9201916776349" sparseCutoff=".63174972238533481E-001"/>
      <sparseX i="9" alpha="1779.2062568723841" sparseCutoff=".89371445524080850"/>
      <sparseX i="10" alpha="-4464.1078737941343" sparseCutoff=".11371306041996770"/>
      <sparseX i="11" alpha="-38934.121830511103" sparseCutoff=".36919948879610580E-001"/>
      <sparseX i="12" alpha="-16927.640989126940" sparseCutoff=".11371306041996770"/>
      <sparseX i="13" alpha="-2663.2269332332876" sparseCutoff=".98371692299602731"/>
      <sparseX i="14" alpha="-4215.9692601054321" sparseCutoff="1.0000000000000000"/>
      <sparseX i="15" alpha="335.35287854066360" sparseCutoff=".98371692299602731"/>
      <sparseX i="16" alpha="-3837.3560991237400" sparseCutoff="1.0000000000000000"/>
      <sparseX i="17" alpha="9716.5286943091196" sparseCutoff=".32467641573674100"/>
      <sparseX i="18" alpha="-20245.778137749941" sparseCutoff=".20468748774750356E-001"/>
      <sparseX i="19" alpha="-3678.2084870144913" sparseCutoff="1.0000000000000000"/>
      <sparseX i="20" alpha="-23848.529581155111" sparseCutoff="1.0000000000000000"/>
      <sparseX i="21" alpha="3412.4151078212717" sparseCutoff="1.0000000000000000"/>
      <sparseX i="22" alpha="-73137.913918730061" sparseCutoff=".97663846029626376E-002"/>
      <sparseX i="23" alpha="-48341.653401759322" sparseCutoff=".10495543699335197E-001"/>
      <sparseX i="24" alpha="-56728.650799448653" sparseCutoff=".14004664900669853E-001"/>
      <sparseX i="25" alpha="7617.7506183864234" sparseCutoff=".22544410527786194E-002"/>
      <sparseX i="26" alpha="-23792.387266877628" sparseCutoff=".61192239825234696E-001"/>
      <sparseX i="27" alpha="-17450.316873330343" sparseCutoff=".89440285675107534E-001"/>
      <sparseX i="28" alpha="9078.6552962691239" sparseCutoff=".55324435855787701"/>
      <sparseX i="29" alpha="22784.735108756729" sparseCutoff=".63640178932931279E-001"/>
      <sparseX i="30" alpha="-8826.0167982525873" sparseCutoff="1.0000000000000000"/>
      <sparseX i="31" alpha="-26135.209009713715" sparseCutoff=".20625429968271047E-001"/>
      <sparseX i="32" alpha="391.09959010626767" sparseCutoff="1.0000000000000000"/>
      <sparseX i="33" alpha="6208.7348522897055" sparseCutoff=".37714124292543394"/>
      <sparseX i="34" alpha="1982.4775807468723" sparseCutoff="1.0000000000000000"/>
      <sparseX i="35" alpha="8020.6190761004236" sparseCutoff="1.0000000000000000"/>
      <sparseX i="36" alpha="12273.532653221748" sparseCutoff=".20692739763496093"/>
      <sparseX i="37" alpha="1478.2522787180696" sparseCutoff=".88522626953584793"/>
      <sparseX i="38" alpha="-12073.848131495517" sparseCutoff=".98335257308838253"/>
      <sparseX i="39" alpha="7214.6510813032892" sparseCutoff="1.0000000000000000"/>
      <sparseX i="40" alpha="-18476.519803760828" sparseCutoff=".11403385445371483"/>
      <sparseX i="41" alpha="375.75920474292542" sparseCutoff=".98536615387162163"/>
      <sparseX i="42" alpha="-2355.1187366718545" sparseCutoff="1.0000000000000000"/>
      <sparseX i="43" alpha="-3684.7984394804948" sparseCutoff="1.0000000000000000"/>
      <sparseX i="44" alpha="5210.6982989594117" sparseCutoff=".63178751910086373E-001"/>
      <sparseX i="45" alpha="-3090.5838463103091" sparseCutoff=".36589562401500997"/>
      <sparseX i="46" alpha="-28401.485659775812" sparseCutoff=".11164840783233709E-001"/>
      <sparseX i="47" alpha="-11487.067547250354" sparseCutoff=".40543603154643076"/>
      <sparseX i="48" alpha="4584.0268110568322" sparseCutoff=".16172443299918293E-002"/>
      <sparseX i="49" alpha="3039.4150481005049" sparseCutoff=".78977430444193808"/>
      <sparseX i="50" alpha="-4477.1528450815431" sparseCutoff=".14614389382577586E-001"/>
      <sparseX i="51" alpha="-5220.3286915743056" sparseCutoff=".54346979294280895"/>
      <sparseX i="52" alpha="-5977.2979209184105" sparseCutoff=".94665045084951849"/>
      <sparseX i="53" alpha="6245.1842277383994" sparseCutoff=".94665045084951849"/>
      <sparseX i="54" alpha="1286.3388887849933" sparseCutoff="1.0000000000000000"/>
      <sparseX i="55" alpha="-13613.408211138123" sparseCutoff="1.0000000000000000"/>
      <sparseX i="56" alpha="-13414.497938791199" sparseCutoff=".64600487874344914E-001"/>
      <sparseX i="57" alpha="-5329.6192839853056" sparseCutoff=".14741855619529262"/>
      <sparseX i="58" alpha="-16334.255558706167" sparseCutoff=".26223404299129327"/>
      <sparseX i="59" alpha="-165.67572669201434" sparseCutoff=".61635288106374317E-004"/>
      <sparseX i="60" alpha="-13967.904008318163" sparseCutoff="1.0000000000000000"/>
      <sparseX i="61" alpha="-391.39485353911078" sparseCutoff=".52517875307587966E-004"/>
      <sparseX i="62" alpha="8578.2619071732188" sparseCutoff=".47278037557276315"/>
      <sparseX i="63" alpha="14468.850633862960" sparseCutoff=".15541948070253292"/>
      <sparseX i="64" alpha="-25781.808331672066" sparseCutoff=".55123331748904580"/>
      <sparseX i="65" alpha="-4517.1064257088610" sparseCutoff=".22434567791767002E-002"/>
      <sparseX i="66" alpha="7610.7311569944595" sparseCutoff="1.0000000000000000"/>
      <sparseX i="67" alpha="-3126.7555789171170" sparseCutoff="1.0000000000000000"/>
      <sparseX i="68" alpha="-4692.5284603203427" sparseCutoff=".17180517416106711E-001"/>
      <sparseX i="69" alpha="2649.1475353513474" sparseCutoff=".37353835029916294E-002"/>
      <sparseX i="70" alpha="-11073.780990471871" sparseCutoff=".74270362674457491"/>
      <sparseX i="71" alpha="861.62835898240485" sparseCutoff=".25397397954459567E-003"/>
      <sparseX i="72" alpha="-12079.051347937344" sparseCutoff=".26268544320614828"/>
      <sparseX i="73" alpha="-911.96616052136199" sparseCutoff=".20108242524827192E-003"/>
      <sparseX i="74" alpha="-55424.748988989471" sparseCutoff=".27093854528148276E-001"/>
      <sparseX i="75" alpha="-25.237618965843939" sparseCutoff=".48877740366074013"/>
      <sparseX i="76" alpha="22841.457070397482" sparseCutoff=".97645210048526554"/>
      <sparseX i="77" alpha="43523.407059357240" sparseCutoff=".39081590948461919E-001"/>
      <sparseX i="78" alpha="952.05306199133179" sparseCutoff=".42407455199093080"/>
      <sparseX i="79" alpha="7273.8412511068445" sparseCutoff="1.0000000000000000"/>
      <sparseX i="80" alpha="19343.661106511987" sparseCutoff=".50473470271734566"/>
      <sparseX i="81" alpha="-5031.5563453133882" sparseCutoff=".14387255812288494E-002"/>
      <sparseX i="82" alpha="16441.562166694555" sparseCutoff=".32522295909188703E-001"/>
      <sparseX i="83" alpha="6919.8175737307247" sparseCutoff="1.0000000000000000"/>
      <sparseX i="84" alpha="6.4401765205924368" sparseCutoff=".91795944250054402E-005"/>
      <sparseX i="85" alpha="-3096.6867758999952" sparseCutoff=".68655590864885307"/>
      <sparseX i="86" alpha="-1885.6765977701748" sparseCutoff=".57097940988581297"/>
      <sparseX i="87" alpha="-63120.971655749621" sparseCutoff=".25077629702054849E-001"/>
      <sparseX i="88" alpha="5785.3503442687561" sparseCutoff=".98312457100399775"/>
      <sparseX i="89" alpha="44507.337207958633" sparseCutoff=".26504493747924390"/>
      <sparseX i="90" alpha="-9411.5679861965509" sparseCutoff=".85308274926735272"/>
      <sparseX i="91" alpha="-34516.523739731863" sparseCutoff=".27132406275111653E-001"/>
      <sparseX i="92" alpha="8070.0434846846883" sparseCutoff="1.0000000000000000"/>
      <sparseX i="93" alpha="-5427.3372912108507" sparseCutoff="1.0000000000000000"/>
      <sparseX i="94" alpha="-1532.3076276435079" sparseCutoff="1.0000000000000000"/>
      <sparseX i="95" alpha="-17211.743283371496" sparseCutoff=".48075216501748804E-002"/>
      <sparseX i="96" alpha="46077.743555016044" sparseCutoff=".78066449942638672E-002"/>
      <sparseX i="97" alpha="-4621.9071136579560" sparseCutoff=".81712816192744953E-002"/>
      <sparseX i="98" alpha="18421.704960166830" sparseCutoff=".24602757542667214"/>
      <sparseX i="99" alpha="1994.3724636899715" sparseCutoff=".77618381455734509"/>
      <sparseX i="100" alpha="-672.57589867425600" sparseCutoff=".12920151577197012E-003"/>
      <sparseX i="101" alpha="2827.1078332427337" sparseCutoff=".54850024280274412"/>
      <sparseX i="102" alpha="37436.809843212541" sparseCutoff=".11930323013018664E-001"/>
      <sparseX i="103" alpha="3059.9885516776758" sparseCutoff="1.0000000000000000"/>
      <sparseX i="104" alpha="55715.866407917048" sparseCutoff=".13306460733123837"/>
      <sparseX i="105" alpha="-2377.7288642254089" sparseCutoff=".12401696720474376"/>
      <sparseX i="106" alpha="-1152.4506072132033" sparseCutoff="1.0000000000000000"/>
      <sparseX i="107" alpha="-3491.2659463501495" sparseCutoff=".36511930352355415"/>
      <sparseX i="108" alpha="-18650.156332819217" sparseCutoff=".10218256363158901"/>
      <sparseX i="109" alpha="5014.4518346214272" sparseCutoff=".30251845738425232"/>
      <sparseX i="110" alpha="-114624.31844966866" sparseCutoff=".73161220140640776E-001"/>
      <sparseX i="111" alpha="75.204785114275239" sparseCutoff=".30807010174764607E-004"/>
      <sparseX i="112" alpha="11582.182558914430" sparseCutoff=".30535037826667166E-001"/>
      <sparseX i="113" alpha="-1377.0047079282322" sparseCutoff="1.0000000000000000"/>
      <sparseX i="114" alpha="4.4214174349447042" sparseCutoff=".35124844413592093E-005"/>
      <sparseX i="115" alpha="861.34370961677848" sparseCutoff=".52203711328774327E-002"/>
      <sparseX i="116" alpha="11876.687820851963" sparseCutoff=".20381436197016156E-002"/>
      <sparseX i="117" alpha="-1334.9269472947374" sparseCutoff="1.0000000000000000"/>
      <sparseX i="118" alpha="-4006.7637916540502" sparseCutoff="1.0000000000000000"/>
      <sparseX i="119" alpha="-191.77116595576101" sparseCutoff=".23785162291220949E-004"/>
      <sparseX i="120" alpha="5381.8443789116291" sparseCutoff="1.0000000000000000"/>
      <sparseX i="121" alpha="1568.3915689432044" sparseCutoff=".49808132228716282E-003"/>
      <sparseX i="122" alpha="9820.4510836859990" sparseCutoff=".16590021307771163"/>
      <sparseX i="123" alpha="-13036.553030479094" sparseCutoff="1.0000000000000000"/>
      <sparseX i="124" alpha="-18998.720628002608" sparseCutoff=".72952893420361042E-002"/>
      <sparseX i="125" alpha="20.154842623756789" sparseCutoff="1.0000000000000000"/>
      <sparseX i="126" alpha="13196.687095141060" sparseCutoff=".26290352990647192E-002"/>
      <sparseX i="127" alpha="-12394.884336377552" sparseCutoff=".23810122829078257E-002"/>
      <sparseX i="128" alpha="14903.635136036559" sparseCutoff=".61297988033249817E-002"/>
      <sparseX i="129" alpha="-5245.8265397340756" sparseCutoff=".94686700607814134"/>
      <sparseX i="130" alpha="4849.6944756133062" sparseCutoff="1.0000000000000000"/>
      <sparseX i="131" alpha="1719.4349674041030" sparseCutoff="1.0000000000000000"/>
      <sparseX i="132" alpha="-1379.5528274722815" sparseCutoff=".13944481626309774"/>
      <sparseX i="133" alpha="-12253.502268702981" sparseCutoff=".90323810859490516"/>
      <sparseX i="134" alpha="5948.2900037824820" sparseCutoff=".71084823296746391"/>
      <sparseX i="135" alpha="6250.8734354473354" sparseCutoff=".18063343146137274E-002"/>
      <sparseX i="136" alpha="-3685.6754718679335" sparseCutoff="1.0000000000000000"/>
      <sparseX i="137" alpha="-4155.0801923870613" sparseCutoff="1.0000000000000000"/>
      <sparseX i="138" alpha="28836.307831479262" sparseCutoff=".23230195732608933"/>
      <sparseX i="139" alpha="-41263.048515850125" sparseCutoff=".20966952612463641"/>
      <sparseX i="140" alpha="5742.3502423555065" sparseCutoff="1.0000000000000000"/>
      <sparseX i="141" alpha="-2643.9690013649224" sparseCutoff="1.0000000000000000"/>
      <sparseX i="142" alpha="2952.8276505967779" sparseCutoff="1.0000000000000000"/>
      <sparseX i="143" alpha="-7498.2228009195633" sparseCutoff="1.0000000000000000"/>
      <sparseX i="144" alpha="80.162140400709958" sparseCutoff=".23852459710462065E-004"/>
      <sparseX i="145" alpha="-1931.2252689470715" sparseCutoff="1.0000000000000000"/>
      <sparseX i="146" alpha="-14889.503955730201" sparseCutoff=".36465226792809835E-001"/>
      <sparseX i="147" alpha="-4472.8788290713301" sparseCutoff="1.0000000000000000"/>
      <sparseX i="148" alpha="-1825.3848713795039" sparseCutoff="1.0000000000000000"/>
      <sparseX i="149" alpha="9563.9129693863215" sparseCutoff=".70508738104730706"/>
      <sparseX i="150" alpha="11397.891151271104" sparseCutoff=".89116702750892562"/>
      <sparseX i="151" alpha="-22515.652277246594" sparseCutoff=".73676733046286358E-001"/>
      <sparseX i="152" alpha="12690.359993287877" sparseCutoff=".64015394201374809E-001"/>
      <sparseX i="153" alpha="-409.04470367580399" sparseCutoff=".14050803370607712E-003"/>
      <sparseX i="154" alpha="5492.9990749188501" sparseCutoff=".10100799436530122"/>
      <sparseX i="155" alpha="67583.280339148172" sparseCutoff=".46089806753959683E-001"/>
      <sparseX i="156" alpha="-1689.2823260713151" sparseCutoff="1.0000000000000000"/>
      <sparseX i="157" alpha="-19955.512437425790" sparseCutoff=".36315252453834823E-001"/>
      <sparseX i="158" alpha="7917.2163500963597" sparseCutoff="1.0000000000000000"/>
      <sparseX i="159" alpha="-7229.4650806454501" sparseCutoff=".69565792309623831"/>
      <sparseX i="160" alpha="21319.618255632638" sparseCutoff="1.0000000000000000"/>
      <sparseX i="161" alpha="21533.884235427195" sparseCutoff=".15245516541663329"/>
      <sparseX i="162" alpha="10026.406605671784" sparseCutoff=".96660550345081808E-002"/>
      <sparseX i="163" alpha="77855.440572984910" sparseCutoff=".32969527864861577E-001"/>
      <sparseX i="164" alpha="-35476.865382228934" sparseCutoff=".85842931578120840E-001"/>
      <sparseX i="165" alpha="2028.3314302540628" sparseCutoff="1.0000000000000000"/>
      <sparseX i="166" alpha="61382.425124344809" sparseCutoff=".10415661627995461"/>
      <sparseX i="167" alpha="-1055.5290894599491" sparseCutoff="1.0000000000000000"/>
      <sparseX i="168" alpha="-1277.6242637558594" sparseCutoff="1.0000000000000000"/>
      <sparseX i="169" alpha="289.33391839709947" sparseCutoff=".67771414741133837E-004"/>
      <sparseX i="170" alpha="7413.7319871090294" sparseCutoff="1.0000000000000000"/>
      <sparseX i="171" alpha="14921.488898549311" sparseCutoff=".19179029024218530E-001"/>
      <sparseX i="172" alpha="-28060.448839425448" sparseCutoff=".35174246836827022"/>
      <sparseX i="173" alpha="33824.398791524138" sparseCutoff=".10542852566244146"/>
      <sparseX i="174" alpha="-2463.2562572739316" sparseCutoff=".99980762150058777"/>
      <sparseX i="175" alpha="19816.845610839227" sparseCutoff=".14562112383556758E-001"/>
      <sparseX i="176" alpha="-7254.1102063428325" sparseCutoff=".77812760086148125"/>
      <sparseX i="177" alpha="13981.118565404280" sparseCutoff=".72837981347215563"/>
      <sparseX i="178" alpha="-4770.4425071323340" sparseCutoff=".14282634269878303"/>
      <sparseX i="179" alpha="-2697.4646262966558" sparseCutoff="1.0000000000000000"/>
      <sparseX i="180" alpha="-186.23311848439042" sparseCutoff=".75997424281386428"/>
      <sparseX i="181" alpha="5624.1450063353195" sparseCutoff=".34726549665356732"/>
      <sparseX i="182" alpha="-27515.005935780238" sparseCutoff=".10906664361807406"/>
      <sparseX i="183" alpha="-4115.0979319843500" sparseCutoff=".17012193243728380E-002"/>
      <sparseX i="184" alpha="53800.616281753828" sparseCutoff=".91003283219036446E-001"/>
      <sparseX i="185" alpha="-1215.5688248131617" sparseCutoff="1.0000000000000000"/>
      <sparseX i="186" alpha="-6927.5126236627266" sparseCutoff="1.0000000000000000"/>
      <sparseX i="187" alpha="4030.2782310847820" sparseCutoff="1.0000000000000000"/>
      <sparseX i="188" alpha="12778.177491943474" sparseCutoff="1.0000000000000000"/>
      <sparseX i="189" alpha="2828.6530496567325" sparseCutoff="1.0000000000000000"/>
      <sparseX i="190" alpha="-26764.154848447699" sparseCutoff=".37518462306093893E-002"/>
      <sparseX i="191" alpha="-30747.504723708917" sparseCutoff=".48765737411864019E-001"/>
      <sparseX i="192" alpha="-2176.1108826811678" sparseCutoff=".55549740169638639"/>
      <sparseX i="193" alpha="-3759.1010294057846" sparseCutoff=".56095364173917139"/>
      <sparseX i="194" alpha="6176.3801583137792" sparseCutoff=".93578642033955800E-001"/>
      <sparseX i="195" alpha="-9866.3760861044702" sparseCutoff=".87737917557218403E-003"/>
      <sparseX i="196" alpha="-1821.2688426809293" sparseCutoff=".30790353484555366"/>
      <sparseX i="197" alpha="11055.588287664494" sparseCutoff="1.0000000000000000"/>
      <sparseX i="198" alpha="-3004.6814678292967" sparseCutoff=".36259799796148195"/>
      <sparseX i="199" alpha="-4259.9596849081408" sparseCutoff=".72015553075002769"/>
      <sparseX i="200" alpha="16577.191422905929" sparseCutoff="1.0000000000000000"/>
    </gpCoordinates>
    <gpCoordinates label="GAP_2026_3_23_120_0_25_8_4915" dimensions="3" signal_variance=".10000000000000000E-001" signal_mean=".00000000000000000E+000" sparsified="T" n_permutations="1" covariance_type="4" n_sparseX="200" sparseX_filename="CH.xml.sparseX.GAP_2026_3_23_120_0_25_8_4915" sparseX_md5sum="ea86132e652a0b6d8b98466cddacca7d">
      <theta>  0.20000000000000000E+001  0.20000000000000000E+001  0.20000000000000000E+001 </theta>
      <descriptor> angle_3b Z_center=6 Z1=1 Z2=6 cutoff=2.0 n_sparse=200 covariance_type=pp delta=0.01 theta_uniform=2.0 sparse_method=uniform add_species=F</descriptor>
      <permutation i="1">1 2 3  </permutation>
      <sparseX i="1" alpha="-25846.351906635478" sparseCutoff="1.0000000000000000"/>
      <sparseX i="2" alpha="-23804.281834417590" sparseCutoff="1.0000000000000000"/>
      <sparseX i="3" alpha="-6481.0336701655988" sparseCutoff=".41743154484689682E-002"/>
      <sparseX i="4" alpha="-18126.419828560629" sparseCutoff="1.0000000000000000"/>
      <sparseX i="5" alpha="-162.84433178258598" sparseCutoff="1.0000000000000000"/>
      <sparseX i="6" alpha="20171.215984054405" sparseCutoff=".15869943555217464"/>
      <sparseX i="7" alpha="18302.196437570896" sparseCutoff=".13461805527355239"/>
      <sparseX i="8" alpha="12872.003043645556" sparseCutoff=".15869943555217464"/>
      <sparseX i="9" alpha="7104.3614769662890" sparseCutoff="1.0000000000000000"/>
      <sparseX i="10" alpha="-15139.467444899268" sparseCutoff=".54952419890736404E-002"/>
      <sparseX i="11" alpha="-27260.534471452676" sparseCutoff=".54952419890736404E-002"/>
      <sparseX i="12" alpha="-3567.4273457335362" sparseCutoff=".60255001778240997E-003"/>
      <sparseX i="13" alpha="-9085.6521263684681" sparseCutoff="1.0000000000000000"/>
      <sparseX i="14" alpha="-21993.508773596568" sparseCutoff=".97104388833721589"/>
      <sparseX i="15" alpha="13195.584199125436" sparseCutoff=".59662359954797661"/>
      <sparseX i="16" alpha="3739.7456050289784" sparseCutoff="1.0000000000000000"/>
      <sparseX i="17" alpha="-39041.754340921638" sparseCutoff=".37575922716528820E-001"/>
      <sparseX i="18" alpha="2709.1051386246068" sparseCutoff=".98806222860001158"/>
      <sparseX i="19" alpha="572.15349674241781" sparseCutoff=".98806222860001158"/>
      <sparseX i="20" alpha="73775.215682589784" sparseCutoff=".14713888518680068"/>
      <sparseX i="21" alpha="-2617.4000830994596" sparseCutoff=".14713888518680068"/>
      <sparseX i="22" alpha="69188.160866161197" sparseCutoff=".13929458024072700"/>
      <sparseX i="23" alpha="-138696.57092789415" sparseCutoff=".20327999249998119E-001"/>
      <sparseX i="24" alpha="32585.000994222974" sparseCutoff=".18545300804286480"/>
      <sparseX i="25" alpha="14833.053947854407" sparseCutoff=".97104388833721589"/>
      <sparseX i="26" alpha="-34705.236722187416" sparseCutoff=".87882632178996993E-002"/>
      <sparseX i="27" alpha="-24383.470748238131" sparseCutoff=".40467799657021519E-001"/>
      <sparseX i="28" alpha="128494.14390637835" sparseCutoff=".24321213651686564E-001"/>
      <sparseX i="29" alpha="6271.1108827119278" sparseCutoff=".55841382699397266E-002"/>
      <sparseX i="30" alpha="38274.048948095049" sparseCutoff="1.0000000000000000"/>
      <sparseX i="31" alpha="42951.692105572809" sparseCutoff=".34752421467695493"/>
      <sparseX i="32" alpha="-204.08527682724647" sparseCutoff=".85197506174541693"/>
      <sparseX i="33" alpha="-2467.6937409379357" sparseCutoff="1.0000000000000000"/>
      <sparseX i="34" alpha="-14243.117966060065" sparseCutoff=".81021023830171734E-001"/>
      <sparseX i="35" alpha="-1803.1892363478382" sparseCutoff=".36894422835090768"/>
      <sparseX i="36" alpha="4516.0291484100262" sparseCutoff=".27192891668376407"/>
      <sparseX i="37" alpha="-8934.3165333263023" sparseCutoff="1.0000000000000000"/>
      <sparseX i="38" alpha="5607.1626951202170" sparseCutoff="1.0000000000000000"/>
      <sparseX i="39" alpha="-296.33319800593574" sparseCutoff=".21870211684617467E-002"/>
      <sparseX i="40" alpha="34804.013023496940" sparseCutoff=".29857712897993105E-001"/>
      <sparseX i="41" alpha="-4843.4811092598820" sparseCutoff=".43856494531613321"/>
      <sparseX i="42" alpha="27859.174088809948" sparseCutoff=".19165339425358516E-001"/>
      <sparseX i="43" alpha="-39265.498781348979" sparseCutoff=".18093150836906507"/>
      <sparseX i="44" alpha="1973.5199619313548" sparseCutoff=".11218810642220078E-002"/>
      <sparseX i="45" alpha="-3011.7546617933617" sparseCutoff=".86852619851856550"/>
      <sparseX i="46" alpha="9491.2724621729649" sparseCutoff=".85539143039972121"/>
      <sparseX i="47" alpha="-6470.9086763489904" sparseCutoff="1.0000000000000000"/>
      <sparseX i="48" alpha="7141.0466478998242" sparseCutoff=".85173350825309924"/>
      <sparseX i="49" alpha="-33.574304321628070" sparseCutoff=".46375040516347238E-004"/>
      <sparseX i="50" alpha="-34276.879469090454" sparseCutoff=".36565942120436734E-002"/>
      <sparseX i="51" alpha="6777.6226459127420" sparseCutoff="1.0000000000000000"/>
      <sparseX i="52" alpha="5531.0282454248099" sparseCutoff="1.0000000000000000"/>
      <sparseX i="53" alpha="-1098.7152511724150" sparseCutoff=".47621358551340620"/>
      <sparseX i="54" alpha="10411.671830116135" sparseCutoff="1.0000000000000000"/>
      <sparseX i="55" alpha="-4367.4128914033490" sparseCutoff="1.0000000000000000"/>
      <sparseX i="56" alpha="-6089.9217688558356" sparseCutoff=".91310275585060396"/>
      <sparseX i="57" alpha="-94642.395826655425" sparseCutoff=".24301455654428240E-001"/>
      <sparseX i="58" alpha="-2262.2189230622785" sparseCutoff=".96600178318119712"/>
      <sparseX i="59" alpha="-50564.760153024217" sparseCutoff=".87026163101333098E-001"/>
      <sparseX i="60" alpha="23.679472210777224" sparseCutoff=".14513474283051053E-004"/>
      <sparseX i="61" alpha="12660.615772274256" sparseCutoff=".77050907149795482E-002"/>
      <sparseX i="62" alpha="-4720.0978404332627" sparseCutoff=".47610254134913932"/>
      <sparseX i="63" alpha="6282.2338259855160" sparseCutoff="1.0000000000000000"/>
      <sparseX i="64" alpha="3731.2294520262112" sparseCutoff=".89564826383741347"/>
      <sparseX i="65" alpha="6038.5751832373035" sparseCutoff="1.0000000000000000"/>
      <sparseX i="66" alpha="-14763.803032119578" sparseCutoff=".59756280848532461E-002"/>
      <sparseX i="67" alpha="-257.05967469220622" sparseCutoff="1.0000000000000000"/>
      <sparseX i="68" alpha="-385.38314621362008" sparseCutoff="1.0000000000000000"/>
      <sparseX i="69" alpha="-3812.3867639749851" sparseCutoff=".24662694569281923"/>
      <sparseX i="70" alpha="2563.4374398149175" sparseCutoff=".64582296543632434"/>
      <sparseX i="71" alpha="5101.4308156705229" sparseCutoff="1.0000000000000000"/>
      <sparseX i="72" alpha="-30166.946263837388" sparseCutoff=".18130537458144191E-002"/>
      <sparseX i="73" alpha="-6147.2484338139102" sparseCutoff="1.0000000000000000"/>
      <sparseX i="74" alpha="-11579.407641344296" sparseCutoff=".11133599817335471E-001"/>
      <sparseX i="75" alpha="-7240.0935351299231" sparseCutoff="1.0000000000000000"/>
      <sparseX i="76" alpha="-3962.9477831798117" sparseCutoff=".15949352228636915E-002"/>
      <sparseX i="77" alpha="5584.3861989839452" sparseCutoff=".96204359846460474"/>
      <sparseX i="78" alpha="9167.2429219378209" sparseCutoff="1.0000000000000000"/>
      <sparseX i="79" alpha="-2688.2947088564088" sparseCutoff=".91283264700404998"/>
      <sparseX i="80" alpha="1123.1542361494908" sparseCutoff=".80100265133986603E-003"/>
      <sparseX i="81" alpha="-3891.8636921049183" sparseCutoff=".92029361920252994"/>
      <sparseX i="82" alpha="-34606.740950197527" sparseCutoff=".21708644195998786E-001"/>
      <sparseX i="83" alpha="609.02576131121907" sparseCutoff=".37737017872808232"/>
      <sparseX i="84" alpha="-1140.9134745316976" sparseCutoff="1.0000000000000000"/>
      <sparseX i="85" alpha="-9304.3560552836952" sparseCutoff="1.0000000000000000"/>
      <sparseX i="86" alpha="-50854.873345633721" sparseCutoff=".91436893205359970E-001"/>
      <sparseX i="87" alpha="668.24408338266392" sparseCutoff=".15954989125657182E-002"/>
      <sparseX i="88" alpha="12262.857288539102" sparseCutoff=".54339912467035234"/>
      <sparseX i="89" alpha="-1782.9378770439521" sparseCutoff=".11233001460635055E-002"/>
      <sparseX i="90" alpha="26370.834774046340" sparseCutoff="1.0000000000000000"/>
      <sparseX i="91" alpha="-6106.6700472138436" sparseCutoff=".20851511165633441E-001"/>
      <sparseX i="92" alpha="62742.677836662093" sparseCutoff=".56861758145433379E-001"/>
      <sparseX i="93" alpha="1364.9278594521131" sparseCutoff=".15005788237180382E-002"/>
      <sparseX i="94" alpha="32318.835953885020" sparseCutoff=".97834842269048983E-001"/>
      <sparseX i="95" alpha="-319.22054038142466" sparseCutoff="1.0000000000000000"/>
      <sparseX i="96" alpha="-2521.4995074880339" sparseCutoff=".18050769093180583"/>
      <sparseX i="97" alpha="49109.996449820203" sparseCutoff=".85328748265293630E-001"/>
      <sparseX i="98" alpha="-412.75898232693618" sparseCutoff=".91014264252443688E-001"/>
      <sparseX i="99" alpha="-14846.659187867142" sparseCutoff="1.0000000000000000"/>
      <sparseX i="100" alpha="-34294.886697928079" sparseCutoff=".59784200430051749E-002"/>
      <sparseX i="101" alpha="-677.91797701932774" sparseCutoff="1.0000000000000000"/>
      <sparseX i="102" alpha="3082.6873600768413" sparseCutoff=".29334182772516315E-002"/>
      <sparseX i="103" alpha="16773.631279637717" sparseCutoff="1.0000000000000000"/>
      <sparseX i="104" alpha="6371.9143881848531" sparseCutoff="1.0000000000000000"/>
      <sparseX i="105" alpha="14116.593290749885" sparseCutoff="1.0000000000000000"/>
      <sparseX i="106" alpha="-95032.162775004981" sparseCutoff=".93024263977184041E-002"/>
      <sparseX i="107" alpha="-11741.704609218174" sparseCutoff=".24793969002993327"/>
      <sparseX i="108" alpha="-42290.369390108674" sparseCutoff=".21291185623228293E-001"/>
      <sparseX i="109" alpha="-67323.683328693922" sparseCutoff=".68202937425500543E-001"/>
      <sparseX i="110" alpha="-5939.1034074698309" sparseCutoff=".84767540965083343"/>
      <sparseX i="111" alpha="20360.813487415897" sparseCutoff=".22856237612884317"/>
      <sparseX i="112" alpha="-10935.007913233720" sparseCutoff=".80238005719183092"/>
      <sparseX i="113" alpha="27201.525656287849" sparseCutoff=".10068617313975446"/>
      <sparseX i="114" alpha="-29036.785304618021" sparseCutoff=".16222087010271807"/>
      <sparseX i="115" alpha="-18109.353099656848" sparseCutoff=".31290915876817904"/>
      <sparseX i="116" alpha="-6901.8414587347606" sparseCutoff=".59243100675522031"/>
      <sparseX i="117" alpha="2760.3999782463129" sparseCutoff="1.0000000000000000"/>
      <sparseX i="118" alpha="-29498.396389268375" sparseCutoff=".45902366241860282E-001"/>
      <sparseX i="119" alpha="21000.734251030764" sparseCutoff=".19344545087633047"/>
      <sparseX i="120" alpha="-5493.2488227770618" sparseCutoff="1.0000000000000000"/>
      <sparseX i="121" alpha="-5592.3371590959478" sparseCutoff=".24158243460930728"/>
      <sparseX i="122" alpha="-1569.6834697526001" sparseCutoff=".90179469720418282"/>
      <sparseX i="123" alpha="-58364.885026726210" sparseCutoff=".60134372893769550E-001"/>
      <sparseX i="124" alpha="-4957.6539251400764" sparseCutoff="1.0000000000000000"/>
      <sparseX i="125" alpha="1419.4403484016789" sparseCutoff="1.0000000000000000"/>
      <sparseX i="126" alpha="-7289.5407423027900" sparseCutoff=".61558297024313369E-002"/>
      <sparseX i="127" alpha="-7497.4579328818045" sparseCutoff=".33748190681425205E-002"/>
      <sparseX i="128" alpha="-81828.241737039600" sparseCutoff=".57682934901033045E-001"/>
      <sparseX i="129" alpha="-1784.0736011642425" sparseCutoff="1.0000000000000000"/>
      <sparseX i="130" alpha="-26690.551880131872" sparseCutoff=".24839735338350655E-001"/>
      <sparseX i="131" alpha="95565.366307913602" sparseCutoff=".18804169451922509"/>
      <sparseX i="132" alpha="-29170.707364188151" sparseCutoff=".26733458077643435E-001"/>
      <sparseX i="133" alpha="-43422.260153516378" sparseCutoff="1.0000000000000000"/>
      <sparseX i="134" alpha="3790.5026796680190" sparseCutoff="1.0000000000000000"/>
      <sparseX i="135" alpha="-993.63493593497651" sparseCutoff=".23130558562501879"/>
      <sparseX i="136" alpha="50961.367148701109" sparseCutoff=".36796042273690016E-001"/>
      <sparseX i="137" alpha="-29347.180174291745" sparseCutoff=".98120679613819806"/>
      <sparseX i="138" alpha="-32520.965989780612" sparseCutoff=".25792510218567183"/>
      <sparseX i="139" alpha="4488.8098980411023" sparseCutoff="1.0000000000000000"/>
      <sparseX i="140" alpha="6548.8751819233103" sparseCutoff="1.0000000000000000"/>
      <sparseX i="141" alpha="2159.9945938839496" sparseCutoff="1.0000000000000000"/>
      <sparseX i="142" alpha="6581.5801810777366" sparseCutoff="1.0000000000000000"/>
      <sparseX i="143" alpha="-3836.3122266226087" sparseCutoff=".56873455297093477E-003"/>
      <sparseX i="144" alpha="-49168.251201345862" sparseCutoff=".14595989766285140E-001"/>
      <sparseX i="145" alpha="-623.19753615792604" sparseCutoff=".84419751681095127E-004"/>
      <sparseX i="146" alpha="24802.231188041947" sparseCutoff=".60242037224025213E-001"/>
      <sparseX i="147" alpha="-12604.590601360582" sparseCutoff=".67121152531684769E-001"/>
      <sparseX i="148" alpha="-170812.94699540385" sparseCutoff=".20116055222386575E-001"/>
      <sparseX i="149" alpha="8601.8603733106647" sparseCutoff=".28276776275933174"/>
      <sparseX i="150" alpha="8626.4423584685828" sparseCutoff="1.0000000000000000"/>
      <sparseX i="151" alpha="-2200.6787451486043" sparseCutoff="1.0000000000000000"/>
      <sparseX i="152" alpha="-18294.507595551106" sparseCutoff=".92547834298034592E-003"/>
      <sparseX i="153" alpha="-3036.6166442808762" sparseCutoff=".25323987885236016"/>
      <sparseX i="154" alpha="10646.667421804306" sparseCutoff="1.0000000000000000"/>
      <sparseX i="155" alpha="100168.54546385094" sparseCutoff=".96631738307512094E-001"/>
      <sparseX i="156" alpha="-220.95221778370012" sparseCutoff=".42170200883898720E-003"/>
      <sparseX i="157" alpha="-1228.8119062714291" sparseCutoff=".45052815156300108E-002"/>
      <sparseX i="158" alpha="-897.53410595376283" sparseCutoff=".19289738609418183E-003"/>
      <sparseX i="159" alpha="5943.1093757539811" sparseCutoff=".29359416722662535"/>
      <sparseX i="160" alpha="22464.188382829630" sparseCutoff=".98118963082852673E-001"/>
      <sparseX i="161" alpha="-72073.801688033927" sparseCutoff=".18477140608114545"/>
      <sparseX i="162" alpha="-5431.4276537039514" sparseCutoff=".17610216638703213E-002"/>
      <sparseX i="163" alpha="2283.6312558440109" sparseCutoff="1.0000000000000000"/>
      <sparseX i="164" alpha="5802.6208045497533" sparseCutoff=".78904414454336980"/>
      <sparseX i="165" alpha="201.24913256972508" sparseCutoff=".27467484718434187E-002"/>
      <sparseX i="166" alpha="-995.36578660622695" sparseCutoff=".99994550092658818"/>
      <sparseX i="167" alpha="-5130.0487915049880" sparseCutoff=".12017127012606887"/>
      <sparseX i="168" alpha="-24842.019263182046" sparseCutoff="1.0000000000000000"/>
      <sparseX i="169" alpha="-22837.774756988554" sparseCutoff="1.0000000000000000"/>
      <sparseX i="170" alpha="-3649.7927498724407" sparseCutoff="1.0000000000000000"/>
      <sparseX i="171" alpha="-13492.709937013993" sparseCutoff=".14603059377469251E-002"/>
      <sparseX i="172" alpha="-19186.650429440313" sparseCutoff=".46539434745103470E-001"/>
      <sparseX i="173" alpha="4796.4707517840143" sparseCutoff=".32584629603835691"/>
      <sparseX i="174" alpha="13446.522001879037" sparseCutoff="1.0000000000000000"/>
      <sparseX i="175" alpha="3152.4324343965532" sparseCutoff=".70601728933094576"/>
      <sparseX i="176" alpha="9717.4473608050703" sparseCutoff="1.0000000000000000"/>
      <sparseX i="177" alpha="-9392.8976679385196" sparseCutoff=".87523661692521517E-003"/>
      <sparseX i="178" alpha="6545.0323383170107" sparseCutoff="1.0000000000000000"/>
      <sparseX i="179" alpha="-16512.998963997619" sparseCutoff=".68482999279067203"/>
      <sparseX i="180" alpha="-17232.586775563334" sparseCutoff=".13516461975647720"/>
      <sparseX i="181" alpha="33082.442324041804" sparseCutoff=".21206596921860721"/>
      <sparseX i="182" alpha="-15172.262760342039" sparseCutoff=".42594544971224035"/>
      <sparseX i="183" alpha="16098.812548489752" sparseCutoff=".29102722637134704E-001"/>
      <sparseX i="184" alpha="-1603.9149926094153" sparseCutoff="1.0000000000000000"/>
      <sparseX i="185" alpha="-2534.0726345101834" sparseCutoff=".15284140005327795E-001"/>
      <sparseX i="186" alpha="4236.1778938415109" sparseCutoff=".28125953397011650E-002"/>
      <sparseX i="187" alpha="-16226.942447767145" sparseCutoff=".10312024841045153E-001"/>
      <sparseX i="188" alpha="-4015.6913731195250" sparseCutoff=".99393504474890104"/>
      <sparseX i="189" alpha="1690.7442485033259" sparseCutoff=".98260058517552673"/>
      <sparseX i="190" alpha="10067.076598053614" sparseCutoff=".87181184933520073"/>
      <sparseX i="191" alpha="-12242.679213735964" sparseCutoff="1.0000000000000000"/>
      <sparseX i="192" alpha="11364.197708181688" sparseCutoff="1.0000000000000000"/>
      <sparseX i="193" alpha="-2662.6274670011662" sparseCutoff=".77918751673722264"/>
      <sparseX i="194" alpha="-332978.93691492442" sparseCutoff=".48468026223709326E-001"/>
      <sparseX i="195" alpha="-6126.1761822416556" sparseCutoff="1.0000000000000000"/>
      <sparseX i="196" alpha="18980.174848280800" sparseCutoff=".99317852301876974"/>
      <sparseX i="197" alpha="9707.1851542392451" sparseCutoff="1.0000000000000000"/>
      <sparseX i="198" alpha="-3507.0040138086192" sparseCutoff="1.0000000000000000"/>
      <sparseX i="199" alpha="6089.0442942881409" sparseCutoff="1.0000000000000000"/>
      <sparseX i="200" alpha="-269.83692960049126" sparseCutoff=".42916141761351057E-003"/>
    </gpCoordinates>
    <gpCoordinates label="GAP_2026_3_23_120_0_25_8_4916" dimensions="3" signal_variance=".10000000000000000E-001" signal_mean=".00000000000000000E+000" sparsified="T" n_permutations="1" covariance_type="4" n_sparseX="200" sparseX_filename="CH.xml.sparseX.GAP_2026_3_23_120_0_25_8_4916" sparseX_md5sum="2f260f10447daafcc5a312e24401ce81">
      <theta>  0.20000000000000000E+001  0.20000000000000000E+001  0.20000000000000000E+001 </theta>
      <descriptor> angle_3b Z_center=6 Z1=6 Z2=6 cutoff=2.0 n_sparse=200 covariance_type=pp delta=0.01 theta_uniform=2.0 sparse_method=uniform add_species=F</descriptor>
      <permutation i="1">1 2 3  </permutation>
      <sparseX i="1" alpha="-2584.6500241325334" sparseCutoff="1.0000000000000000"/>
      <sparseX i="2" alpha="98956.840058276081" sparseCutoff=".71595018471657912"/>
      <sparseX i="3" alpha="-105603.44002902375" sparseCutoff=".59274799049551075E-001"/>
      <sparseX i="4" alpha="-372.32404962465785" sparseCutoff=".84825793365405411"/>
      <sparseX i="5" alpha="-8808.3070722029861" sparseCutoff=".84825793365405411"/>
      <sparseX i="6" alpha="-3892.3246762620338" sparseCutoff=".58753059397471572E-003"/>
      <sparseX i="7" alpha="171858.43159977175" sparseCutoff=".53514467050350074E-001"/>
      <sparseX i="8" alpha="-20979.236810675262" sparseCutoff=".89487321711836931E-002"/>
      <sparseX i="9" alpha="-131042.16683718107" sparseCutoff=".59274799049551075E-001"/>
      <sparseX i="10" alpha="2921.3524353305056" sparseCutoff=".44893634608438064E-002"/>
      <sparseX i="11" alpha="177051.04197181982" sparseCutoff=".20377030143270445E-001"/>
      <sparseX i="12" alpha="5785.3363509495121" sparseCutoff=".17811012704430039E-002"/>
      <sparseX i="13" alpha="53446.026253648088" sparseCutoff=".14524336581821795"/>
      <sparseX i="14" alpha="34081.471767899071" sparseCutoff="1.0000000000000000"/>
      <sparseX i="15" alpha="-32883.321564015998" sparseCutoff=".26935819089258729E-001"/>
      <sparseX i="16" alpha="8478.0498434906676" sparseCutoff=".24942707909843785E-002"/>
      <sparseX i="17" alpha="41578.186399634345" sparseCutoff=".56735902302313401E-002"/>
      <sparseX i="18" alpha="2493.2020194095680" sparseCutoff=".37531963769056377E-002"/>
      <sparseX i="19" alpha="-5259.6130409887510" sparseCutoff=".99885079828347623"/>
      <sparseX i="20" alpha="-10203.493169650475" sparseCutoff=".77108881707409171"/>
      <sparseX i="21" alpha="13152.860327030050" sparseCutoff=".64244960625895270E-001"/>
      <sparseX i="22" alpha="-201961.53329381481" sparseCutoff=".20031578268747907E-001"/>
      <sparseX i="23" alpha="4789.6587001647622" sparseCutoff=".97361713195810418"/>
      <sparseX i="24" alpha="-167177.99758630336" sparseCutoff=".13845882307393587"/>
      <sparseX i="25" alpha="172194.62482693521" sparseCutoff=".13845882307393587"/>
      <sparseX i="26" alpha="19185.792169512559" sparseCutoff=".63085623016115155"/>
      <sparseX i="27" alpha="-87700.450916926842" sparseCutoff=".44237041964647861"/>
      <sparseX i="28" alpha="36797.806637150272" sparseCutoff="1.0000000000000000"/>
      <sparseX i="29" alpha="-1167.3446695517844" sparseCutoff=".22694854365590267E-003"/>
      <sparseX i="30" alpha="-20949.249034279139" sparseCutoff="1.0000000000000000"/>
      <sparseX i="31" alpha="-225440.21981714264" sparseCutoff=".20896196698833858E-001"/>
      <sparseX i="32" alpha="-21818.334199708745" sparseCutoff=".99908043564658677"/>
      <sparseX i="33" alpha="-698.56371150363736" sparseCutoff="1.0000000000000000"/>
      <sparseX i="34" alpha="-32374.515964138169" sparseCutoff=".85173350825309924"/>
      <sparseX i="35" alpha="-28937.414303009031" sparseCutoff=".54340421939818506"/>
      <sparseX i="36" alpha="-38663.226226357758" sparseCutoff="1.0000000000000000"/>
      <sparseX i="37" alpha="-40963.286806576456" sparseCutoff="1.0000000000000000"/>
      <sparseX i="38" alpha="-48096.024271860231" sparseCutoff="1.0000000000000000"/>
      <sparseX i="39" alpha="-7209.6247506039208" sparseCutoff=".30976176035637992"/>
      <sparseX i="40" alpha="-15389.473595424843" sparseCutoff=".67606131723310525"/>
      <sparseX i="41" alpha="-15276.590724768846" sparseCutoff=".57102442591638103"/>
      <sparseX i="42" alpha="-4898.7797975294625" sparseCutoff=".45028997347806854E-002"/>
      <sparseX i="43" alpha="32306.818323568616" sparseCutoff=".12559920995362645"/>
      <sparseX i="44" alpha="17458.440147324356" sparseCutoff=".28738624563590742"/>
      <sparseX i="45" alpha="-71309.250907518246" sparseCutoff="1.0000000000000000"/>
      <sparseX i="46" alpha="-46414.379764687146" sparseCutoff="1.0000000000000000"/>
      <sparseX i="47" alpha="-10100.166946866835" sparseCutoff="1.0000000000000000"/>
      <sparseX i="48" alpha="-34867.150294742351" sparseCutoff="1.0000000000000000"/>
      <sparseX i="49" alpha="27567.847353505895" sparseCutoff=".18468019635728694E-001"/>
      <sparseX i="50" alpha="71598.378382851661" sparseCutoff=".12435555048807873"/>
      <sparseX i="51" alpha="209395.38050143380" sparseCutoff=".66744817895894260E-001"/>
      <sparseX i="52" alpha="144461.38518703714" sparseCutoff=".24304333401567291E-001"/>
      <sparseX i="53" alpha="179182.05567067009" sparseCutoff=".21138908565368729E-001"/>
      <sparseX i="54" alpha="-101942.29102075619" sparseCutoff=".62930926578403323E-001"/>
      <sparseX i="55" alpha="-212634.08047695379" sparseCutoff=".57999470366155471E-002"/>
      <sparseX i="56" alpha="4570.1516865089061" sparseCutoff=".30604755474907347"/>
      <sparseX i="57" alpha="119427.85163833658" sparseCutoff=".24182113327211929E-001"/>
      <sparseX i="58" alpha="-27468.132405662956" sparseCutoff=".11027681954465463"/>
      <sparseX i="59" alpha="-52089.889982478562" sparseCutoff=".10556474975432832"/>
      <sparseX i="60" alpha="-14.430057553797148" sparseCutoff=".93210512715713456E-004"/>
      <sparseX i="61" alpha="-85545.083651871377" sparseCutoff="1.0000000000000000"/>
      <sparseX i="62" alpha="16271.941005754012" sparseCutoff=".22833326056457570"/>
      <sparseX i="63" alpha="-71593.591998269563" sparseCutoff=".49492358225880773E-001"/>
      <sparseX i="64" alpha="5581.3911561943642" sparseCutoff=".45910536612711123"/>
      <sparseX i="65" alpha="-451430.98700821650" sparseCutoff=".19186345880696433E-001"/>
      <sparseX i="66" alpha="1526.5869792894000" sparseCutoff=".24245563542056869E-002"/>
      <sparseX i="67" alpha="898.60219086967470" sparseCutoff=".97682036250254489"/>
      <sparseX i="68" alpha="411.23707925957456" sparseCutoff=".12925343082014116E-003"/>
      <sparseX i="69" alpha="51235.561153690374" sparseCutoff=".13487406350093809"/>
      <sparseX i="70" alpha="-76132.411636083052" sparseCutoff=".27350212364056437E-001"/>
      <sparseX i="71" alpha="-32174.052793485567" sparseCutoff=".75463722580445824"/>
      <sparseX i="72" alpha="24521.893336143250" sparseCutoff=".35584063876555028"/>
      <sparseX i="73" alpha="-20576.294081640252" sparseCutoff=".28286877167327185"/>
      <sparseX i="74" alpha="13425.195141391778" sparseCutoff=".30290075249494591E-002"/>
      <sparseX i="75" alpha="-3754.5338995612860" sparseCutoff="1.0000000000000000"/>
      <sparseX i="76" alpha="-267708.17248741677" sparseCutoff=".52799589721185425E-001"/>
      <sparseX i="77" alpha="35133.790571942474" sparseCutoff="1.0000000000000000"/>
      <sparseX i="78" alpha="24194.760171388672" sparseCutoff="1.0000000000000000"/>
      <sparseX i="79" alpha="24828.547251828466" sparseCutoff="1.0000000000000000"/>
      <sparseX i="80" alpha="1215.0393113841831" sparseCutoff=".36076707809582409E-003"/>
      <sparseX i="81" alpha="6064.0729947914106" sparseCutoff=".30467988046438646E-001"/>
      <sparseX i="82" alpha="17884.664401455695" sparseCutoff=".89773324148585942"/>
      <sparseX i="83" alpha="470097.92705771857" sparseCutoff=".90592113381646411E-001"/>
      <sparseX i="84" alpha="-30973.389510979450" sparseCutoff=".22496704329215522E-001"/>
      <sparseX i="85" alpha="10469.870626581682" sparseCutoff=".22496704329215522E-001"/>
      <sparseX i="86" alpha="72712.294480767247" sparseCutoff=".53184043434292594"/>
      <sparseX i="87" alpha="-11691.832527426135" sparseCutoff=".19148802252771591"/>
      <sparseX i="88" alpha="23767.921522061464" sparseCutoff=".92329408881631991"/>
      <sparseX i="89" alpha="25103.472428503777" sparseCutoff="1.0000000000000000"/>
      <sparseX i="90" alpha="60780.444126896655" sparseCutoff="1.0000000000000000"/>
      <sparseX i="91" alpha="53076.859274385424" sparseCutoff=".64543725203017425E-002"/>
      <sparseX i="92" alpha="-66786.005138466222" sparseCutoff="1.0000000000000000"/>
      <sparseX i="93" alpha="6802.0871571656089" sparseCutoff=".14554406489201144E-002"/>
      <sparseX i="94" alpha="5241.9930383016790" sparseCutoff=".97267353102428844"/>
      <sparseX i="95" alpha="26641.773994813455" sparseCutoff="1.0000000000000000"/>
      <sparseX i="96" alpha="-41438.830607331809" sparseCutoff="1.0000000000000000"/>
      <sparseX i="97" alpha="-229.86017336868684" sparseCutoff=".60742487619794866E-004"/>
      <sparseX i="98" alpha="2370.4693847119502" sparseCutoff=".73387531529813237E-003"/>
      <sparseX i="99" alpha="49840.452301816593" sparseCutoff="1.0000000000000000"/>
      <sparseX i="100" alpha="165929.34350967794" sparseCutoff=".38184190497560888E-001"/>
      <sparseX i="101" alpha="8185.1046338025653" sparseCutoff=".67064284846554090"/>
      <sparseX i="102" alpha="123.47677803144236" sparseCutoff=".60380155937345137E-004"/>
      <sparseX i="103" alpha="-51255.159771808292" sparseCutoff=".18508932836154790E-001"/>
      <sparseX i="104" alpha="1890.8098646099043" sparseCutoff=".72553228654015367E-003"/>
      <sparseX i="105" alpha="13116.763437433885" sparseCutoff=".95373083272362580"/>
      <sparseX i="106" alpha="-6033.7905741550894" sparseCutoff="1.0000000000000000"/>
      <sparseX i="107" alpha="13635.829860444954" sparseCutoff="1.0000000000000000"/>
      <sparseX i="108" alpha="-43164.837480793474" sparseCutoff="1.0000000000000000"/>
      <sparseX i="109" alpha="-5376.9905207205866" sparseCutoff="1.0000000000000000"/>
      <sparseX i="110" alpha="-83078.791472868223" sparseCutoff="1.0000000000000000"/>
      <sparseX i="111" alpha="12134.960085806315" sparseCutoff=".14886213220048405E-001"/>
      <sparseX i="112" alpha="2684.5287074425460" sparseCutoff=".91746535046885314"/>
      <sparseX i="113" alpha="17511.740086809303" sparseCutoff=".59363929316386088"/>
      <sparseX i="114" alpha="150402.75335389460" sparseCutoff=".55040146340215534"/>
      <sparseX i="115" alpha="154760.44514021405" sparseCutoff=".20929742784811572"/>
      <sparseX i="116" alpha="-375166.87906298513" sparseCutoff=".84734601322610681E-001"/>
      <sparseX i="117" alpha="35928.276720185771" sparseCutoff="1.0000000000000000"/>
      <sparseX i="118" alpha="15515.031083459153" sparseCutoff="1.0000000000000000"/>
      <sparseX i="119" alpha="-3020.4367999768565" sparseCutoff="1.0000000000000000"/>
      <sparseX i="120" alpha="59088.405272153759" sparseCutoff=".12813633609345965"/>
      <sparseX i="121" alpha="-41819.022465272006" sparseCutoff=".83510122422604560"/>
      <sparseX i="122" alpha="-67320.444521775760" sparseCutoff=".42839163578668404"/>
      <sparseX i="123" alpha="-78547.577108984915" sparseCutoff="1.0000000000000000"/>
      <sparseX i="124" alpha="-220783.54391568754" sparseCutoff=".68202937425500543E-001"/>
      <sparseX i="125" alpha="-40049.910044773838" sparseCutoff=".91278016998600453"/>
      <sparseX i="126" alpha="-28591.616522163178" sparseCutoff=".71854748651654893E-001"/>
      <sparseX i="127" alpha="-88935.940491204528" sparseCutoff=".11501816614509563"/>
      <sparseX i="128" alpha="33002.472262533171" sparseCutoff="1.0000000000000000"/>
      <sparseX i="129" alpha="21803.594548270426" sparseCutoff=".17223689322103153"/>
      <sparseX i="130" alpha="16601.573182840606" sparseCutoff=".88876266026064044"/>
      <sparseX i="131" alpha="-26553.643065770149" sparseCutoff=".14551888001655650"/>
      <sparseX i="132" alpha="10118.532733964727" sparseCutoff="1.0000000000000000"/>
      <sparseX i="133" alpha="10256.902140049300" sparseCutoff="1.0000000000000000"/>
      <sparseX i="134" alpha="-36024.733728625732" sparseCutoff=".34947665297505089E-002"/>
      <sparseX i="135" alpha="7949.2526777522071" sparseCutoff="1.0000000000000000"/>
      <sparseX i="136" alpha="-25352.598177075688" sparseCutoff="1.0000000000000000"/>
      <sparseX i="137" alpha="4326.6335830931521" sparseCutoff=".15702679709854950E-001"/>
      <sparseX i="138" alpha="-4876.9813657270161" sparseCutoff=".76474524671106803"/>
      <sparseX i="139" alpha="4206.5994555543521" sparseCutoff="1.0000000000000000"/>
      <sparseX i="140" alpha="63739.045287826862" sparseCutoff=".19148936398651628"/>
      <sparseX i="141" alpha="-77.393651698477200" sparseCutoff=".13885780502841667E-004"/>
      <sparseX i="142" alpha="-212345.40239454110" sparseCutoff=".40729963118520840E-001"/>
      <sparseX i="143" alpha="-845.23611493963313" sparseCutoff=".34105778186752198E-003"/>
      <sparseX i="144" alpha="9524.3930650640796" sparseCutoff=".35756741469741771"/>
      <sparseX i="145" alpha="10583.575732077792" sparseCutoff=".35756741469741771"/>
      <sparseX i="146" alpha="-976.12767999533730" sparseCutoff=".85382086686946050E-004"/>
      <sparseX i="147" alpha="97.568800339687371" sparseCutoff=".23528792153924981E-004"/>
      <sparseX i="148" alpha="46625.774408355923" sparseCutoff=".16218735650688598E-001"/>
      <sparseX i="149" alpha="-139839.31375929614" sparseCutoff=".21905946369401569"/>
      <sparseX i="150" alpha="15.739382828514573" sparseCutoff=".56547556410493219E-005"/>
      <sparseX i="151" alpha="-23942.679952977549" sparseCutoff=".95733479643777164"/>
      <sparseX i="152" alpha="33014.932954290787" sparseCutoff=".21754659167798124"/>
      <sparseX i="153" alpha="10809.773862337755" sparseCutoff=".29189907926575175E-001"/>
      <sparseX i="154" alpha="-66124.221380810515" sparseCutoff=".13800412506150994E-001"/>
      <sparseX i="155" alpha="14722.342146840754" sparseCutoff=".41046037966739968"/>
      <sparseX i="156" alpha="8338.7410244547082" sparseCutoff=".36966914451986010"/>
      <sparseX i="157" alpha="18093.125826778061" sparseCutoff=".36966914451986010"/>
      <sparseX i="158" alpha="85500.905728784244" sparseCutoff="1.0000000000000000"/>
      <sparseX i="159" alpha="129790.98216783462" sparseCutoff=".76952947170620256"/>
      <sparseX i="160" alpha="64910.638018402875" sparseCutoff=".14267636685153240"/>
      <sparseX i="161" alpha="554.56989999506857" sparseCutoff=".17306807045304977E-003"/>
      <sparseX i="162" alpha="-.83924259973455639" sparseCutoff=".91113636670734349E-007"/>
      <sparseX i="163" alpha="-63633.494088745603" sparseCutoff=".87770749897993405"/>
      <sparseX i="164" alpha="-12357.928063329817" sparseCutoff=".37873825164401514"/>
      <sparseX i="165" alpha="-39.256559340899770" sparseCutoff=".36270535622107136E-004"/>
      <sparseX i="166" alpha="-4007.9474897510522" sparseCutoff=".67827299127145579E-002"/>
      <sparseX i="167" alpha="-5166.2578757660094" sparseCutoff=".34353133313548345"/>
      <sparseX i="168" alpha="82765.753246990920" sparseCutoff=".57506961906008913"/>
      <sparseX i="169" alpha="-7944.9073340364857" sparseCutoff="1.0000000000000000"/>
      <sparseX i="170" alpha="-21926.261427748945" sparseCutoff=".21064520736511962E-001"/>
      <sparseX i="171" alpha="-105023.47412823117" sparseCutoff=".15056692399334357"/>
      <sparseX i="172" alpha="-3788.6573964903432" sparseCutoff=".62938529846501170E-003"/>
      <sparseX i="173" alpha="-38805.155436325105" sparseCutoff=".47073692263602640E-001"/>
      <sparseX i="174" alpha="-14918.513398420511" sparseCutoff=".36879418351711118"/>
      <sparseX i="175" alpha="141703.17015931726" sparseCutoff=".15250640503331225"/>
      <sparseX i="176" alpha="-210149.32456449195" sparseCutoff=".22046350734897624"/>
      <sparseX i="177" alpha="27198.631914542410" sparseCutoff="1.0000000000000000"/>
      <sparseX i="178" alpha="26545.173386976494" sparseCutoff="1.0000000000000000"/>
      <sparseX i="179" alpha="29481.281117549828" sparseCutoff="1.0000000000000000"/>
      <sparseX i="180" alpha="4785.4791295615332" sparseCutoff=".22026737782035455E-002"/>
      <sparseX i="181" alpha="-12642.383378071529" sparseCutoff="1.0000000000000000"/>
      <sparseX i="182" alpha="32490.914677408669" sparseCutoff=".17921906101419454E-001"/>
      <sparseX i="183" alpha="-13421.874133944344" sparseCutoff=".94665134920004135"/>
      <sparseX i="184" alpha="49205.670639031945" sparseCutoff="1.0000000000000000"/>
      <sparseX i="185" alpha="-1194.1220306976395" sparseCutoff=".99909064641341883"/>
      <sparseX i="186" alpha="19284.199444616548" sparseCutoff="1.0000000000000000"/>
      <sparseX i="187" alpha="-8297.0739456763295" sparseCutoff="1.0000000000000000"/>
      <sparseX i="188" alpha="-31938.887333789789" sparseCutoff="1.0000000000000000"/>
      <sparseX i="189" alpha="6590.2277871373126" sparseCutoff=".62387419949360978E-002"/>
      <sparseX i="190" alpha="-1.2035903664001382" sparseCutoff=".19213954173788754E-006"/>
      <sparseX i="191" alpha="-73.346429105448337" sparseCutoff=".20529570563532218E-005"/>
      <sparseX i="192" alpha="24605.841496933725" sparseCutoff="1.0000000000000000"/>
      <sparseX i="193" alpha="52927.018280757766" sparseCutoff=".21439229237226631E-001"/>
      <sparseX i="194" alpha="17616.309240079754" sparseCutoff=".42821333932747174E-001"/>
      <sparseX i="195" alpha="-5374.3951296258392" sparseCutoff=".32030396243006298E-002"/>
      <sparseX i="196" alpha="572.27487514755569" sparseCutoff=".71179204915515493E-001"/>
      <sparseX i="197" alpha="32682.477517194646" sparseCutoff="1.0000000000000000"/>
      <sparseX i="198" alpha="84307.855067534460" sparseCutoff="1.0000000000000000"/>
      <sparseX i="199" alpha="-141558.15419582120" sparseCutoff=".51883838823211348"/>
      <sparseX i="200" alpha="1734.3852979575406" sparseCutoff=".49787782822940874"/>
    </gpCoordinates>
    <gpCoordinates label="GAP_2026_3_23_120_0_25_8_4917" dimensions="75" signal_variance=".10000000000000001E+000" signal_mean=".00000000000000000E+000" sparsified="T" n_permutations="1" covariance_type="2" zeta="4.0000000000000000" n_sparseX="1000" sparseX_filename="CH.xml.sparseX.GAP_2026_3_23_120_0_25_8_4917" sparseX_md5sum="f2bf783c58ef8ecd43e5d8598352dc83">
      <descriptor> soap_turbo l_max=4 alpha_max={4 4} atom_sigma_r={0.2 0.2} atom_sigma_t={0.2 0.2} atom_sigma_r_scaling={0.1 0.1} atom_sigma_t_scaling={0.1 0.1} zeta=4 rcut_hard=4.0 rcut_soft=3.5 basis=poly3gauss scaling_mode=polynomial add_species=F amplitude_scaling={2.0 2.0} n_species=2 species_Z={1 6} central_index=1 radial_enhancement=1 compress_mode=trivial central_weight={1.0 1.0} n_sparse=1000 delta=0.1 f0=0.0 covariance_type=dot_product sparse_method=cur_points</descriptor>
      <permutation i="1">1  </permutation>
      <sparseX i="1" alpha="-424.30203351721434" sparseCutoff="1.0000000000000000"/>
      <sparseX i="2" alpha="2847.3956582094588" sparseCutoff="1.0000000000000000"/>
      <sparseX i="3" alpha="-7694.0414931565047" sparseCutoff="1.0000000000000000"/>
      <sparseX i="4" alpha="-4194.8684971899520" sparseCutoff="1.0000000000000000"/>
      <sparseX i="5" alpha="62463.444475047407" sparseCutoff="1.0000000000000000"/>
      <sparseX i="6" alpha="-58081.999478458674" sparseCutoff="1.0000000000000000"/>
      <sparseX i="7" alpha="-8244.1186877020500" sparseCutoff="1.0000000000000000"/>
      <sparseX i="8" alpha="-35432.074817753470" sparseCutoff="1.0000000000000000"/>
      <sparseX i="9" alpha="-59918.804988588905" sparseCutoff="1.0000000000000000"/>
      <sparseX i="10" alpha="-28561.545627623775" sparseCutoff="1.0000000000000000"/>
      <sparseX i="11" alpha="-7758.1500092319448" sparseCutoff="1.0000000000000000"/>
      <sparseX i="12" alpha="-38904.996773240615" sparseCutoff="1.0000000000000000"/>
      <sparseX i="13" alpha="49661.800899540853" sparseCutoff="1.0000000000000000"/>
      <sparseX i="14" alpha="-26293.983341611551" sparseCutoff="1.0000000000000000"/>
      <sparseX i="15" alpha="-16011.328916302156" sparseCutoff="1.0000000000000000"/>
      <sparseX i="16" alpha="99464.016028421553" sparseCutoff="1.0000000000000000"/>
      <sparseX i="17" alpha="-10802.198103043998" sparseCutoff="1.0000000000000000"/>
      <sparseX i="18" alpha="8902.5539082364048" sparseCutoff="1.0000000000000000"/>
      <sparseX i="19" alpha="63180.284361366561" sparseCutoff="1.0000000000000000"/>
      <sparseX i="20" alpha="98668.377983439059" sparseCutoff="1.0000000000000000"/>
      <sparseX i="21" alpha="-52943.860320114887" sparseCutoff="1.0000000000000000"/>
      <sparseX i="22" alpha="33964.346620705066" sparseCutoff="1.0000000000000000"/>
      <sparseX i="23" alpha="156282.40947119563" sparseCutoff="1.0000000000000000"/>
      <sparseX i="24" alpha="11646.563393143058" sparseCutoff="1.0000000000000000"/>
      <sparseX i="25" alpha="-3082.6025244560137" sparseCutoff="1.0000000000000000"/>
      <sparseX i="26" alpha="-4588.7220306358877" sparseCutoff="1.0000000000000000"/>
      <sparseX i="27" alpha="-23826.913231348513" sparseCutoff="1.0000000000000000"/>
      <sparseX i="28" alpha="13762.769422605526" sparseCutoff="1.0000000000000000"/>
      <sparseX i="29" alpha="45619.140204390671" sparseCutoff="1.0000000000000000"/>
      <sparseX i="30" alpha="-7393.7246393187534" sparseCutoff="1.0000000000000000"/>
      <sparseX i="31" alpha="204288.43833414384" sparseCutoff="1.0000000000000000"/>
      <sparseX i="32" alpha="14621.855666736881" sparseCutoff="1.0000000000000000"/>
      <sparseX i="33" alpha="25049.573505337856" sparseCutoff="1.0000000000000000"/>
      <sparseX i="34" alpha="-49889.913966986991" sparseCutoff="1.0000000000000000"/>
      <sparseX i="35" alpha="1716.9451983878257" sparseCutoff="1.0000000000000000"/>
      <sparseX i="36" alpha="11077.308465577122" sparseCutoff="1.0000000000000000"/>
      <sparseX i="37" alpha="-858.26051156371773" sparseCutoff="1.0000000000000000"/>
      <sparseX i="38" alpha="-135.35044399416734" sparseCutoff="1.0000000000000000"/>
      <sparseX i="39" alpha="-77441.339376771110" sparseCutoff="1.0000000000000000"/>
      <sparseX i="40" alpha="-54866.233765798868" sparseCutoff="1.0000000000000000"/>
      <sparseX i="41" alpha="-64388.702571023816" sparseCutoff="1.0000000000000000"/>
      <sparseX i="42" alpha="5999.4101801085681" sparseCutoff="1.0000000000000000"/>
      <sparseX i="43" alpha="-16889.577442400554" sparseCutoff="1.0000000000000000"/>
      <sparseX i="44" alpha="-19605.858632577801" sparseCutoff="1.0000000000000000"/>
      <sparseX i="45" alpha="29.298560068034227" sparseCutoff="1.0000000000000000"/>
      <sparseX i="46" alpha="-124.46370285275262" sparseCutoff="1.0000000000000000"/>
      <sparseX i="47" alpha="152.06582873096161" sparseCutoff="1.0000000000000000"/>
      <sparseX i="48" alpha="-265.56001007466142" sparseCutoff="1.0000000000000000"/>
      <sparseX i="49" alpha="-7434.2468700522659" sparseCutoff="1.0000000000000000"/>
      <sparseX i="50" alpha="13696.022440964538" sparseCutoff="1.0000000000000000"/>
      <sparseX i="51" alpha="-992.18932051617662" sparseCutoff="1.0000000000000000"/>
      <sparseX i="52" alpha="-3332.4395813809620" sparseCutoff="1.0000000000000000"/>
      <sparseX i="53" alpha="9100.9327601648747" sparseCutoff="1.0000000000000000"/>
      <sparseX i="54" alpha="7454.9971910637423" sparseCutoff="1.0000000000000000"/>
      <sparseX i="55" alpha="-5138.3478067064825" sparseCutoff="1.0000000000000000"/>
      <sparseX i="56" alpha="-4838.2715640522829" sparseCutoff="1.0000000000000000"/>
      <sparseX i="57" alpha="-16741.613384855205" sparseCutoff="1.0000000000000000"/>
      <sparseX i="58" alpha="-5393.2949855720417" sparseCutoff="1.0000000000000000"/>
      <sparseX i="59" alpha="-22413.363141943428" sparseCutoff="1.0000000000000000"/>
      <sparseX i="60" alpha="-42068.904913441642" sparseCutoff="1.0000000000000000"/>
      <sparseX i="61" alpha="-32.012263809122345" sparseCutoff="1.0000000000000000"/>
      <sparseX i="62" alpha="14818.242221112643" sparseCutoff="1.0000000000000000"/>
      <sparseX i="63" alpha="9456.4311647079921" sparseCutoff="1.0000000000000000"/>
      <sparseX i="64" alpha="48477.336285981088" sparseCutoff="1.0000000000000000"/>
      <sparseX i="65" alpha="9487.4885899473375" sparseCutoff="1.0000000000000000"/>
      <sparseX i="66" alpha="-25318.519832325368" sparseCutoff="1.0000000000000000"/>
      <sparseX i="67" alpha="-41922.600683759192" sparseCutoff="1.0000000000000000"/>
      <sparseX i="68" alpha="-39855.738131493628" sparseCutoff="1.0000000000000000"/>
      <sparseX i="69" alpha="9350.3389246818770" sparseCutoff="1.0000000000000000"/>
      <sparseX i="70" alpha="4007.8423065370930" sparseCutoff="1.0000000000000000"/>
      <sparseX i="71" alpha="-5557.5661806461285" sparseCutoff="1.0000000000000000"/>
      <sparseX i="72" alpha="-790.12604893165894" sparseCutoff="1.0000000000000000"/>
      <sparseX i="73" alpha="3761.7383425227017" sparseCutoff="1.0000000000000000"/>
      <sparseX i="74" alpha="495985.80207812414" sparseCutoff="1.0000000000000000"/>
      <sparseX i="75" alpha="38923.566712216983" sparseCutoff="1.0000000000000000"/>
      <sparseX i="76" alpha="-4759.5807811489458" sparseCutoff="1.0000000000000000"/>
      <sparseX i="77" alpha="63260.777470983325" sparseCutoff="1.0000000000000000"/>
      <sparseX i="78" alpha="-159617.08568938106" sparseCutoff="1.0000000000000000"/>
      <sparseX i="79" alpha="48029.321706275121" sparseCutoff="1.0000000000000000"/>
      <sparseX i="80" alpha="10450.105619290811" sparseCutoff="1.0000000000000000"/>
      <sparseX i="81" alpha="-23515.577366593461" sparseCutoff="1.0000000000000000"/>
      <sparseX i="82" alpha="3572.1128307678855" sparseCutoff="1.0000000000000000"/>
      <sparseX i="83" alpha="65945.454874477073" sparseCutoff="1.0000000000000000"/>
      <sparseX i="84" alpha="-182500.88677438954" sparseCutoff="1.0000000000000000"/>
      <sparseX i="85" alpha="-77366.086839478245" sparseCutoff="1.0000000000000000"/>
      <sparseX i="86" alpha="1884.9167291667136" sparseCutoff="1.0000000000000000"/>
      <sparseX i="87" alpha="2930.1213916166112" sparseCutoff="1.0000000000000000"/>
      <sparseX i="88" alpha="66775.037183292210" sparseCutoff="1.0000000000000000"/>
      <sparseX i="89" alpha="-84453.505063382225" sparseCutoff="1.0000000000000000"/>
      <sparseX i="90" alpha="32075.473370449861" sparseCutoff="1.0000000000000000"/>
      <sparseX i="91" alpha="82277.157035436307" sparseCutoff="1.0000000000000000"/>
      <sparseX i="92" alpha="33042.253380714123" sparseCutoff="1.0000000000000000"/>
      <sparseX i="93" alpha="-109116.66679517161" sparseCutoff="1.0000000000000000"/>
      <sparseX i="94" alpha="-89144.575689326404" sparseCutoff="1.0000000000000000"/>
      <sparseX i="95" alpha="-54706.624060793438" sparseCutoff="1.0000000000000000"/>
      <sparseX i="96" alpha="20957.289582535032" sparseCutoff="1.0000000000000000"/>
      <sparseX i="97" alpha="-35766.575938006674" sparseCutoff="1.0000000000000000"/>
      <sparseX i="98" alpha="-7849.5704990915383" sparseCutoff="1.0000000000000000"/>
      <sparseX i="99" alpha="-32663.924829189298" sparseCutoff="1.0000000000000000"/>
      <sparseX i="100" alpha="2649.2647699606564" sparseCutoff="1.0000000000000000"/>
      <sparseX i="101" alpha="-9733.4460555969254" sparseCutoff="1.0000000000000000"/>
      <sparseX i="102" alpha="-40900.108504195901" sparseCutoff="1.0000000000000000"/>
      <sparseX i="103" alpha="51418.687259370658" sparseCutoff="1.0000000000000000"/>
      <sparseX i="104" alpha="-17827.425674467817" sparseCutoff="1.0000000000000000"/>
      <sparseX i="105" alpha="-5641.9163276493673" sparseCutoff="1.0000000000000000"/>
      <sparseX i="106" alpha="31178.592822558054" sparseCutoff="1.0000000000000000"/>
      <sparseX i="107" alpha="587.47830392207118" sparseCutoff="1.0000000000000000"/>
      <sparseX i="108" alpha="-32647.702767238043" sparseCutoff="1.0000000000000000"/>
      <sparseX i="109" alpha="14272.161986341631" sparseCutoff="1.0000000000000000"/>
      <sparseX i="110" alpha="-89270.460244026734" sparseCutoff="1.0000000000000000"/>
      <sparseX i="111" alpha="-3489.8923118348303" sparseCutoff="1.0000000000000000"/>
      <sparseX i="112" alpha="4396.8395017334251" sparseCutoff="1.0000000000000000"/>
      <sparseX i="113" alpha="2824.8635339517032" sparseCutoff="1.0000000000000000"/>
      <sparseX i="114" alpha="-5692.9807774796036" sparseCutoff="1.0000000000000000"/>
      <sparseX i="115" alpha="-31540.557419339577" sparseCutoff="1.0000000000000000"/>
      <sparseX i="116" alpha="-83545.467780655395" sparseCutoff="1.0000000000000000"/>
      <sparseX i="117" alpha="-4380.9934506609625" sparseCutoff="1.0000000000000000"/>
      <sparseX i="118" alpha="-2087.7568683122231" sparseCutoff="1.0000000000000000"/>
      <sparseX i="119" alpha="41707.855830642322" sparseCutoff="1.0000000000000000"/>
      <sparseX i="120" alpha="-303016.96234804706" sparseCutoff="1.0000000000000000"/>
      <sparseX i="121" alpha="36287.170108870530" sparseCutoff="1.0000000000000000"/>
      <sparseX i="122" alpha="71557.115055394344" sparseCutoff="1.0000000000000000"/>
      <sparseX i="123" alpha="-1448.1660706877692" sparseCutoff="1.0000000000000000"/>
      <sparseX i="124" alpha="-215983.29305480811" sparseCutoff="1.0000000000000000"/>
      <sparseX i="125" alpha="4074.8792530880733" sparseCutoff="1.0000000000000000"/>
      <sparseX i="126" alpha="-1161.5220236347734" sparseCutoff="1.0000000000000000"/>
      <sparseX i="127" alpha="-3900.1803410800367" sparseCutoff="1.0000000000000000"/>
      <sparseX i="128" alpha="426.03786659910872" sparseCutoff="1.0000000000000000"/>
      <sparseX i="129" alpha="-48.092882291115430" sparseCutoff="1.0000000000000000"/>
      <sparseX i="130" alpha="-468.03230990334561" sparseCutoff="1.0000000000000000"/>
      <sparseX i="131" alpha="-27601.463369236837" sparseCutoff="1.0000000000000000"/>
      <sparseX i="132" alpha="10257.452978533287" sparseCutoff="1.0000000000000000"/>
      <sparseX i="133" alpha="-39470.491695260673" sparseCutoff="1.0000000000000000"/>
      <sparseX i="134" alpha="-143104.80550305991" sparseCutoff="1.0000000000000000"/>
      <sparseX i="135" alpha="249109.87578641760" sparseCutoff="1.0000000000000000"/>
      <sparseX i="136" alpha="-169031.31234337925" sparseCutoff="1.0000000000000000"/>
      <sparseX i="137" alpha="-11142.373395478911" sparseCutoff="1.0000000000000000"/>
      <sparseX i="138" alpha="-66875.060379972303" sparseCutoff="1.0000000000000000"/>
      <sparseX i="139" alpha="7455.5690042616479" sparseCutoff="1.0000000000000000"/>
      <sparseX i="140" alpha="-147637.81656811867" sparseCutoff="1.0000000000000000"/>
      <sparseX i="141" alpha="-905.52192875390222" sparseCutoff="1.0000000000000000"/>
      <sparseX i="142" alpha="-253503.78823050519" sparseCutoff="1.0000000000000000"/>
      <sparseX i="143" alpha="83063.929294757443" sparseCutoff="1.0000000000000000"/>
      <sparseX i="144" alpha="-54280.200954986678" sparseCutoff="1.0000000000000000"/>
      <sparseX i="145" alpha="-13584.268510222366" sparseCutoff="1.0000000000000000"/>
      <sparseX i="146" alpha="255420.22866127116" sparseCutoff="1.0000000000000000"/>
      <sparseX i="147" alpha="-17175.868140076032" sparseCutoff="1.0000000000000000"/>
      <sparseX i="148" alpha="-15982.702784653007" sparseCutoff="1.0000000000000000"/>
      <sparseX i="149" alpha="120828.70908286073" sparseCutoff="1.0000000000000000"/>
      <sparseX i="150" alpha="1037.5103459841830" sparseCutoff="1.0000000000000000"/>
      <sparseX i="151" alpha="11265.724481908646" sparseCutoff="1.0000000000000000"/>
      <sparseX i="152" alpha="81239.989885399904" sparseCutoff="1.0000000000000000"/>
      <sparseX i="153" alpha="34979.366124258668" sparseCutoff="1.0000000000000000"/>
      <sparseX i="154" alpha="16703.704750040866" sparseCutoff="1.0000000000000000"/>
      <sparseX i="155" alpha="6887.5580231320782" sparseCutoff="1.0000000000000000"/>
      <sparseX i="156" alpha="5075.0911446519876" sparseCutoff="1.0000000000000000"/>
      <sparseX i="157" alpha="-3520.2829616790959" sparseCutoff="1.0000000000000000"/>
      <sparseX i="158" alpha="6598.6964917829418" sparseCutoff="1.0000000000000000"/>
      <sparseX i="159" alpha="10636.161635260438" sparseCutoff="1.0000000000000000"/>
      <sparseX i="160" alpha="-21069.172027935991" sparseCutoff="1.0000000000000000"/>
      <sparseX i="161" alpha="135317.51418131799" sparseCutoff="1.0000000000000000"/>
      <sparseX i="162" alpha="-96182.477910928341" sparseCutoff="1.0000000000000000"/>
      <sparseX i="163" alpha="8716.0276635344471" sparseCutoff="1.0000000000000000"/>
      <sparseX i="164" alpha="99748.953927051654" sparseCutoff="1.0000000000000000"/>
      <sparseX i="165" alpha="81196.804038256829" sparseCutoff="1.0000000000000000"/>
      <sparseX i="166" alpha="-808.42316030038285" sparseCutoff="1.0000000000000000"/>
      <sparseX i="167" alpha="1371.9986387535507" sparseCutoff="1.0000000000000000"/>
      <sparseX i="168" alpha="-2271.1130654356862" sparseCutoff="1.0000000000000000"/>
      <sparseX i="169" alpha="696.10509329062097" sparseCutoff="1.0000000000000000"/>
      <sparseX i="170" alpha="-3910.2628777483446" sparseCutoff="1.0000000000000000"/>
      <sparseX i="171" alpha="-2333.2829194365336" sparseCutoff="1.0000000000000000"/>
      <sparseX i="172" alpha="-3823.9837486028614" sparseCutoff="1.0000000000000000"/>
      <sparseX i="173" alpha="38374.892705030717" sparseCutoff="1.0000000000000000"/>
      <sparseX i="174" alpha="16222.592774891002" sparseCutoff="1.0000000000000000"/>
      <sparseX i="175" alpha="-32390.141630106733" sparseCutoff="1.0000000000000000"/>
      <sparseX i="176" alpha="-48888.030395792586" sparseCutoff="1.0000000000000000"/>
      <sparseX i="177" alpha="-16148.425817507004" sparseCutoff="1.0000000000000000"/>
      <sparseX i="178" alpha="74529.144244802825" sparseCutoff="1.0000000000000000"/>
      <sparseX i="179" alpha="10253.114727108465" sparseCutoff="1.0000000000000000"/>
      <sparseX i="180" alpha="-31180.486706205455" sparseCutoff="1.0000000000000000"/>
      <sparseX i="181" alpha="-4662.2309155785242" sparseCutoff="1.0000000000000000"/>
      <sparseX i="182" alpha="13819.185933345218" sparseCutoff="1.0000000000000000"/>
      <sparseX i="183" alpha="10413.348724693855" sparseCutoff="1.0000000000000000"/>
      <sparseX i="184" alpha="-79740.101321247581" sparseCutoff="1.0000000000000000"/>
      <sparseX i="185" alpha="3178.0753254075303" sparseCutoff="1.0000000000000000"/>
      <sparseX i="186" alpha="-19386.057241106580" sparseCutoff="1.0000000000000000"/>
      <sparseX i="187" alpha="8338.5836110192013" sparseCutoff="1.0000000000000000"/>
      <sparseX i="188" alpha="34251.761648564512" sparseCutoff="1.0000000000000000"/>
      <sparseX i="189" alpha="-15971.071075347492" sparseCutoff="1.0000000000000000"/>
      <sparseX i="190" alpha="4.5657082905332880" sparseCutoff="1.0000000000000000"/>
      <sparseX i="191" alpha="-36134.849930795564" sparseCutoff="1.0000000000000000"/>
      <sparseX i="192" alpha="6293.1903676357388" sparseCutoff="1.0000000000000000"/>
      <sparseX i="193" alpha="-16585.899554585547" sparseCutoff="1.0000000000000000"/>
      <sparseX i="194" alpha="6806.6011942017349" sparseCutoff="1.0000000000000000"/>
      <sparseX i="195" alpha="-3313.9215176677644" sparseCutoff="1.0000000000000000"/>
      <sparseX i="196" alpha="21194.786635717919" sparseCutoff="1.0000000000000000"/>
      <sparseX i="197" alpha="-25120.423274546101" sparseCutoff="1.0000000000000000"/>
      <sparseX i="198" alpha="20494.281516252475" sparseCutoff="1.0000000000000000"/>
      <sparseX i="199" alpha="-20178.140729189574" sparseCutoff="1.0000000000000000"/>
      <sparseX i="200" alpha="37069.135130141047" sparseCutoff="1.0000000000000000"/>
      <sparseX i="201" alpha="-39686.112167302635" sparseCutoff="1.0000000000000000"/>
      <sparseX i="202" alpha="648.03899563813502" sparseCutoff="1.0000000000000000"/>
      <sparseX i="203" alpha="-394.59697030701932" sparseCutoff="1.0000000000000000"/>
      <sparseX i="204" alpha="533156.43912411283" sparseCutoff="1.0000000000000000"/>
      <sparseX i="205" alpha="17004.730973084141" sparseCutoff="1.0000000000000000"/>
      <sparseX i="206" alpha="-14343.016944357920" sparseCutoff="1.0000000000000000"/>
      <sparseX i="207" alpha="-9949.0010253863493" sparseCutoff="1.0000000000000000"/>
      <sparseX i="208" alpha="31961.571500206366" sparseCutoff="1.0000000000000000"/>
      <sparseX i="209" alpha="-15653.773383771128" sparseCutoff="1.0000000000000000"/>
      <sparseX i="210" alpha="-16713.440624889012" sparseCutoff="1.0000000000000000"/>
      <sparseX i="211" alpha="358.62026911178930" sparseCutoff="1.0000000000000000"/>
      <sparseX i="212" alpha="-31624.548822312365" sparseCutoff="1.0000000000000000"/>
      <sparseX i="213" alpha="-61006.715565080420" sparseCutoff="1.0000000000000000"/>
      <sparseX i="214" alpha="67732.718332725301" sparseCutoff="1.0000000000000000"/>
      <sparseX i="215" alpha="-6689.1991651620783" sparseCutoff="1.0000000000000000"/>
      <sparseX i="216" alpha="-2753.3667734082264" sparseCutoff="1.0000000000000000"/>
      <sparseX i="217" alpha="-1301.8775635168793" sparseCutoff="1.0000000000000000"/>
      <sparseX i="218" alpha="32695.245987921913" sparseCutoff="1.0000000000000000"/>
      <sparseX i="219" alpha="-45010.894739031137" sparseCutoff="1.0000000000000000"/>
      <sparseX i="220" alpha="-13521.328935248730" sparseCutoff="1.0000000000000000"/>
      <sparseX i="221" alpha="-97993.063077293715" sparseCutoff="1.0000000000000000"/>
      <sparseX i="222" alpha="21893.310075353631" sparseCutoff="1.0000000000000000"/>
      <sparseX i="223" alpha="9060.5858899471368" sparseCutoff="1.0000000000000000"/>
      <sparseX i="224" alpha="-4469.4825409707519" sparseCutoff="1.0000000000000000"/>
      <sparseX i="225" alpha="-12876.664757504845" sparseCutoff="1.0000000000000000"/>
      <sparseX i="226" alpha="39966.936278099274" sparseCutoff="1.0000000000000000"/>
      <sparseX i="227" alpha="-693.89115347394477" sparseCutoff="1.0000000000000000"/>
      <sparseX i="228" alpha="-2011.5822963267331" sparseCutoff="1.0000000000000000"/>
      <sparseX i="229" alpha="-3795.6296664776924" sparseCutoff="1.0000000000000000"/>
      <sparseX i="230" alpha="31421.365229217085" sparseCutoff="1.0000000000000000"/>
      <sparseX i="231" alpha="-47956.820962241844" sparseCutoff="1.0000000000000000"/>
      <sparseX i="232" alpha="-66090.217061256029" sparseCutoff="1.0000000000000000"/>
      <sparseX i="233" alpha="-9220.5838600422885" sparseCutoff="1.0000000000000000"/>
      <sparseX i="234" alpha="87864.197874719306" sparseCutoff="1.0000000000000000"/>
      <sparseX i="235" alpha="-17666.024868876553" sparseCutoff="1.0000000000000000"/>
      <sparseX i="236" alpha="5296.0487571304366" sparseCutoff="1.0000000000000000"/>
      <sparseX i="237" alpha="-9048.0078783999288" sparseCutoff="1.0000000000000000"/>
      <sparseX i="238" alpha="-11194.532003652337" sparseCutoff="1.0000000000000000"/>
      <sparseX i="239" alpha="51126.541978306348" sparseCutoff="1.0000000000000000"/>
      <sparseX i="240" alpha="22893.461035616052" sparseCutoff="1.0000000000000000"/>
      <sparseX i="241" alpha="7512.4647138430928" sparseCutoff="1.0000000000000000"/>
      <sparseX i="242" alpha="-20181.654222921803" sparseCutoff="1.0000000000000000"/>
      <sparseX i="243" alpha="4398.8566525919941" sparseCutoff="1.0000000000000000"/>
      <sparseX i="244" alpha="-26274.725971257449" sparseCutoff="1.0000000000000000"/>
      <sparseX i="245" alpha="1857.9492503637962" sparseCutoff="1.0000000000000000"/>
      <sparseX i="246" alpha="27815.054842776815" sparseCutoff="1.0000000000000000"/>
      <sparseX i="247" alpha="-14815.289980345351" sparseCutoff="1.0000000000000000"/>
      <sparseX i="248" alpha="-12481.780976117678" sparseCutoff="1.0000000000000000"/>
      <sparseX i="249" alpha="-17361.087369014018" sparseCutoff="1.0000000000000000"/>
      <sparseX i="250" alpha="2684.3758054229684" sparseCutoff="1.0000000000000000"/>
      <sparseX i="251" alpha="3678.4997728779990" sparseCutoff="1.0000000000000000"/>
      <sparseX i="252" alpha="-28817.907870474199" sparseCutoff="1.0000000000000000"/>
      <sparseX i="253" alpha="-5550.7910135417087" sparseCutoff="1.0000000000000000"/>
      <sparseX i="254" alpha="-11804.464217997624" sparseCutoff="1.0000000000000000"/>
      <sparseX i="255" alpha="-28270.326473549849" sparseCutoff="1.0000000000000000"/>
      <sparseX i="256" alpha="-6467.3386741019976" sparseCutoff="1.0000000000000000"/>
      <sparseX i="257" alpha="-12129.333431223817" sparseCutoff="1.0000000000000000"/>
      <sparseX i="258" alpha="-28194.771014419402" sparseCutoff="1.0000000000000000"/>
      <sparseX i="259" alpha="-244.06475099395504" sparseCutoff="1.0000000000000000"/>
      <sparseX i="260" alpha="4465.3365672398804" sparseCutoff="1.0000000000000000"/>
      <sparseX i="261" alpha="13631.517434356107" sparseCutoff="1.0000000000000000"/>
      <sparseX i="262" alpha="-3089.2661365997124" sparseCutoff="1.0000000000000000"/>
      <sparseX i="263" alpha="29616.150835376942" sparseCutoff="1.0000000000000000"/>
      <sparseX i="264" alpha="6931.6689925111541" sparseCutoff="1.0000000000000000"/>
      <sparseX i="265" alpha="5918.1584738313568" sparseCutoff="1.0000000000000000"/>
      <sparseX i="266" alpha="32958.360337653634" sparseCutoff="1.0000000000000000"/>
      <sparseX i="267" alpha="-70473.622378375061" sparseCutoff="1.0000000000000000"/>
      <sparseX i="268" alpha="20725.170748264667" sparseCutoff="1.0000000000000000"/>
      <sparseX i="269" alpha="8525.8143278903826" sparseCutoff="1.0000000000000000"/>
      <sparseX i="270" alpha="84803.235949932146" sparseCutoff="1.0000000000000000"/>
      <sparseX i="271" alpha="12994.294478891972" sparseCutoff="1.0000000000000000"/>
      <sparseX i="272" alpha="-164.41645494567814" sparseCutoff="1.0000000000000000"/>
      <sparseX i="273" alpha="47473.277169781351" sparseCutoff="1.0000000000000000"/>
      <sparseX i="274" alpha="21860.602699506213" sparseCutoff="1.0000000000000000"/>
      <sparseX i="275" alpha="-21613.126667793942" sparseCutoff="1.0000000000000000"/>
      <sparseX i="276" alpha="-52183.919822219672" sparseCutoff="1.0000000000000000"/>
      <sparseX i="277" alpha="20782.138504606388" sparseCutoff="1.0000000000000000"/>
      <sparseX i="278" alpha="10296.576163931990" sparseCutoff="1.0000000000000000"/>
      <sparseX i="279" alpha="-209.27112701398232" sparseCutoff="1.0000000000000000"/>
      <sparseX i="280" alpha="-8572.2269656191274" sparseCutoff="1.0000000000000000"/>
      <sparseX i="281" alpha="-3312.0476645716749" sparseCutoff="1.0000000000000000"/>
      <sparseX i="282" alpha="-42866.994590402246" sparseCutoff="1.0000000000000000"/>
      <sparseX i="283" alpha="1480.1301612129071" sparseCutoff="1.0000000000000000"/>
      <sparseX i="284" alpha="-92865.103344829142" sparseCutoff="1.0000000000000000"/>
      <sparseX i="285" alpha="15016.449387564278" sparseCutoff="1.0000000000000000"/>
      <sparseX i="286" alpha="3074.4112742055245" sparseCutoff="1.0000000000000000"/>
      <sparseX i="287" alpha="-495.77854909990970" sparseCutoff="1.0000000000000000"/>
      <sparseX i="288" alpha="194671.79029942059" sparseCutoff="1.0000000000000000"/>
      <sparseX i="289" alpha="-20144.208382099503" sparseCutoff="1.0000000000000000"/>
      <sparseX i="290" alpha="-18899.952534142536" sparseCutoff="1.0000000000000000"/>
      <sparseX i="291" alpha="25971.157165492590" sparseCutoff="1.0000000000000000"/>
      <sparseX i="292" alpha="5084.6619361343619" sparseCutoff="1.0000000000000000"/>
      <sparseX i="293" alpha="-5149.9379035692136" sparseCutoff="1.0000000000000000"/>
      <sparseX i="294" alpha="6007.4124765448432" sparseCutoff="1.0000000000000000"/>
      <sparseX i="295" alpha="48.688426062555465" sparseCutoff="1.0000000000000000"/>
      <sparseX i="296" alpha="3011.5735111227427" sparseCutoff="1.0000000000000000"/>
      <sparseX i="297" alpha="17035.347771789351" sparseCutoff="1.0000000000000000"/>
      <sparseX i="298" alpha="1968.0635607795232" sparseCutoff="1.0000000000000000"/>
      <sparseX i="299" alpha="75880.875310975753" sparseCutoff="1.0000000000000000"/>
      <sparseX i="300" alpha="25420.297263776207" sparseCutoff="1.0000000000000000"/>
      <sparseX i="301" alpha="3909.2452252025114" sparseCutoff="1.0000000000000000"/>
      <sparseX i="302" alpha="5028.6720438888860" sparseCutoff="1.0000000000000000"/>
      <sparseX i="303" alpha="35447.954150740639" sparseCutoff="1.0000000000000000"/>
      <sparseX i="304" alpha="7770.4566545534472" sparseCutoff="1.0000000000000000"/>
      <sparseX i="305" alpha="19342.873140113592" sparseCutoff="1.0000000000000000"/>
      <sparseX i="306" alpha="-58335.765014789526" sparseCutoff="1.0000000000000000"/>
      <sparseX i="307" alpha="52125.467910956788" sparseCutoff="1.0000000000000000"/>
      <sparseX i="308" alpha="-963.12804208753892" sparseCutoff="1.0000000000000000"/>
      <sparseX i="309" alpha="1465.1285721923732" sparseCutoff="1.0000000000000000"/>
      <sparseX i="310" alpha="-231386.88164490278" sparseCutoff="1.0000000000000000"/>
      <sparseX i="311" alpha="2747.8276089299911" sparseCutoff="1.0000000000000000"/>
      <sparseX i="312" alpha="-28443.229514429364" sparseCutoff="1.0000000000000000"/>
      <sparseX i="313" alpha="-97792.761221108041" sparseCutoff="1.0000000000000000"/>
      <sparseX i="314" alpha="-122794.99987835494" sparseCutoff="1.0000000000000000"/>
      <sparseX i="315" alpha="3834.3381608500449" sparseCutoff="1.0000000000000000"/>
      <sparseX i="316" alpha="67049.711153584474" sparseCutoff="1.0000000000000000"/>
      <sparseX i="317" alpha="268.15450964123454" sparseCutoff="1.0000000000000000"/>
      <sparseX i="318" alpha="-4568.8072862640502" sparseCutoff="1.0000000000000000"/>
      <sparseX i="319" alpha="-72215.161491287698" sparseCutoff="1.0000000000000000"/>
      <sparseX i="320" alpha="120477.72068119820" sparseCutoff="1.0000000000000000"/>
      <sparseX i="321" alpha="-177.52805799471824" sparseCutoff="1.0000000000000000"/>
      <sparseX i="322" alpha="1489.0257287070322" sparseCutoff="1.0000000000000000"/>
      <sparseX i="323" alpha="-4796.1857563658596" sparseCutoff="1.0000000000000000"/>
      <sparseX i="324" alpha="-10224.654899013902" sparseCutoff="1.0000000000000000"/>
      <sparseX i="325" alpha="-6648.3994435118457" sparseCutoff="1.0000000000000000"/>
      <sparseX i="326" alpha="-7965.8137947697051" sparseCutoff="1.0000000000000000"/>
      <sparseX i="327" alpha="-12925.684937636459" sparseCutoff="1.0000000000000000"/>
      <sparseX i="328" alpha="76.433322227508370" sparseCutoff="1.0000000000000000"/>
      <sparseX i="329" alpha="6792.8348643261879" sparseCutoff="1.0000000000000000"/>
      <sparseX i="330" alpha="2873.3806649656112" sparseCutoff="1.0000000000000000"/>
      <sparseX i="331" alpha="11284.489653736649" sparseCutoff="1.0000000000000000"/>
      <sparseX i="332" alpha="-9917.4192336338219" sparseCutoff="1.0000000000000000"/>
      <sparseX i="333" alpha="-43302.949440674827" sparseCutoff="1.0000000000000000"/>
