<GAP_2026_3_23_120_0_39_5_257>
<Potential label="GAP_2026_3_23_120_0_39_5_257" init_args="IP GAP label=GAP_2026_3_23_120_0_39_5_257"/>
<GAP_params label="GAP_2026_3_23_120_0_39_5_257" gap_version="1686220958">
  <GAP_data do_core="F">
    <e0 Z="1" value=".00000000000000000E+000"/>
    <e0 Z="2" value=".00000000000000000E+000"/>
    <e0 Z="3" value=".00000000000000000E+000"/>
    <e0 Z="4" value=".00000000000000000E+000"/>
    <e0 Z="5" value=".00000000000000000E+000"/>
    <e0 Z="6" value=".00000000000000000E+000"/>
    <e0 Z="7" value=".00000000000000000E+000"/>
    <e0 Z="8" value=".00000000000000000E+000"/>
    <e0 Z="9" value=".00000000000000000E+000"/>
    <e0 Z="10" value=".00000000000000000E+000"/>
    <e0 Z="11" value=".00000000000000000E+000"/>
    <e0 Z="12" value=".00000000000000000E+000"/>
    <e0 Z="13" value=".00000000000000000E+000"/>
    <e0 Z="14" value=".00000000000000000E+000"/>
    <e0 Z="15" value=".00000000000000000E+000"/>
    <e0 Z="16" value=".00000000000000000E+000"/>
    <e0 Z="17" value=".00000000000000000E+000"/>
    <e0 Z="18" value=".00000000000000000E+000"/>
    <e0 Z="19" value=".00000000000000000E+000"/>
    <e0 Z="20" value=".00000000000000000E+000"/>
    <e0 Z="21" value=".00000000000000000E+000"/>
    <e0 Z="22" value=".00000000000000000E+000"/>
    <e0 Z="23" value=".00000000000000000E+000"/>
    <e0 Z="24" value=".00000000000000000E+000"/>
    <e0 Z="25" value=".00000000000000000E+000"/>
    <e0 Z="26" value=".00000000000000000E+000"/>
    <e0 Z="27" value=".00000000000000000E+000"/>
    <e0 Z="28" value=".00000000000000000E+000"/>
    <e0 Z="29" value=".00000000000000000E+000"/>
    <e0 Z="30" value=".00000000000000000E+000"/>
    <e0 Z="31" value=".00000000000000000E+000"/>
    <e0 Z="32" value=".00000000000000000E+000"/>
    <e0 Z="33" value=".00000000000000000E+000"/>
    <e0 Z="34" value=".00000000000000000E+000"/>
    <e0 Z="35" value=".00000000000000000E+000"/>
    <e0 Z="36" value=".00000000000000000E+000"/>
    <e0 Z="37" value=".00000000000000000E+000"/>
    <e0 Z="38" value=".00000000000000000E+000"/>
    <e0 Z="39" value=".00000000000000000E+000"/>
    <e0 Z="40" value=".00000000000000000E+000"/>
    <e0 Z="41" value=".00000000000000000E+000"/>
    <e0 Z="42" value=".00000000000000000E+000"/>
    <e0 Z="43" value=".00000000000000000E+000"/>
    <e0 Z="44" value=".00000000000000000E+000"/>
    <e0 Z="45" value=".00000000000000000E+000"/>
    <e0 Z="46" value=".00000000000000000E+000"/>
    <e0 Z="47" value=".00000000000000000E+000"/>
    <e0 Z="48" value=".00000000000000000E+000"/>
    <e0 Z="49" value=".00000000000000000E+000"/>
    <e0 Z="50" value=".00000000000000000E+000"/>
    <e0 Z="51" value=".00000000000000000E+000"/>
    <e0 Z="52" value=".00000000000000000E+000"/>
    <e0 Z="53" value=".00000000000000000E+000"/>
    <e0 Z="54" value=".00000000000000000E+000"/>
    <e0 Z="55" value=".00000000000000000E+000"/>
    <e0 Z="56" value=".00000000000000000E+000"/>
    <e0 Z="57" value=".00000000000000000E+000"/>
    <e0 Z="58" value=".00000000000000000E+000"/>
    <e0 Z="59" value=".00000000000000000E+000"/>
    <e0 Z="60" value=".00000000000000000E+000"/>
    <e0 Z="61" value=".00000000000000000E+000"/>
    <e0 Z="62" value=".00000000000000000E+000"/>
    <e0 Z="63" value=".00000000000000000E+000"/>
    <e0 Z="64" value=".00000000000000000E+000"/>
    <e0 Z="65" value=".00000000000000000E+000"/>
    <e0 Z="66" value=".00000000000000000E+000"/>
    <e0 Z="67" value=".00000000000000000E+000"/>
    <e0 Z="68" value=".00000000000000000E+000"/>
    <e0 Z="69" value=".00000000000000000E+000"/>
    <e0 Z="70" value=".00000000000000000E+000"/>
    <e0 Z="71" value=".00000000000000000E+000"/>
    <e0 Z="72" value=".00000000000000000E+000"/>
    <e0 Z="73" value=".00000000000000000E+000"/>
    <e0 Z="74" value=".00000000000000000E+000"/>
    <e0 Z="75" value=".00000000000000000E+000"/>
    <e0 Z="76" value=".00000000000000000E+000"/>
    <e0 Z="77" value=".00000000000000000E+000"/>
    <e0 Z="78" value=".00000000000000000E+000"/>
    <e0 Z="79" value=".00000000000000000E+000"/>
    <e0 Z="80" value=".00000000000000000E+000"/>
    <e0 Z="81" value=".00000000000000000E+000"/>
    <e0 Z="82" value=".00000000000000000E+000"/>
    <e0 Z="83" value=".00000000000000000E+000"/>
    <e0 Z="84" value=".00000000000000000E+000"/>
    <e0 Z="85" value=".00000000000000000E+000"/>
    <e0 Z="86" value=".00000000000000000E+000"/>
    <e0 Z="87" value=".00000000000000000E+000"/>
    <e0 Z="88" value=".00000000000000000E+000"/>
    <e0 Z="89" value=".00000000000000000E+000"/>
    <e0 Z="90" value=".00000000000000000E+000"/>
    <e0 Z="91" value=".00000000000000000E+000"/>
    <e0 Z="92" value=".00000000000000000E+000"/>
    <e0 Z="93" value=".00000000000000000E+000"/>
    <e0 Z="94" value=".00000000000000000E+000"/>
    <e0 Z="95" value=".00000000000000000E+000"/>
    <e0 Z="96" value=".00000000000000000E+000"/>
    <e0 Z="97" value=".00000000000000000E+000"/>
    <e0 Z="98" value=".00000000000000000E+000"/>
    <e0 Z="99" value=".00000000000000000E+000"/>
    <e0 Z="100" value=".00000000000000000E+000"/>
    <e0 Z="101" value=".00000000000000000E+000"/>
    <e0 Z="102" value=".00000000000000000E+000"/>
    <e0 Z="103" value=".00000000000000000E+000"/>
    <e0 Z="104" value=".00000000000000000E+000"/>
    <e0 Z="105" value=".00000000000000000E+000"/>
    <e0 Z="106" value=".00000000000000000E+000"/>
    <e0 Z="107" value=".00000000000000000E+000"/>
    <e0 Z="108" value=".00000000000000000E+000"/>
    <e0 Z="109" value=".00000000000000000E+000"/>
    <e0 Z="110" value=".00000000000000000E+000"/>
    <e0 Z="111" value=".00000000000000000E+000"/>
    <e0 Z="112" value=".00000000000000000E+000"/>
    <e0 Z="113" value=".00000000000000000E+000"/>
    <e0 Z="114" value=".00000000000000000E+000"/>
    <e0 Z="115" value=".00000000000000000E+000"/>
    <e0 Z="116" value=".00000000000000000E+000"/>
    <e0 Z="117" value=".00000000000000000E+000"/>
    <e0 Z="118" value=".00000000000000000E+000"/>
  </GAP_data>
  <gpSparse label="GAP_2026_3_23_120_0_39_5_257" n_coordinate="8" fitted="T">
    <gpCoordinates label="GAP_2026_3_23_120_0_39_5_2571" dimensions="1" signal_variance=".50000000000000000" signal_mean=".00000000000000000E+000" sparsified="T" n_permutations="1" covariance_type="1" n_sparseX="30" sparseX_filename="CH.xml.sparseX.GAP_2026_3_23_120_0_39_5_2571" sparseX_md5sum="4625f606fe1b63ed45efb9c0fffbeb68">
      <theta>  0.50000000000000000E+000 </theta>
      <descriptor> distance_2b Z1=1 Z2=1 cutoff=4.0 n_sparse=30 covariance_type=ard_se delta=0.5 theta_uniform=0.5 sparse_method=uniform add_species=F</descriptor>
      <permutation i="1">1  </permutation>
      <sparseX i="1" alpha="-20827.113423776500" sparseCutoff="1.0000000000000000"/>
      <sparseX i="2" alpha="-832.33256637180989" sparseCutoff=".52451819982612546"/>
      <sparseX i="3" alpha="10113.381790999871" sparseCutoff="1.0000000000000000"/>
      <sparseX i="4" alpha="13836.839270819391" sparseCutoff="1.0000000000000000"/>
      <sparseX i="5" alpha="-16291.812596843167" sparseCutoff="1.0000000000000000"/>
      <sparseX i="6" alpha="-43753.855805120060" sparseCutoff="1.0000000000000000"/>
      <sparseX i="7" alpha="11759.429300328024" sparseCutoff="1.0000000000000000"/>
      <sparseX i="8" alpha="-2024.0918158290417" sparseCutoff="1.0000000000000000"/>
      <sparseX i="9" alpha="-11540.628532996108" sparseCutoff="1.0000000000000000"/>
      <sparseX i="10" alpha="-18446.181949763461" sparseCutoff="1.0000000000000000"/>
      <sparseX i="11" alpha="15364.044749167677" sparseCutoff="1.0000000000000000"/>
      <sparseX i="12" alpha="41597.684939237799" sparseCutoff="1.0000000000000000"/>
      <sparseX i="13" alpha="-8391.1752564991020" sparseCutoff="1.0000000000000000"/>
      <sparseX i="14" alpha="18183.256656785892" sparseCutoff="1.0000000000000000"/>
      <sparseX i="15" alpha="45832.172874363918" sparseCutoff="1.0000000000000000"/>
      <sparseX i="16" alpha="-3038.6050361771663" sparseCutoff="1.0000000000000000"/>
      <sparseX i="17" alpha="-7296.1535461993017" sparseCutoff="1.0000000000000000"/>
      <sparseX i="18" alpha="54.641838137900962" sparseCutoff=".53140035477369396E-001"/>
      <sparseX i="19" alpha="-9489.0452338011728" sparseCutoff="1.0000000000000000"/>
      <sparseX i="20" alpha="3137.0886979020238" sparseCutoff=".92908406827382795"/>
      <sparseX i="21" alpha="-3745.8720142153402" sparseCutoff="1.0000000000000000"/>
      <sparseX i="22" alpha="8602.2959359998349" sparseCutoff="1.0000000000000000"/>
      <sparseX i="23" alpha="4147.7705429203515" sparseCutoff="1.0000000000000000"/>
      <sparseX i="24" alpha="-20075.173843875986" sparseCutoff="1.0000000000000000"/>
      <sparseX i="25" alpha="2097.0121493545994" sparseCutoff=".55632136063416548E-002"/>
      <sparseX i="26" alpha="34368.633807680184" sparseCutoff="1.0000000000000000"/>
      <sparseX i="27" alpha="-49344.893029767816" sparseCutoff="1.0000000000000000"/>
      <sparseX i="28" alpha="18543.441926808424" sparseCutoff="1.0000000000000000"/>
      <sparseX i="29" alpha="40490.647204159708" sparseCutoff="1.0000000000000000"/>
      <sparseX i="30" alpha="-50589.415876867235" sparseCutoff="1.0000000000000000"/>
    </gpCoordinates>
    <gpCoordinates label="GAP_2026_3_23_120_0_39_5_2572" dimensions="1" signal_variance=".50000000000000000" signal_mean=".00000000000000000E+000" sparsified="T" n_permutations="1" covariance_type="1" n_sparseX="30" sparseX_filename="CH.xml.sparseX.GAP_2026_3_23_120_0_39_5_2572" sparseX_md5sum="c0c62754ec8902e474362c1b402667f0">
      <theta>  0.50000000000000000E+000 </theta>
      <descriptor> distance_2b Z1=1 Z2=6 cutoff=4.0 n_sparse=30 covariance_type=ard_se delta=0.5 theta_uniform=0.5 sparse_method=uniform add_species=F</descriptor>
      <permutation i="1">1  </permutation>
      <sparseX i="1" alpha="92351.995711146490" sparseCutoff="1.0000000000000000"/>
      <sparseX i="2" alpha="106632.65627625605" sparseCutoff="1.0000000000000000"/>
      <sparseX i="3" alpha="-7575.0752502183377" sparseCutoff="1.0000000000000000"/>
      <sparseX i="4" alpha="-33857.753656433757" sparseCutoff="1.0000000000000000"/>
      <sparseX i="5" alpha="-5529.4740743330385" sparseCutoff="1.0000000000000000"/>
      <sparseX i="6" alpha="-82327.633937347986" sparseCutoff="1.0000000000000000"/>
      <sparseX i="7" alpha="12466.059098072021" sparseCutoff=".48419764673529314"/>
      <sparseX i="8" alpha="-57200.879770326901" sparseCutoff="1.0000000000000000"/>
      <sparseX i="9" alpha="29498.303463884666" sparseCutoff="1.0000000000000000"/>
      <sparseX i="10" alpha="-137603.51274006613" sparseCutoff="1.0000000000000000"/>
      <sparseX i="11" alpha="20355.592721217567" sparseCutoff="1.0000000000000000"/>
      <sparseX i="12" alpha="64921.617234757905" sparseCutoff="1.0000000000000000"/>
      <sparseX i="13" alpha="5211.0373294327746" sparseCutoff="1.0000000000000000"/>
      <sparseX i="14" alpha="1375.4069999970588" sparseCutoff="1.0000000000000000"/>
      <sparseX i="15" alpha="57293.441099067903" sparseCutoff="1.0000000000000000"/>
      <sparseX i="16" alpha="-17031.896278741046" sparseCutoff=".78023269557719011"/>
      <sparseX i="17" alpha="35492.629365842149" sparseCutoff="1.0000000000000000"/>
      <sparseX i="18" alpha="1457.1411686967376" sparseCutoff=".17739374061673469"/>
      <sparseX i="19" alpha="-87778.659861820328" sparseCutoff="1.0000000000000000"/>
      <sparseX i="20" alpha="-18603.863860787740" sparseCutoff=".25139847583008856E-001"/>
      <sparseX i="21" alpha="-48626.077956026675" sparseCutoff="1.0000000000000000"/>
      <sparseX i="22" alpha="39922.143450960844" sparseCutoff="1.0000000000000000"/>
      <sparseX i="23" alpha="-35502.708875858138" sparseCutoff="1.0000000000000000"/>
      <sparseX i="24" alpha="-23760.458635110255" sparseCutoff="1.0000000000000000"/>
      <sparseX i="25" alpha="99037.590630834340" sparseCutoff="1.0000000000000000"/>
      <sparseX i="26" alpha="-71838.052050615064" sparseCutoff="1.0000000000000000"/>
      <sparseX i="27" alpha="81295.002654849552" sparseCutoff="1.0000000000000000"/>
      <sparseX i="28" alpha="-76511.660686020157" sparseCutoff="1.0000000000000000"/>
      <sparseX i="29" alpha="44895.703397785597" sparseCutoff="1.0000000000000000"/>
      <sparseX i="30" alpha="-1867.9043347426234" sparseCutoff="1.0000000000000000"/>
    </gpCoordinates>
    <gpCoordinates label="GAP_2026_3_23_120_0_39_5_2573" dimensions="1" signal_variance=".50000000000000000" signal_mean=".00000000000000000E+000" sparsified="T" n_permutations="1" covariance_type="1" n_sparseX="30" sparseX_filename="CH.xml.sparseX.GAP_2026_3_23_120_0_39_5_2573" sparseX_md5sum="0d5a2421b10d289bfb5153fcc9dcc4d3">
      <theta>  0.50000000000000000E+000 </theta>
      <descriptor> distance_2b Z1=6 Z2=6 cutoff=4.0 n_sparse=30 covariance_type=ard_se delta=0.5 theta_uniform=0.5 sparse_method=uniform add_species=F</descriptor>
      <permutation i="1">1  </permutation>
      <sparseX i="1" alpha="126063.28490682780" sparseCutoff="1.0000000000000000"/>
      <sparseX i="2" alpha="-14308.322012421571" sparseCutoff="1.0000000000000000"/>
      <sparseX i="3" alpha="-266585.76612175920" sparseCutoff="1.0000000000000000"/>
      <sparseX i="4" alpha="-44588.888776902437" sparseCutoff="1.0000000000000000"/>
      <sparseX i="5" alpha="-81961.663720304263" sparseCutoff="1.0000000000000000"/>
      <sparseX i="6" alpha="-11420.982268041402" sparseCutoff="1.0000000000000000"/>
      <sparseX i="7" alpha="19902.524330897246" sparseCutoff=".60658510225121864E-001"/>
      <sparseX i="8" alpha="74653.305145774648" sparseCutoff="1.0000000000000000"/>
      <sparseX i="9" alpha="139481.66363369412" sparseCutoff="1.0000000000000000"/>
      <sparseX i="10" alpha="-37746.780467952995" sparseCutoff="1.0000000000000000"/>
      <sparseX i="11" alpha="23511.730920651749" sparseCutoff="1.0000000000000000"/>
      <sparseX i="12" alpha="3528.5595833571338" sparseCutoff="1.0000000000000000"/>
      <sparseX i="13" alpha="-15082.685971648372" sparseCutoff="1.0000000000000000"/>
      <sparseX i="14" alpha="17902.122530095134" sparseCutoff="1.0000000000000000"/>
      <sparseX i="15" alpha="-5984.3624427862005" sparseCutoff="1.0000000000000000"/>
      <sparseX i="16" alpha="25272.808675624845" sparseCutoff="1.0000000000000000"/>
      <sparseX i="17" alpha="36888.195102415455" sparseCutoff=".95476828743937103"/>
      <sparseX i="18" alpha="-26143.762908294273" sparseCutoff="1.0000000000000000"/>
      <sparseX i="19" alpha="79590.109495559038" sparseCutoff="1.0000000000000000"/>
      <sparseX i="20" alpha="96040.036823885486" sparseCutoff="1.0000000000000000"/>
      <sparseX i="21" alpha="-49679.126578161151" sparseCutoff="1.0000000000000000"/>
      <sparseX i="22" alpha="32321.810539349201" sparseCutoff=".16572050200001021E-001"/>
      <sparseX i="23" alpha="-60008.247325261371" sparseCutoff="1.0000000000000000"/>
      <sparseX i="24" alpha="-22364.601275277888" sparseCutoff=".56756025970660207"/>
      <sparseX i="25" alpha="4796.2883711381628" sparseCutoff="1.0000000000000000"/>
      <sparseX i="26" alpha="-139665.20892763138" sparseCutoff="1.0000000000000000"/>
      <sparseX i="27" alpha="18507.473439114448" sparseCutoff="1.0000000000000000"/>
      <sparseX i="28" alpha="49396.879116722368" sparseCutoff="1.0000000000000000"/>
      <sparseX i="29" alpha="221375.56983879698" sparseCutoff="1.0000000000000000"/>
      <sparseX i="30" alpha="-148562.30753039586" sparseCutoff="1.0000000000000000"/>
    </gpCoordinates>
    <gpCoordinates label="GAP_2026_3_23_120_0_39_5_2574" dimensions="3" signal_variance=".10000000000000000E-001" signal_mean=".00000000000000000E+000" sparsified="T" n_permutations="1" covariance_type="4" n_sparseX="200" sparseX_filename="CH.xml.sparseX.GAP_2026_3_23_120_0_39_5_2574" sparseX_md5sum="b4d739f433e4e0fd63ac7a6b5ce93ded">
      <theta>  0.20000000000000000E+001  0.20000000000000000E+001  0.20000000000000000E+001 </theta>
      <descriptor> angle_3b Z_center=6 Z1=1 Z2=1 cutoff=2.0 n_sparse=200 covariance_type=pp delta=0.01 theta_uniform=2.0 sparse_method=uniform add_species=F</descriptor>
      <permutation i="1">1 2 3  </permutation>
      <sparseX i="1" alpha="-5674.5311372816741" sparseCutoff=".11635656199694977E-002"/>
      <sparseX i="2" alpha="19424.157909856836" sparseCutoff=".99991233326607354"/>
      <sparseX i="3" alpha="-1972.5209121253833" sparseCutoff="1.0000000000000000"/>
      <sparseX i="4" alpha="1371.7476079188693" sparseCutoff=".59662359954797661"/>
      <sparseX i="5" alpha="-3981.4575907925082" sparseCutoff=".94297012562569205"/>
      <sparseX i="6" alpha="-2803.9357880146545" sparseCutoff=".94776539675400562"/>
      <sparseX i="7" alpha="-9064.3099200854522" sparseCutoff=".63174972238533481E-001"/>
      <sparseX i="8" alpha="3047.7701272160848" sparseCutoff=".89371445524080850"/>
      <sparseX i="9" alpha="-5206.0664181968868" sparseCutoff=".36919948879610580E-001"/>
      <sparseX i="10" alpha="-49285.456650087159" sparseCutoff=".11371306041996770"/>
      <sparseX i="11" alpha="-6990.4862363538086" sparseCutoff=".32467641573674100"/>
      <sparseX i="12" alpha="-457.62651758685485" sparseCutoff="1.0000000000000000"/>
      <sparseX i="13" alpha="-4799.8471303527258" sparseCutoff=".98371692299602731"/>
      <sparseX i="14" alpha="-4578.6211936893014" sparseCutoff="1.0000000000000000"/>
      <sparseX i="15" alpha="30433.137418138693" sparseCutoff=".32467641573674100"/>
      <sparseX i="16" alpha="-38435.071797818899" sparseCutoff=".20468748774750356E-001"/>
      <sparseX i="17" alpha="2214.8310116656758" sparseCutoff=".93597170096542937"/>
      <sparseX i="18" alpha="-2940.8064055901209" sparseCutoff="1.0000000000000000"/>
      <sparseX i="19" alpha="-7024.7915593240332" sparseCutoff="1.0000000000000000"/>
      <sparseX i="20" alpha="1841.4440339761757" sparseCutoff="1.0000000000000000"/>
      <sparseX i="21" alpha="-54154.717087727928" sparseCutoff=".97663846029626376E-002"/>
      <sparseX i="22" alpha="-111056.32819586761" sparseCutoff=".10495543699335197E-001"/>
      <sparseX i="23" alpha="-18684.225489658216" sparseCutoff=".14004664900669853E-001"/>
      <sparseX i="24" alpha="-13909.685336489832" sparseCutoff=".10099776839119720E-002"/>
      <sparseX i="25" alpha="7239.3279712551557" sparseCutoff=".22544410527786194E-002"/>
      <sparseX i="26" alpha="14513.996457991798" sparseCutoff=".61192239825234696E-001"/>
      <sparseX i="27" alpha="-59827.202409452286" sparseCutoff=".89440285675107534E-001"/>
      <sparseX i="28" alpha="6520.9609755876936" sparseCutoff=".63640178932931279E-001"/>
      <sparseX i="29" alpha="-5125.0357170513298" sparseCutoff="1.0000000000000000"/>
      <sparseX i="30" alpha="-14719.050227483371" sparseCutoff=".20625429968271047E-001"/>
      <sparseX i="31" alpha="6412.5659158105027" sparseCutoff="1.0000000000000000"/>
      <sparseX i="32" alpha="5681.9817499375185" sparseCutoff="1.0000000000000000"/>
      <sparseX i="33" alpha="84007.448482542677" sparseCutoff=".25312371219887941E-001"/>
      <sparseX i="34" alpha="3115.3154975748103" sparseCutoff="1.0000000000000000"/>
      <sparseX i="35" alpha="2742.7760707468606" sparseCutoff=".20692739763496093"/>
      <sparseX i="36" alpha="1471.8790327774864" sparseCutoff=".88522626953584793"/>
      <sparseX i="37" alpha="-4392.7453794668099" sparseCutoff=".98335257308838253"/>
      <sparseX i="38" alpha="-5657.3370556464870" sparseCutoff=".82221673497991901E-003"/>
      <sparseX i="39" alpha="4730.0486210772406" sparseCutoff="1.0000000000000000"/>
      <sparseX i="40" alpha="-13357.043310927076" sparseCutoff=".11403385445371483"/>
      <sparseX i="41" alpha="666.08278800931532" sparseCutoff=".69805710283238342E-003"/>
      <sparseX i="42" alpha="-2866.4432762267302" sparseCutoff="1.0000000000000000"/>
      <sparseX i="43" alpha="66198.239497156726" sparseCutoff=".93650705889834540E-001"/>
      <sparseX i="44" alpha="13.638547016916570" sparseCutoff=".39853097266765452E-005"/>
      <sparseX i="45" alpha="-4914.6570507541846" sparseCutoff="1.0000000000000000"/>
      <sparseX i="46" alpha="-5189.1045793249423" sparseCutoff="1.0000000000000000"/>
      <sparseX i="47" alpha="-8464.8686338148691" sparseCutoff="1.0000000000000000"/>
      <sparseX i="48" alpha="21754.606203167350" sparseCutoff=".63178751910086373E-001"/>
      <sparseX i="49" alpha="-7980.0774299241721" sparseCutoff=".36589562401500997"/>
      <sparseX i="50" alpha="-40217.846712241662" sparseCutoff=".11164840783233709E-001"/>
      <sparseX i="51" alpha="1784.4910459205776" sparseCutoff=".86594503653360844"/>
      <sparseX i="52" alpha="-703.80265954760102" sparseCutoff=".37674458750566091E-003"/>
      <sparseX i="53" alpha="-320.17469542996980" sparseCutoff=".78977430444193808"/>
      <sparseX i="54" alpha="1715.2306466548528" sparseCutoff=".28594421760171351E-002"/>
      <sparseX i="55" alpha="-4382.0464885334268" sparseCutoff=".14614389382577586E-001"/>
      <sparseX i="56" alpha="-13915.663327941595" sparseCutoff=".54346979294280895"/>
      <sparseX i="57" alpha="-776.19370434487064" sparseCutoff=".44815011362991930E-003"/>
      <sparseX i="58" alpha="-8621.5515869637275" sparseCutoff="1.0000000000000000"/>
      <sparseX i="59" alpha="-2671.2585120834292" sparseCutoff=".99995234652609444"/>
      <sparseX i="60" alpha="-8660.0706974465302" sparseCutoff=".94665045084951849"/>
      <sparseX i="61" alpha="-2933.7868454958434" sparseCutoff="1.0000000000000000"/>
      <sparseX i="62" alpha="2148.3876537492151" sparseCutoff="1.0000000000000000"/>
      <sparseX i="63" alpha="7610.2512803942227" sparseCutoff="1.0000000000000000"/>
      <sparseX i="64" alpha="20268.016908822014" sparseCutoff=".11767843957658447"/>
      <sparseX i="65" alpha="-19356.664311573815" sparseCutoff=".52455456961152780E-001"/>
      <sparseX i="66" alpha="-433.19626681404708" sparseCutoff="1.0000000000000000"/>
      <sparseX i="67" alpha="-1979.8481266773570" sparseCutoff="1.0000000000000000"/>
      <sparseX i="68" alpha="52549.679525355554" sparseCutoff=".10475316825498199"/>
      <sparseX i="69" alpha="-146.04183537227300" sparseCutoff=".65847690552622851E-004"/>
      <sparseX i="70" alpha="-20340.854653272334" sparseCutoff=".12998137443065422"/>
      <sparseX i="71" alpha="819.01166554976726" sparseCutoff=".87872412771658814"/>
      <sparseX i="72" alpha="33579.610935460289" sparseCutoff=".71773306140826332E-001"/>
      <sparseX i="73" alpha="-6111.4092414709839" sparseCutoff="1.0000000000000000"/>
      <sparseX i="74" alpha="-7201.0988437112619" sparseCutoff=".22915869601333633"/>
      <sparseX i="75" alpha="53982.841855169150" sparseCutoff=".84587060667688188E-001"/>
      <sparseX i="76" alpha="12020.021666821685" sparseCutoff=".59455377742503390"/>
      <sparseX i="77" alpha="-1561.1954872957208" sparseCutoff="1.0000000000000000"/>
      <sparseX i="78" alpha="5275.8669681594420" sparseCutoff="1.0000000000000000"/>
      <sparseX i="79" alpha="-3385.3498715267669" sparseCutoff="1.0000000000000000"/>
      <sparseX i="80" alpha="-319.87213839728389" sparseCutoff=".74270362674457491"/>
      <sparseX i="81" alpha="1211.2942168598124" sparseCutoff="1.0000000000000000"/>
      <sparseX i="82" alpha="3874.9643888464025" sparseCutoff=".32023864418837539"/>
      <sparseX i="83" alpha="404.74162492877764" sparseCutoff=".25397397954459567E-003"/>
      <sparseX i="84" alpha="-2771.8801118728943" sparseCutoff=".68766931621297145"/>
      <sparseX i="85" alpha="-13541.566102574814" sparseCutoff="1.0000000000000000"/>
      <sparseX i="86" alpha="-7563.9162805380120" sparseCutoff=".42407455199093080"/>
      <sparseX i="87" alpha="7978.2071390721912" sparseCutoff="1.0000000000000000"/>
      <sparseX i="88" alpha="31020.773535995148" sparseCutoff=".32522295909188703E-001"/>
      <sparseX i="89" alpha="-5890.7894208542630" sparseCutoff="1.0000000000000000"/>
      <sparseX i="90" alpha="4528.8048415551921" sparseCutoff=".68655590864885307"/>
      <sparseX i="91" alpha="-1198.4152248845603" sparseCutoff=".42842185207945360E-001"/>
      <sparseX i="92" alpha="-6564.2663016711294" sparseCutoff=".57097940988581297"/>
      <sparseX i="93" alpha="-52575.639059897607" sparseCutoff=".50036960175896317E-001"/>
      <sparseX i="94" alpha="61068.439446543431" sparseCutoff=".59213742302219652E-001"/>
      <sparseX i="95" alpha="704.23508371503499" sparseCutoff="1.0000000000000000"/>
      <sparseX i="96" alpha="21312.902926293882" sparseCutoff=".24097849327994275"/>
      <sparseX i="97" alpha="-3532.9862693711611" sparseCutoff="1.0000000000000000"/>
      <sparseX i="98" alpha="-67505.235234533335" sparseCutoff=".78066449942638672E-002"/>
      <sparseX i="99" alpha="14973.780611023294" sparseCutoff=".54505922206481983E-002"/>
      <sparseX i="100" alpha="-2867.8214886834448" sparseCutoff=".48044371656514751"/>
      <sparseX i="101" alpha="2190.2892701968813" sparseCutoff=".86565437409126811E-002"/>
      <sparseX i="102" alpha="47632.923363894552" sparseCutoff=".43662624670909700E-001"/>
      <sparseX i="103" alpha="-25180.718388084810" sparseCutoff=".74571831346143761E-002"/>
      <sparseX i="104" alpha="-3885.5411383938435" sparseCutoff="1.0000000000000000"/>
      <sparseX i="105" alpha="-68906.677510300651" sparseCutoff=".29519613418384832E-002"/>
      <sparseX i="106" alpha="11419.314061196301" sparseCutoff=".11930323013018664E-001"/>
      <sparseX i="107" alpha="-3371.6703204792771" sparseCutoff=".92901935249672096"/>
      <sparseX i="108" alpha="-2248.6778895048706" sparseCutoff="1.0000000000000000"/>
      <sparseX i="109" alpha="1060.5436669134315" sparseCutoff=".76691005921299871"/>
      <sparseX i="110" alpha="18473.583223692844" sparseCutoff="1.0000000000000000"/>
      <sparseX i="111" alpha="-5221.4928027301639" sparseCutoff="1.0000000000000000"/>
      <sparseX i="112" alpha="4044.9956970305043" sparseCutoff="1.0000000000000000"/>
      <sparseX i="113" alpha="874.27443227750018" sparseCutoff="1.0000000000000000"/>
      <sparseX i="114" alpha="57752.048065631854" sparseCutoff=".56302927699127037E-001"/>
      <sparseX i="115" alpha="38211.735400570768" sparseCutoff=".49841506287593332E-001"/>
      <sparseX i="116" alpha="100608.30715771824" sparseCutoff=".20124215681523006E-001"/>
      <sparseX i="117" alpha="-61069.989732772505" sparseCutoff=".42052788621273859E-001"/>
      <sparseX i="118" alpha="1021.6459199438216" sparseCutoff=".55815461718584425"/>
      <sparseX i="119" alpha="-14962.238408714493" sparseCutoff="1.0000000000000000"/>
      <sparseX i="120" alpha="2731.0257161701893" sparseCutoff=".83131462296539982"/>
      <sparseX i="121" alpha="-13970.662814794359" sparseCutoff=".30251845738425232"/>
      <sparseX i="122" alpha="7940.7405190646004" sparseCutoff=".54047524986935800E-002"/>
      <sparseX i="123" alpha="-572.75408839763884" sparseCutoff=".52675808877500341E-003"/>
      <sparseX i="124" alpha="-19785.031529971995" sparseCutoff=".23912936737211737"/>
      <sparseX i="125" alpha="8307.2970491299366" sparseCutoff=".15277086927911743E-002"/>
      <sparseX i="126" alpha="5750.7727323519857" sparseCutoff=".13741828839844614E-002"/>
      <sparseX i="127" alpha="10506.756008042505" sparseCutoff=".32764503026325620"/>
      <sparseX i="128" alpha="-11977.015029458373" sparseCutoff=".61228441415737067"/>
      <sparseX i="129" alpha="26803.671567317117" sparseCutoff=".24319476647456784"/>
      <sparseX i="130" alpha="31073.008856107706" sparseCutoff="1.0000000000000000"/>
      <sparseX i="131" alpha="-2791.5673630346514" sparseCutoff=".28242642563912172E-002"/>
      <sparseX i="132" alpha="-1244.1848190787482" sparseCutoff="1.0000000000000000"/>
      <sparseX i="133" alpha="-3694.4116777961121" sparseCutoff="1.0000000000000000"/>
      <sparseX i="134" alpha="-30477.252409903802" sparseCutoff=".23874852625672993"/>
      <sparseX i="135" alpha="5376.0961832359144" sparseCutoff="1.0000000000000000"/>
      <sparseX i="136" alpha="62567.676982390563" sparseCutoff=".33175351299534070E-001"/>
      <sparseX i="137" alpha="1527.6502964332224" sparseCutoff="1.0000000000000000"/>
      <sparseX i="138" alpha="1616.4074924241434" sparseCutoff=".49808132228716282E-003"/>
      <sparseX i="139" alpha="1752.1117437173425" sparseCutoff=".16590021307771163"/>
      <sparseX i="140" alpha="-2330.6692764815689" sparseCutoff="1.0000000000000000"/>
      <sparseX i="141" alpha="5605.7026936459897" sparseCutoff=".98536615387162163"/>
      <sparseX i="142" alpha="-8057.5591850872279" sparseCutoff=".40538735824737998"/>
      <sparseX i="143" alpha="-75684.759812945253" sparseCutoff=".15615750462644290"/>
      <sparseX i="144" alpha="-8938.4950337553128" sparseCutoff=".74016703979803944"/>
      <sparseX i="145" alpha="502.51280718835585" sparseCutoff="1.0000000000000000"/>
      <sparseX i="146" alpha="-58712.938584799005" sparseCutoff=".54910966622762292E-001"/>
      <sparseX i="147" alpha="-55389.462667201718" sparseCutoff=".13314755826348851"/>
      <sparseX i="148" alpha="-1102.3162599190348" sparseCutoff="1.0000000000000000"/>
      <sparseX i="149" alpha="1859.4938102187409" sparseCutoff=".18063343146137274E-002"/>
      <sparseX i="150" alpha="-181.73819582295607" sparseCutoff=".16102655814975719E-004"/>
      <sparseX i="151" alpha="1025.4787056495463" sparseCutoff=".84106238406579550E-003"/>
      <sparseX i="152" alpha="13262.686853450727" sparseCutoff=".30699567283380635"/>
      <sparseX i="153" alpha="51891.370625235657" sparseCutoff="1.0000000000000000"/>
      <sparseX i="154" alpha="5647.0414734288861" sparseCutoff="1.0000000000000000"/>
      <sparseX i="155" alpha="2359.6524900946961" sparseCutoff=".14251536196245170E-002"/>
      <sparseX i="156" alpha="-13780.059934959363" sparseCutoff=".17318378549471947"/>
      <sparseX i="157" alpha="-11348.043962492606" sparseCutoff=".64936328930520792"/>
      <sparseX i="158" alpha="3.6168411074045563" sparseCutoff=".23852459710462065E-004"/>
      <sparseX i="159" alpha="3420.5804939633208" sparseCutoff="1.0000000000000000"/>
      <sparseX i="160" alpha="30588.390231076148" sparseCutoff=".23910003323634247E-001"/>
      <sparseX i="161" alpha="-7371.6612840000307" sparseCutoff="1.0000000000000000"/>
      <sparseX i="162" alpha="-343.84311276310586" sparseCutoff="1.0000000000000000"/>
      <sparseX i="163" alpha="-36522.445636779237" sparseCutoff=".34663852948068341E-001"/>
      <sparseX i="164" alpha="3569.3124355636310" sparseCutoff=".84562721774682881"/>
      <sparseX i="165" alpha="-2892.4484550762641" sparseCutoff=".54618673429541298E-001"/>
      <sparseX i="166" alpha="-50679.689600517529" sparseCutoff="1.0000000000000000"/>
      <sparseX i="167" alpha="-3833.2254474139877" sparseCutoff=".12298681980958298"/>
      <sparseX i="168" alpha="10101.399750441004" sparseCutoff=".14249011248864762"/>
      <sparseX i="169" alpha="-1005.3221554096268" sparseCutoff="1.0000000000000000"/>
      <sparseX i="170" alpha="-2572.7035768401306" sparseCutoff="1.0000000000000000"/>
      <sparseX i="171" alpha="7319.4042178053051" sparseCutoff="1.0000000000000000"/>
      <sparseX i="172" alpha="44369.951797583017" sparseCutoff=".19179029024218530E-001"/>
      <sparseX i="173" alpha="66264.873497876310" sparseCutoff=".55142642962795752E-001"/>
      <sparseX i="174" alpha="3589.4851335804033" sparseCutoff="1.0000000000000000"/>
      <sparseX i="175" alpha="6887.6621844676774" sparseCutoff="1.0000000000000000"/>
      <sparseX i="176" alpha="-722.48391862638505" sparseCutoff=".31631530073110935E-003"/>
      <sparseX i="177" alpha="1827.0480209882903" sparseCutoff=".72837981347215563"/>
      <sparseX i="178" alpha="20087.902220239368" sparseCutoff=".25770067714759526"/>
      <sparseX i="179" alpha="3418.5943639851139" sparseCutoff=".72297409662069967"/>
      <sparseX i="180" alpha="24028.920602689617" sparseCutoff=".35893833021868371"/>
      <sparseX i="181" alpha="947.47078797732752" sparseCutoff="1.0000000000000000"/>
      <sparseX i="182" alpha="-15765.879988924842" sparseCutoff="1.0000000000000000"/>
      <sparseX i="183" alpha="-6417.2736775212234" sparseCutoff=".15491984583771823"/>
      <sparseX i="184" alpha="-18887.657874262266" sparseCutoff=".11036812741751462"/>
      <sparseX i="185" alpha="-15966.992525405927" sparseCutoff=".10906664361807406"/>
      <sparseX i="186" alpha="2936.6649047712458" sparseCutoff="1.0000000000000000"/>
      <sparseX i="187" alpha="56634.090765367895" sparseCutoff=".22101674759161805E-001"/>
      <sparseX i="188" alpha="45393.197014217141" sparseCutoff=".69395646115288812E-001"/>
      <sparseX i="189" alpha="6858.9195084698522" sparseCutoff="1.0000000000000000"/>
      <sparseX i="190" alpha="7088.0057076934418" sparseCutoff=".94226542846539874"/>
      <sparseX i="191" alpha="-5665.3939352521284" sparseCutoff="1.0000000000000000"/>
      <sparseX i="192" alpha="13434.561411366562" sparseCutoff="1.0000000000000000"/>
      <sparseX i="193" alpha="-8763.0899157829772" sparseCutoff=".16290338153413846E-001"/>
      <sparseX i="194" alpha="-2826.8851157200684" sparseCutoff="1.0000000000000000"/>
      <sparseX i="195" alpha="4742.1306423919241" sparseCutoff=".61252508968150177"/>
      <sparseX i="196" alpha="-23337.216755871475" sparseCutoff=".85914274768106938E-002"/>
      <sparseX i="197" alpha="-114.67500191744584" sparseCutoff=".45532080259230343E-005"/>
      <sparseX i="198" alpha="-4349.5964052140898" sparseCutoff=".68831159001247666"/>
      <sparseX i="199" alpha="15473.808213332673" sparseCutoff=".36259799796148195"/>
      <sparseX i="200" alpha="-3410.3532160917421" sparseCutoff=".72015553075002769"/>
    </gpCoordinates>
    <gpCoordinates label="GAP_2026_3_23_120_0_39_5_2575" dimensions="3" signal_variance=".10000000000000000E-001" signal_mean=".00000000000000000E+000" sparsified="T" n_permutations="1" covariance_type="4" n_sparseX="200" sparseX_filename="CH.xml.sparseX.GAP_2026_3_23_120_0_39_5_2575" sparseX_md5sum="1e8fae8dfd9dbc731ed71d4573de4578">
      <theta>  0.20000000000000000E+001  0.20000000000000000E+001  0.20000000000000000E+001 </theta>
      <descriptor> angle_3b Z_center=6 Z1=1 Z2=6 cutoff=2.0 n_sparse=200 covariance_type=pp delta=0.01 theta_uniform=2.0 sparse_method=uniform add_species=F</descriptor>
      <permutation i="1">1 2 3  </permutation>
      <sparseX i="1" alpha="31176.907342274415" sparseCutoff=".17201168365180505"/>
      <sparseX i="2" alpha="7212.4779428411557" sparseCutoff=".45998355787830708"/>
      <sparseX i="3" alpha="-31842.218880844001" sparseCutoff=".15869943555217464"/>
      <sparseX i="4" alpha="10515.188064224671" sparseCutoff=".13461805527355239"/>
      <sparseX i="5" alpha="8364.1021914700013" sparseCutoff="1.0000000000000000"/>
      <sparseX i="6" alpha="6470.9531285012354" sparseCutoff=".54952419890736404E-002"/>
      <sparseX i="7" alpha="-4724.0103900321574" sparseCutoff="1.0000000000000000"/>
      <sparseX i="8" alpha="-3424.5373668159186" sparseCutoff=".54952419890736404E-002"/>
      <sparseX i="9" alpha="-7799.6359849455439" sparseCutoff=".60255001778240997E-003"/>
      <sparseX i="10" alpha="-34687.292032652724" sparseCutoff="1.0000000000000000"/>
      <sparseX i="11" alpha="-31197.840258643009" sparseCutoff=".97104388833721589"/>
      <sparseX i="12" alpha="-4877.4418936423281" sparseCutoff=".59662359954797661"/>
      <sparseX i="13" alpha="-27425.937796203219" sparseCutoff="1.0000000000000000"/>
      <sparseX i="14" alpha="-99134.781799133663" sparseCutoff=".37575922716528820E-001"/>
      <sparseX i="15" alpha="-1490.1653022369806" sparseCutoff=".98806222860001158"/>
      <sparseX i="16" alpha="-26735.700150929897" sparseCutoff=".14713888518680068"/>
      <sparseX i="17" alpha="-43110.699266514850" sparseCutoff=".14713888518680068"/>
      <sparseX i="18" alpha="76370.929914586945" sparseCutoff=".13929458024072700"/>
      <sparseX i="19" alpha="-119211.08322094592" sparseCutoff=".20327999249998119E-001"/>
      <sparseX i="20" alpha="75701.117371256390" sparseCutoff=".18545300804286480"/>
      <sparseX i="21" alpha="27112.308240346967" sparseCutoff=".97104388833721589"/>
      <sparseX i="22" alpha="-13712.431080043432" sparseCutoff=".87882632178996993E-002"/>
      <sparseX i="23" alpha="-103061.76552792102" sparseCutoff=".40467799657021519E-001"/>
      <sparseX i="24" alpha="88938.621468834070" sparseCutoff=".24321213651686564E-001"/>
      <sparseX i="25" alpha="-8779.9478519731001" sparseCutoff=".55841382699397266E-002"/>
      <sparseX i="26" alpha="57740.486399737718" sparseCutoff="1.0000000000000000"/>
      <sparseX i="27" alpha="15889.883597508715" sparseCutoff=".85197506174541693"/>
      <sparseX i="28" alpha="-1165.2031597329367" sparseCutoff=".55843435319191448E-001"/>
      <sparseX i="29" alpha="98236.110552976097" sparseCutoff=".81021023830171734E-001"/>
      <sparseX i="30" alpha="-8618.9210026463006" sparseCutoff=".36894422835090768"/>
      <sparseX i="31" alpha="-1769.6931990636397" sparseCutoff=".27192891668376407"/>
      <sparseX i="32" alpha="8845.6387970492651" sparseCutoff="1.0000000000000000"/>
      <sparseX i="33" alpha="256.97024436293952" sparseCutoff=".21870211684617467E-002"/>
      <sparseX i="34" alpha="-3865.4474865229745" sparseCutoff=".29857712897993105E-001"/>
      <sparseX i="35" alpha="-3995.4960143017852" sparseCutoff=".43856494531613321"/>
      <sparseX i="36" alpha="1053.5298926949251" sparseCutoff=".19165339425358516E-001"/>
      <sparseX i="37" alpha="-4222.8653644768037" sparseCutoff=".86852619851856550"/>
      <sparseX i="38" alpha="271.91306749011517" sparseCutoff=".11218810642220078E-002"/>
      <sparseX i="39" alpha="-3003.2162637802458" sparseCutoff=".85539143039972121"/>
      <sparseX i="40" alpha="15986.365770593580" sparseCutoff=".85173350825309924"/>
      <sparseX i="41" alpha="-3410.0768524909740" sparseCutoff="1.0000000000000000"/>
      <sparseX i="42" alpha="13273.140668624395" sparseCutoff="1.0000000000000000"/>
      <sparseX i="43" alpha="-9740.5198241978778" sparseCutoff="1.0000000000000000"/>
      <sparseX i="44" alpha="-30.552167114561090" sparseCutoff=".37200008342383964E-005"/>
      <sparseX i="45" alpha="-136403.74516422825" sparseCutoff=".16535032077728773"/>
      <sparseX i="46" alpha="-6130.8677037734960" sparseCutoff=".48569106796853945E-001"/>
      <sparseX i="47" alpha="-15003.622937926144" sparseCutoff=".28731916246308203"/>
      <sparseX i="48" alpha="-33796.312678414622" sparseCutoff=".36565942120436734E-002"/>
      <sparseX i="49" alpha="137.51275281932629" sparseCutoff=".44454346106944786"/>
      <sparseX i="50" alpha="-5676.3389487133800" sparseCutoff="1.0000000000000000"/>
      <sparseX i="51" alpha="4233.8506349053132" sparseCutoff="1.0000000000000000"/>
      <sparseX i="52" alpha="-16431.992101641277" sparseCutoff=".57188743323337232"/>
      <sparseX i="53" alpha="-2919.7343663498536" sparseCutoff=".45894697697289100E-001"/>
      <sparseX i="54" alpha="-45034.018605254583" sparseCutoff=".80234168330933879E-002"/>
      <sparseX i="55" alpha="-175.48080645999107" sparseCutoff="1.0000000000000000"/>
      <sparseX i="56" alpha="-3686.3184384756341" sparseCutoff="1.0000000000000000"/>
      <sparseX i="57" alpha="-7462.3469272838365" sparseCutoff=".93374051465129493"/>
      <sparseX i="58" alpha="2688.0123615532798" sparseCutoff=".93374051465129493"/>
      <sparseX i="59" alpha="-5520.9036012307934" sparseCutoff="1.0000000000000000"/>
      <sparseX i="60" alpha="-1019.1328677650063" sparseCutoff=".23959842306544299E-001"/>
      <sparseX i="61" alpha="22171.981103827617" sparseCutoff="1.0000000000000000"/>
      <sparseX i="62" alpha="-865.34066350569424" sparseCutoff=".73715133623366558"/>
      <sparseX i="63" alpha="-9050.2972528802111" sparseCutoff="1.0000000000000000"/>
      <sparseX i="64" alpha="131546.64900089795" sparseCutoff=".13384469373523816"/>
      <sparseX i="65" alpha="8677.3314685854766" sparseCutoff=".40556634532604946"/>
      <sparseX i="66" alpha="13525.602214902738" sparseCutoff=".27061263829173959"/>
      <sparseX i="67" alpha="27934.632032992005" sparseCutoff=".54225084499754939E-001"/>
      <sparseX i="68" alpha="14985.620160411225" sparseCutoff=".76970516559439983"/>
      <sparseX i="69" alpha="-6545.7187612517937" sparseCutoff=".32770868388535628E-002"/>
      <sparseX i="70" alpha="-9648.5821365032589" sparseCutoff=".99924699662026639"/>
      <sparseX i="71" alpha="-6057.7469121809472" sparseCutoff="1.0000000000000000"/>
      <sparseX i="72" alpha="9798.9338050804145" sparseCutoff=".74528915619308078E-001"/>
      <sparseX i="73" alpha="-173.09215221890366" sparseCutoff=".97424692303673066"/>
      <sparseX i="74" alpha="25872.716767778737" sparseCutoff=".64582296543632434"/>
      <sparseX i="75" alpha="8388.4741079768846" sparseCutoff="1.0000000000000000"/>
      <sparseX i="76" alpha="-2918.8831011435382" sparseCutoff=".67178748612785644"/>
      <sparseX i="77" alpha="-2146.1736303308326" sparseCutoff=".53542069614251971E-003"/>
      <sparseX i="78" alpha="2045.8923259594651" sparseCutoff=".16719428022171079E-002"/>
      <sparseX i="79" alpha="-15245.426144047142" sparseCutoff="1.0000000000000000"/>
      <sparseX i="80" alpha="-2679.3018071889519" sparseCutoff=".27298621628746855E-002"/>
      <sparseX i="81" alpha="-16554.999302044653" sparseCutoff=".15662018823344942"/>
      <sparseX i="82" alpha="-1353.3095815361880" sparseCutoff=".60435085074352501"/>
      <sparseX i="83" alpha="751.89736940397779" sparseCutoff=".64638053878592716"/>
      <sparseX i="84" alpha="1486.6650490519846" sparseCutoff="1.0000000000000000"/>
      <sparseX i="85" alpha="-37562.810760742257" sparseCutoff=".12309862007218689"/>
      <sparseX i="86" alpha="-11089.745983339904" sparseCutoff=".35947376485195304E-002"/>
      <sparseX i="87" alpha="-2894.3569219673882" sparseCutoff="1.0000000000000000"/>
      <sparseX i="88" alpha="-7519.9040232284942" sparseCutoff="1.0000000000000000"/>
      <sparseX i="89" alpha="4300.6370047022147" sparseCutoff=".41743154484689682E-002"/>
      <sparseX i="90" alpha="6056.5603315441222" sparseCutoff=".15052860255120482E-001"/>
      <sparseX i="91" alpha="-129914.98625918839" sparseCutoff=".32229047373261765E-001"/>
      <sparseX i="92" alpha="-11712.962284683554" sparseCutoff=".21731595489312527E-001"/>
      <sparseX i="93" alpha="10733.222517623461" sparseCutoff="1.0000000000000000"/>
      <sparseX i="94" alpha="12795.953506120608" sparseCutoff="1.0000000000000000"/>
      <sparseX i="95" alpha="19004.956626069743" sparseCutoff=".22100895386769404E-001"/>
      <sparseX i="96" alpha="-2965.0477923770145" sparseCutoff="1.0000000000000000"/>
      <sparseX i="97" alpha="-3365.0665553426156" sparseCutoff=".62533272419811881E-002"/>
      <sparseX i="98" alpha="-119427.46193038794" sparseCutoff=".29963355499056876E-001"/>
      <sparseX i="99" alpha="-18181.023218762177" sparseCutoff=".53332098953931695"/>
      <sparseX i="100" alpha="-30410.510351492783" sparseCutoff=".10523347930842475E-001"/>
      <sparseX i="101" alpha="1104.0710027009141" sparseCutoff=".19594624710287637E-002"/>
      <sparseX i="102" alpha="-2581.7084475151205" sparseCutoff=".67209910170780318"/>
      <sparseX i="103" alpha="-39537.798662033958" sparseCutoff=".15539706338646300"/>
      <sparseX i="104" alpha="-3730.3051850485804" sparseCutoff=".86148918858995746E-003"/>
      <sparseX i="105" alpha="-2880.3727636084982" sparseCutoff="1.0000000000000000"/>
      <sparseX i="106" alpha="-110354.63347949104" sparseCutoff=".10250725266423002E-001"/>
      <sparseX i="107" alpha="42676.352957590738" sparseCutoff=".75494597117894691E-001"/>
      <sparseX i="108" alpha="9022.9382544954588" sparseCutoff="1.0000000000000000"/>
      <sparseX i="109" alpha="3131.8634488970874" sparseCutoff=".29334182772516315E-002"/>
      <sparseX i="110" alpha="-13716.250382393968" sparseCutoff="1.0000000000000000"/>
      <sparseX i="111" alpha="-34582.950864507351" sparseCutoff=".53781660903687474E-002"/>
      <sparseX i="112" alpha="-35549.460514433667" sparseCutoff=".38257307221899073E-001"/>
      <sparseX i="113" alpha="1315.1481921645088" sparseCutoff=".98840786590726237"/>
      <sparseX i="114" alpha="-3197.7917358540403" sparseCutoff=".91283264700404998"/>
      <sparseX i="115" alpha="352.15928410079772" sparseCutoff=".80100265133986603E-003"/>
      <sparseX i="116" alpha="11578.769142996172" sparseCutoff=".55218622636087644"/>
      <sparseX i="117" alpha="-13287.821838979138" sparseCutoff=".48267775159595960"/>
      <sparseX i="118" alpha="87551.925898361034" sparseCutoff=".88737757168463230E-001"/>
      <sparseX i="119" alpha="7378.4332567642423" sparseCutoff=".99499206016510722"/>
      <sparseX i="120" alpha="-37487.153670013744" sparseCutoff=".45899003498799669E-001"/>
      <sparseX i="121" alpha="-2213.8830401473551" sparseCutoff=".18708605191560812E-002"/>
      <sparseX i="122" alpha="18215.481715569778" sparseCutoff=".21291185623228293E-001"/>
      <sparseX i="123" alpha="-6243.6339246851066" sparseCutoff=".72809607042291613"/>
      <sparseX i="124" alpha="9803.4416357668142" sparseCutoff=".24724885612178216"/>
      <sparseX i="125" alpha="-37988.320262877154" sparseCutoff="1.0000000000000000"/>
      <sparseX i="126" alpha="-387.13465722848770" sparseCutoff="1.0000000000000000"/>
      <sparseX i="127" alpha="-12670.515742169579" sparseCutoff=".72397947289533160"/>
      <sparseX i="128" alpha="6229.5225599790501" sparseCutoff=".89506609203980803"/>
      <sparseX i="129" alpha="-2436.9065346012603" sparseCutoff=".76981964965369132E-002"/>
      <sparseX i="130" alpha="-19.776666347793753" sparseCutoff=".69466804034778613E-005"/>
      <sparseX i="131" alpha="35351.078735471754" sparseCutoff=".26700026438300595"/>
      <sparseX i="132" alpha="-23145.803438675095" sparseCutoff=".16222087010271807"/>
      <sparseX i="133" alpha="-25067.344579687338" sparseCutoff=".65883496345657003E-001"/>
      <sparseX i="134" alpha="31658.728979422136" sparseCutoff="1.0000000000000000"/>
      <sparseX i="135" alpha="-20016.489474078691" sparseCutoff=".16618174697231071E-001"/>
      <sparseX i="136" alpha="21590.105508735938" sparseCutoff=".36082388539947663"/>
      <sparseX i="137" alpha="-3020.0534060500454" sparseCutoff=".42074705815731095"/>
      <sparseX i="138" alpha="-1586.5369542955398" sparseCutoff=".40043099630939573E-003"/>
      <sparseX i="139" alpha="-61703.612649792485" sparseCutoff=".22569766990644346E-001"/>
      <sparseX i="140" alpha="3787.2665372155702" sparseCutoff="1.0000000000000000"/>
      <sparseX i="141" alpha="21045.348269124155" sparseCutoff=".15654849013938876E-001"/>
      <sparseX i="142" alpha="-3696.9082382953757" sparseCutoff="1.0000000000000000"/>
      <sparseX i="143" alpha="-48673.975340094032" sparseCutoff=".90179469720418282"/>
      <sparseX i="144" alpha="-1146.8591140512826" sparseCutoff="1.0000000000000000"/>
      <sparseX i="145" alpha="-1436.4075011225393" sparseCutoff=".33748190681425205E-002"/>
      <sparseX i="146" alpha="-4863.3322481857185" sparseCutoff=".13450132083329886E-002"/>
      <sparseX i="147" alpha="-3524.3837187588947" sparseCutoff=".60735656170735552"/>
      <sparseX i="148" alpha="-853.51864610420762" sparseCutoff=".28508206438781065E-003"/>
      <sparseX i="149" alpha="-5729.1422667594488" sparseCutoff=".13090340117808130E-001"/>
      <sparseX i="150" alpha="-9846.1472063416586" sparseCutoff=".79576643803390035"/>
      <sparseX i="151" alpha="-30977.918999668982" sparseCutoff=".20966952612463641"/>
      <sparseX i="152" alpha="16186.474169410320" sparseCutoff="1.0000000000000000"/>
      <sparseX i="153" alpha="-2472.4424320881153" sparseCutoff="1.0000000000000000"/>
      <sparseX i="154" alpha="26637.770060723866" sparseCutoff=".24812895438597549"/>
      <sparseX i="155" alpha="27967.299625095824" sparseCutoff="1.0000000000000000"/>
      <sparseX i="156" alpha="20220.073397763685" sparseCutoff=".74775280584722603"/>
      <sparseX i="157" alpha="58942.633830709718" sparseCutoff=".37439803866560331E-001"/>
      <sparseX i="158" alpha="2338.2417008463635" sparseCutoff="1.0000000000000000"/>
      <sparseX i="159" alpha="4519.5734992631051" sparseCutoff="1.0000000000000000"/>
      <sparseX i="160" alpha="-8102.0107155216328" sparseCutoff=".75550801350487973E-003"/>
      <sparseX i="161" alpha="-17634.851430420818" sparseCutoff="1.0000000000000000"/>
      <sparseX i="162" alpha="-8045.8422908329139" sparseCutoff="1.0000000000000000"/>
      <sparseX i="163" alpha="27825.579293228915" sparseCutoff=".24421637466981111"/>
      <sparseX i="164" alpha="2045.4363915188928" sparseCutoff=".82080405567748205E-002"/>
      <sparseX i="165" alpha="17014.474029880672" sparseCutoff=".32212555374080631E-001"/>
      <sparseX i="166" alpha="-4091.4134191226581" sparseCutoff=".68638107586780173"/>
      <sparseX i="167" alpha="26117.641961819681" sparseCutoff=".12017127012606887"/>
      <sparseX i="168" alpha="-6863.9832300010994" sparseCutoff=".17610216638703213E-002"/>
      <sparseX i="169" alpha="-36.815863663216895" sparseCutoff=".53466257415313301E-005"/>
      <sparseX i="170" alpha="333.88902989894814" sparseCutoff="1.0000000000000000"/>
      <sparseX i="171" alpha="-2.2263538160854992" sparseCutoff=".43472109870690652E-005"/>
      <sparseX i="172" alpha="-1176.7063126436153" sparseCutoff="1.0000000000000000"/>
      <sparseX i="173" alpha="-187166.50135552365" sparseCutoff=".18010910517395340E-001"/>
      <sparseX i="174" alpha="19307.364826957964" sparseCutoff="1.0000000000000000"/>
      <sparseX i="175" alpha="-7565.0282666521362" sparseCutoff=".77918751673722264"/>
      <sparseX i="176" alpha="-141782.73235023572" sparseCutoff=".87624975340185873E-002"/>
      <sparseX i="177" alpha="-61.946367656420357" sparseCutoff="1.0000000000000000"/>
      <sparseX i="178" alpha="55651.573405299183" sparseCutoff=".37473745849651074E-001"/>
      <sparseX i="179" alpha="732.37742910310976" sparseCutoff="1.0000000000000000"/>
      <sparseX i="180" alpha="17044.880289451452" sparseCutoff=".70601728933094576"/>
      <sparseX i="181" alpha="-8761.5234420479210" sparseCutoff="1.0000000000000000"/>
      <sparseX i="182" alpha="1846.4139420624645" sparseCutoff="1.0000000000000000"/>
      <sparseX i="183" alpha="-99212.720832887571" sparseCutoff=".56541926343533444E-001"/>
      <sparseX i="184" alpha="-16564.016464302011" sparseCutoff=".93745776295372896"/>
      <sparseX i="185" alpha="9610.5312279308710" sparseCutoff="1.0000000000000000"/>
      <sparseX i="186" alpha="-10849.250049198308" sparseCutoff="1.0000000000000000"/>
      <sparseX i="187" alpha="-3707.5503551997958" sparseCutoff="1.0000000000000000"/>
      <sparseX i="188" alpha="-36041.314517172024" sparseCutoff="1.0000000000000000"/>
      <sparseX i="189" alpha="5475.5084447720010" sparseCutoff="1.0000000000000000"/>
      <sparseX i="190" alpha="14545.043225509931" sparseCutoff=".12193457458236884"/>
      <sparseX i="191" alpha="-3688.4489441727665" sparseCutoff=".49460838931868756"/>
      <sparseX i="192" alpha="-4443.8746617594916" sparseCutoff="1.0000000000000000"/>
      <sparseX i="193" alpha="-221.11870720590665" sparseCutoff="1.0000000000000000"/>
      <sparseX i="194" alpha="9448.8780751028517" sparseCutoff=".84321970172681704"/>
      <sparseX i="195" alpha="27018.855666703414" sparseCutoff=".74058428417441827E-001"/>
      <sparseX i="196" alpha="1555.1239948406787" sparseCutoff=".98260058517552673"/>
      <sparseX i="197" alpha="11030.670220264194" sparseCutoff=".97356925739241285"/>
      <sparseX i="198" alpha="10919.322421868117" sparseCutoff=".15562080838033715"/>
      <sparseX i="199" alpha="-15177.011288242815" sparseCutoff=".79324260528406354"/>
      <sparseX i="200" alpha="33346.483265997493" sparseCutoff=".93094204960980509"/>
    </gpCoordinates>
    <gpCoordinates label="GAP_2026_3_23_120_0_39_5_2576" dimensions="3" signal_variance=".10000000000000000E-001" signal_mean=".00000000000000000E+000" sparsified="T" n_permutations="1" covariance_type="4" n_sparseX="200" sparseX_filename="CH.xml.sparseX.GAP_2026_3_23_120_0_39_5_2576" sparseX_md5sum="70c2db02aad1cc38b3a48868cf581f9a">
      <theta>  0.20000000000000000E+001  0.20000000000000000E+001  0.20000000000000000E+001 </theta>
      <descriptor> angle_3b Z_center=6 Z1=6 Z2=6 cutoff=2.0 n_sparse=200 covariance_type=pp delta=0.01 theta_uniform=2.0 sparse_method=uniform add_species=F</descriptor>
      <permutation i="1">1 2 3  </permutation>
      <sparseX i="1" alpha="106267.20230895844" sparseCutoff=".56599852548704799"/>
      <sparseX i="2" alpha="-43386.928399698612" sparseCutoff="1.0000000000000000"/>
      <sparseX i="3" alpha="-40961.905304353975" sparseCutoff="1.0000000000000000"/>
      <sparseX i="4" alpha="-38396.989169209533" sparseCutoff="1.0000000000000000"/>
      <sparseX i="5" alpha="-35220.310862470556" sparseCutoff=".30976176035637992"/>
      <sparseX i="6" alpha="-28129.340872610534" sparseCutoff=".59274799049551075E-001"/>
      <sparseX i="7" alpha="-8378.8130433614970" sparseCutoff="1.0000000000000000"/>
      <sparseX i="8" alpha="-16929.852991786614" sparseCutoff=".84825793365405411"/>
      <sparseX i="9" alpha="7586.3798004782693" sparseCutoff=".84825793365405411"/>
      <sparseX i="10" alpha="4330.1294260788554" sparseCutoff=".44893634608438064E-002"/>
      <sparseX i="11" alpha="-7413.0903574360873" sparseCutoff=".58753059397471572E-003"/>
      <sparseX i="12" alpha="228113.85610771383" sparseCutoff=".53514467050350074E-001"/>
      <sparseX i="13" alpha="-50292.591338690210" sparseCutoff=".89487321711836931E-002"/>
      <sparseX i="14" alpha="-65991.253706761854" sparseCutoff=".59274799049551075E-001"/>
      <sparseX i="15" alpha="117875.15273020568" sparseCutoff=".20377030143270445E-001"/>
      <sparseX i="16" alpha="-13509.437468450511" sparseCutoff=".17811012704430039E-002"/>
      <sparseX i="17" alpha="-231123.32283632175" sparseCutoff=".33401103677031929"/>
      <sparseX i="18" alpha="10987.142780604194" sparseCutoff=".14524336581821795"/>
      <sparseX i="19" alpha="-124169.30425256782" sparseCutoff="1.0000000000000000"/>
      <sparseX i="20" alpha="-86483.266166594069" sparseCutoff=".26935819089258729E-001"/>
      <sparseX i="21" alpha="-36202.341440479206" sparseCutoff=".56735902302313401E-002"/>
      <sparseX i="22" alpha="-13492.781543014960" sparseCutoff=".37531963769056377E-002"/>
      <sparseX i="23" alpha="-12217.310751434292" sparseCutoff=".99885079828347623"/>
      <sparseX i="24" alpha="-39842.894186745347" sparseCutoff=".77108881707409171"/>
      <sparseX i="25" alpha="52254.276502285196" sparseCutoff=".64244960625895270E-001"/>
      <sparseX i="26" alpha="83355.857899488678" sparseCutoff=".96269009861105925E-001"/>
      <sparseX i="27" alpha="-90109.666240900828" sparseCutoff=".13845882307393587"/>
      <sparseX i="28" alpha="-27551.599724843196" sparseCutoff=".97361713195810418"/>
      <sparseX i="29" alpha="-2829.8547518042310" sparseCutoff=".13845882307393587"/>
      <sparseX i="30" alpha="25899.746400727661" sparseCutoff=".63085623016115155"/>
      <sparseX i="31" alpha="52456.685482823785" sparseCutoff=".44237041964647861"/>
      <sparseX i="32" alpha="-134.25534898128774" sparseCutoff=".95161461078563714"/>
      <sparseX i="33" alpha="-13066.048866819114" sparseCutoff="1.0000000000000000"/>
      <sparseX i="34" alpha="1116.4389949060842" sparseCutoff=".22694854365590267E-003"/>
      <sparseX i="35" alpha="-667.57393348833386" sparseCutoff="1.0000000000000000"/>
      <sparseX i="36" alpha="-105533.36794478373" sparseCutoff=".20896196698833858E-001"/>
      <sparseX i="37" alpha="66420.824346422378" sparseCutoff="1.0000000000000000"/>
      <sparseX i="38" alpha="-21091.118349477303" sparseCutoff=".85173350825309924"/>
      <sparseX i="39" alpha="11390.912142469997" sparseCutoff=".13009296972315955E-002"/>
      <sparseX i="40" alpha="1359.2242771996355" sparseCutoff=".45028997347806854E-002"/>
      <sparseX i="41" alpha="-140456.22946237223" sparseCutoff=".12559920995362645"/>
      <sparseX i="42" alpha="45473.691951563938" sparseCutoff="1.0000000000000000"/>
      <sparseX i="43" alpha="-3605.9482829295184" sparseCutoff=".63223374651454944"/>
      <sparseX i="44" alpha="-121328.57946900993" sparseCutoff="1.0000000000000000"/>
      <sparseX i="45" alpha="-12445.777774589120" sparseCutoff=".95542640451352345"/>
      <sparseX i="46" alpha="9855.2772423819624" sparseCutoff=".95542640451352345"/>
      <sparseX i="47" alpha="-1712.2876736208682" sparseCutoff=".67606131723310525"/>
      <sparseX i="48" alpha="6330.1602620096646" sparseCutoff=".57102442591638103"/>
      <sparseX i="49" alpha="-17415.683067419948" sparseCutoff=".84463407587553541"/>
      <sparseX i="50" alpha="-8318.1577082500862" sparseCutoff=".40191157717582682"/>
      <sparseX i="51" alpha="-6647.0797369091270" sparseCutoff=".44725561205229776E-003"/>
      <sparseX i="52" alpha="246562.78946743059" sparseCutoff=".24304333401567291E-001"/>
      <sparseX i="53" alpha="54611.885182863734" sparseCutoff=".62930926578403323E-001"/>
      <sparseX i="54" alpha="3581.6097073056417" sparseCutoff=".19721936625621272E-002"/>
      <sparseX i="55" alpha="13036.882023958993" sparseCutoff=".95727053237676807"/>
      <sparseX i="56" alpha="-26509.734548461194" sparseCutoff=".11027681954465463"/>
      <sparseX i="57" alpha="-34082.788022240493" sparseCutoff=".10556474975432832"/>
      <sparseX i="58" alpha="-34693.530936929070" sparseCutoff=".13473475379492622"/>
      <sparseX i="59" alpha="-60533.666644718083" sparseCutoff="1.0000000000000000"/>
      <sparseX i="60" alpha="-29658.095773094719" sparseCutoff="1.0000000000000000"/>
      <sparseX i="61" alpha="5975.4975487036027" sparseCutoff="1.0000000000000000"/>
      <sparseX i="62" alpha="149.58190793559217" sparseCutoff=".93210512715713456E-004"/>
      <sparseX i="63" alpha="-26111.882403213414" sparseCutoff=".31328009867867246"/>
      <sparseX i="64" alpha="-60244.199055255383" sparseCutoff="1.0000000000000000"/>
      <sparseX i="65" alpha="236.57886228046502" sparseCutoff=".16633881604699585E-003"/>
      <sparseX i="66" alpha="29773.273531245344" sparseCutoff=".10138488192420408"/>
      <sparseX i="67" alpha="-190083.36818513874" sparseCutoff=".11389879356168270"/>
      <sparseX i="68" alpha="-47630.762718275095" sparseCutoff=".99627164687581893"/>
      <sparseX i="69" alpha="177101.11712030385" sparseCutoff=".22263171213505306"/>
      <sparseX i="70" alpha="-92962.538734152142" sparseCutoff=".47153867659552190"/>
      <sparseX i="71" alpha="-24798.366554687433" sparseCutoff="1.0000000000000000"/>
      <sparseX i="72" alpha="6423.1504592061619" sparseCutoff="1.0000000000000000"/>
      <sparseX i="73" alpha="-37271.628747814808" sparseCutoff=".91314420809465481E-002"/>
      <sparseX i="74" alpha="5607.3790927091322" sparseCutoff=".22496704329215522E-001"/>
      <sparseX i="75" alpha="56532.981305710535" sparseCutoff=".13910184351974753"/>
      <sparseX i="76" alpha="-138629.01279254613" sparseCutoff=".55773776196775027"/>
      <sparseX i="77" alpha="53511.142252494632" sparseCutoff=".28988837782682575E-001"/>
      <sparseX i="78" alpha="55180.114722397717" sparseCutoff=".88700020201165797"/>
      <sparseX i="79" alpha="-62261.433655248125" sparseCutoff=".19148802252771591"/>
      <sparseX i="80" alpha="8900.7140828342435" sparseCutoff=".91278016998600453"/>
      <sparseX i="81" alpha="71452.215356726592" sparseCutoff=".78340975559034187E-001"/>
      <sparseX i="82" alpha="-110305.95585117306" sparseCutoff=".12666541502836914"/>
      <sparseX i="83" alpha="36260.942521970857" sparseCutoff=".17223689322103153"/>
      <sparseX i="84" alpha="62832.187662968849" sparseCutoff="1.0000000000000000"/>
      <sparseX i="85" alpha="340821.40479501657" sparseCutoff=".49072563414036208"/>
      <sparseX i="86" alpha="-133079.29952206131" sparseCutoff=".23057701695133825E-001"/>
      <sparseX i="87" alpha="94806.181360192117" sparseCutoff=".51594358339627644"/>
      <sparseX i="88" alpha="-2545.0703296327943" sparseCutoff=".17399312369588749E-001"/>
      <sparseX i="89" alpha="32511.177960098539" sparseCutoff=".29438886568889933E-002"/>
      <sparseX i="90" alpha="-81868.181415253552" sparseCutoff=".26699995276660543"/>
      <sparseX i="91" alpha="-29482.317049789770" sparseCutoff="1.0000000000000000"/>
      <sparseX i="92" alpha="-40830.112996282893" sparseCutoff="1.0000000000000000"/>
      <sparseX i="93" alpha="307288.54000560218" sparseCutoff=".20878288908061038"/>
      <sparseX i="94" alpha="1831.7045911067776" sparseCutoff="1.0000000000000000"/>
      <sparseX i="95" alpha="-5514.8366527712842" sparseCutoff="1.0000000000000000"/>
      <sparseX i="96" alpha="-8861.4697684377134" sparseCutoff="1.0000000000000000"/>
      <sparseX i="97" alpha="-6683.2191585773871" sparseCutoff="1.0000000000000000"/>
      <sparseX i="98" alpha="246.32861712915624" sparseCutoff=".21430771498559542E-003"/>
      <sparseX i="99" alpha="967.48157641633850" sparseCutoff=".37407608092693279E-003"/>
      <sparseX i="100" alpha="-9873.6319804905797" sparseCutoff=".19391419933944332E-001"/>
      <sparseX i="101" alpha="-44092.900550978513" sparseCutoff=".27191182360148669"/>
      <sparseX i="102" alpha="-15959.889814156451" sparseCutoff=".99273083116542360"/>
      <sparseX i="103" alpha="19305.353619267749" sparseCutoff=".78719921480887955"/>
      <sparseX i="104" alpha="-14939.605365218447" sparseCutoff=".17126790317876461"/>
      <sparseX i="105" alpha="28612.713412046662" sparseCutoff="1.0000000000000000"/>
      <sparseX i="106" alpha="-8574.8220543535608" sparseCutoff=".50104891461910905"/>
      <sparseX i="107" alpha="-21320.002218372851" sparseCutoff=".11014787533166290E-001"/>
      <sparseX i="108" alpha="-66832.451026979543" sparseCutoff=".27558343281071263E-001"/>
      <sparseX i="109" alpha="67128.162477682345" sparseCutoff=".72490255611440624E-001"/>
      <sparseX i="110" alpha="-279176.17051304155" sparseCutoff=".62079994754912993E-001"/>
      <sparseX i="111" alpha="-34168.007081562668" sparseCutoff=".57710265309353015"/>
      <sparseX i="112" alpha="-26268.564376918075" sparseCutoff=".15814597919358648E-001"/>
      <sparseX i="113" alpha="-67297.579225186535" sparseCutoff=".16417334663860462E-001"/>
      <sparseX i="114" alpha="31499.754410102465" sparseCutoff=".40961628048413475E-001"/>
      <sparseX i="115" alpha="38416.708642784935" sparseCutoff="1.0000000000000000"/>
      <sparseX i="116" alpha="9687.9548007221238" sparseCutoff="1.0000000000000000"/>
      <sparseX i="117" alpha="4300.1960660544546" sparseCutoff="1.0000000000000000"/>
      <sparseX i="118" alpha="57072.059735157047" sparseCutoff="1.0000000000000000"/>
      <sparseX i="119" alpha="55026.709991528682" sparseCutoff=".98844134634439362"/>
      <sparseX i="120" alpha="30769.048405917849" sparseCutoff=".35756741469741771"/>
      <sparseX i="121" alpha="-18598.657972073710" sparseCutoff=".35756741469741771"/>
      <sparseX i="122" alpha="29495.260699866260" sparseCutoff=".24058273562635776"/>
      <sparseX i="123" alpha="159510.36347593935" sparseCutoff=".98496123533545976E-001"/>
      <sparseX i="124" alpha="-10493.195249027662" sparseCutoff=".40550545237705472E-003"/>
      <sparseX i="125" alpha="4728.4486461117540" sparseCutoff="1.0000000000000000"/>
      <sparseX i="126" alpha="4097.6065417689470" sparseCutoff="1.0000000000000000"/>
      <sparseX i="127" alpha="132988.80717518934" sparseCutoff=".49326345104600228"/>
      <sparseX i="128" alpha="-11530.035298735846" sparseCutoff=".42010055988455641E-001"/>
      <sparseX i="129" alpha="-60747.221025716106" sparseCutoff=".12046084774904781"/>
      <sparseX i="130" alpha="-110389.90349359292" sparseCutoff=".23193578557550559"/>
      <sparseX i="131" alpha="-168786.57530339767" sparseCutoff=".12715822604626459"/>
      <sparseX i="132" alpha="-34987.771565993542" sparseCutoff=".69737421016333301"/>
      <sparseX i="133" alpha="41906.079201129003" sparseCutoff=".76952947170620256"/>
      <sparseX i="134" alpha="107947.04198555071" sparseCutoff=".14267636685153240"/>
      <sparseX i="135" alpha="37623.108559412598" sparseCutoff=".20545969373589934E-001"/>
      <sparseX i="136" alpha="-53768.413191739935" sparseCutoff=".32276906199169253"/>
      <sparseX i="137" alpha="-23177.837391329394" sparseCutoff=".32276906199169253"/>
      <sparseX i="138" alpha="13645.471465162644" sparseCutoff=".14551888001655650"/>
      <sparseX i="139" alpha="-6622.8829647462971" sparseCutoff="1.0000000000000000"/>
      <sparseX i="140" alpha="41866.188876559427" sparseCutoff="1.0000000000000000"/>
      <sparseX i="141" alpha="12514.332165055293" sparseCutoff=".10647701399086401"/>
      <sparseX i="142" alpha="-20999.507001563281" sparseCutoff=".96009673040307020"/>
      <sparseX i="143" alpha="-54707.029722103689" sparseCutoff="1.0000000000000000"/>
      <sparseX i="144" alpha="-24198.457529109171" sparseCutoff=".21838215580794018E-001"/>
      <sparseX i="145" alpha="2896.7172729223689" sparseCutoff=".93876505295101520"/>
      <sparseX i="146" alpha="14891.129601704226" sparseCutoff="1.0000000000000000"/>
      <sparseX i="147" alpha="-168433.48969422778" sparseCutoff=".71121943386608433E-001"/>
      <sparseX i="148" alpha="52897.939451695747" sparseCutoff=".10467245765550709"/>
      <sparseX i="149" alpha="-79674.721281690508" sparseCutoff=".93171167318297288"/>
      <sparseX i="150" alpha="-68868.083844568537" sparseCutoff="1.0000000000000000"/>
      <sparseX i="151" alpha="-1709.0985170001729" sparseCutoff=".13667119989757798"/>
      <sparseX i="152" alpha="-15264.780586877623" sparseCutoff=".25117988430698422E-002"/>
      <sparseX i="153" alpha="34817.231395009389" sparseCutoff="1.0000000000000000"/>
      <sparseX i="154" alpha="33543.127934812823" sparseCutoff="1.0000000000000000"/>
      <sparseX i="155" alpha="22155.777886672193" sparseCutoff="1.0000000000000000"/>
      <sparseX i="156" alpha="24835.152645277900" sparseCutoff="1.0000000000000000"/>
      <sparseX i="157" alpha="375.11314716861762" sparseCutoff="1.0000000000000000"/>
      <sparseX i="158" alpha="-37035.819485820677" sparseCutoff="1.0000000000000000"/>
      <sparseX i="159" alpha="-57493.753795922174" sparseCutoff="1.0000000000000000"/>
      <sparseX i="160" alpha="5410.0803932967419" sparseCutoff=".76890746342025713E-003"/>
      <sparseX i="161" alpha="-5602.9066883879732" sparseCutoff=".63505125136871347E-003"/>
      <sparseX i="162" alpha="7794.7817513237042" sparseCutoff=".36966914451986010"/>
      <sparseX i="163" alpha="-225130.82388776692" sparseCutoff=".98811421650289943E-001"/>
      <sparseX i="164" alpha="26640.312856236906" sparseCutoff=".88608309167358934"/>
      <sparseX i="165" alpha="-6222.7726357224747" sparseCutoff="1.0000000000000000"/>
      <sparseX i="166" alpha="-155775.09785465442" sparseCutoff=".51841526686547623"/>
      <sparseX i="167" alpha="25226.282399649772" sparseCutoff="1.0000000000000000"/>
      <sparseX i="168" alpha="28280.358674108353" sparseCutoff="1.0000000000000000"/>
      <sparseX i="169" alpha="35739.650515867455" sparseCutoff="1.0000000000000000"/>
      <sparseX i="170" alpha="28227.259191549485" sparseCutoff="1.0000000000000000"/>
      <sparseX i="171" alpha="103810.02376777837" sparseCutoff=".34353133313548345"/>
      <sparseX i="172" alpha="-965.82878439172509" sparseCutoff=".11289377679050608E-003"/>
      <sparseX i="173" alpha="30209.988983097373" sparseCutoff="1.0000000000000000"/>
      <sparseX i="174" alpha="19534.623265278486" sparseCutoff="1.0000000000000000"/>
      <sparseX i="175" alpha="34574.999005188605" sparseCutoff="1.0000000000000000"/>
      <sparseX i="176" alpha="-27490.096709771191" sparseCutoff=".28195309962240095"/>
      <sparseX i="177" alpha="16098.981969670700" sparseCutoff=".67970249772688240"/>
      <sparseX i="178" alpha="-36180.988766503855" sparseCutoff=".42802007780233142"/>
      <sparseX i="179" alpha="-38088.225578659614" sparseCutoff=".79901757975001705E-002"/>
      <sparseX i="180" alpha="284246.13646358298" sparseCutoff=".47073692263602640E-001"/>
      <sparseX i="181" alpha="54394.720079362574" sparseCutoff=".52504567637659705"/>
      <sparseX i="182" alpha="224003.91271923960" sparseCutoff="1.0000000000000000"/>
      <sparseX i="183" alpha="-80387.937900115634" sparseCutoff=".44925348589306524E-001"/>
      <sparseX i="184" alpha="54075.837419871008" sparseCutoff=".29350140752634479"/>
      <sparseX i="185" alpha="28.925884361553837" sparseCutoff=".17200879866174912E-004"/>
      <sparseX i="186" alpha="68677.138904492647" sparseCutoff=".55947671735802895E-001"/>
      <sparseX i="187" alpha="30609.920528645205" sparseCutoff=".88064471130859090"/>
      <sparseX i="188" alpha="-2.0801105505614941" sparseCutoff=".24458450390168151E-006"/>
      <sparseX i="189" alpha="9470.4981472567397" sparseCutoff=".21439229237226631E-001"/>
      <sparseX i="190" alpha="-129628.19075008156" sparseCutoff="1.0000000000000000"/>
      <sparseX i="191" alpha="20815.285475358887" sparseCutoff="1.0000000000000000"/>
      <sparseX i="192" alpha="-33458.861809139125" sparseCutoff="1.0000000000000000"/>
      <sparseX i="193" alpha="-4568.5221527586027" sparseCutoff=".50151337105347232E-003"/>
      <sparseX i="194" alpha="40161.902641258384" sparseCutoff=".60216355474948330E-001"/>
      <sparseX i="195" alpha="3928.2143064655270" sparseCutoff=".27296342858099655E-001"/>
      <sparseX i="196" alpha="25142.953619967870" sparseCutoff="1.0000000000000000"/>
      <sparseX i="197" alpha="139660.11265857203" sparseCutoff="1.0000000000000000"/>
      <sparseX i="198" alpha="66636.013885311666" sparseCutoff=".81785566758615869E-001"/>
      <sparseX i="199" alpha="-15006.792607096053" sparseCutoff=".14112050719008559E-002"/>
      <sparseX i="200" alpha="-78496.081892833579" sparseCutoff=".85721338836265026"/>
    </gpCoordinates>
    <gpCoordinates label="GAP_2026_3_23_120_0_39_5_2577" dimensions="75" signal_variance=".10000000000000001E+000" signal_mean=".00000000000000000E+000" sparsified="T" n_permutations="1" covariance_type="2" zeta="4.0000000000000000" n_sparseX="1000" sparseX_filename="CH.xml.sparseX.GAP_2026_3_23_120_0_39_5_2577" sparseX_md5sum="839f7c3f155c22e4ab59280147ccc312">
      <descriptor> soap_turbo l_max=4 alpha_max={4 4} atom_sigma_r={0.2 0.2} atom_sigma_t={0.2 0.2} atom_sigma_r_scaling={0.1 0.1} atom_sigma_t_scaling={0.1 0.1} zeta=4 rcut_hard=4.0 rcut_soft=3.5 basis=poly3gauss scaling_mode=polynomial add_species=F amplitude_scaling={2.0 2.0} n_species=2 species_Z={1 6} central_index=1 radial_enhancement=1 compress_mode=trivial central_weight={1.0 1.0} n_sparse=1000 delta=0.1 f0=0.0 covariance_type=dot_product sparse_method=cur_points</descriptor>
      <permutation i="1">1  </permutation>
      <sparseX i="1" alpha="89935.668913565692" sparseCutoff="1.0000000000000000"/>
      <sparseX i="2" alpha="13508.346177943324" sparseCutoff="1.0000000000000000"/>
      <sparseX i="3" alpha="5934.7332207276195" sparseCutoff="1.0000000000000000"/>
      <sparseX i="4" alpha="-5800.5875780924198" sparseCutoff="1.0000000000000000"/>
      <sparseX i="5" alpha="-65691.920836363352" sparseCutoff="1.0000000000000000"/>
      <sparseX i="6" alpha="-9353.1579375094261" sparseCutoff="1.0000000000000000"/>
      <sparseX i="7" alpha="-7807.0887837896498" sparseCutoff="1.0000000000000000"/>
      <sparseX i="8" alpha="-21812.487440513247" sparseCutoff="1.0000000000000000"/>
      <sparseX i="9" alpha="-3509.9198585709073" sparseCutoff="1.0000000000000000"/>
      <sparseX i="10" alpha="-34842.817496991011" sparseCutoff="1.0000000000000000"/>
      <sparseX i="11" alpha="-15704.690167536819" sparseCutoff="1.0000000000000000"/>
      <sparseX i="12" alpha="14352.661377165985" sparseCutoff="1.0000000000000000"/>
      <sparseX i="13" alpha="-44584.898904921545" sparseCutoff="1.0000000000000000"/>
      <sparseX i="14" alpha="-69756.449076057746" sparseCutoff="1.0000000000000000"/>
      <sparseX i="15" alpha="-3130.8220482260863" sparseCutoff="1.0000000000000000"/>
      <sparseX i="16" alpha="37146.220591008721" sparseCutoff="1.0000000000000000"/>
      <sparseX i="17" alpha="-21753.079923533092" sparseCutoff="1.0000000000000000"/>
      <sparseX i="18" alpha="-5107.2247828429072" sparseCutoff="1.0000000000000000"/>
      <sparseX i="19" alpha="-15611.697885540094" sparseCutoff="1.0000000000000000"/>
      <sparseX i="20" alpha="12073.969145285831" sparseCutoff="1.0000000000000000"/>
      <sparseX i="21" alpha="20229.786091851594" sparseCutoff="1.0000000000000000"/>
      <sparseX i="22" alpha="7831.0914537785902" sparseCutoff="1.0000000000000000"/>
      <sparseX i="23" alpha="-3888.1834859433166" sparseCutoff="1.0000000000000000"/>
      <sparseX i="24" alpha="5371.4118485454428" sparseCutoff="1.0000000000000000"/>
      <sparseX i="25" alpha="10538.334851608866" sparseCutoff="1.0000000000000000"/>
      <sparseX i="26" alpha="65406.987054533129" sparseCutoff="1.0000000000000000"/>
      <sparseX i="27" alpha="-2715.3767937507878" sparseCutoff="1.0000000000000000"/>
      <sparseX i="28" alpha="-5209.1043166123582" sparseCutoff="1.0000000000000000"/>
      <sparseX i="29" alpha="-23817.060050659878" sparseCutoff="1.0000000000000000"/>
      <sparseX i="30" alpha="93606.715400054440" sparseCutoff="1.0000000000000000"/>
      <sparseX i="31" alpha="41753.815918002372" sparseCutoff="1.0000000000000000"/>
      <sparseX i="32" alpha="-57416.006237696129" sparseCutoff="1.0000000000000000"/>
      <sparseX i="33" alpha="1387.2254439778731" sparseCutoff="1.0000000000000000"/>
      <sparseX i="34" alpha="-374.67244540086170" sparseCutoff="1.0000000000000000"/>
      <sparseX i="35" alpha="18348.284603226875" sparseCutoff="1.0000000000000000"/>
      <sparseX i="36" alpha="1681.6688881888838" sparseCutoff="1.0000000000000000"/>
      <sparseX i="37" alpha="10505.278439865939" sparseCutoff="1.0000000000000000"/>
      <sparseX i="38" alpha="-70597.888550208358" sparseCutoff="1.0000000000000000"/>
      <sparseX i="39" alpha="4995.1384697006752" sparseCutoff="1.0000000000000000"/>
      <sparseX i="40" alpha="79647.653464705596" sparseCutoff="1.0000000000000000"/>
      <sparseX i="41" alpha="22204.567775805393" sparseCutoff="1.0000000000000000"/>
      <sparseX i="42" alpha="-31556.811300498823" sparseCutoff="1.0000000000000000"/>
      <sparseX i="43" alpha="4715.4658959643357" sparseCutoff="1.0000000000000000"/>
      <sparseX i="44" alpha="-320150.92408103182" sparseCutoff="1.0000000000000000"/>
      <sparseX i="45" alpha="-61120.138519974695" sparseCutoff="1.0000000000000000"/>
      <sparseX i="46" alpha="38871.840384695846" sparseCutoff="1.0000000000000000"/>
      <sparseX i="47" alpha="544445.27514005813" sparseCutoff="1.0000000000000000"/>
      <sparseX i="48" alpha="192125.47167722820" sparseCutoff="1.0000000000000000"/>
      <sparseX i="49" alpha="-9458.7407843422097" sparseCutoff="1.0000000000000000"/>
      <sparseX i="50" alpha="-20085.263422610984" sparseCutoff="1.0000000000000000"/>
      <sparseX i="51" alpha="-22060.992552371237" sparseCutoff="1.0000000000000000"/>
      <sparseX i="52" alpha="4690.3142533238934" sparseCutoff="1.0000000000000000"/>
      <sparseX i="53" alpha="9298.1317839020885" sparseCutoff="1.0000000000000000"/>
      <sparseX i="54" alpha="-4369.2096842718092" sparseCutoff="1.0000000000000000"/>
      <sparseX i="55" alpha="-53908.887529338055" sparseCutoff="1.0000000000000000"/>
      <sparseX i="56" alpha="39093.112379048507" sparseCutoff="1.0000000000000000"/>
      <sparseX i="57" alpha="10926.560682887841" sparseCutoff="1.0000000000000000"/>
      <sparseX i="58" alpha="2393.3054150906037" sparseCutoff="1.0000000000000000"/>
      <sparseX i="59" alpha="9911.3329673015069" sparseCutoff="1.0000000000000000"/>
      <sparseX i="60" alpha="57854.942124820009" sparseCutoff="1.0000000000000000"/>
      <sparseX i="61" alpha="-8962.9775237757876" sparseCutoff="1.0000000000000000"/>
      <sparseX i="62" alpha="-88447.406636931264" sparseCutoff="1.0000000000000000"/>
      <sparseX i="63" alpha="-12523.468762126651" sparseCutoff="1.0000000000000000"/>
      <sparseX i="64" alpha="-7867.8076444461967" sparseCutoff="1.0000000000000000"/>
      <sparseX i="65" alpha="-257718.30899965353" sparseCutoff="1.0000000000000000"/>
      <sparseX i="66" alpha="6904.1076538514226" sparseCutoff="1.0000000000000000"/>
      <sparseX i="67" alpha="27263.798267446553" sparseCutoff="1.0000000000000000"/>
      <sparseX i="68" alpha="-17358.837321390332" sparseCutoff="1.0000000000000000"/>
      <sparseX i="69" alpha="-6859.6840646086430" sparseCutoff="1.0000000000000000"/>
      <sparseX i="70" alpha="4872.0420665275997" sparseCutoff="1.0000000000000000"/>
      <sparseX i="71" alpha="-203229.78781952377" sparseCutoff="1.0000000000000000"/>
      <sparseX i="72" alpha="1728.1781211832356" sparseCutoff="1.0000000000000000"/>
      <sparseX i="73" alpha="2500.7727656916536" sparseCutoff="1.0000000000000000"/>
      <sparseX i="74" alpha="-207638.28043152939" sparseCutoff="1.0000000000000000"/>
      <sparseX i="75" alpha="-39486.700177930441" sparseCutoff="1.0000000000000000"/>
      <sparseX i="76" alpha="-8353.2633155919102" sparseCutoff="1.0000000000000000"/>
      <sparseX i="77" alpha="4242.8554330663655" sparseCutoff="1.0000000000000000"/>
      <sparseX i="78" alpha="-32753.146774455043" sparseCutoff="1.0000000000000000"/>
      <sparseX i="79" alpha="-19639.162998711166" sparseCutoff="1.0000000000000000"/>
      <sparseX i="80" alpha="7442.7929461107869" sparseCutoff="1.0000000000000000"/>
      <sparseX i="81" alpha="-2467.5036881121819" sparseCutoff="1.0000000000000000"/>
      <sparseX i="82" alpha="-10674.269075992428" sparseCutoff="1.0000000000000000"/>
      <sparseX i="83" alpha="11993.538195877141" sparseCutoff="1.0000000000000000"/>
      <sparseX i="84" alpha="14015.090597957225" sparseCutoff="1.0000000000000000"/>
      <sparseX i="85" alpha="-18256.672882448831" sparseCutoff="1.0000000000000000"/>
      <sparseX i="86" alpha="-54560.830839644565" sparseCutoff="1.0000000000000000"/>
      <sparseX i="87" alpha="-11982.701184212767" sparseCutoff="1.0000000000000000"/>
      <sparseX i="88" alpha="22950.549299666283" sparseCutoff="1.0000000000000000"/>
      <sparseX i="89" alpha="6334.9013777071896" sparseCutoff="1.0000000000000000"/>
      <sparseX i="90" alpha="-4189.4487105244707" sparseCutoff="1.0000000000000000"/>
      <sparseX i="91" alpha="253166.70898087934" sparseCutoff="1.0000000000000000"/>
      <sparseX i="92" alpha="-9213.4868213913178" sparseCutoff="1.0000000000000000"/>
      <sparseX i="93" alpha="-24028.077714334144" sparseCutoff="1.0000000000000000"/>
      <sparseX i="94" alpha="13674.492871116840" sparseCutoff="1.0000000000000000"/>
      <sparseX i="95" alpha="105151.07745201584" sparseCutoff="1.0000000000000000"/>
      <sparseX i="96" alpha="-41927.075102887378" sparseCutoff="1.0000000000000000"/>
      <sparseX i="97" alpha="-26173.437431886468" sparseCutoff="1.0000000000000000"/>
      <sparseX i="98" alpha="-35766.953096078330" sparseCutoff="1.0000000000000000"/>
      <sparseX i="99" alpha="4531.7955386960657" sparseCutoff="1.0000000000000000"/>
      <sparseX i="100" alpha="-13498.299398641077" sparseCutoff="1.0000000000000000"/>
      <sparseX i="101" alpha="3085.8217121529119" sparseCutoff="1.0000000000000000"/>
      <sparseX i="102" alpha="736.04528417216022" sparseCutoff="1.0000000000000000"/>
      <sparseX i="103" alpha="103328.00312866326" sparseCutoff="1.0000000000000000"/>
      <sparseX i="104" alpha="11979.908141758122" sparseCutoff="1.0000000000000000"/>
      <sparseX i="105" alpha="15457.260905403791" sparseCutoff="1.0000000000000000"/>
      <sparseX i="106" alpha="18309.321858981210" sparseCutoff="1.0000000000000000"/>
      <sparseX i="107" alpha="13729.035712894860" sparseCutoff="1.0000000000000000"/>
      <sparseX i="108" alpha="324.56955542856241" sparseCutoff="1.0000000000000000"/>
      <sparseX i="109" alpha="50376.236207657552" sparseCutoff="1.0000000000000000"/>
      <sparseX i="110" alpha="-22744.446003891397" sparseCutoff="1.0000000000000000"/>
      <sparseX i="111" alpha="-140318.24315227338" sparseCutoff="1.0000000000000000"/>
      <sparseX i="112" alpha="2125.2652353631552" sparseCutoff="1.0000000000000000"/>
      <sparseX i="113" alpha="559.29271006998874" sparseCutoff="1.0000000000000000"/>
      <sparseX i="114" alpha="137400.04702751336" sparseCutoff="1.0000000000000000"/>
      <sparseX i="115" alpha="141749.01496798851" sparseCutoff="1.0000000000000000"/>
      <sparseX i="116" alpha="-1507.8838401309588" sparseCutoff="1.0000000000000000"/>
      <sparseX i="117" alpha="-5110.5248788647332" sparseCutoff="1.0000000000000000"/>
      <sparseX i="118" alpha="133.38759125994704" sparseCutoff="1.0000000000000000"/>
      <sparseX i="119" alpha="988.42343560617826" sparseCutoff="1.0000000000000000"/>
      <sparseX i="120" alpha="160.67743352333034" sparseCutoff="1.0000000000000000"/>
      <sparseX i="121" alpha="46399.149941768796" sparseCutoff="1.0000000000000000"/>
      <sparseX i="122" alpha="-17383.583274081637" sparseCutoff="1.0000000000000000"/>
      <sparseX i="123" alpha="-37652.875712178975" sparseCutoff="1.0000000000000000"/>
      <sparseX i="124" alpha="-4144.7020527303011" sparseCutoff="1.0000000000000000"/>
      <sparseX i="125" alpha="-40311.296254641849" sparseCutoff="1.0000000000000000"/>
      <sparseX i="126" alpha="-6698.5341209845028" sparseCutoff="1.0000000000000000"/>
      <sparseX i="127" alpha="-4154.2314189983890" sparseCutoff="1.0000000000000000"/>
      <sparseX i="128" alpha="25124.228053643725" sparseCutoff="1.0000000000000000"/>
      <sparseX i="129" alpha="-69493.848497923129" sparseCutoff="1.0000000000000000"/>
      <sparseX i="130" alpha="101521.48076900504" sparseCutoff="1.0000000000000000"/>
      <sparseX i="131" alpha="96221.567405998692" sparseCutoff="1.0000000000000000"/>
      <sparseX i="132" alpha="59350.859190371986" sparseCutoff="1.0000000000000000"/>
      <sparseX i="133" alpha="-14402.131784348318" sparseCutoff="1.0000000000000000"/>
      <sparseX i="134" alpha="-949.20038807321055" sparseCutoff="1.0000000000000000"/>
      <sparseX i="135" alpha="-1809.8538854607564" sparseCutoff="1.0000000000000000"/>
      <sparseX i="136" alpha="-8540.5021362537555" sparseCutoff="1.0000000000000000"/>
      <sparseX i="137" alpha="-19861.302246190142" sparseCutoff="1.0000000000000000"/>
      <sparseX i="138" alpha="-2881.3500234875291" sparseCutoff="1.0000000000000000"/>
      <sparseX i="139" alpha="38745.016351047379" sparseCutoff="1.0000000000000000"/>
      <sparseX i="140" alpha="6728.2351770397127" sparseCutoff="1.0000000000000000"/>
      <sparseX i="141" alpha="30851.735295952243" sparseCutoff="1.0000000000000000"/>
      <sparseX i="142" alpha="14760.326833429612" sparseCutoff="1.0000000000000000"/>
      <sparseX i="143" alpha="-6870.4391923455714" sparseCutoff="1.0000000000000000"/>
      <sparseX i="144" alpha="-8394.3079408163030" sparseCutoff="1.0000000000000000"/>
      <sparseX i="145" alpha="-9052.1847626714771" sparseCutoff="1.0000000000000000"/>
      <sparseX i="146" alpha="-11820.518592582634" sparseCutoff="1.0000000000000000"/>
      <sparseX i="147" alpha="186.12185255186986" sparseCutoff="1.0000000000000000"/>
      <sparseX i="148" alpha="-842.82597947291856" sparseCutoff="1.0000000000000000"/>
      <sparseX i="149" alpha="-2982.2754840422081" sparseCutoff="1.0000000000000000"/>
      <sparseX i="150" alpha="-33779.831996413588" sparseCutoff="1.0000000000000000"/>
      <sparseX i="151" alpha="-50830.827988643243" sparseCutoff="1.0000000000000000"/>
      <sparseX i="152" alpha="-24457.892949987796" sparseCutoff="1.0000000000000000"/>
      <sparseX i="153" alpha="-30055.853768892837" sparseCutoff="1.0000000000000000"/>
      <sparseX i="154" alpha="60760.183141865775" sparseCutoff="1.0000000000000000"/>
      <sparseX i="155" alpha="27272.979718339873" sparseCutoff="1.0000000000000000"/>
      <sparseX i="156" alpha="48187.184346299342" sparseCutoff="1.0000000000000000"/>
      <sparseX i="157" alpha="4047.9580197607506" sparseCutoff="1.0000000000000000"/>
      <sparseX i="158" alpha="-21591.173563139651" sparseCutoff="1.0000000000000000"/>
      <sparseX i="159" alpha="-10679.582893013418" sparseCutoff="1.0000000000000000"/>
      <sparseX i="160" alpha="19605.433863930855" sparseCutoff="1.0000000000000000"/>
      <sparseX i="161" alpha="-144127.90131087150" sparseCutoff="1.0000000000000000"/>
      <sparseX i="162" alpha="39246.389462682702" sparseCutoff="1.0000000000000000"/>
      <sparseX i="163" alpha="-30471.940944058322" sparseCutoff="1.0000000000000000"/>
      <sparseX i="164" alpha="10582.100376352480" sparseCutoff="1.0000000000000000"/>
      <sparseX i="165" alpha="4120.3574584725393" sparseCutoff="1.0000000000000000"/>
      <sparseX i="166" alpha="871.09452793597757" sparseCutoff="1.0000000000000000"/>
      <sparseX i="167" alpha="-4723.4176439953662" sparseCutoff="1.0000000000000000"/>
      <sparseX i="168" alpha="-6850.9932462226761" sparseCutoff="1.0000000000000000"/>
      <sparseX i="169" alpha="-20391.041021851368" sparseCutoff="1.0000000000000000"/>
      <sparseX i="170" alpha="-368712.88148673595" sparseCutoff="1.0000000000000000"/>
      <sparseX i="171" alpha="67645.065887563745" sparseCutoff="1.0000000000000000"/>
      <sparseX i="172" alpha="337634.14278691338" sparseCutoff="1.0000000000000000"/>
      <sparseX i="173" alpha="7047.0829801375457" sparseCutoff="1.0000000000000000"/>
      <sparseX i="174" alpha="-75572.318052315270" sparseCutoff="1.0000000000000000"/>
      <sparseX i="175" alpha="-13765.680422728883" sparseCutoff="1.0000000000000000"/>
      <sparseX i="176" alpha="7818.5909147444290" sparseCutoff="1.0000000000000000"/>
      <sparseX i="177" alpha="67158.306333907341" sparseCutoff="1.0000000000000000"/>
      <sparseX i="178" alpha="85999.417191436034" sparseCutoff="1.0000000000000000"/>
      <sparseX i="179" alpha="-165.92521743407065" sparseCutoff="1.0000000000000000"/>
      <sparseX i="180" alpha="-2682.3721320485583" sparseCutoff="1.0000000000000000"/>
      <sparseX i="181" alpha="-3514.5046242022377" sparseCutoff="1.0000000000000000"/>
      <sparseX i="182" alpha="9629.2886895044285" sparseCutoff="1.0000000000000000"/>
      <sparseX i="183" alpha="3384.2526425136275" sparseCutoff="1.0000000000000000"/>
      <sparseX i="184" alpha="-23809.365683090891" sparseCutoff="1.0000000000000000"/>
      <sparseX i="185" alpha="155747.66888702472" sparseCutoff="1.0000000000000000"/>
      <sparseX i="186" alpha="-3201.2596563732536" sparseCutoff="1.0000000000000000"/>
      <sparseX i="187" alpha="40526.424932640286" sparseCutoff="1.0000000000000000"/>
      <sparseX i="188" alpha="4604.6167638393754" sparseCutoff="1.0000000000000000"/>
      <sparseX i="189" alpha="9071.0715679333553" sparseCutoff="1.0000000000000000"/>
      <sparseX i="190" alpha="16501.789438333526" sparseCutoff="1.0000000000000000"/>
      <sparseX i="191" alpha="-24339.560515905199" sparseCutoff="1.0000000000000000"/>
      <sparseX i="192" alpha="-16575.897152136160" sparseCutoff="1.0000000000000000"/>
      <sparseX i="193" alpha="-6440.2108972644828" sparseCutoff="1.0000000000000000"/>
      <sparseX i="194" alpha="-4034.1652255832901" sparseCutoff="1.0000000000000000"/>
      <sparseX i="195" alpha="7383.3984266292809" sparseCutoff="1.0000000000000000"/>
      <sparseX i="196" alpha="-14535.593449379627" sparseCutoff="1.0000000000000000"/>
      <sparseX i="197" alpha="61.385589323215243" sparseCutoff="1.0000000000000000"/>
      <sparseX i="198" alpha="22714.105044439373" sparseCutoff="1.0000000000000000"/>
      <sparseX i="199" alpha="1021.0355371412873" sparseCutoff="1.0000000000000000"/>
      <sparseX i="200" alpha="-31620.867544620396" sparseCutoff="1.0000000000000000"/>
      <sparseX i="201" alpha="-39301.324901670378" sparseCutoff="1.0000000000000000"/>
      <sparseX i="202" alpha="-7960.5240881618292" sparseCutoff="1.0000000000000000"/>
      <sparseX i="203" alpha="-34134.699341943066" sparseCutoff="1.0000000000000000"/>
      <sparseX i="204" alpha="-27838.102199120913" sparseCutoff="1.0000000000000000"/>
      <sparseX i="205" alpha="3659.0165274663345" sparseCutoff="1.0000000000000000"/>
      <sparseX i="206" alpha="15293.746805127681" sparseCutoff="1.0000000000000000"/>
      <sparseX i="207" alpha="-3247.1040399129620" sparseCutoff="1.0000000000000000"/>
      <sparseX i="208" alpha="-49033.468678578676" sparseCutoff="1.0000000000000000"/>
      <sparseX i="209" alpha="-225.25715521503804" sparseCutoff="1.0000000000000000"/>
      <sparseX i="210" alpha="-71681.067595079410" sparseCutoff="1.0000000000000000"/>
      <sparseX i="211" alpha="-16759.180538416593" sparseCutoff="1.0000000000000000"/>
      <sparseX i="212" alpha="24154.841459914773" sparseCutoff="1.0000000000000000"/>
      <sparseX i="213" alpha="9423.9787726725008" sparseCutoff="1.0000000000000000"/>
      <sparseX i="214" alpha="-38677.665063970730" sparseCutoff="1.0000000000000000"/>
      <sparseX i="215" alpha="11856.243314173367" sparseCutoff="1.0000000000000000"/>
      <sparseX i="216" alpha="-21303.347215709058" sparseCutoff="1.0000000000000000"/>
      <sparseX i="217" alpha="4282.0516532064739" sparseCutoff="1.0000000000000000"/>
      <sparseX i="218" alpha="-3178.4364308476174" sparseCutoff="1.0000000000000000"/>
      <sparseX i="219" alpha="-25851.395608420942" sparseCutoff="1.0000000000000000"/>
      <sparseX i="220" alpha="-333928.67179123545" sparseCutoff="1.0000000000000000"/>
      <sparseX i="221" alpha="2154.3821019982574" sparseCutoff="1.0000000000000000"/>
      <sparseX i="222" alpha="81791.277670507698" sparseCutoff="1.0000000000000000"/>
      <sparseX i="223" alpha="14875.904642896574" sparseCutoff="1.0000000000000000"/>
      <sparseX i="224" alpha="74056.848941376244" sparseCutoff="1.0000000000000000"/>
      <sparseX i="225" alpha="-98109.535466407891" sparseCutoff="1.0000000000000000"/>
      <sparseX i="226" alpha="-46588.265249778204" sparseCutoff="1.0000000000000000"/>
      <sparseX i="227" alpha="27727.653298886424" sparseCutoff="1.0000000000000000"/>
      <sparseX i="228" alpha="-107002.32188270290" sparseCutoff="1.0000000000000000"/>
      <sparseX i="229" alpha="-19360.942743082680" sparseCutoff="1.0000000000000000"/>
      <sparseX i="230" alpha="-28486.869239221214" sparseCutoff="1.0000000000000000"/>
      <sparseX i="231" alpha="-1542.3770569336975" sparseCutoff="1.0000000000000000"/>
      <sparseX i="232" alpha="1472.8607105667807" sparseCutoff="1.0000000000000000"/>
      <sparseX i="233" alpha="28937.265263942951" sparseCutoff="1.0000000000000000"/>
      <sparseX i="234" alpha="-13229.034208912813" sparseCutoff="1.0000000000000000"/>
      <sparseX i="235" alpha="2648.5045526632175" sparseCutoff="1.0000000000000000"/>
      <sparseX i="236" alpha="16908.085898421261" sparseCutoff="1.0000000000000000"/>
      <sparseX i="237" alpha="-4120.0543215258913" sparseCutoff="1.0000000000000000"/>
      <sparseX i="238" alpha="3209.1048892472545" sparseCutoff="1.0000000000000000"/>
      <sparseX i="239" alpha="-18222.950667395082" sparseCutoff="1.0000000000000000"/>
      <sparseX i="240" alpha="-4576.0301253936814" sparseCutoff="1.0000000000000000"/>
      <sparseX i="241" alpha="54369.592118501183" sparseCutoff="1.0000000000000000"/>
      <sparseX i="242" alpha="-9214.3435811200998" sparseCutoff="1.0000000000000000"/>
      <sparseX i="243" alpha="14791.766890836516" sparseCutoff="1.0000000000000000"/>
      <sparseX i="244" alpha="-5528.6398856059050" sparseCutoff="1.0000000000000000"/>
      <sparseX i="245" alpha="4929.3846533268406" sparseCutoff="1.0000000000000000"/>
      <sparseX i="246" alpha="29314.362697000353" sparseCutoff="1.0000000000000000"/>
      <sparseX i="247" alpha="13435.700979236693" sparseCutoff="1.0000000000000000"/>
      <sparseX i="248" alpha="61556.397131792393" sparseCutoff="1.0000000000000000"/>
      <sparseX i="249" alpha="-3996.7958005279224" sparseCutoff="1.0000000000000000"/>
      <sparseX i="250" alpha="-7814.5072104304836" sparseCutoff="1.0000000000000000"/>
      <sparseX i="251" alpha="-3343.1100019006153" sparseCutoff="1.0000000000000000"/>
      <sparseX i="252" alpha="18617.211331979772" sparseCutoff="1.0000000000000000"/>
      <sparseX i="253" alpha="-76237.963532607639" sparseCutoff="1.0000000000000000"/>
      <sparseX i="254" alpha="65826.465372855528" sparseCutoff="1.0000000000000000"/>
      <sparseX i="255" alpha="-3910.8094344603605" sparseCutoff="1.0000000000000000"/>
      <sparseX i="256" alpha="-14121.045964788114" sparseCutoff="1.0000000000000000"/>
      <sparseX i="257" alpha="-66851.586076256557" sparseCutoff="1.0000000000000000"/>
      <sparseX i="258" alpha="-7696.8690141386305" sparseCutoff="1.0000000000000000"/>
      <sparseX i="259" alpha="-4064.8272736953659" sparseCutoff="1.0000000000000000"/>
      <sparseX i="260" alpha="17593.737165769337" sparseCutoff="1.0000000000000000"/>
      <sparseX i="261" alpha="-395.21624749326764" sparseCutoff="1.0000000000000000"/>
      <sparseX i="262" alpha="9994.8989681996627" sparseCutoff="1.0000000000000000"/>
      <sparseX i="263" alpha="-10571.748097717878" sparseCutoff="1.0000000000000000"/>
      <sparseX i="264" alpha="1464.7827681766585" sparseCutoff="1.0000000000000000"/>
      <sparseX i="265" alpha="8016.5708943410327" sparseCutoff="1.0000000000000000"/>
      <sparseX i="266" alpha="-27177.016845411275" sparseCutoff="1.0000000000000000"/>
      <sparseX i="267" alpha="56915.310715632149" sparseCutoff="1.0000000000000000"/>
      <sparseX i="268" alpha="-142632.77842964197" sparseCutoff="1.0000000000000000"/>
      <sparseX i="269" alpha="-36463.604714536166" sparseCutoff="1.0000000000000000"/>
      <sparseX i="270" alpha="-57786.354185634955" sparseCutoff="1.0000000000000000"/>
      <sparseX i="271" alpha="-4354.9595489707190" sparseCutoff="1.0000000000000000"/>
      <sparseX i="272" alpha="-1719.3679778928704" sparseCutoff="1.0000000000000000"/>
      <sparseX i="273" alpha="56588.762081969639" sparseCutoff="1.0000000000000000"/>
      <sparseX i="274" alpha="64748.391546734732" sparseCutoff="1.0000000000000000"/>
      <sparseX i="275" alpha="628.31752168806236" sparseCutoff="1.0000000000000000"/>
      <sparseX i="276" alpha="249866.07301257312" sparseCutoff="1.0000000000000000"/>
      <sparseX i="277" alpha="-2101.2303401096092" sparseCutoff="1.0000000000000000"/>
      <sparseX i="278" alpha="-77108.362951014205" sparseCutoff="1.0000000000000000"/>
      <sparseX i="279" alpha="9862.4835623247818" sparseCutoff="1.0000000000000000"/>
      <sparseX i="280" alpha="-59.608430627003727" sparseCutoff="1.0000000000000000"/>
      <sparseX i="281" alpha="107444.09907698657" sparseCutoff="1.0000000000000000"/>
      <sparseX i="282" alpha="-49740.445416802475" sparseCutoff="1.0000000000000000"/>
      <sparseX i="283" alpha="-23795.966910876392" sparseCutoff="1.0000000000000000"/>
      <sparseX i="284" alpha="8570.1556566390245" sparseCutoff="1.0000000000000000"/>
      <sparseX i="285" alpha="-8547.6438700557192" sparseCutoff="1.0000000000000000"/>
      <sparseX i="286" alpha="99600.780567900700" sparseCutoff="1.0000000000000000"/>
      <sparseX i="287" alpha="-227.29766163652809" sparseCutoff="1.0000000000000000"/>
      <sparseX i="288" alpha="-51557.554629310864" sparseCutoff="1.0000000000000000"/>
      <sparseX i="289" alpha="5124.3814602360462" sparseCutoff="1.0000000000000000"/>
      <sparseX i="290" alpha="-18281.125081516562" sparseCutoff="1.0000000000000000"/>
      <sparseX i="291" alpha="24009.621268760129" sparseCutoff="1.0000000000000000"/>
      <sparseX i="292" alpha="-15288.330446526990" sparseCutoff="1.0000000000000000"/>
      <sparseX i="293" alpha="14940.137331229847" sparseCutoff="1.0000000000000000"/>
      <sparseX i="294" alpha="16436.785622534069" sparseCutoff="1.0000000000000000"/>
      <sparseX i="295" alpha="-24234.880359198665" sparseCutoff="1.0000000000000000"/>
      <sparseX i="296" alpha="27336.202478722400" sparseCutoff="1.0000000000000000"/>
      <sparseX i="297" alpha="1188.8148992484171" sparseCutoff="1.0000000000000000"/>
      <sparseX i="298" alpha="6733.1110712613845" sparseCutoff="1.0000000000000000"/>
      <sparseX i="299" alpha="-33869.538751362787" sparseCutoff="1.0000000000000000"/>
      <sparseX i="300" alpha="-27458.327337270137" sparseCutoff="1.0000000000000000"/>
      <sparseX i="301" alpha="-2458.9731687335889" sparseCutoff="1.0000000000000000"/>
      <sparseX i="302" alpha="37299.358671076989" sparseCutoff="1.0000000000000000"/>
      <sparseX i="303" alpha="7133.8069472663883" sparseCutoff="1.0000000000000000"/>
      <sparseX i="304" alpha="68389.333853673015" sparseCutoff="1.0000000000000000"/>
      <sparseX i="305" alpha="36768.732516386030" sparseCutoff="1.0000000000000000"/>
      <sparseX i="306" alpha="31178.401565231365" sparseCutoff="1.0000000000000000"/>
      <sparseX i="307" alpha="-55051.214252224810" sparseCutoff="1.0000000000000000"/>
      <sparseX i="308" alpha="-65742.829552873314" sparseCutoff="1.0000000000000000"/>
      <sparseX i="309" alpha="-1381.3982250110616" sparseCutoff="1.0000000000000000"/>
      <sparseX i="310" alpha="1585.6138428038009" sparseCutoff="1.0000000000000000"/>
      <sparseX i="311" alpha="-5851.1432846018597" sparseCutoff="1.0000000000000000"/>
      <sparseX i="312" alpha="41752.387835135924" sparseCutoff="1.0000000000000000"/>
      <sparseX i="313" alpha="418035.71608037775" sparseCutoff="1.0000000000000000"/>
      <sparseX i="314" alpha="-4379.3482020831025" sparseCutoff="1.0000000000000000"/>
      <sparseX i="315" alpha="15748.469508784279" sparseCutoff="1.0000000000000000"/>
      <sparseX i="316" alpha="32621.925230073601" sparseCutoff="1.0000000000000000"/>
      <sparseX i="317" alpha="-10562.088771359668" sparseCutoff="1.0000000000000000"/>
      <sparseX i="318" alpha="240757.01102019224" sparseCutoff="1.0000000000000000"/>
      <sparseX i="319" alpha="-18180.412430421540" sparseCutoff="1.0000000000000000"/>
      <sparseX i="320" alpha="37.848552259946892" sparseCutoff="1.0000000000000000"/>
      <sparseX i="321" alpha="13390.561486554343" sparseCutoff="1.0000000000000000"/>
      <sparseX i="322" alpha="-11427.296726484168" sparseCutoff="1.0000000000000000"/>
      <sparseX i="323" alpha="-5129.2019093331801" sparseCutoff="1.0000000000000000"/>
      <sparseX i="324" alpha="-53748.782301906467" sparseCutoff="1.0000000000000000"/>
      <sparseX i="325" alpha="224658.88920646816" sparseCutoff="1.0000000000000000"/>
      <sparseX i="326" alpha="2767.0213632067803" sparseCutoff="1.0000000000000000"/>
      <sparseX i="327" alpha="1583.9994673086173" sparseCutoff="1.0000000000000000"/>
      <sparseX i="328" alpha="-29667.034333631509" sparseCutoff="1.0000000000000000"/>
      <sparseX i="329" alpha="-63128.390879655053" sparseCutoff="1.0000000000000000"/>
      <sparseX i="330" alpha="-15912.702094299511" sparseCutoff="1.0000000000000000"/>
      <sparseX i="331" alpha="14289.907547825507" sparseCutoff="1.0000000000000000"/>
      <sparseX i="332" alpha="14222.319056466056" sparseCutoff="1.0000000000000000"/>
      <sparseX i="333" alpha="-38095.158813527560" sparseCutoff="1.0000000000000000"/>
      <sparseX i="334" alpha="-936.86296541011563" sparseCutoff="1.0000000000000000"/>
