<GAP_2026_3_23_120_0_34_10_875>
<Potential label="GAP_2026_3_23_120_0_34_10_875" init_args="IP GAP label=GAP_2026_3_23_120_0_34_10_875"/>
<GAP_params label="GAP_2026_3_23_120_0_34_10_875" gap_version="1686220958">
  <GAP_data do_core="F">
    <e0 Z="1" value=".00000000000000000E+000"/>
    <e0 Z="2" value=".00000000000000000E+000"/>
    <e0 Z="3" value=".00000000000000000E+000"/>
    <e0 Z="4" value=".00000000000000000E+000"/>
    <e0 Z="5" value=".00000000000000000E+000"/>
    <e0 Z="6" value=".00000000000000000E+000"/>
    <e0 Z="7" value=".00000000000000000E+000"/>
    <e0 Z="8" value=".00000000000000000E+000"/>
    <e0 Z="9" value=".00000000000000000E+000"/>
    <e0 Z="10" value=".00000000000000000E+000"/>
    <e0 Z="11" value=".00000000000000000E+000"/>
    <e0 Z="12" value=".00000000000000000E+000"/>
    <e0 Z="13" value=".00000000000000000E+000"/>
    <e0 Z="14" value=".00000000000000000E+000"/>
    <e0 Z="15" value=".00000000000000000E+000"/>
    <e0 Z="16" value=".00000000000000000E+000"/>
    <e0 Z="17" value=".00000000000000000E+000"/>
    <e0 Z="18" value=".00000000000000000E+000"/>
    <e0 Z="19" value=".00000000000000000E+000"/>
    <e0 Z="20" value=".00000000000000000E+000"/>
    <e0 Z="21" value=".00000000000000000E+000"/>
    <e0 Z="22" value=".00000000000000000E+000"/>
    <e0 Z="23" value=".00000000000000000E+000"/>
    <e0 Z="24" value=".00000000000000000E+000"/>
    <e0 Z="25" value=".00000000000000000E+000"/>
    <e0 Z="26" value=".00000000000000000E+000"/>
    <e0 Z="27" value=".00000000000000000E+000"/>
    <e0 Z="28" value=".00000000000000000E+000"/>
    <e0 Z="29" value=".00000000000000000E+000"/>
    <e0 Z="30" value=".00000000000000000E+000"/>
    <e0 Z="31" value=".00000000000000000E+000"/>
    <e0 Z="32" value=".00000000000000000E+000"/>
    <e0 Z="33" value=".00000000000000000E+000"/>
    <e0 Z="34" value=".00000000000000000E+000"/>
    <e0 Z="35" value=".00000000000000000E+000"/>
    <e0 Z="36" value=".00000000000000000E+000"/>
    <e0 Z="37" value=".00000000000000000E+000"/>
    <e0 Z="38" value=".00000000000000000E+000"/>
    <e0 Z="39" value=".00000000000000000E+000"/>
    <e0 Z="40" value=".00000000000000000E+000"/>
    <e0 Z="41" value=".00000000000000000E+000"/>
    <e0 Z="42" value=".00000000000000000E+000"/>
    <e0 Z="43" value=".00000000000000000E+000"/>
    <e0 Z="44" value=".00000000000000000E+000"/>
    <e0 Z="45" value=".00000000000000000E+000"/>
    <e0 Z="46" value=".00000000000000000E+000"/>
    <e0 Z="47" value=".00000000000000000E+000"/>
    <e0 Z="48" value=".00000000000000000E+000"/>
    <e0 Z="49" value=".00000000000000000E+000"/>
    <e0 Z="50" value=".00000000000000000E+000"/>
    <e0 Z="51" value=".00000000000000000E+000"/>
    <e0 Z="52" value=".00000000000000000E+000"/>
    <e0 Z="53" value=".00000000000000000E+000"/>
    <e0 Z="54" value=".00000000000000000E+000"/>
    <e0 Z="55" value=".00000000000000000E+000"/>
    <e0 Z="56" value=".00000000000000000E+000"/>
    <e0 Z="57" value=".00000000000000000E+000"/>
    <e0 Z="58" value=".00000000000000000E+000"/>
    <e0 Z="59" value=".00000000000000000E+000"/>
    <e0 Z="60" value=".00000000000000000E+000"/>
    <e0 Z="61" value=".00000000000000000E+000"/>
    <e0 Z="62" value=".00000000000000000E+000"/>
    <e0 Z="63" value=".00000000000000000E+000"/>
    <e0 Z="64" value=".00000000000000000E+000"/>
    <e0 Z="65" value=".00000000000000000E+000"/>
    <e0 Z="66" value=".00000000000000000E+000"/>
    <e0 Z="67" value=".00000000000000000E+000"/>
    <e0 Z="68" value=".00000000000000000E+000"/>
    <e0 Z="69" value=".00000000000000000E+000"/>
    <e0 Z="70" value=".00000000000000000E+000"/>
    <e0 Z="71" value=".00000000000000000E+000"/>
    <e0 Z="72" value=".00000000000000000E+000"/>
    <e0 Z="73" value=".00000000000000000E+000"/>
    <e0 Z="74" value=".00000000000000000E+000"/>
    <e0 Z="75" value=".00000000000000000E+000"/>
    <e0 Z="76" value=".00000000000000000E+000"/>
    <e0 Z="77" value=".00000000000000000E+000"/>
    <e0 Z="78" value=".00000000000000000E+000"/>
    <e0 Z="79" value=".00000000000000000E+000"/>
    <e0 Z="80" value=".00000000000000000E+000"/>
    <e0 Z="81" value=".00000000000000000E+000"/>
    <e0 Z="82" value=".00000000000000000E+000"/>
    <e0 Z="83" value=".00000000000000000E+000"/>
    <e0 Z="84" value=".00000000000000000E+000"/>
    <e0 Z="85" value=".00000000000000000E+000"/>
    <e0 Z="86" value=".00000000000000000E+000"/>
    <e0 Z="87" value=".00000000000000000E+000"/>
    <e0 Z="88" value=".00000000000000000E+000"/>
    <e0 Z="89" value=".00000000000000000E+000"/>
    <e0 Z="90" value=".00000000000000000E+000"/>
    <e0 Z="91" value=".00000000000000000E+000"/>
    <e0 Z="92" value=".00000000000000000E+000"/>
    <e0 Z="93" value=".00000000000000000E+000"/>
    <e0 Z="94" value=".00000000000000000E+000"/>
    <e0 Z="95" value=".00000000000000000E+000"/>
    <e0 Z="96" value=".00000000000000000E+000"/>
    <e0 Z="97" value=".00000000000000000E+000"/>
    <e0 Z="98" value=".00000000000000000E+000"/>
    <e0 Z="99" value=".00000000000000000E+000"/>
    <e0 Z="100" value=".00000000000000000E+000"/>
    <e0 Z="101" value=".00000000000000000E+000"/>
    <e0 Z="102" value=".00000000000000000E+000"/>
    <e0 Z="103" value=".00000000000000000E+000"/>
    <e0 Z="104" value=".00000000000000000E+000"/>
    <e0 Z="105" value=".00000000000000000E+000"/>
    <e0 Z="106" value=".00000000000000000E+000"/>
    <e0 Z="107" value=".00000000000000000E+000"/>
    <e0 Z="108" value=".00000000000000000E+000"/>
    <e0 Z="109" value=".00000000000000000E+000"/>
    <e0 Z="110" value=".00000000000000000E+000"/>
    <e0 Z="111" value=".00000000000000000E+000"/>
    <e0 Z="112" value=".00000000000000000E+000"/>
    <e0 Z="113" value=".00000000000000000E+000"/>
    <e0 Z="114" value=".00000000000000000E+000"/>
    <e0 Z="115" value=".00000000000000000E+000"/>
    <e0 Z="116" value=".00000000000000000E+000"/>
    <e0 Z="117" value=".00000000000000000E+000"/>
    <e0 Z="118" value=".00000000000000000E+000"/>
  </GAP_data>
  <gpSparse label="GAP_2026_3_23_120_0_34_10_875" n_coordinate="8" fitted="T">
    <gpCoordinates label="GAP_2026_3_23_120_0_34_10_8751" dimensions="1" signal_variance=".50000000000000000" signal_mean=".00000000000000000E+000" sparsified="T" n_permutations="1" covariance_type="1" n_sparseX="30" sparseX_filename="CH.xml.sparseX.GAP_2026_3_23_120_0_34_10_8751" sparseX_md5sum="7e515b0808fba14390f61e7754597439">
      <theta>  0.50000000000000000E+000 </theta>
      <descriptor> distance_2b Z1=1 Z2=1 cutoff=4.0 n_sparse=30 covariance_type=ard_se delta=0.5 theta_uniform=0.5 sparse_method=uniform add_species=F</descriptor>
      <permutation i="1">1  </permutation>
      <sparseX i="1" alpha="-7236.9545262767242" sparseCutoff="1.0000000000000000"/>
      <sparseX i="2" alpha="12426.433894819193" sparseCutoff="1.0000000000000000"/>
      <sparseX i="3" alpha="-35381.628408230317" sparseCutoff="1.0000000000000000"/>
      <sparseX i="4" alpha="-103.79462126803743" sparseCutoff="1.0000000000000000"/>
      <sparseX i="5" alpha="-4924.1489409014357" sparseCutoff="1.0000000000000000"/>
      <sparseX i="6" alpha="14323.242535974363" sparseCutoff="1.0000000000000000"/>
      <sparseX i="7" alpha="20242.275706710283" sparseCutoff="1.0000000000000000"/>
      <sparseX i="8" alpha="10879.925772562814" sparseCutoff="1.0000000000000000"/>
      <sparseX i="9" alpha="-3324.1642721382518" sparseCutoff="1.0000000000000000"/>
      <sparseX i="10" alpha="5605.8607641735143" sparseCutoff="1.0000000000000000"/>
      <sparseX i="11" alpha="1068.4416006458973" sparseCutoff=".13912203605103296"/>
      <sparseX i="12" alpha="5950.6805243614099" sparseCutoff="1.0000000000000000"/>
      <sparseX i="13" alpha="42894.336272739572" sparseCutoff="1.0000000000000000"/>
      <sparseX i="14" alpha="2434.9737636271225" sparseCutoff=".43516165745445812E-002"/>
      <sparseX i="15" alpha="3112.0508448415894" sparseCutoff=".92908406827382795"/>
      <sparseX i="16" alpha="660.57783524436843" sparseCutoff="1.0000000000000000"/>
      <sparseX i="17" alpha="-4396.2707288633928" sparseCutoff="1.0000000000000000"/>
      <sparseX i="18" alpha="-1854.7044240220748" sparseCutoff=".56369422396312885"/>
      <sparseX i="19" alpha="-5381.3920265032293" sparseCutoff="1.0000000000000000"/>
      <sparseX i="20" alpha="3693.8276613790290" sparseCutoff="1.0000000000000000"/>
      <sparseX i="21" alpha="-2455.6418633002468" sparseCutoff="1.0000000000000000"/>
      <sparseX i="22" alpha="-18224.425981187243" sparseCutoff="1.0000000000000000"/>
      <sparseX i="23" alpha="-31250.330532396256" sparseCutoff="1.0000000000000000"/>
      <sparseX i="24" alpha="-8973.4535183432545" sparseCutoff="1.0000000000000000"/>
      <sparseX i="25" alpha="-14860.032701066379" sparseCutoff="1.0000000000000000"/>
      <sparseX i="26" alpha="-9380.0946209425128" sparseCutoff="1.0000000000000000"/>
      <sparseX i="27" alpha="20759.032436592213" sparseCutoff="1.0000000000000000"/>
      <sparseX i="28" alpha="16138.978973565212" sparseCutoff="1.0000000000000000"/>
      <sparseX i="29" alpha="34161.025049591823" sparseCutoff="1.0000000000000000"/>
      <sparseX i="30" alpha="-43415.604234490274" sparseCutoff="1.0000000000000000"/>
    </gpCoordinates>
    <gpCoordinates label="GAP_2026_3_23_120_0_34_10_8752" dimensions="1" signal_variance=".50000000000000000" signal_mean=".00000000000000000E+000" sparsified="T" n_permutations="1" covariance_type="1" n_sparseX="30" sparseX_filename="CH.xml.sparseX.GAP_2026_3_23_120_0_34_10_8752" sparseX_md5sum="17cb65b6529ade1c03b1ac37ebc47d7c">
      <theta>  0.50000000000000000E+000 </theta>
      <descriptor> distance_2b Z1=1 Z2=6 cutoff=4.0 n_sparse=30 covariance_type=ard_se delta=0.5 theta_uniform=0.5 sparse_method=uniform add_species=F</descriptor>
      <permutation i="1">1  </permutation>
      <sparseX i="1" alpha="-10354.608348590933" sparseCutoff="1.0000000000000000"/>
      <sparseX i="2" alpha="4069.4425233757834" sparseCutoff=".95491502812525664E-001"/>
      <sparseX i="3" alpha="51398.875799351103" sparseCutoff="1.0000000000000000"/>
      <sparseX i="4" alpha="23421.131931872878" sparseCutoff="1.0000000000000000"/>
      <sparseX i="5" alpha="-83600.833122913085" sparseCutoff="1.0000000000000000"/>
      <sparseX i="6" alpha="-18891.233964835461" sparseCutoff="1.0000000000000000"/>
      <sparseX i="7" alpha="20727.590284253318" sparseCutoff="1.0000000000000000"/>
      <sparseX i="8" alpha="-59620.745724085071" sparseCutoff="1.0000000000000000"/>
      <sparseX i="9" alpha="-23608.696381559137" sparseCutoff="1.0000000000000000"/>
      <sparseX i="10" alpha="-4270.4851340931664" sparseCutoff="1.0000000000000000"/>
      <sparseX i="11" alpha="62481.261508744858" sparseCutoff="1.0000000000000000"/>
      <sparseX i="12" alpha="-72013.568267332113" sparseCutoff="1.0000000000000000"/>
      <sparseX i="13" alpha="104258.51148155051" sparseCutoff="1.0000000000000000"/>
      <sparseX i="14" alpha="-64090.184145469706" sparseCutoff="1.0000000000000000"/>
      <sparseX i="15" alpha="45111.714593844277" sparseCutoff="1.0000000000000000"/>
      <sparseX i="16" alpha="16075.732177198739" sparseCutoff="1.0000000000000000"/>
      <sparseX i="17" alpha="-694.30479351973668" sparseCutoff=".42593568138239740"/>
      <sparseX i="18" alpha="-488.31848106807587" sparseCutoff=".25139847583008856E-001"/>
      <sparseX i="19" alpha="-24699.078727721873" sparseCutoff="1.0000000000000000"/>
      <sparseX i="20" alpha="-4247.2468236120303" sparseCutoff=".87921905348168417"/>
      <sparseX i="21" alpha="-17698.361960538667" sparseCutoff="1.0000000000000000"/>
      <sparseX i="22" alpha="-57117.630732740196" sparseCutoff="1.0000000000000000"/>
      <sparseX i="23" alpha="39015.655311014743" sparseCutoff="1.0000000000000000"/>
      <sparseX i="24" alpha="-16913.812854489941" sparseCutoff="1.0000000000000000"/>
      <sparseX i="25" alpha="42919.723800877196" sparseCutoff="1.0000000000000000"/>
      <sparseX i="26" alpha="-115047.82912494292" sparseCutoff="1.0000000000000000"/>
      <sparseX i="27" alpha="74501.633052663354" sparseCutoff="1.0000000000000000"/>
      <sparseX i="28" alpha="62871.752285403687" sparseCutoff="1.0000000000000000"/>
      <sparseX i="29" alpha="27766.136726887689" sparseCutoff="1.0000000000000000"/>
      <sparseX i="30" alpha="1866.4319780913329" sparseCutoff="1.0000000000000000"/>
    </gpCoordinates>
    <gpCoordinates label="GAP_2026_3_23_120_0_34_10_8753" dimensions="1" signal_variance=".50000000000000000" signal_mean=".00000000000000000E+000" sparsified="T" n_permutations="1" covariance_type="1" n_sparseX="30" sparseX_filename="CH.xml.sparseX.GAP_2026_3_23_120_0_34_10_8753" sparseX_md5sum="b2547d4ed532f0470990177944a7e961">
      <theta>  0.50000000000000000E+000 </theta>
      <descriptor> distance_2b Z1=6 Z2=6 cutoff=4.0 n_sparse=30 covariance_type=ard_se delta=0.5 theta_uniform=0.5 sparse_method=uniform add_species=F</descriptor>
      <permutation i="1">1  </permutation>
      <sparseX i="1" alpha="-149258.42996589062" sparseCutoff="1.0000000000000000"/>
      <sparseX i="2" alpha="-14808.113514035702" sparseCutoff="1.0000000000000000"/>
      <sparseX i="3" alpha="-57700.615392338521" sparseCutoff="1.0000000000000000"/>
      <sparseX i="4" alpha="146628.45288230682" sparseCutoff="1.0000000000000000"/>
      <sparseX i="5" alpha="-191225.12971321156" sparseCutoff="1.0000000000000000"/>
      <sparseX i="6" alpha="-78214.259720077942" sparseCutoff="1.0000000000000000"/>
      <sparseX i="7" alpha="-36319.061105646877" sparseCutoff="1.0000000000000000"/>
      <sparseX i="8" alpha="63319.350036812473" sparseCutoff="1.0000000000000000"/>
      <sparseX i="9" alpha="19604.503806269186" sparseCutoff="1.0000000000000000"/>
      <sparseX i="10" alpha="-42945.607849039749" sparseCutoff="1.0000000000000000"/>
      <sparseX i="11" alpha="-27683.192498846427" sparseCutoff="1.0000000000000000"/>
      <sparseX i="12" alpha="-84448.654961997687" sparseCutoff="1.0000000000000000"/>
      <sparseX i="13" alpha="11473.517020599178" sparseCutoff="1.0000000000000000"/>
      <sparseX i="14" alpha="29331.027963715595" sparseCutoff=".95476828743937103"/>
      <sparseX i="15" alpha="15086.324969028105" sparseCutoff="1.0000000000000000"/>
      <sparseX i="16" alpha="39083.194981909954" sparseCutoff="1.0000000000000000"/>
      <sparseX i="17" alpha="-26568.251085112635" sparseCutoff="1.0000000000000000"/>
      <sparseX i="18" alpha="-12505.443399808428" sparseCutoff="1.0000000000000000"/>
      <sparseX i="19" alpha="23265.242511416775" sparseCutoff=".30195235793841535E-001"/>
      <sparseX i="20" alpha="15459.450093811987" sparseCutoff=".45501701308447551E-001"/>
      <sparseX i="21" alpha="32574.710194936124" sparseCutoff="1.0000000000000000"/>
      <sparseX i="22" alpha="26043.112453100814" sparseCutoff="1.0000000000000000"/>
      <sparseX i="23" alpha="-18016.587969886310" sparseCutoff=".56756025970660207"/>
      <sparseX i="24" alpha="8385.5017131497279" sparseCutoff="1.0000000000000000"/>
      <sparseX i="25" alpha="-3296.0177863158201" sparseCutoff="1.0000000000000000"/>
      <sparseX i="26" alpha="112220.30335408109" sparseCutoff="1.0000000000000000"/>
      <sparseX i="27" alpha="56721.953542800744" sparseCutoff="1.0000000000000000"/>
      <sparseX i="28" alpha="53206.542505577541" sparseCutoff="1.0000000000000000"/>
      <sparseX i="29" alpha="-117601.99732837160" sparseCutoff="1.0000000000000000"/>
      <sparseX i="30" alpha="241702.09341131747" sparseCutoff="1.0000000000000000"/>
    </gpCoordinates>
    <gpCoordinates label="GAP_2026_3_23_120_0_34_10_8754" dimensions="3" signal_variance=".10000000000000000E-001" signal_mean=".00000000000000000E+000" sparsified="T" n_permutations="1" covariance_type="4" n_sparseX="200" sparseX_filename="CH.xml.sparseX.GAP_2026_3_23_120_0_34_10_8754" sparseX_md5sum="c6add94c4dc4b67a9fa0d393964828ce">
      <theta>  0.20000000000000000E+001  0.20000000000000000E+001  0.20000000000000000E+001 </theta>
      <descriptor> angle_3b Z_center=6 Z1=1 Z2=1 cutoff=2.0 n_sparse=200 covariance_type=pp delta=0.01 theta_uniform=2.0 sparse_method=uniform add_species=F</descriptor>
      <permutation i="1">1 2 3  </permutation>
      <sparseX i="1" alpha="2784.6238110429026" sparseCutoff="1.0000000000000000"/>
      <sparseX i="2" alpha="-10433.073754815327" sparseCutoff="1.0000000000000000"/>
      <sparseX i="3" alpha="2957.0144099490094" sparseCutoff=".50615736596029981"/>
      <sparseX i="4" alpha="8494.9631904627186" sparseCutoff=".59662359954797661"/>
      <sparseX i="5" alpha="-11790.664114879835" sparseCutoff=".66656761741778037E-001"/>
      <sparseX i="6" alpha="-11756.127952866957" sparseCutoff=".94776539675400562"/>
      <sparseX i="7" alpha="94218.879738351083" sparseCutoff=".63174972238533481E-001"/>
      <sparseX i="8" alpha="38.387760451719679" sparseCutoff=".89371445524080850"/>
      <sparseX i="9" alpha="17363.560094744116" sparseCutoff=".11371306041996770"/>
      <sparseX i="10" alpha="-5306.6634815062480" sparseCutoff=".36919948879610580E-001"/>
      <sparseX i="11" alpha="-5573.2365227692062" sparseCutoff=".11371306041996770"/>
      <sparseX i="12" alpha="2615.6584045039594" sparseCutoff=".32467641573674100"/>
      <sparseX i="13" alpha="-1756.9320339030435" sparseCutoff="1.0000000000000000"/>
      <sparseX i="14" alpha="-42114.699088531503" sparseCutoff=".98371692299602731"/>
      <sparseX i="15" alpha="5989.4171258151273" sparseCutoff=".32467641573674100"/>
      <sparseX i="16" alpha="10024.364699232508" sparseCutoff=".20468748774750356E-001"/>
      <sparseX i="17" alpha="8068.4897172381907" sparseCutoff=".93597170096542937"/>
      <sparseX i="18" alpha="2560.0896725930320" sparseCutoff="1.0000000000000000"/>
      <sparseX i="19" alpha="12723.331384249990" sparseCutoff="1.0000000000000000"/>
      <sparseX i="20" alpha="174.22743468867753" sparseCutoff="1.0000000000000000"/>
      <sparseX i="21" alpha="-76046.975458297951" sparseCutoff=".97663846029626376E-002"/>
      <sparseX i="22" alpha="-74227.110537778921" sparseCutoff=".10495543699335197E-001"/>
      <sparseX i="23" alpha="-27272.377544745297" sparseCutoff=".14004664900669853E-001"/>
      <sparseX i="24" alpha="-7092.1472167283973" sparseCutoff=".10099776839119720E-002"/>
      <sparseX i="25" alpha="3699.9549947571240" sparseCutoff=".22544410527786194E-002"/>
      <sparseX i="26" alpha="47661.725545394598" sparseCutoff=".61192239825234696E-001"/>
      <sparseX i="27" alpha="68155.593507588535" sparseCutoff=".89440285675107534E-001"/>
      <sparseX i="28" alpha="11678.340712784948" sparseCutoff="1.0000000000000000"/>
      <sparseX i="29" alpha="24950.117994994387" sparseCutoff=".63640178932931279E-001"/>
      <sparseX i="30" alpha="255.98362484612173" sparseCutoff=".18494585733944198E-001"/>
      <sparseX i="31" alpha="-96.739661077910398" sparseCutoff="1.0000000000000000"/>
      <sparseX i="32" alpha="-35887.215915136090" sparseCutoff=".20625429968271047E-001"/>
      <sparseX i="33" alpha="1203.2792979011670" sparseCutoff="1.0000000000000000"/>
      <sparseX i="34" alpha="9368.1746501464077" sparseCutoff=".37714124292543394"/>
      <sparseX i="35" alpha="19221.698817453664" sparseCutoff=".76097272420491774E-001"/>
      <sparseX i="36" alpha="2601.9937757176422" sparseCutoff="1.0000000000000000"/>
      <sparseX i="37" alpha="-5846.2888135065368" sparseCutoff="1.0000000000000000"/>
      <sparseX i="38" alpha="6288.9757406711760" sparseCutoff=".29524410444276561E-002"/>
      <sparseX i="39" alpha="18849.507454339877" sparseCutoff="1.0000000000000000"/>
      <sparseX i="40" alpha="-835.28854646218463" sparseCutoff=".20692739763496093"/>
      <sparseX i="41" alpha="-2846.8228826104146" sparseCutoff=".88522626953584793"/>
      <sparseX i="42" alpha="-6738.6757375703855" sparseCutoff=".98335257308838253"/>
      <sparseX i="43" alpha="-295.67095107180972" sparseCutoff="1.0000000000000000"/>
      <sparseX i="44" alpha="-16286.673793138409" sparseCutoff=".11403385445371483"/>
      <sparseX i="45" alpha="-1415.6668889487569" sparseCutoff="1.0000000000000000"/>
      <sparseX i="46" alpha="-18697.006539627240" sparseCutoff=".99792734545408046E-002"/>
      <sparseX i="47" alpha="61377.346460656125" sparseCutoff=".88260381503058344E-001"/>
      <sparseX i="48" alpha="-17504.155350610570" sparseCutoff="1.0000000000000000"/>
      <sparseX i="49" alpha="-4635.3989840406985" sparseCutoff="1.0000000000000000"/>
      <sparseX i="50" alpha="20799.534134543152" sparseCutoff=".63178751910086373E-001"/>
      <sparseX i="51" alpha="-26367.827365446643" sparseCutoff=".36589562401500997"/>
      <sparseX i="52" alpha="-49493.349255923109" sparseCutoff=".31132211544160127E-001"/>
      <sparseX i="53" alpha="-20370.249574086920" sparseCutoff=".11164840783233709E-001"/>
      <sparseX i="54" alpha="-8038.2671777092182" sparseCutoff=".64794375669428339"/>
      <sparseX i="55" alpha="-17782.525921302193" sparseCutoff=".63605515581235152E-002"/>
      <sparseX i="56" alpha="-65047.139056702479" sparseCutoff=".71784737248244031E-002"/>
      <sparseX i="57" alpha="-41332.361476477890" sparseCutoff=".33390575716619242E-001"/>
      <sparseX i="58" alpha="-1048.7296920747040" sparseCutoff=".78977430444193808"/>
      <sparseX i="59" alpha="-15739.773915314330" sparseCutoff=".21607153386062383"/>
      <sparseX i="60" alpha="-11664.367267172371" sparseCutoff=".14614389382577586E-001"/>
      <sparseX i="61" alpha="-11284.674968334009" sparseCutoff=".94665045084951849"/>
      <sparseX i="62" alpha="4995.5726951368742" sparseCutoff=".94665045084951849"/>
      <sparseX i="63" alpha="38.584062549116943" sparseCutoff="1.0000000000000000"/>
      <sparseX i="64" alpha="18405.906884398708" sparseCutoff=".20826782775737207"/>
      <sparseX i="65" alpha="3685.3877413808350" sparseCutoff="1.0000000000000000"/>
      <sparseX i="66" alpha="-4902.5422195630690" sparseCutoff=".24090323752005949"/>
      <sparseX i="67" alpha="38274.246975981507" sparseCutoff="1.0000000000000000"/>
      <sparseX i="68" alpha="-39409.023600640030" sparseCutoff=".17127301827064088E-001"/>
      <sparseX i="69" alpha="16849.318114200090" sparseCutoff="1.0000000000000000"/>
      <sparseX i="70" alpha="24302.022973804189" sparseCutoff="1.0000000000000000"/>
      <sparseX i="71" alpha="1069.7048591478228" sparseCutoff=".15653445399390065E-002"/>
      <sparseX i="72" alpha="-41696.661498048270" sparseCutoff=".25421106542589467"/>
      <sparseX i="73" alpha="-719.62848828900940" sparseCutoff=".22434567791767002E-002"/>
      <sparseX i="74" alpha="7601.3948179981899" sparseCutoff="1.0000000000000000"/>
      <sparseX i="75" alpha="-2059.9547547000384" sparseCutoff="1.0000000000000000"/>
      <sparseX i="76" alpha="5396.2823129913259" sparseCutoff=".32603972462875576E-002"/>
      <sparseX i="77" alpha="-14948.062840057124" sparseCutoff=".74270362674457491"/>
      <sparseX i="78" alpha="35494.295756337946" sparseCutoff=".10391817275569536"/>
      <sparseX i="79" alpha="12583.989637799385" sparseCutoff=".99896922869806926"/>
      <sparseX i="80" alpha="-6598.3161829661640" sparseCutoff="1.0000000000000000"/>
      <sparseX i="81" alpha="-11132.857421360610" sparseCutoff="1.0000000000000000"/>
      <sparseX i="82" alpha="-4154.7527406489944" sparseCutoff=".73000775936866868"/>
      <sparseX i="83" alpha="21087.900489046497" sparseCutoff=".32522295909188703E-001"/>
      <sparseX i="84" alpha="21619.038750173262" sparseCutoff=".13009414400791849"/>
      <sparseX i="85" alpha="892.92391109691516" sparseCutoff=".54508813200233597E-002"/>
      <sparseX i="86" alpha="6181.3823934871998" sparseCutoff=".94874785066475142"/>
      <sparseX i="87" alpha="-12994.976505009190" sparseCutoff=".23624874200499388E-002"/>
      <sparseX i="88" alpha="-150.52495258471384" sparseCutoff="1.0000000000000000"/>
      <sparseX i="89" alpha="7.3275370655904863" sparseCutoff=".32319325824138910E-004"/>
      <sparseX i="90" alpha="-990.13206395811994" sparseCutoff="1.0000000000000000"/>
      <sparseX i="91" alpha="2373.6752238860722" sparseCutoff=".96141833387476106"/>
      <sparseX i="92" alpha="14824.231101079988" sparseCutoff=".57010984615437854E-001"/>
      <sparseX i="93" alpha="-1676.7025471844452" sparseCutoff=".44419360531255664"/>
      <sparseX i="94" alpha="2420.8186829065044" sparseCutoff=".48164474345503550"/>
      <sparseX i="95" alpha="7177.3167231474281" sparseCutoff=".98536615387162163"/>
      <sparseX i="96" alpha="967.65067925655421" sparseCutoff="1.0000000000000000"/>
      <sparseX i="97" alpha="31373.840603976212" sparseCutoff=".11930323013018664E-001"/>
      <sparseX i="98" alpha="-1469.8185628622518" sparseCutoff="1.0000000000000000"/>
      <sparseX i="99" alpha="6916.2147134896395" sparseCutoff=".14067120878070383E-001"/>
      <sparseX i="100" alpha="4741.4240951265574" sparseCutoff=".76691005921299871"/>
      <sparseX i="101" alpha="-6186.2227343280392" sparseCutoff="1.0000000000000000"/>
      <sparseX i="102" alpha="-3305.4639751308514" sparseCutoff="1.0000000000000000"/>
      <sparseX i="103" alpha="4863.7612308415310" sparseCutoff=".17049832405944820E-001"/>
      <sparseX i="104" alpha="-7492.4210440077804" sparseCutoff=".56302927699127037E-001"/>
      <sparseX i="105" alpha="-2052.6181012363418" sparseCutoff=".68478009529509831"/>
      <sparseX i="106" alpha="-12274.752075880217" sparseCutoff=".52588590428587656E-001"/>
      <sparseX i="107" alpha="-3666.4707574970416" sparseCutoff=".80409038586918603E-003"/>
      <sparseX i="108" alpha="-3371.6064353140928" sparseCutoff="1.0000000000000000"/>
      <sparseX i="109" alpha="-8471.2245192064966" sparseCutoff=".39742978302442161"/>
      <sparseX i="110" alpha="-7662.7187834737460" sparseCutoff=".10076501894592527E-001"/>
      <sparseX i="111" alpha="-25602.900191953253" sparseCutoff=".47264239408151831E-002"/>
      <sparseX i="112" alpha="276.74068028807420" sparseCutoff="1.0000000000000000"/>
      <sparseX i="113" alpha="733.34618919988645" sparseCutoff="1.0000000000000000"/>
      <sparseX i="114" alpha="-14866.948830350961" sparseCutoff=".36551891002233661E-001"/>
      <sparseX i="115" alpha="-2895.9458368541386" sparseCutoff=".96906007643189307"/>
      <sparseX i="116" alpha="1335.7657324294526" sparseCutoff=".19770246305101380E-002"/>
      <sparseX i="117" alpha="9016.1092981450001" sparseCutoff=".15044334389912847"/>
      <sparseX i="118" alpha="9089.8590784636835" sparseCutoff=".88346233314318146"/>
      <sparseX i="119" alpha="45799.132920707467" sparseCutoff=".85676252083900950E-001"/>
      <sparseX i="120" alpha="-10598.872848755882" sparseCutoff=".12799776274800872E-001"/>
      <sparseX i="121" alpha="-171.57552981996685" sparseCutoff=".54827846309875949"/>
      <sparseX i="122" alpha="17483.033514679126" sparseCutoff=".16590021307771163"/>
      <sparseX i="123" alpha="-50329.193198277309" sparseCutoff=".45144018264114738E-001"/>
      <sparseX i="124" alpha="163573.68978345563" sparseCutoff=".31978893541134409E-001"/>
      <sparseX i="125" alpha="23802.009265855952" sparseCutoff=".98342397228969869E-002"/>
      <sparseX i="126" alpha="27790.774840121547" sparseCutoff=".30915734973538750"/>
      <sparseX i="127" alpha="-80803.454518383805" sparseCutoff=".41303177258645754E-001"/>
      <sparseX i="128" alpha="2379.6577614952575" sparseCutoff="1.0000000000000000"/>
      <sparseX i="129" alpha="-67833.081633459107" sparseCutoff=".16594859950235460E-001"/>
      <sparseX i="130" alpha="3722.0364045612928" sparseCutoff=".73766479829495690E-002"/>
      <sparseX i="131" alpha="-873.44041504988138" sparseCutoff=".12086426692522105E-003"/>
      <sparseX i="132" alpha="-2776.9540705649606" sparseCutoff="1.0000000000000000"/>
      <sparseX i="133" alpha="1326.8123912392396" sparseCutoff="1.0000000000000000"/>
      <sparseX i="134" alpha="-20651.987051540520" sparseCutoff="1.0000000000000000"/>
      <sparseX i="135" alpha="18456.764130342610" sparseCutoff=".23990523307922851"/>
      <sparseX i="136" alpha="-23283.903478087424" sparseCutoff=".57602440167425606E-001"/>
      <sparseX i="137" alpha="6218.3785579371897" sparseCutoff="1.0000000000000000"/>
      <sparseX i="138" alpha="1300.9309151627151" sparseCutoff=".20429185862663735E-002"/>
      <sparseX i="139" alpha="1893.4250634224886" sparseCutoff=".64216853298023624"/>
      <sparseX i="140" alpha="7872.3502893272662" sparseCutoff=".12314220822698158"/>
      <sparseX i="141" alpha="11668.379807214449" sparseCutoff=".32534074631731524E-001"/>
      <sparseX i="142" alpha="-26198.931360129649" sparseCutoff=".25831882144046275"/>
      <sparseX i="143" alpha="6036.7069427890683" sparseCutoff=".14405027474667642"/>
      <sparseX i="144" alpha="64.780399943989863" sparseCutoff=".23852459710462065E-004"/>
      <sparseX i="145" alpha="1463.2690412002853" sparseCutoff=".36465226792809835E-001"/>
      <sparseX i="146" alpha="284.28189071216423" sparseCutoff=".49480397328671710E-003"/>
      <sparseX i="147" alpha="-641.97504163394399" sparseCutoff="1.0000000000000000"/>
      <sparseX i="148" alpha="-10063.137596238246" sparseCutoff="1.0000000000000000"/>
      <sparseX i="149" alpha="1149.8677739923737" sparseCutoff="1.0000000000000000"/>
      <sparseX i="150" alpha="-18615.546701821680" sparseCutoff=".38844294986989281"/>
      <sparseX i="151" alpha="14201.477434035436" sparseCutoff=".17162173233780387E-001"/>
      <sparseX i="152" alpha="7325.8192947259868" sparseCutoff=".54618673429541298E-001"/>
      <sparseX i="153" alpha="-7836.2789699263467" sparseCutoff=".50904984709775747"/>
      <sparseX i="154" alpha="39260.700458858060" sparseCutoff=".17166001009206328"/>
      <sparseX i="155" alpha="-34018.948327225429" sparseCutoff=".12396023415985388E-001"/>
      <sparseX i="156" alpha="-6801.2955537331518" sparseCutoff="1.0000000000000000"/>
      <sparseX i="157" alpha="-6007.9634283228806" sparseCutoff="1.0000000000000000"/>
      <sparseX i="158" alpha="223.96917712634482" sparseCutoff=".67771414741133837E-004"/>
      <sparseX i="159" alpha="-1072.4067413825044" sparseCutoff=".30787598885474998E-002"/>
      <sparseX i="160" alpha="-20563.671198457465" sparseCutoff="1.0000000000000000"/>
      <sparseX i="161" alpha="6085.6124636026861" sparseCutoff=".42728385526413387"/>
      <sparseX i="162" alpha="8656.5969595984679" sparseCutoff="1.0000000000000000"/>
      <sparseX i="163" alpha="34750.970663093743" sparseCutoff=".19179029024218530E-001"/>
      <sparseX i="164" alpha="-1661.9297879008686" sparseCutoff=".26206347235938232E-001"/>
      <sparseX i="165" alpha="-181810.52032597412" sparseCutoff=".44470288858650397E-001"/>
      <sparseX i="166" alpha="6238.4008369756166" sparseCutoff=".98877601810397797"/>
      <sparseX i="167" alpha="20813.460520584857" sparseCutoff=".13425173755982411"/>
      <sparseX i="168" alpha="1902.6797164747256" sparseCutoff="1.0000000000000000"/>
      <sparseX i="169" alpha="-15495.244770901461" sparseCutoff=".30048719576480698E-001"/>
      <sparseX i="170" alpha="6169.6833234550113" sparseCutoff="1.0000000000000000"/>
      <sparseX i="171" alpha="2818.8417878958185" sparseCutoff=".35893833021868371"/>
      <sparseX i="172" alpha="-11251.241905281538" sparseCutoff=".34595796001926765"/>
      <sparseX i="173" alpha="-4378.6473982502039" sparseCutoff=".58408835054604702E-002"/>
      <sparseX i="174" alpha="-182.65293714238857" sparseCutoff=".53995334882854493E-004"/>
      <sparseX i="175" alpha="-8133.4653619884848" sparseCutoff=".76525785502864541"/>
      <sparseX i="176" alpha="16399.032169795002" sparseCutoff=".10906664361807406"/>
      <sparseX i="177" alpha="-205.90797439719023" sparseCutoff="1.0000000000000000"/>
      <sparseX i="178" alpha="-782.90078676148221" sparseCutoff="1.0000000000000000"/>
      <sparseX i="179" alpha="1391.7042391299899" sparseCutoff="1.0000000000000000"/>
      <sparseX i="180" alpha="1295.4275406785252" sparseCutoff="1.0000000000000000"/>
      <sparseX i="181" alpha="-6540.0113075570580" sparseCutoff="1.0000000000000000"/>
      <sparseX i="182" alpha="8602.5797855145338" sparseCutoff=".22181447554723800E-002"/>
      <sparseX i="183" alpha="-12793.181517597171" sparseCutoff=".75720646793954738E-002"/>
      <sparseX i="184" alpha="-19060.611369613704" sparseCutoff=".76288690566379963E-002"/>
      <sparseX i="185" alpha="16816.033385353734" sparseCutoff=".61784455420697149"/>
      <sparseX i="186" alpha="-6181.9493392621998" sparseCutoff="1.0000000000000000"/>
      <sparseX i="187" alpha="-11826.664658570367" sparseCutoff=".25554564075958019E-002"/>
      <sparseX i="188" alpha="4533.4897040492724" sparseCutoff=".61252508968150177"/>
      <sparseX i="189" alpha="-116.60459370560143" sparseCutoff=".36878928815023415E-002"/>
      <sparseX i="190" alpha="-14161.130326078508" sparseCutoff=".13685958579802454"/>
      <sparseX i="191" alpha="-40038.245660855813" sparseCutoff=".82560537947387255E-001"/>
      <sparseX i="192" alpha="-26222.296475271101" sparseCutoff=".16752161081969638"/>
      <sparseX i="193" alpha="22530.644618607876" sparseCutoff=".50123743767792224E-001"/>
      <sparseX i="194" alpha="-8857.0617155518630" sparseCutoff=".36259799796148195"/>
      <sparseX i="195" alpha="5596.3891494783356" sparseCutoff=".72015553075002769"/>
      <sparseX i="196" alpha="-12131.110430671786" sparseCutoff=".26619779285173006E-002"/>
      <sparseX i="197" alpha="20428.136543279626" sparseCutoff="1.0000000000000000"/>
      <sparseX i="198" alpha="1517.0324699344146" sparseCutoff=".57865638369297279"/>
      <sparseX i="199" alpha="-8658.2501825458494" sparseCutoff="1.0000000000000000"/>
      <sparseX i="200" alpha="-40776.078145165280" sparseCutoff=".75245644896575481E-002"/>
    </gpCoordinates>
    <gpCoordinates label="GAP_2026_3_23_120_0_34_10_8755" dimensions="3" signal_variance=".10000000000000000E-001" signal_mean=".00000000000000000E+000" sparsified="T" n_permutations="1" covariance_type="4" n_sparseX="200" sparseX_filename="CH.xml.sparseX.GAP_2026_3_23_120_0_34_10_8755" sparseX_md5sum="aad95189e2a3fe6b7ba42d6e03f267aa">
      <theta>  0.20000000000000000E+001  0.20000000000000000E+001  0.20000000000000000E+001 </theta>
      <descriptor> angle_3b Z_center=6 Z1=1 Z2=6 cutoff=2.0 n_sparse=200 covariance_type=pp delta=0.01 theta_uniform=2.0 sparse_method=uniform add_species=F</descriptor>
      <permutation i="1">1 2 3  </permutation>
      <sparseX i="1" alpha="-133598.40198561005" sparseCutoff=".64955474239117558E-001"/>
      <sparseX i="2" alpha="-10845.913902395696" sparseCutoff=".36917464549180745"/>
      <sparseX i="3" alpha="14979.693789603998" sparseCutoff=".36917464549180745"/>
      <sparseX i="4" alpha="-25058.321294341153" sparseCutoff=".62013246733667204E-001"/>
      <sparseX i="5" alpha="21059.623519628265" sparseCutoff=".89113445911803812"/>
      <sparseX i="6" alpha="-44634.505977726054" sparseCutoff=".13461805527355239"/>
      <sparseX i="7" alpha="-11431.947883389334" sparseCutoff=".15869943555217464"/>
      <sparseX i="8" alpha="-1384.4323467051174" sparseCutoff="1.0000000000000000"/>
      <sparseX i="9" alpha="-59869.093614331534" sparseCutoff=".54952419890736404E-002"/>
      <sparseX i="10" alpha="-95723.872024605778" sparseCutoff=".54952419890736404E-002"/>
      <sparseX i="11" alpha="-7394.7251652869645" sparseCutoff=".60255001778240997E-003"/>
      <sparseX i="12" alpha="-10396.624263424488" sparseCutoff=".97104388833721589"/>
      <sparseX i="13" alpha="-13548.222191952982" sparseCutoff="1.0000000000000000"/>
      <sparseX i="14" alpha="-31744.466153644127" sparseCutoff="1.0000000000000000"/>
      <sparseX i="15" alpha="-2355.9211503521383" sparseCutoff=".59662359954797661"/>
      <sparseX i="16" alpha="-109711.22186858412" sparseCutoff=".37575922716528820E-001"/>
      <sparseX i="17" alpha="-1559.7487261692584" sparseCutoff=".98806222860001158"/>
      <sparseX i="18" alpha="-4143.0180362733972" sparseCutoff=".98806222860001158"/>
      <sparseX i="19" alpha="22945.337664741950" sparseCutoff=".14713888518680068"/>
      <sparseX i="20" alpha="10617.461590347488" sparseCutoff=".14713888518680068"/>
      <sparseX i="21" alpha="47837.376200692772" sparseCutoff=".13929458024072700"/>
      <sparseX i="22" alpha="-86269.645025234728" sparseCutoff=".20327999249998119E-001"/>
      <sparseX i="23" alpha="44476.188662057757" sparseCutoff=".18545300804286480"/>
      <sparseX i="24" alpha="26250.416420132700" sparseCutoff=".97104388833721589"/>
      <sparseX i="25" alpha="-12737.525282998286" sparseCutoff=".87882632178996993E-002"/>
      <sparseX i="26" alpha="-44445.795254751720" sparseCutoff=".40467799657021519E-001"/>
      <sparseX i="27" alpha="54006.470790120366" sparseCutoff=".24321213651686564E-001"/>
      <sparseX i="28" alpha="-4005.7634869627082" sparseCutoff=".55841382699397266E-002"/>
      <sparseX i="29" alpha="43066.384855091288" sparseCutoff="1.0000000000000000"/>
      <sparseX i="30" alpha="13427.248252115729" sparseCutoff=".85197506174541693"/>
      <sparseX i="31" alpha="-3635.6646111472228" sparseCutoff=".55843435319191448E-001"/>
      <sparseX i="32" alpha="-7815.9687071280860" sparseCutoff=".36894422835090768"/>
      <sparseX i="33" alpha="39310.306058585302" sparseCutoff=".27192891668376407"/>
      <sparseX i="34" alpha="9639.8023116803906" sparseCutoff="1.0000000000000000"/>
      <sparseX i="35" alpha="-5161.4967700812786" sparseCutoff=".21870211684617467E-002"/>
      <sparseX i="36" alpha="38045.294983085114" sparseCutoff=".29857712897993105E-001"/>
      <sparseX i="37" alpha="1739.5003027600419" sparseCutoff=".43856494531613321"/>
      <sparseX i="38" alpha="-4207.3630292623930" sparseCutoff=".19165339425358516E-001"/>
      <sparseX i="39" alpha="334.55321216587924" sparseCutoff=".11218810642220078E-002"/>
      <sparseX i="40" alpha="7640.6266181945957" sparseCutoff=".85173350825309924"/>
      <sparseX i="41" alpha="7539.0669414822905" sparseCutoff="1.0000000000000000"/>
      <sparseX i="42" alpha="3231.7086780610521" sparseCutoff="1.0000000000000000"/>
      <sparseX i="43" alpha="-7094.3573565011657" sparseCutoff="1.0000000000000000"/>
      <sparseX i="44" alpha="-2162.0418852395678" sparseCutoff=".17109812364299870E-002"/>
      <sparseX i="45" alpha="40054.161017039056" sparseCutoff=".48569106796853945E-001"/>
      <sparseX i="46" alpha="-48159.786171756779" sparseCutoff=".36565942120436734E-002"/>
      <sparseX i="47" alpha="20871.584571226620" sparseCutoff=".52921445849396453E-001"/>
      <sparseX i="48" alpha="-63855.423260838448" sparseCutoff="1.0000000000000000"/>
      <sparseX i="49" alpha="3470.2124052745648" sparseCutoff="1.0000000000000000"/>
      <sparseX i="50" alpha="18285.471477331390" sparseCutoff=".99792085493738902"/>
      <sparseX i="51" alpha="7497.9185926406917" sparseCutoff="1.0000000000000000"/>
      <sparseX i="52" alpha="6458.0859967390606" sparseCutoff="1.0000000000000000"/>
      <sparseX i="53" alpha="690.99767355871541" sparseCutoff="1.0000000000000000"/>
      <sparseX i="54" alpha="28508.073278575124" sparseCutoff="1.0000000000000000"/>
      <sparseX i="55" alpha="7158.0864563013238" sparseCutoff="1.0000000000000000"/>
      <sparseX i="56" alpha="-26163.855782027575" sparseCutoff=".24301455654428240E-001"/>
      <sparseX i="57" alpha="-9966.3938270894250" sparseCutoff=".10122604174354322"/>
      <sparseX i="58" alpha="-17918.524092087388" sparseCutoff=".17099525477816863E-001"/>
      <sparseX i="59" alpha="22950.902449067704" sparseCutoff="1.0000000000000000"/>
      <sparseX i="60" alpha="9733.9187935398859" sparseCutoff="1.0000000000000000"/>
      <sparseX i="61" alpha="-92577.444875469315" sparseCutoff=".46224758401441357E-002"/>
      <sparseX i="62" alpha="-9623.7355330652099" sparseCutoff="1.0000000000000000"/>
      <sparseX i="63" alpha="8415.7481435740647" sparseCutoff=".64582296543632434"/>
      <sparseX i="64" alpha="-31028.294008549459" sparseCutoff=".74472005220916470E-002"/>
      <sparseX i="65" alpha="6516.3988117725057" sparseCutoff=".22527825511195831"/>
      <sparseX i="66" alpha="-33584.156465295178" sparseCutoff=".74613971013215985E-002"/>
      <sparseX i="67" alpha="-1123.5499339871560" sparseCutoff=".99935001336596441"/>
      <sparseX i="68" alpha="15267.706288102550" sparseCutoff=".96204359846460474"/>
      <sparseX i="69" alpha="264.28615830622448" sparseCutoff="1.0000000000000000"/>
      <sparseX i="70" alpha="1754.9991221433197" sparseCutoff=".61558297024313369E-002"/>
      <sparseX i="71" alpha="-3063.2427292243242" sparseCutoff="1.0000000000000000"/>
      <sparseX i="72" alpha="51530.390067531553" sparseCutoff=".14528566938491838"/>
      <sparseX i="73" alpha="-24224.793465415416" sparseCutoff=".46870859084322070"/>
      <sparseX i="74" alpha="-12278.136072126472" sparseCutoff="1.0000000000000000"/>
      <sparseX i="75" alpha="-4319.6819972209623" sparseCutoff="1.0000000000000000"/>
      <sparseX i="76" alpha="2800.2920471255629" sparseCutoff=".15954989125657182E-002"/>
      <sparseX i="77" alpha="-5784.4649407765319" sparseCutoff=".99338276226723865"/>
      <sparseX i="78" alpha="-13815.593012782927" sparseCutoff=".77097030945902272E-002"/>
      <sparseX i="79" alpha="-28013.819716647740" sparseCutoff=".89687357182095229"/>
      <sparseX i="80" alpha="-22226.059504682959" sparseCutoff=".58540227581367188"/>
      <sparseX i="81" alpha="-19369.067257577717" sparseCutoff=".98795737172707732"/>
      <sparseX i="82" alpha="12833.823793550735" sparseCutoff="1.0000000000000000"/>
      <sparseX i="83" alpha="31258.681593495992" sparseCutoff=".76524760891470189"/>
      <sparseX i="84" alpha="-19135.964898253354" sparseCutoff="1.0000000000000000"/>
      <sparseX i="85" alpha="7404.4188905146493" sparseCutoff="1.0000000000000000"/>
      <sparseX i="86" alpha="-75346.092456040831" sparseCutoff=".23751552273503340E-001"/>
      <sparseX i="87" alpha="15073.330314971878" sparseCutoff=".99061863971659825"/>
      <sparseX i="88" alpha="-6344.8539479881620" sparseCutoff="1.0000000000000000"/>
      <sparseX i="89" alpha="-9091.0815774233924" sparseCutoff=".98729799617072400"/>
      <sparseX i="90" alpha="113421.50033263021" sparseCutoff=".84200041886879531E-001"/>
      <sparseX i="91" alpha="2432.4858543672585" sparseCutoff="1.0000000000000000"/>
      <sparseX i="92" alpha="-4968.5844254364047" sparseCutoff="1.0000000000000000"/>
      <sparseX i="93" alpha="3158.0582797829193" sparseCutoff=".65641629228607001"/>
      <sparseX i="94" alpha="-2892.8216259546580" sparseCutoff="1.0000000000000000"/>
      <sparseX i="95" alpha="17858.208726968842" sparseCutoff=".53332098953931695"/>
      <sparseX i="96" alpha="-7491.0855210373884" sparseCutoff=".19594624710287637E-002"/>
      <sparseX i="97" alpha="-2104.9874409314798" sparseCutoff=".53902203873362475E-001"/>
      <sparseX i="98" alpha="6113.4816769104063" sparseCutoff="1.0000000000000000"/>
      <sparseX i="99" alpha="-5456.8619198939059" sparseCutoff="1.0000000000000000"/>
      <sparseX i="100" alpha="5212.2378818761108" sparseCutoff=".29334182772516315E-002"/>
      <sparseX i="101" alpha="-11765.451128238768" sparseCutoff="1.0000000000000000"/>
      <sparseX i="102" alpha="-27028.410590242092" sparseCutoff=".13275937328244359E-001"/>
      <sparseX i="103" alpha="-1526.0169575581972" sparseCutoff=".50888311193463498"/>
      <sparseX i="104" alpha="-13301.328216903383" sparseCutoff=".10553114697204050"/>
      <sparseX i="105" alpha="44896.542324110727" sparseCutoff=".25176629310760651"/>
      <sparseX i="106" alpha="3397.0304713960586" sparseCutoff=".95105477356566581"/>
      <sparseX i="107" alpha="-6483.3281605688317" sparseCutoff="1.0000000000000000"/>
      <sparseX i="108" alpha="-7569.8064290533312" sparseCutoff=".14399223949320139E-002"/>
      <sparseX i="109" alpha="46590.880333931491" sparseCutoff=".37513409701145500E-001"/>
      <sparseX i="110" alpha="-24790.513476548345" sparseCutoff=".36850938259757426"/>
      <sparseX i="111" alpha="-53016.194667944721" sparseCutoff=".56381210565871753E-002"/>
      <sparseX i="112" alpha="-7509.9280077729645" sparseCutoff=".96925744951929738E-001"/>
      <sparseX i="113" alpha="-20338.426644706735" sparseCutoff=".17408388489156718"/>
      <sparseX i="114" alpha="17922.819296995083" sparseCutoff="1.0000000000000000"/>
      <sparseX i="115" alpha="-3566.1658611560756" sparseCutoff=".94465095942693578"/>
      <sparseX i="116" alpha="-29763.696938517598" sparseCutoff=".16222087010271807"/>
      <sparseX i="117" alpha="-700.00411112321240" sparseCutoff="1.0000000000000000"/>
      <sparseX i="118" alpha="8365.1306330210064" sparseCutoff=".26621638334146502"/>
      <sparseX i="119" alpha="1393.6403812915626" sparseCutoff=".56759123736386807E-002"/>
      <sparseX i="120" alpha="-4483.2875926259321" sparseCutoff=".99991992811918817"/>
      <sparseX i="121" alpha="-102228.16549873927" sparseCutoff=".41752286254195380E-001"/>
      <sparseX i="122" alpha="5406.0677992745377" sparseCutoff="1.0000000000000000"/>
      <sparseX i="123" alpha="-3637.0554626268486" sparseCutoff=".62601499880758227"/>
      <sparseX i="124" alpha="-62681.947481026218" sparseCutoff=".48406777772281862E-002"/>
      <sparseX i="125" alpha="-133.85953894126033" sparseCutoff=".11805314194114407E-004"/>
      <sparseX i="126" alpha="-19056.411520600508" sparseCutoff=".45930617930427498"/>
      <sparseX i="127" alpha="-8912.5554977227785" sparseCutoff="1.0000000000000000"/>
      <sparseX i="128" alpha="-29668.835441183557" sparseCutoff="1.0000000000000000"/>
      <sparseX i="129" alpha="52422.838377823580" sparseCutoff="1.0000000000000000"/>
      <sparseX i="130" alpha="-15754.160253732451" sparseCutoff=".60134372893769550E-001"/>
      <sparseX i="131" alpha="33463.310163101996" sparseCutoff=".65628693949782616E-001"/>
      <sparseX i="132" alpha="-3439.4845235932435" sparseCutoff="1.0000000000000000"/>
      <sparseX i="133" alpha="5042.0439133764494" sparseCutoff=".68509950421079979"/>
      <sparseX i="134" alpha="-3884.1273198819508" sparseCutoff=".32935517220032062"/>
      <sparseX i="135" alpha="17196.796650852757" sparseCutoff=".53077629798557802"/>
      <sparseX i="136" alpha="8752.3620770399120" sparseCutoff="1.0000000000000000"/>
      <sparseX i="137" alpha="10581.626175817044" sparseCutoff=".86052523467170960"/>
      <sparseX i="138" alpha="9613.4762327185799" sparseCutoff=".26733458077643435E-001"/>
      <sparseX i="139" alpha="-130240.05727056923" sparseCutoff=".38464957151490564E-001"/>
      <sparseX i="140" alpha="-7829.3392196300547" sparseCutoff=".43432629770217921E-002"/>
      <sparseX i="141" alpha="-4967.9770857677731" sparseCutoff=".79529602887439769E-002"/>
      <sparseX i="142" alpha="-26049.283901304389" sparseCutoff=".91516187551485308E-002"/>
      <sparseX i="143" alpha="-26952.846075413905" sparseCutoff=".13006337215181907E-001"/>
      <sparseX i="144" alpha="668.36277567740183" sparseCutoff="1.0000000000000000"/>
      <sparseX i="145" alpha="-6053.1110543292025" sparseCutoff="1.0000000000000000"/>
      <sparseX i="146" alpha="16825.756557380355" sparseCutoff="1.0000000000000000"/>
      <sparseX i="147" alpha="2277.2467091454841" sparseCutoff="1.0000000000000000"/>
      <sparseX i="148" alpha="3812.3648382062001" sparseCutoff=".80100265133986603E-003"/>
      <sparseX i="149" alpha="-54529.959310683393" sparseCutoff=".87136543807126876E-001"/>
      <sparseX i="150" alpha="-6777.1139460151599" sparseCutoff=".75550801350487973E-003"/>
      <sparseX i="151" alpha="-15077.726607399214" sparseCutoff="1.0000000000000000"/>
      <sparseX i="152" alpha="17590.696745744171" sparseCutoff=".60242037224025213E-001"/>
      <sparseX i="153" alpha="17554.588033874054" sparseCutoff=".67121152531684769E-001"/>
      <sparseX i="154" alpha="-1592.0802824470040" sparseCutoff="1.0000000000000000"/>
      <sparseX i="155" alpha="-96455.149991138736" sparseCutoff=".64774518966736083E-001"/>
      <sparseX i="156" alpha="8957.0304013310706" sparseCutoff=".44109432133696003E-002"/>
      <sparseX i="157" alpha="-7095.8014673863327" sparseCutoff=".28803898316597468E-002"/>
      <sparseX i="158" alpha="-15465.894542855749" sparseCutoff=".22931364127456402E-001"/>
      <sparseX i="159" alpha="31528.623722331122" sparseCutoff=".34707901977066891"/>
      <sparseX i="160" alpha="1242.4233098476102" sparseCutoff=".45052815156300108E-002"/>
      <sparseX i="161" alpha="-11085.775602905642" sparseCutoff=".99404158212631222"/>
      <sparseX i="162" alpha="79231.475451014383" sparseCutoff=".11339547374860209"/>
      <sparseX i="163" alpha="-6371.6875791681114" sparseCutoff=".90081038363187571"/>
      <sparseX i="164" alpha="-3775.1568987169685" sparseCutoff="1.0000000000000000"/>
      <sparseX i="165" alpha="11017.090543569000" sparseCutoff="1.0000000000000000"/>
      <sparseX i="166" alpha="1999.7690075949790" sparseCutoff="1.0000000000000000"/>
      <sparseX i="167" alpha="-1728.2241099783159" sparseCutoff=".27467484718434187E-002"/>
      <sparseX i="168" alpha="-3488.2892633940046" sparseCutoff="1.0000000000000000"/>
      <sparseX i="169" alpha="-13316.210657394429" sparseCutoff=".18845018102599861E-001"/>
      <sparseX i="170" alpha="-19812.797957645307" sparseCutoff="1.0000000000000000"/>
      <sparseX i="171" alpha="-36539.792912136618" sparseCutoff=".25615581454523209E-001"/>
      <sparseX i="172" alpha="-9370.7623018431896" sparseCutoff=".43839864435111575"/>
      <sparseX i="173" alpha="2314.7404206149263" sparseCutoff=".32584629603835691"/>
      <sparseX i="174" alpha="67272.793540117957" sparseCutoff=".37473745849651074E-001"/>
      <sparseX i="175" alpha="14970.426817175141" sparseCutoff=".62048859499771042E-001"/>
      <sparseX i="176" alpha="-35699.851401955653" sparseCutoff="1.0000000000000000"/>
      <sparseX i="177" alpha="775.01474852735635" sparseCutoff="1.0000000000000000"/>
      <sparseX i="178" alpha="-18.162105870449032" sparseCutoff=".97513200524988730"/>
      <sparseX i="179" alpha="-15594.409485874379" sparseCutoff=".59916040733720777"/>
      <sparseX i="180" alpha="3781.7029022619377" sparseCutoff=".97513200524988730"/>
      <sparseX i="181" alpha="-6918.9320969450337" sparseCutoff="1.0000000000000000"/>
      <sparseX i="182" alpha="7117.4690976789607" sparseCutoff=".70601728933094576"/>
      <sparseX i="183" alpha="-14631.219315969061" sparseCutoff=".40950273463539834E-001"/>
      <sparseX i="184" alpha="2349.7073004444655" sparseCutoff=".60792080552684424"/>
      <sparseX i="185" alpha="46252.255876287185" sparseCutoff=".29102722637134704E-001"/>
      <sparseX i="186" alpha="16420.502521400274" sparseCutoff="1.0000000000000000"/>
      <sparseX i="187" alpha="40381.052219064215" sparseCutoff=".10312024841045153E-001"/>
      <sparseX i="188" alpha="69687.018498117759" sparseCutoff=".98297583003787312E-001"/>
      <sparseX i="189" alpha="5694.8082444897982" sparseCutoff="1.0000000000000000"/>
      <sparseX i="190" alpha="-27987.479792937633" sparseCutoff=".60073171725345842"/>
      <sparseX i="191" alpha="4925.9789882177192" sparseCutoff=".45903535628531184"/>
      <sparseX i="192" alpha="-6561.1894353351699" sparseCutoff=".43075188780387574E-001"/>
      <sparseX i="193" alpha="-55241.292473393005" sparseCutoff=".41227658756173541E-001"/>
      <sparseX i="194" alpha="-15691.675588979913" sparseCutoff=".99317852301876974"/>
      <sparseX i="195" alpha="18991.346901038349" sparseCutoff=".97356925739241285"/>
      <sparseX i="196" alpha="-3238.0642410459768" sparseCutoff="1.0000000000000000"/>
      <sparseX i="197" alpha="-24451.268366013377" sparseCutoff=".10423182493605726"/>
      <sparseX i="198" alpha="-32467.134144125470" sparseCutoff=".93094204960980509"/>
      <sparseX i="199" alpha="-40097.363532936914" sparseCutoff=".24462417798135155"/>
      <sparseX i="200" alpha="14610.531971760394" sparseCutoff=".77237627076893101"/>
    </gpCoordinates>
    <gpCoordinates label="GAP_2026_3_23_120_0_34_10_8756" dimensions="3" signal_variance=".10000000000000000E-001" signal_mean=".00000000000000000E+000" sparsified="T" n_permutations="1" covariance_type="4" n_sparseX="200" sparseX_filename="CH.xml.sparseX.GAP_2026_3_23_120_0_34_10_8756" sparseX_md5sum="4f32a5939d3dd9e9d2bebcc99f3c8ab9">
      <theta>  0.20000000000000000E+001  0.20000000000000000E+001  0.20000000000000000E+001 </theta>
      <descriptor> angle_3b Z_center=6 Z1=6 Z2=6 cutoff=2.0 n_sparse=200 covariance_type=pp delta=0.01 theta_uniform=2.0 sparse_method=uniform add_species=F</descriptor>
      <permutation i="1">1 2 3  </permutation>
      <sparseX i="1" alpha="63809.405923507758" sparseCutoff="1.0000000000000000"/>
      <sparseX i="2" alpha="6758.1850576269944" sparseCutoff="1.0000000000000000"/>
      <sparseX i="3" alpha="7138.1635131219127" sparseCutoff="1.0000000000000000"/>
      <sparseX i="4" alpha="133953.02998118641" sparseCutoff=".48460862778711838"/>
      <sparseX i="5" alpha="-12808.008051639128" sparseCutoff=".59274799049551075E-001"/>
      <sparseX i="6" alpha="-9421.6128588011779" sparseCutoff="1.0000000000000000"/>
      <sparseX i="7" alpha="-16166.956854493717" sparseCutoff=".84825793365405411"/>
      <sparseX i="8" alpha="-47687.033848841696" sparseCutoff=".84825793365405411"/>
      <sparseX i="9" alpha="23347.666104025033" sparseCutoff=".44893634608438064E-002"/>
      <sparseX i="10" alpha="-7431.8232614844719" sparseCutoff=".58753059397471572E-003"/>
      <sparseX i="11" alpha="-43227.332892627586" sparseCutoff=".53514467050350074E-001"/>
      <sparseX i="12" alpha="85620.490802761167" sparseCutoff=".89487321711836931E-002"/>
      <sparseX i="13" alpha="177063.77434798647" sparseCutoff=".59274799049551075E-001"/>
      <sparseX i="14" alpha="225018.47567462589" sparseCutoff=".20377030143270445E-001"/>
      <sparseX i="15" alpha="873.41426875870866" sparseCutoff=".17811012704430039E-002"/>
      <sparseX i="16" alpha="287861.10611061164" sparseCutoff=".33401103677031929"/>
      <sparseX i="17" alpha="-48102.124484544562" sparseCutoff=".14524336581821795"/>
      <sparseX i="18" alpha="-52236.729703202043" sparseCutoff="1.0000000000000000"/>
      <sparseX i="19" alpha="-5254.1748569661886" sparseCutoff=".26935819089258729E-001"/>
      <sparseX i="20" alpha="-21750.399709317480" sparseCutoff=".56735902302313401E-002"/>
      <sparseX i="21" alpha="177.23496496490475" sparseCutoff=".37531963769056377E-002"/>
      <sparseX i="22" alpha="-27007.008915793300" sparseCutoff=".99885079828347623"/>
      <sparseX i="23" alpha="8080.5556620548869" sparseCutoff=".77108881707409171"/>
      <sparseX i="24" alpha="-70613.799996350223" sparseCutoff=".64244960625895270E-001"/>
      <sparseX i="25" alpha="-406860.67342677229" sparseCutoff=".20031578268747907E-001"/>
      <sparseX i="26" alpha="-20589.088141059492" sparseCutoff=".13845882307393587"/>
      <sparseX i="27" alpha="-35574.956737360750" sparseCutoff=".13845882307393587"/>
      <sparseX i="28" alpha="14763.744288331218" sparseCutoff=".29695233977612267E-001"/>
      <sparseX i="29" alpha="26533.267226654829" sparseCutoff=".63085623016115155"/>
      <sparseX i="30" alpha="148567.25694880329" sparseCutoff=".44237041964647861"/>
      <sparseX i="31" alpha="-63138.608748255290" sparseCutoff="1.0000000000000000"/>
      <sparseX i="32" alpha="-3000.4061028971919" sparseCutoff=".22694854365590267E-003"/>
      <sparseX i="33" alpha="-4198.9487269435058" sparseCutoff=".96944498280647018"/>
      <sparseX i="34" alpha="-70439.578624731905" sparseCutoff=".50434330147082207E-002"/>
      <sparseX i="35" alpha="35915.137113046250" sparseCutoff="1.0000000000000000"/>
      <sparseX i="36" alpha="-453987.96532560379" sparseCutoff=".20896196698833858E-001"/>
      <sparseX i="37" alpha="39857.812599516306" sparseCutoff=".85592769215099784"/>
      <sparseX i="38" alpha="-69112.951619305313" sparseCutoff=".41097356916671990E-001"/>
      <sparseX i="39" alpha="155.47626294046657" sparseCutoff=".96613168685919282E-004"/>
      <sparseX i="40" alpha="-19409.865750253281" sparseCutoff=".96817788325435949"/>
      <sparseX i="41" alpha="49797.460222424364" sparseCutoff="1.0000000000000000"/>
      <sparseX i="42" alpha="-567.87522378132758" sparseCutoff=".85173350825309924"/>
      <sparseX i="43" alpha="-33743.466971071917" sparseCutoff=".91278016998600453"/>
      <sparseX i="44" alpha="-49778.595893716461" sparseCutoff=".45028997347806854E-002"/>
      <sparseX i="45" alpha="-12271.100620565971" sparseCutoff=".48270854975757116E-003"/>
      <sparseX i="46" alpha="11332.871644244024" sparseCutoff=".26964354792150319"/>
      <sparseX i="47" alpha="43921.336299240902" sparseCutoff=".60681703992253311"/>
      <sparseX i="48" alpha="-93824.212578508799" sparseCutoff="1.0000000000000000"/>
      <sparseX i="49" alpha="43062.694667848038" sparseCutoff=".17223689322103153"/>
      <sparseX i="50" alpha="34522.370187010114" sparseCutoff="1.0000000000000000"/>
      <sparseX i="51" alpha="35443.267093105176" sparseCutoff=".17223689322103153"/>
      <sparseX i="52" alpha="12308.916619802050" sparseCutoff=".75875552947063094E-001"/>
      <sparseX i="53" alpha="493890.24210899841" sparseCutoff=".24304333401567291E-001"/>
      <sparseX i="54" alpha="14921.848990080125" sparseCutoff=".45200599592975690E-001"/>
      <sparseX i="55" alpha="-95619.623962274418" sparseCutoff=".62930926578403323E-001"/>
      <sparseX i="56" alpha="-10491.046006822662" sparseCutoff=".91059300896650763"/>
      <sparseX i="57" alpha="19172.010362943427" sparseCutoff=".95727053237676807"/>
      <sparseX i="58" alpha="-153.20469682044006" sparseCutoff=".11027681954465463"/>
      <sparseX i="59" alpha="-50677.396009467782" sparseCutoff=".75796874490233712"/>
      <sparseX i="60" alpha="-19980.276334507726" sparseCutoff="1.0000000000000000"/>
      <sparseX i="61" alpha="-529.89872667764200" sparseCutoff="1.0000000000000000"/>
      <sparseX i="62" alpha="-461.68903856874562" sparseCutoff=".93210512715713456E-004"/>
      <sparseX i="63" alpha="370.36318239442909" sparseCutoff=".44390161113694315E-003"/>
      <sparseX i="64" alpha="47407.867973812732" sparseCutoff="1.0000000000000000"/>
      <sparseX i="65" alpha="-141860.63312928405" sparseCutoff=".49492358225880773E-001"/>
      <sparseX i="66" alpha="-28677.796212988706" sparseCutoff=".24971140668963526"/>
      <sparseX i="67" alpha="-88275.630604420192" sparseCutoff=".18284798892982391E-001"/>
      <sparseX i="68" alpha="31753.474826915655" sparseCutoff=".71553091727379198E-002"/>
      <sparseX i="69" alpha="-24636.108885428770" sparseCutoff=".75463722580445824"/>
      <sparseX i="70" alpha="7017.2963341531786" sparseCutoff=".35584063876555028"/>
      <sparseX i="71" alpha="-16255.245935611687" sparseCutoff="1.0000000000000000"/>
      <sparseX i="72" alpha="51217.148626489063" sparseCutoff="1.0000000000000000"/>
      <sparseX i="73" alpha="39383.602353185976" sparseCutoff="1.0000000000000000"/>
      <sparseX i="74" alpha="12748.767445837555" sparseCutoff=".35756741469741771"/>
      <sparseX i="75" alpha="-43380.970064498892" sparseCutoff=".35756741469741771"/>
      <sparseX i="76" alpha="42976.668466453004" sparseCutoff=".22496704329215522E-001"/>
      <sparseX i="77" alpha="37459.494286334011" sparseCutoff=".86758836533470007"/>
      <sparseX i="78" alpha="8238.0919415571188" sparseCutoff=".88700020201165797"/>
      <sparseX i="79" alpha="-28446.880663003227" sparseCutoff=".19148802252771591"/>
      <sparseX i="80" alpha="-13433.115856652103" sparseCutoff=".59007720563317156E-002"/>
      <sparseX i="81" alpha="-100029.65256426658" sparseCutoff=".99304968336929611"/>
      <sparseX i="82" alpha="59500.531400530585" sparseCutoff=".76952947170620256"/>
      <sparseX i="83" alpha="150031.29416775069" sparseCutoff=".14267636685153240"/>
      <sparseX i="84" alpha="26486.531111280281" sparseCutoff=".78961487427289834"/>
      <sparseX i="85" alpha="51280.446222991588" sparseCutoff=".34090744599086287E-001"/>
      <sparseX i="86" alpha="388.01582006284946" sparseCutoff=".22804896718845434E-003"/>
      <sparseX i="87" alpha="3437.2892651868201" sparseCutoff=".11282884873191073E-001"/>
      <sparseX i="88" alpha="16000.537929910715" sparseCutoff=".53828847960549464"/>
      <sparseX i="89" alpha="3810.7451947437989" sparseCutoff=".14554406489201144E-002"/>
      <sparseX i="90" alpha="-13388.077007935099" sparseCutoff="1.0000000000000000"/>
      <sparseX i="91" alpha="-48107.725674710149" sparseCutoff="1.0000000000000000"/>
      <sparseX i="92" alpha="54309.315144552165" sparseCutoff=".37645711862402065E-001"/>
      <sparseX i="93" alpha="44739.929962677546" sparseCutoff=".16941408524719759E-001"/>
      <sparseX i="94" alpha="36636.210468489466" sparseCutoff=".11852693966208883"/>
      <sparseX i="95" alpha="369.79067819987455" sparseCutoff=".73387531529813237E-003"/>
      <sparseX i="96" alpha="-4930.8400378894949" sparseCutoff=".94664844262110814"/>
      <sparseX i="97" alpha="-1624.2596781973205" sparseCutoff=".21430771498559542E-003"/>
      <sparseX i="98" alpha="29.050372727246913" sparseCutoff=".60380155937345137E-004"/>
      <sparseX i="99" alpha="44488.996815446772" sparseCutoff=".16526153423218115E-001"/>
      <sparseX i="100" alpha="-5445.9226236300865" sparseCutoff=".37407608092693279E-003"/>
      <sparseX i="101" alpha="1427.9069668192096" sparseCutoff=".17832116983493773"/>
      <sparseX i="102" alpha="-360821.16242180445" sparseCutoff=".28512372298197330"/>
      <sparseX i="103" alpha="7603.6950565745938" sparseCutoff=".99966743915187140"/>
      <sparseX i="104" alpha="-6157.3330415158061" sparseCutoff="1.0000000000000000"/>
      <sparseX i="105" alpha="12575.629841816877" sparseCutoff="1.0000000000000000"/>
      <sparseX i="106" alpha="-36158.167951983538" sparseCutoff="1.0000000000000000"/>
      <sparseX i="107" alpha="-21394.300519943397" sparseCutoff="1.0000000000000000"/>
      <sparseX i="108" alpha="23761.703244221240" sparseCutoff="1.0000000000000000"/>
      <sparseX i="109" alpha="-5630.9981123245716" sparseCutoff="1.0000000000000000"/>
      <sparseX i="110" alpha="-30996.882299643010" sparseCutoff="1.0000000000000000"/>
      <sparseX i="111" alpha="-53.334074704440880" sparseCutoff=".38337395681265485E-002"/>
      <sparseX i="112" alpha="-8174.4671064015465" sparseCutoff=".83510122422604560"/>
      <sparseX i="113" alpha="9480.4042261137620" sparseCutoff=".13286412603281669E-001"/>
      <sparseX i="114" alpha="-578.06826092100573" sparseCutoff=".56011684070133683"/>
      <sparseX i="115" alpha="-11501.677594707326" sparseCutoff=".16614553699863550E-002"/>
      <sparseX i="116" alpha="-51600.060674325614" sparseCutoff="1.0000000000000000"/>
      <sparseX i="117" alpha="26722.119805325194" sparseCutoff="1.0000000000000000"/>
      <sparseX i="118" alpha="87812.622322165233" sparseCutoff="1.0000000000000000"/>
      <sparseX i="119" alpha="-5301.5127389328109" sparseCutoff=".43600011814872337E-002"/>
      <sparseX i="120" alpha="89700.854669820299" sparseCutoff=".81499567365160863"/>
      <sparseX i="121" alpha="222074.06002489047" sparseCutoff=".24255761583189589"/>
      <sparseX i="122" alpha="-9739.8496547511295" sparseCutoff=".92329408881631991"/>
      <sparseX i="123" alpha="40765.509259491409" sparseCutoff="1.0000000000000000"/>
      <sparseX i="124" alpha="1294.7778979139821" sparseCutoff="1.0000000000000000"/>
      <sparseX i="125" alpha="25061.057141684560" sparseCutoff="1.0000000000000000"/>
      <sparseX i="126" alpha="3110.2237784975459" sparseCutoff=".68266933274822028E-002"/>
      <sparseX i="127" alpha="-18159.619544326779" sparseCutoff=".88654923125097318E-001"/>
      <sparseX i="128" alpha="13344.905936365165" sparseCutoff=".20545969373589934E-001"/>
      <sparseX i="129" alpha="-1914.2648940842976" sparseCutoff=".20848378511985177"/>
      <sparseX i="130" alpha="37654.138564253284" sparseCutoff="1.0000000000000000"/>
      <sparseX i="131" alpha="-3473.4216849899913" sparseCutoff="1.0000000000000000"/>
      <sparseX i="132" alpha="18720.849887619515" sparseCutoff="1.0000000000000000"/>
      <sparseX i="133" alpha="-142531.50906232011" sparseCutoff=".73069737498377219"/>
      <sparseX i="134" alpha="-295.94182922030041" sparseCutoff=".26271051170756454E-004"/>
      <sparseX i="135" alpha="-1719.8069428993297" sparseCutoff=".75607140736399125"/>
      <sparseX i="136" alpha="-86339.076994618721" sparseCutoff=".90470091979153622E-001"/>
      <sparseX i="137" alpha="50538.707970238785" sparseCutoff="1.0000000000000000"/>
      <sparseX i="138" alpha="-36440.020383133538" sparseCutoff=".49715042224832945"/>
      <sparseX i="139" alpha="20927.006924683650" sparseCutoff="1.0000000000000000"/>
      <sparseX i="140" alpha="64904.022925591293" sparseCutoff=".29959948784626034"/>
      <sparseX i="141" alpha="-89457.531363367569" sparseCutoff=".10807263839769377"/>
      <sparseX i="142" alpha="4.6504401789252778" sparseCutoff=".16415497364752341E-005"/>
      <sparseX i="143" alpha="-2571.7779078916005" sparseCutoff=".22456884648619502E-003"/>
      <sparseX i="144" alpha="39505.349522192468" sparseCutoff=".30504687616124349E-001"/>
      <sparseX i="145" alpha="-42281.059286666183" sparseCutoff="1.0000000000000000"/>
      <sparseX i="146" alpha="145091.35717147586" sparseCutoff=".13667119989757798"/>
      <sparseX i="147" alpha="67117.614833042622" sparseCutoff="1.0000000000000000"/>
      <sparseX i="148" alpha="65.610158367056542" sparseCutoff=".17064614787836612E-003"/>
      <sparseX i="149" alpha="38711.254913493336" sparseCutoff=".60352327976818387E-001"/>
      <sparseX i="150" alpha="-144742.25256237978" sparseCutoff="1.0000000000000000"/>
      <sparseX i="151" alpha="27974.468374657521" sparseCutoff=".39031990536612982"/>
      <sparseX i="152" alpha="-103115.54561746947" sparseCutoff=".57207718142081032E-002"/>
      <sparseX i="153" alpha="13357.340526621134" sparseCutoff=".88308924068288586"/>
      <sparseX i="154" alpha="39244.954092226384" sparseCutoff=".60339565866170702E-001"/>
      <sparseX i="155" alpha="-28929.844915785874" sparseCutoff="1.0000000000000000"/>
      <sparseX i="156" alpha="-4339.7051065870583" sparseCutoff=".36966914451986010"/>
      <sparseX i="157" alpha="-38971.891391082252" sparseCutoff=".93719387067203375"/>
      <sparseX i="158" alpha="-10538.336250674020" sparseCutoff=".36966914451986010"/>
      <sparseX i="159" alpha="3723.3892636455962" sparseCutoff=".97866627058796418"/>
      <sparseX i="160" alpha="-311242.57544195402" sparseCutoff=".22184035896994353"/>
      <sparseX i="161" alpha="-38974.972323936738" sparseCutoff="1.0000000000000000"/>
      <sparseX i="162" alpha="-43461.381467770116" sparseCutoff="1.0000000000000000"/>
      <sparseX i="163" alpha="-11715.536705365692" sparseCutoff=".30976176035637992"/>
      <sparseX i="164" alpha="92485.957987866466" sparseCutoff=".15906605744031632E-001"/>
      <sparseX i="165" alpha="-102146.22789170574" sparseCutoff=".26690766525087772"/>
      <sparseX i="166" alpha="-9859.1567176688895" sparseCutoff="1.0000000000000000"/>
      <sparseX i="167" alpha="-372571.22794200113" sparseCutoff=".86571036238576940E-002"/>
      <sparseX i="168" alpha="18128.481630311479" sparseCutoff=".16259909884448526"/>
      <sparseX i="169" alpha="69623.933247665787" sparseCutoff=".10946802740448991E-001"/>
      <sparseX i="170" alpha="23919.535932160779" sparseCutoff=".99994550092658818"/>
      <sparseX i="171" alpha="34782.163248684752" sparseCutoff=".67827299127145579E-002"/>
      <sparseX i="172" alpha="149515.00630980814" sparseCutoff=".11198072752553778"/>
      <sparseX i="173" alpha="-121.72997674132920" sparseCutoff=".22216667820847824E-003"/>
      <sparseX i="174" alpha="22582.457714664291" sparseCutoff=".84639163468409118"/>
      <sparseX i="175" alpha="887.96099396349905" sparseCutoff=".32647157514279795"/>
      <sparseX i="176" alpha="-3174.6147698668142" sparseCutoff=".67606131723310525"/>
      <sparseX i="177" alpha="-3305.9689634557640" sparseCutoff=".84463407587553541"/>
      <sparseX i="178" alpha="-4187.3014935408119" sparseCutoff=".26164973002915433E-001"/>
      <sparseX i="179" alpha="-167610.42221796844" sparseCutoff=".12592275323678487"/>
      <sparseX i="180" alpha="95147.197411042216" sparseCutoff="1.0000000000000000"/>
      <sparseX i="181" alpha="-40956.571745361369" sparseCutoff=".39449925895691285"/>
      <sparseX i="182" alpha="67371.797468610181" sparseCutoff=".47073692263602640E-001"/>
      <sparseX i="183" alpha="25313.850897984568" sparseCutoff=".52504567637659705"/>
      <sparseX i="184" alpha="-101875.09599330719" sparseCutoff="1.0000000000000000"/>
      <sparseX i="185" alpha="-59545.237233017411" sparseCutoff=".46545602715898915E-002"/>
      <sparseX i="186" alpha="24433.859141580258" sparseCutoff="1.0000000000000000"/>
      <sparseX i="187" alpha="-3702.3233934664640" sparseCutoff="1.0000000000000000"/>
      <sparseX i="188" alpha="8963.0813094801924" sparseCutoff=".49595202200281418E-002"/>
      <sparseX i="189" alpha="-21587.264540164619" sparseCutoff=".20355359419152441"/>
      <sparseX i="190" alpha="3746.8093695823068" sparseCutoff=".93717780625762948"/>
      <sparseX i="191" alpha="37400.248011027223" sparseCutoff=".77506296701083943E-001"/>
      <sparseX i="192" alpha="18500.439562811782" sparseCutoff=".21439229237226631E-001"/>
      <sparseX i="193" alpha="6391.2625973940576" sparseCutoff="1.0000000000000000"/>
      <sparseX i="194" alpha="-104019.68205801416" sparseCutoff=".42199095507871442"/>
      <sparseX i="195" alpha="42434.658544524522" sparseCutoff=".99132318492559668"/>
      <sparseX i="196" alpha="-26272.248081796963" sparseCutoff=".94569321806100115"/>
      <sparseX i="197" alpha="35243.133736451528" sparseCutoff=".45042567999491863E-001"/>
      <sparseX i="198" alpha="20713.555212131188" sparseCutoff="1.0000000000000000"/>
      <sparseX i="199" alpha="74017.987380735212" sparseCutoff="1.0000000000000000"/>
      <sparseX i="200" alpha="-29057.022612098317" sparseCutoff=".92350660136346630E-001"/>
    </gpCoordinates>
    <gpCoordinates label="GAP_2026_3_23_120_0_34_10_8757" dimensions="75" signal_variance=".10000000000000001E+000" signal_mean=".00000000000000000E+000" sparsified="T" n_permutations="1" covariance_type="2" zeta="4.0000000000000000" n_sparseX="1000" sparseX_filename="CH.xml.sparseX.GAP_2026_3_23_120_0_34_10_8757" sparseX_md5sum="59ca451ef0d9c72bc2dc146ac388ef03">
      <descriptor> soap_turbo l_max=4 alpha_max={4 4} atom_sigma_r={0.2 0.2} atom_sigma_t={0.2 0.2} atom_sigma_r_scaling={0.1 0.1} atom_sigma_t_scaling={0.1 0.1} zeta=4 rcut_hard=4.0 rcut_soft=3.5 basis=poly3gauss scaling_mode=polynomial add_species=F amplitude_scaling={2.0 2.0} n_species=2 species_Z={1 6} central_index=1 radial_enhancement=1 compress_mode=trivial central_weight={1.0 1.0} n_sparse=1000 delta=0.1 f0=0.0 covariance_type=dot_product sparse_method=cur_points</descriptor>
      <permutation i="1">1  </permutation>
      <sparseX i="1" alpha="37442.901014975701" sparseCutoff="1.0000000000000000"/>
      <sparseX i="2" alpha="45373.526434990046" sparseCutoff="1.0000000000000000"/>
      <sparseX i="3" alpha="52867.826298050095" sparseCutoff="1.0000000000000000"/>
      <sparseX i="4" alpha="-34619.880017545678" sparseCutoff="1.0000000000000000"/>
      <sparseX i="5" alpha="-15794.439745827811" sparseCutoff="1.0000000000000000"/>
      <sparseX i="6" alpha="-9553.1155682522221" sparseCutoff="1.0000000000000000"/>
      <sparseX i="7" alpha="8366.1576951302432" sparseCutoff="1.0000000000000000"/>
      <sparseX i="8" alpha="59419.082788666994" sparseCutoff="1.0000000000000000"/>
      <sparseX i="9" alpha="-12892.694311809049" sparseCutoff="1.0000000000000000"/>
      <sparseX i="10" alpha="24145.083259047373" sparseCutoff="1.0000000000000000"/>
      <sparseX i="11" alpha="-9086.2665382372907" sparseCutoff="1.0000000000000000"/>
      <sparseX i="12" alpha="-13690.866968308828" sparseCutoff="1.0000000000000000"/>
      <sparseX i="13" alpha="-14600.220048953077" sparseCutoff="1.0000000000000000"/>
      <sparseX i="14" alpha="19143.148792923803" sparseCutoff="1.0000000000000000"/>
      <sparseX i="15" alpha="46193.214353786338" sparseCutoff="1.0000000000000000"/>
      <sparseX i="16" alpha="47687.518480426246" sparseCutoff="1.0000000000000000"/>
      <sparseX i="17" alpha="-17556.494148902872" sparseCutoff="1.0000000000000000"/>
      <sparseX i="18" alpha="30133.734842926417" sparseCutoff="1.0000000000000000"/>
      <sparseX i="19" alpha="-45760.179885121295" sparseCutoff="1.0000000000000000"/>
      <sparseX i="20" alpha="5573.2632019613784" sparseCutoff="1.0000000000000000"/>
      <sparseX i="21" alpha="-60331.042747325388" sparseCutoff="1.0000000000000000"/>
      <sparseX i="22" alpha="-84245.525425338317" sparseCutoff="1.0000000000000000"/>
      <sparseX i="23" alpha="79648.439440654445" sparseCutoff="1.0000000000000000"/>
      <sparseX i="24" alpha="-14337.418305553118" sparseCutoff="1.0000000000000000"/>
      <sparseX i="25" alpha="112465.36953596861" sparseCutoff="1.0000000000000000"/>
      <sparseX i="26" alpha="17193.332765314448" sparseCutoff="1.0000000000000000"/>
      <sparseX i="27" alpha="371709.22656859551" sparseCutoff="1.0000000000000000"/>
      <sparseX i="28" alpha="-7704.3758393335747" sparseCutoff="1.0000000000000000"/>
      <sparseX i="29" alpha="21957.115707637458" sparseCutoff="1.0000000000000000"/>
      <sparseX i="30" alpha="8420.4507514079596" sparseCutoff="1.0000000000000000"/>
      <sparseX i="31" alpha="-6161.2328782983359" sparseCutoff="1.0000000000000000"/>
      <sparseX i="32" alpha="2282.1274507154822" sparseCutoff="1.0000000000000000"/>
      <sparseX i="33" alpha="10484.933001951804" sparseCutoff="1.0000000000000000"/>
      <sparseX i="34" alpha="19107.180353830689" sparseCutoff="1.0000000000000000"/>
      <sparseX i="35" alpha="-16400.167332051216" sparseCutoff="1.0000000000000000"/>
      <sparseX i="36" alpha="637.90653640550568" sparseCutoff="1.0000000000000000"/>
      <sparseX i="37" alpha="-14458.033165843271" sparseCutoff="1.0000000000000000"/>
      <sparseX i="38" alpha="2858.0937841612149" sparseCutoff="1.0000000000000000"/>
      <sparseX i="39" alpha="-1797.2653354490121" sparseCutoff="1.0000000000000000"/>
      <sparseX i="40" alpha="10562.183752513594" sparseCutoff="1.0000000000000000"/>
      <sparseX i="41" alpha="326051.74029068206" sparseCutoff="1.0000000000000000"/>
      <sparseX i="42" alpha="694.80168864746224" sparseCutoff="1.0000000000000000"/>
      <sparseX i="43" alpha="-91101.427052494953" sparseCutoff="1.0000000000000000"/>
      <sparseX i="44" alpha="-3054.9427391866857" sparseCutoff="1.0000000000000000"/>
      <sparseX i="45" alpha="3002.2467206254805" sparseCutoff="1.0000000000000000"/>
      <sparseX i="46" alpha="-15190.904192022232" sparseCutoff="1.0000000000000000"/>
      <sparseX i="47" alpha="42331.495816697090" sparseCutoff="1.0000000000000000"/>
      <sparseX i="48" alpha="144176.36316313964" sparseCutoff="1.0000000000000000"/>
      <sparseX i="49" alpha="-7958.2044896929028" sparseCutoff="1.0000000000000000"/>
      <sparseX i="50" alpha="-142037.88158752699" sparseCutoff="1.0000000000000000"/>
      <sparseX i="51" alpha="788.79849351387566" sparseCutoff="1.0000000000000000"/>
      <sparseX i="52" alpha="-3974.4162432884691" sparseCutoff="1.0000000000000000"/>
      <sparseX i="53" alpha="2179.9539998681962" sparseCutoff="1.0000000000000000"/>
      <sparseX i="54" alpha="146032.40539427724" sparseCutoff="1.0000000000000000"/>
      <sparseX i="55" alpha="51999.094940266026" sparseCutoff="1.0000000000000000"/>
      <sparseX i="56" alpha="-21420.459141604631" sparseCutoff="1.0000000000000000"/>
      <sparseX i="57" alpha="-368.70366595926686" sparseCutoff="1.0000000000000000"/>
      <sparseX i="58" alpha="8932.3615169267978" sparseCutoff="1.0000000000000000"/>
      <sparseX i="59" alpha="-62559.066658764641" sparseCutoff="1.0000000000000000"/>
      <sparseX i="60" alpha="13374.020496738976" sparseCutoff="1.0000000000000000"/>
      <sparseX i="61" alpha="-76352.305371308190" sparseCutoff="1.0000000000000000"/>
      <sparseX i="62" alpha="1007.6638627570580" sparseCutoff="1.0000000000000000"/>
      <sparseX i="63" alpha="-49251.838696669402" sparseCutoff="1.0000000000000000"/>
      <sparseX i="64" alpha="-32363.384384233006" sparseCutoff="1.0000000000000000"/>
      <sparseX i="65" alpha="6188.8865861902723" sparseCutoff="1.0000000000000000"/>
      <sparseX i="66" alpha="-4196.9638712125434" sparseCutoff="1.0000000000000000"/>
      <sparseX i="67" alpha="-11088.305643612621" sparseCutoff="1.0000000000000000"/>
      <sparseX i="68" alpha="17512.805363463900" sparseCutoff="1.0000000000000000"/>
      <sparseX i="69" alpha="70770.748758546149" sparseCutoff="1.0000000000000000"/>
      <sparseX i="70" alpha="-1216.6452492206370" sparseCutoff="1.0000000000000000"/>
      <sparseX i="71" alpha="138582.58903516005" sparseCutoff="1.0000000000000000"/>
      <sparseX i="72" alpha="84945.217432973877" sparseCutoff="1.0000000000000000"/>
      <sparseX i="73" alpha="-1832.4594049602872" sparseCutoff="1.0000000000000000"/>
      <sparseX i="74" alpha="-115.05287744520591" sparseCutoff="1.0000000000000000"/>
      <sparseX i="75" alpha="81738.736049922474" sparseCutoff="1.0000000000000000"/>
      <sparseX i="76" alpha="-90753.047570498238" sparseCutoff="1.0000000000000000"/>
      <sparseX i="77" alpha="-7938.2228153553751" sparseCutoff="1.0000000000000000"/>
      <sparseX i="78" alpha="53179.020755314916" sparseCutoff="1.0000000000000000"/>
      <sparseX i="79" alpha="36330.886068892512" sparseCutoff="1.0000000000000000"/>
      <sparseX i="80" alpha="-9975.3038594053724" sparseCutoff="1.0000000000000000"/>
      <sparseX i="81" alpha="3445.0490553892087" sparseCutoff="1.0000000000000000"/>
      <sparseX i="82" alpha="12178.457863692600" sparseCutoff="1.0000000000000000"/>
      <sparseX i="83" alpha="-41549.533337891415" sparseCutoff="1.0000000000000000"/>
      <sparseX i="84" alpha="-103120.45322381120" sparseCutoff="1.0000000000000000"/>
      <sparseX i="85" alpha="-45588.783151126285" sparseCutoff="1.0000000000000000"/>
      <sparseX i="86" alpha="6684.4675670086144" sparseCutoff="1.0000000000000000"/>
      <sparseX i="87" alpha="62477.170980752504" sparseCutoff="1.0000000000000000"/>
      <sparseX i="88" alpha="9903.1605103459497" sparseCutoff="1.0000000000000000"/>
      <sparseX i="89" alpha="-36435.199802397248" sparseCutoff="1.0000000000000000"/>
      <sparseX i="90" alpha="32282.451148558896" sparseCutoff="1.0000000000000000"/>
      <sparseX i="91" alpha="-17453.761588658923" sparseCutoff="1.0000000000000000"/>
      <sparseX i="92" alpha="-8263.3198460556559" sparseCutoff="1.0000000000000000"/>
      <sparseX i="93" alpha="-176656.96021626776" sparseCutoff="1.0000000000000000"/>
      <sparseX i="94" alpha="63460.942846580656" sparseCutoff="1.0000000000000000"/>
      <sparseX i="95" alpha="99471.392480618306" sparseCutoff="1.0000000000000000"/>
      <sparseX i="96" alpha="-15862.962709150137" sparseCutoff="1.0000000000000000"/>
      <sparseX i="97" alpha="11196.130727837393" sparseCutoff="1.0000000000000000"/>
      <sparseX i="98" alpha="-41663.973448856894" sparseCutoff="1.0000000000000000"/>
      <sparseX i="99" alpha="7917.0362512178881" sparseCutoff="1.0000000000000000"/>
      <sparseX i="100" alpha="-36304.919977136531" sparseCutoff="1.0000000000000000"/>
      <sparseX i="101" alpha="5843.6188282311959" sparseCutoff="1.0000000000000000"/>
      <sparseX i="102" alpha="-30788.061326972620" sparseCutoff="1.0000000000000000"/>
      <sparseX i="103" alpha="6795.0124855918366" sparseCutoff="1.0000000000000000"/>
      <sparseX i="104" alpha="-19417.261278465830" sparseCutoff="1.0000000000000000"/>
      <sparseX i="105" alpha="-73899.651840229446" sparseCutoff="1.0000000000000000"/>
      <sparseX i="106" alpha="623.83753716843012" sparseCutoff="1.0000000000000000"/>
      <sparseX i="107" alpha="-33889.623182744930" sparseCutoff="1.0000000000000000"/>
      <sparseX i="108" alpha="-10136.491594270075" sparseCutoff="1.0000000000000000"/>
      <sparseX i="109" alpha="-18539.267643765033" sparseCutoff="1.0000000000000000"/>
      <sparseX i="110" alpha="638.23146891257136" sparseCutoff="1.0000000000000000"/>
      <sparseX i="111" alpha="-31301.382762033365" sparseCutoff="1.0000000000000000"/>
      <sparseX i="112" alpha="-5934.5404329896310" sparseCutoff="1.0000000000000000"/>
      <sparseX i="113" alpha="881.95316417560844" sparseCutoff="1.0000000000000000"/>
      <sparseX i="114" alpha="-185385.09961612534" sparseCutoff="1.0000000000000000"/>
      <sparseX i="115" alpha="-2911.1852790483772" sparseCutoff="1.0000000000000000"/>
      <sparseX i="116" alpha="559.12637423502770" sparseCutoff="1.0000000000000000"/>
      <sparseX i="117" alpha="12306.490696949844" sparseCutoff="1.0000000000000000"/>
      <sparseX i="118" alpha="1026.4908296613412" sparseCutoff="1.0000000000000000"/>
      <sparseX i="119" alpha="140928.92058546082" sparseCutoff="1.0000000000000000"/>
      <sparseX i="120" alpha="11090.137899043237" sparseCutoff="1.0000000000000000"/>
      <sparseX i="121" alpha="-62707.792840589864" sparseCutoff="1.0000000000000000"/>
      <sparseX i="122" alpha="7189.3219310950280" sparseCutoff="1.0000000000000000"/>
      <sparseX i="123" alpha="-76719.456792082739" sparseCutoff="1.0000000000000000"/>
      <sparseX i="124" alpha="-55919.288776644651" sparseCutoff="1.0000000000000000"/>
      <sparseX i="125" alpha="28493.836306994763" sparseCutoff="1.0000000000000000"/>
      <sparseX i="126" alpha="-107527.32266728226" sparseCutoff="1.0000000000000000"/>
      <sparseX i="127" alpha="175728.35330916659" sparseCutoff="1.0000000000000000"/>
      <sparseX i="128" alpha="18509.887266209767" sparseCutoff="1.0000000000000000"/>
      <sparseX i="129" alpha="9654.9292313170699" sparseCutoff="1.0000000000000000"/>
      <sparseX i="130" alpha="-30271.659445705089" sparseCutoff="1.0000000000000000"/>
      <sparseX i="131" alpha="37530.317522148835" sparseCutoff="1.0000000000000000"/>
      <sparseX i="132" alpha="-14622.621106785165" sparseCutoff="1.0000000000000000"/>
      <sparseX i="133" alpha="9970.2106004312118" sparseCutoff="1.0000000000000000"/>
      <sparseX i="134" alpha="22773.097984694272" sparseCutoff="1.0000000000000000"/>
      <sparseX i="135" alpha="-24587.012842813001" sparseCutoff="1.0000000000000000"/>
      <sparseX i="136" alpha="-6598.5545886750842" sparseCutoff="1.0000000000000000"/>
      <sparseX i="137" alpha="-2901.1328322273143" sparseCutoff="1.0000000000000000"/>
      <sparseX i="138" alpha="-17718.125828514825" sparseCutoff="1.0000000000000000"/>
      <sparseX i="139" alpha="-11588.269580280692" sparseCutoff="1.0000000000000000"/>
      <sparseX i="140" alpha="-79728.384880966143" sparseCutoff="1.0000000000000000"/>
      <sparseX i="141" alpha="-7287.3619451681898" sparseCutoff="1.0000000000000000"/>
      <sparseX i="142" alpha="21426.131131965059" sparseCutoff="1.0000000000000000"/>
      <sparseX i="143" alpha="-13311.934780405163" sparseCutoff="1.0000000000000000"/>
      <sparseX i="144" alpha="-5168.1772614559586" sparseCutoff="1.0000000000000000"/>
      <sparseX i="145" alpha="12557.769497990384" sparseCutoff="1.0000000000000000"/>
      <sparseX i="146" alpha="-3623.8554135369623" sparseCutoff="1.0000000000000000"/>
      <sparseX i="147" alpha="-8591.9499511361500" sparseCutoff="1.0000000000000000"/>
      <sparseX i="148" alpha="-96097.871059086261" sparseCutoff="1.0000000000000000"/>
      <sparseX i="149" alpha="4445.7556076502979" sparseCutoff="1.0000000000000000"/>
      <sparseX i="150" alpha="10465.183832024049" sparseCutoff="1.0000000000000000"/>
      <sparseX i="151" alpha="7114.6440631797623" sparseCutoff="1.0000000000000000"/>
      <sparseX i="152" alpha="-11725.258679114371" sparseCutoff="1.0000000000000000"/>
      <sparseX i="153" alpha="-53509.252595880032" sparseCutoff="1.0000000000000000"/>
      <sparseX i="154" alpha="18620.507394429536" sparseCutoff="1.0000000000000000"/>
      <sparseX i="155" alpha="4737.3400570821168" sparseCutoff="1.0000000000000000"/>
      <sparseX i="156" alpha="1382.1550368490903" sparseCutoff="1.0000000000000000"/>
      <sparseX i="157" alpha="-77811.732450599447" sparseCutoff="1.0000000000000000"/>
      <sparseX i="158" alpha="1455.1216993646528" sparseCutoff="1.0000000000000000"/>
      <sparseX i="159" alpha="-14536.151921158009" sparseCutoff="1.0000000000000000"/>
      <sparseX i="160" alpha="29100.132050857967" sparseCutoff="1.0000000000000000"/>
      <sparseX i="161" alpha="5239.6132212346547" sparseCutoff="1.0000000000000000"/>
      <sparseX i="162" alpha="30227.960704452624" sparseCutoff="1.0000000000000000"/>
      <sparseX i="163" alpha="-57407.247425956142" sparseCutoff="1.0000000000000000"/>
      <sparseX i="164" alpha="7033.4396095707307" sparseCutoff="1.0000000000000000"/>
      <sparseX i="165" alpha="-135349.52633387531" sparseCutoff="1.0000000000000000"/>
      <sparseX i="166" alpha="-54015.937398265851" sparseCutoff="1.0000000000000000"/>
      <sparseX i="167" alpha="-43431.769986707404" sparseCutoff="1.0000000000000000"/>
      <sparseX i="168" alpha="32504.522163314145" sparseCutoff="1.0000000000000000"/>
      <sparseX i="169" alpha="-9412.9099842706692" sparseCutoff="1.0000000000000000"/>
      <sparseX i="170" alpha="-242666.08626265134" sparseCutoff="1.0000000000000000"/>
      <sparseX i="171" alpha="-5827.1122673820137" sparseCutoff="1.0000000000000000"/>
      <sparseX i="172" alpha="40064.018979591223" sparseCutoff="1.0000000000000000"/>
      <sparseX i="173" alpha="9880.1640473417119" sparseCutoff="1.0000000000000000"/>
      <sparseX i="174" alpha="132057.44760453334" sparseCutoff="1.0000000000000000"/>
      <sparseX i="175" alpha="-11419.838922413534" sparseCutoff="1.0000000000000000"/>
      <sparseX i="176" alpha="-31163.259053658396" sparseCutoff="1.0000000000000000"/>
      <sparseX i="177" alpha="-20340.983443915975" sparseCutoff="1.0000000000000000"/>
      <sparseX i="178" alpha="-13001.634776068970" sparseCutoff="1.0000000000000000"/>
      <sparseX i="179" alpha="20236.522532539431" sparseCutoff="1.0000000000000000"/>
      <sparseX i="180" alpha="5682.0677201062272" sparseCutoff="1.0000000000000000"/>
      <sparseX i="181" alpha="5532.4266280548372" sparseCutoff="1.0000000000000000"/>
      <sparseX i="182" alpha="-90955.116007646691" sparseCutoff="1.0000000000000000"/>
      <sparseX i="183" alpha="57020.570382425874" sparseCutoff="1.0000000000000000"/>
      <sparseX i="184" alpha="-16243.042098728834" sparseCutoff="1.0000000000000000"/>
      <sparseX i="185" alpha="-37082.252100516627" sparseCutoff="1.0000000000000000"/>
      <sparseX i="186" alpha="-5018.7546494159196" sparseCutoff="1.0000000000000000"/>
      <sparseX i="187" alpha="17016.813820360701" sparseCutoff="1.0000000000000000"/>
      <sparseX i="188" alpha="9916.0168813547807" sparseCutoff="1.0000000000000000"/>
      <sparseX i="189" alpha="48542.520320735530" sparseCutoff="1.0000000000000000"/>
      <sparseX i="190" alpha="48895.887876579727" sparseCutoff="1.0000000000000000"/>
      <sparseX i="191" alpha="5378.6889632998500" sparseCutoff="1.0000000000000000"/>
      <sparseX i="192" alpha="49929.679889181221" sparseCutoff="1.0000000000000000"/>
      <sparseX i="193" alpha="-145205.05526527602" sparseCutoff="1.0000000000000000"/>
      <sparseX i="194" alpha="-7790.6176756369105" sparseCutoff="1.0000000000000000"/>
      <sparseX i="195" alpha="-112864.31648631119" sparseCutoff="1.0000000000000000"/>
      <sparseX i="196" alpha="-1710.1117796324479" sparseCutoff="1.0000000000000000"/>
      <sparseX i="197" alpha="-465.08744039034957" sparseCutoff="1.0000000000000000"/>
      <sparseX i="198" alpha="448.16159142143357" sparseCutoff="1.0000000000000000"/>
      <sparseX i="199" alpha="-15433.955404794950" sparseCutoff="1.0000000000000000"/>
      <sparseX i="200" alpha="-38917.391015780573" sparseCutoff="1.0000000000000000"/>
      <sparseX i="201" alpha="-21019.901241651030" sparseCutoff="1.0000000000000000"/>
      <sparseX i="202" alpha="16162.199226823308" sparseCutoff="1.0000000000000000"/>
      <sparseX i="203" alpha="12956.893884957981" sparseCutoff="1.0000000000000000"/>
      <sparseX i="204" alpha="-9314.6950835448133" sparseCutoff="1.0000000000000000"/>
      <sparseX i="205" alpha="37516.901259763159" sparseCutoff="1.0000000000000000"/>
      <sparseX i="206" alpha="46701.134173760191" sparseCutoff="1.0000000000000000"/>
      <sparseX i="207" alpha="-1840.7263903115163" sparseCutoff="1.0000000000000000"/>
      <sparseX i="208" alpha="-19021.242837625661" sparseCutoff="1.0000000000000000"/>
      <sparseX i="209" alpha="-10402.961691373084" sparseCutoff="1.0000000000000000"/>
      <sparseX i="210" alpha="11215.268527601555" sparseCutoff="1.0000000000000000"/>
      <sparseX i="211" alpha="48350.637018641180" sparseCutoff="1.0000000000000000"/>
      <sparseX i="212" alpha="99427.847973018477" sparseCutoff="1.0000000000000000"/>
      <sparseX i="213" alpha="-41257.430092365976" sparseCutoff="1.0000000000000000"/>
      <sparseX i="214" alpha="-9707.6318175361484" sparseCutoff="1.0000000000000000"/>
      <sparseX i="215" alpha="-101691.71912616260" sparseCutoff="1.0000000000000000"/>
      <sparseX i="216" alpha="224470.68489833450" sparseCutoff="1.0000000000000000"/>
      <sparseX i="217" alpha="44411.835087633626" sparseCutoff="1.0000000000000000"/>
      <sparseX i="218" alpha="-8944.0751001008248" sparseCutoff="1.0000000000000000"/>
      <sparseX i="219" alpha="40764.176274923186" sparseCutoff="1.0000000000000000"/>
      <sparseX i="220" alpha="-10958.552430867332" sparseCutoff="1.0000000000000000"/>
      <sparseX i="221" alpha="-25491.014822836471" sparseCutoff="1.0000000000000000"/>
      <sparseX i="222" alpha="-16436.301357427721" sparseCutoff="1.0000000000000000"/>
      <sparseX i="223" alpha="-2234.2285441661493" sparseCutoff="1.0000000000000000"/>
      <sparseX i="224" alpha="1112.8559501418954" sparseCutoff="1.0000000000000000"/>
      <sparseX i="225" alpha="15458.928071650025" sparseCutoff="1.0000000000000000"/>
      <sparseX i="226" alpha="62611.529851531806" sparseCutoff="1.0000000000000000"/>
      <sparseX i="227" alpha="-1221.2653477008105" sparseCutoff="1.0000000000000000"/>
      <sparseX i="228" alpha="-75082.342662272524" sparseCutoff="1.0000000000000000"/>
      <sparseX i="229" alpha="-7125.3498616991228" sparseCutoff="1.0000000000000000"/>
      <sparseX i="230" alpha="-574.52895120347387" sparseCutoff="1.0000000000000000"/>
      <sparseX i="231" alpha="68956.495130904834" sparseCutoff="1.0000000000000000"/>
      <sparseX i="232" alpha="-21964.752406680658" sparseCutoff="1.0000000000000000"/>
      <sparseX i="233" alpha="-34444.557392607239" sparseCutoff="1.0000000000000000"/>
      <sparseX i="234" alpha="-988.75524856914183" sparseCutoff="1.0000000000000000"/>
      <sparseX i="235" alpha="7224.5559690506916" sparseCutoff="1.0000000000000000"/>
      <sparseX i="236" alpha="-5054.6127248189632" sparseCutoff="1.0000000000000000"/>
      <sparseX i="237" alpha="49413.457854854802" sparseCutoff="1.0000000000000000"/>
      <sparseX i="238" alpha="-62823.654820329699" sparseCutoff="1.0000000000000000"/>
      <sparseX i="239" alpha="-9679.0585074933952" sparseCutoff="1.0000000000000000"/>
      <sparseX i="240" alpha="-8895.8460047171775" sparseCutoff="1.0000000000000000"/>
      <sparseX i="241" alpha="1620.0804496484500" sparseCutoff="1.0000000000000000"/>
      <sparseX i="242" alpha="-1792.0015104083170" sparseCutoff="1.0000000000000000"/>
      <sparseX i="243" alpha="-3818.0352307444559" sparseCutoff="1.0000000000000000"/>
      <sparseX i="244" alpha="-235193.57774200218" sparseCutoff="1.0000000000000000"/>
      <sparseX i="245" alpha="-11693.320105613104" sparseCutoff="1.0000000000000000"/>
      <sparseX i="246" alpha="12409.759761712263" sparseCutoff="1.0000000000000000"/>
      <sparseX i="247" alpha="-119185.68251312101" sparseCutoff="1.0000000000000000"/>
      <sparseX i="248" alpha="10156.408504204233" sparseCutoff="1.0000000000000000"/>
      <sparseX i="249" alpha="-95193.489648911389" sparseCutoff="1.0000000000000000"/>
      <sparseX i="250" alpha="38619.204645772945" sparseCutoff="1.0000000000000000"/>
      <sparseX i="251" alpha="130850.30228519942" sparseCutoff="1.0000000000000000"/>
      <sparseX i="252" alpha="1013.0064924532040" sparseCutoff="1.0000000000000000"/>
      <sparseX i="253" alpha="-421760.02178902377" sparseCutoff="1.0000000000000000"/>
      <sparseX i="254" alpha="11910.865195422062" sparseCutoff="1.0000000000000000"/>
      <sparseX i="255" alpha="136896.18229460958" sparseCutoff="1.0000000000000000"/>
      <sparseX i="256" alpha="2678.6775734564762" sparseCutoff="1.0000000000000000"/>
      <sparseX i="257" alpha="3900.0213333946244" sparseCutoff="1.0000000000000000"/>
      <sparseX i="258" alpha="3919.8555366803866" sparseCutoff="1.0000000000000000"/>
      <sparseX i="259" alpha="-5998.5511800175300" sparseCutoff="1.0000000000000000"/>
      <sparseX i="260" alpha="-29401.877259716832" sparseCutoff="1.0000000000000000"/>
      <sparseX i="261" alpha="-19390.725351833386" sparseCutoff="1.0000000000000000"/>
      <sparseX i="262" alpha="25964.237494919766" sparseCutoff="1.0000000000000000"/>
      <sparseX i="263" alpha="-210147.16965787468" sparseCutoff="1.0000000000000000"/>
      <sparseX i="264" alpha="14460.041246240031" sparseCutoff="1.0000000000000000"/>
      <sparseX i="265" alpha="47663.723744534582" sparseCutoff="1.0000000000000000"/>
      <sparseX i="266" alpha="-21047.043603628979" sparseCutoff="1.0000000000000000"/>
      <sparseX i="267" alpha="11976.080909402513" sparseCutoff="1.0000000000000000"/>
      <sparseX i="268" alpha="-5631.7700660890505" sparseCutoff="1.0000000000000000"/>
      <sparseX i="269" alpha="-36655.790007456220" sparseCutoff="1.0000000000000000"/>
      <sparseX i="270" alpha="33615.221873102666" sparseCutoff="1.0000000000000000"/>
      <sparseX i="271" alpha="27865.332408338527" sparseCutoff="1.0000000000000000"/>
      <sparseX i="272" alpha="13757.448042324288" sparseCutoff="1.0000000000000000"/>
      <sparseX i="273" alpha="-2390.1017147022417" sparseCutoff="1.0000000000000000"/>
      <sparseX i="274" alpha="2195.7135955722329" sparseCutoff="1.0000000000000000"/>
      <sparseX i="275" alpha="-2604.1587595544961" sparseCutoff="1.0000000000000000"/>
      <sparseX i="276" alpha="2647.2726918197377" sparseCutoff="1.0000000000000000"/>
      <sparseX i="277" alpha="-8522.6762954696187" sparseCutoff="1.0000000000000000"/>
      <sparseX i="278" alpha="16645.336039240206" sparseCutoff="1.0000000000000000"/>
      <sparseX i="279" alpha="-326052.52014672849" sparseCutoff="1.0000000000000000"/>
      <sparseX i="280" alpha="8127.2877700707386" sparseCutoff="1.0000000000000000"/>
      <sparseX i="281" alpha="32055.105199463793" sparseCutoff="1.0000000000000000"/>
      <sparseX i="282" alpha="28394.591296400216" sparseCutoff="1.0000000000000000"/>
      <sparseX i="283" alpha="89682.191872877098" sparseCutoff="1.0000000000000000"/>
      <sparseX i="284" alpha="3360.5166156325172" sparseCutoff="1.0000000000000000"/>
      <sparseX i="285" alpha="-6287.5380360049548" sparseCutoff="1.0000000000000000"/>
      <sparseX i="286" alpha="-108262.98285532570" sparseCutoff="1.0000000000000000"/>
      <sparseX i="287" alpha="1637.3144662909594" sparseCutoff="1.0000000000000000"/>
      <sparseX i="288" alpha="-12336.520952083743" sparseCutoff="1.0000000000000000"/>
      <sparseX i="289" alpha="205979.81469407576" sparseCutoff="1.0000000000000000"/>
      <sparseX i="290" alpha="-171287.84409243701" sparseCutoff="1.0000000000000000"/>
      <sparseX i="291" alpha="74897.957356854939" sparseCutoff="1.0000000000000000"/>
      <sparseX i="292" alpha="10985.787648640731" sparseCutoff="1.0000000000000000"/>
      <sparseX i="293" alpha="-42279.893492217670" sparseCutoff="1.0000000000000000"/>
      <sparseX i="294" alpha="-22253.160880255517" sparseCutoff="1.0000000000000000"/>
      <sparseX i="295" alpha="-6166.3042678028605" sparseCutoff="1.0000000000000000"/>
      <sparseX i="296" alpha="-32815.246815748236" sparseCutoff="1.0000000000000000"/>
      <sparseX i="297" alpha="-13234.271590080167" sparseCutoff="1.0000000000000000"/>
      <sparseX i="298" alpha="-151373.30958267601" sparseCutoff="1.0000000000000000"/>
      <sparseX i="299" alpha="-45068.852472671657" sparseCutoff="1.0000000000000000"/>
      <sparseX i="300" alpha="-80891.386120312221" sparseCutoff="1.0000000000000000"/>
      <sparseX i="301" alpha="-3125.4716853005034" sparseCutoff="1.0000000000000000"/>
      <sparseX i="302" alpha="10139.391240339824" sparseCutoff="1.0000000000000000"/>
      <sparseX i="303" alpha="6785.0082840246405" sparseCutoff="1.0000000000000000"/>
      <sparseX i="304" alpha="7578.7259151204007" sparseCutoff="1.0000000000000000"/>
      <sparseX i="305" alpha="4809.5166037022118" sparseCutoff="1.0000000000000000"/>
      <sparseX i="306" alpha="51877.415804293545" sparseCutoff="1.0000000000000000"/>
      <sparseX i="307" alpha="-3377.6651946913244" sparseCutoff="1.0000000000000000"/>
      <sparseX i="308" alpha="-28703.556982259212" sparseCutoff="1.0000000000000000"/>
      <sparseX i="309" alpha="8413.0738066462272" sparseCutoff="1.0000000000000000"/>
      <sparseX i="310" alpha="564.41366535125917" sparseCutoff="1.0000000000000000"/>
      <sparseX i="311" alpha="6121.9939723540292" sparseCutoff="1.0000000000000000"/>
      <sparseX i="312" alpha="-16264.970442951997" sparseCutoff="1.0000000000000000"/>
      <sparseX i="313" alpha="-1564.7988985272912" sparseCutoff="1.0000000000000000"/>
      <sparseX i="314" alpha="-3643.1782618640482" sparseCutoff="1.0000000000000000"/>
      <sparseX i="315" alpha="-8510.9643490765557" sparseCutoff="1.0000000000000000"/>
      <sparseX i="316" alpha="41461.286737192153" sparseCutoff="1.0000000000000000"/>
      <sparseX i="317" alpha="55536.591233527026" sparseCutoff="1.0000000000000000"/>
      <sparseX i="318" alpha="-1514.5376368608422" sparseCutoff="1.0000000000000000"/>
      <sparseX i="319" alpha="-117571.61252302107" sparseCutoff="1.0000000000000000"/>
      <sparseX i="320" alpha="-39262.566139767907" sparseCutoff="1.0000000000000000"/>
      <sparseX i="321" alpha="49106.809942780892" sparseCutoff="1.0000000000000000"/>
      <sparseX i="322" alpha="-3568.4935906543869" sparseCutoff="1.0000000000000000"/>
      <sparseX i="323" alpha="-25751.871111046632" sparseCutoff="1.0000000000000000"/>
      <sparseX i="324" alpha="55507.092086605007" sparseCutoff="1.0000000000000000"/>
      <sparseX i="325" alpha="-9918.2755661329757" sparseCutoff="1.0000000000000000"/>
      <sparseX i="326" alpha="-97123.298055780033" sparseCutoff="1.0000000000000000"/>
      <sparseX i="327" alpha="-118598.52401226042" sparseCutoff="1.0000000000000000"/>
      <sparseX i="328" alpha="22540.736416581232" sparseCutoff="1.0000000000000000"/>
      <sparseX i="329" alpha="-42093.431173857760" sparseCutoff="1.0000000000000000"/>
      <sparseX i="330" alpha="-47468.126429663120" sparseCutoff="1.0000000000000000"/>
      <sparseX i="331" alpha="-10620.989129628420" sparseCutoff="1.0000000000000000"/>
      <sparseX i="332" alpha="328.74909714829215" sparseCutoff="1.0000000000000000"/>
      <sparseX i="333" alpha="3494.9165045179993" sparseCutoff="1.0000000000000000"/>
