<GAP_2026_3_22_0_20_43_31_374>
<Potential label="GAP_2026_3_22_0_20_43_31_374" init_args="Sum init_args_pot1={IP Glue} init_args_pot2={IP GAP label=GAP_2026_3_22_0_20_43_31_374}"/>
<pairpot>
<Potential label="pairpot" init_args="IP Glue"/>
<Glue_params n_types="2">
 <per_type_data atomic_num="6" type="1">
  <!-- C, Z: 6, many-body data ==> zero energy for pair potential! -->
  <density num_points="10" density_y1="0.0" density_yn="0.0">
   <point a="0.5" rho="0.2"/>
   <point a="1.0" rho="0.2"/>
   <point a="1.5" rho="0.2"/>
   <point a="2.0" rho="0.2"/>
   <point a="2.5" rho="0.2"/>
   <point a="3.0" rho="0.2"/>
   <point a="3.5" rho="0.2"/>
   <point a="4.0" rho="0.2"/>
   <point a="4.5" rho="0.2"/>
   <point a="5.0" rho="0.2"/>
  </density>
  <potential_density num_points="10">
   <point rho="0.05" E="0.0"/>
   <point rho="0.1111111111111111" E="0.0"/>
   <point rho="0.2222222222222222" E="0.0"/>
   <point rho="0.3333333333333333" E="0.0"/>
   <point rho="0.4444444444444444" E="0.0"/>
   <point rho="0.5555555555555556" E="0.0"/>
   <point rho="0.6666666666666666" E="0.0"/>
   <point rho="0.7777777777777777" E="0.0"/>
   <point rho="0.8888888888888888" E="0.0"/>
   <point rho="1.45" E="0.0"/>
  </potential_density>
 </per_type_data>
 <per_type_data atomic_num="1" type="2">
 <!-- H, Z: 1, many-body data ==> zero energy for pair potential! -->
  <density num_points="10" density_y1="0.0" density_yn="0.0">
   <point a="0.5" rho="0.2"/>
   <point a="1.0" rho="0.2"/>
   <point a="1.5" rho="0.2"/>
   <point a="2.0" rho="0.2"/>
   <point a="2.5" rho="0.2"/>
   <point a="3.0" rho="0.2"/>
   <point a="3.5" rho="0.2"/>
   <point a="4.0" rho="0.2"/>
   <point a="4.5" rho="0.2"/>
   <point a="5.0" rho="0.2"/>
  </density>
  <potential_density num_points="10">
   <point rho="0.0" E="0.0"/>
   <point rho="0.1111111111111111" E="0.0"/>
   <point rho="0.2222222222222222" E="0.0"/>
   <point rho="0.3333333333333333" E="0.0"/>
   <point rho="0.4444444444444444" E="0.0"/>
   <point rho="0.5555555555555556" E="0.0"/>
   <point rho="0.6666666666666666" E="0.0"/>
   <point rho="0.7777777777777777" E="0.0"/>
   <point rho="0.8888888888888888" E="0.0"/>
   <point rho="1.0" E="0.0"/>
  </potential_density>
 </per_type_data>
 <per_pair_data type1="1" type2="1">
  <!-- C-C, Z: 6-6 pair potential -->
  <potential_pair num_points="20" y1="1.e50" yn="0.0">
   <point r="0.0500000000000000" E="4097.5273797199997716"/>
   <point r="0.1000000000000000" E="1802.0416522600000917"/>
   <point r="0.1500000000000000" E="1047.6126364199999443"/>
   <point r="0.2000000000000000" E="681.3707098200000019"/>
   <point r="0.2500000000000000" E="471.5381923200000074"/>
   <point r="0.3000000000000000" E="339.5867137999999841"/>
   <point r="0.3500000000000000" E="251.2275732600000140"/>
   <point r="0.4000000000000000" E="189.3839592699999912"/>
   <point r="0.4500000000000000" E="144.6652514900000028"/>
   <point r="0.5000000000000000" E="111.2889775600000064"/>
   <point r="0.5500000000000000" E="85.3296315200000066"/>
   <point r="0.6000000000000000" E="64.2335172800000009"/>
   <point r="0.6500000000000000" E="46.8073881199999988"/>
   <point r="0.7000000000000000" E="32.6309588599999998"/>
   <point r="0.7500000000000000" E="21.4372415600000004"/>
   <point r="0.8000000000000000" E="12.8230688599999993"/>
   <point r="0.8500000000000000" E="6.2793650599999999"/>
   <point r="0.9000000000000000" E="1.3882432099999999"/>
   <point r="0.9500000000000000" E="0.0000000000000000"/>
   <point r="1.0000000000000000" E="0.0000000000000000"/>
  </potential_pair>
 </per_pair_data>
 <per_pair_data type1="1" type2="2">
  <!-- C-H, Z: 6-1 pair potential -->
  <potential_pair num_points="15" y1="1.e50" yn="0.0">
   <point r="0.0500000000000000" E="1052.2585962699999982"/>
   <point r="0.1000000000000000" E="475.4464298099999837"/>
   <point r="0.1500000000000000" E="282.1414125499999841"/>
   <point r="0.2000000000000000" E="184.7480703100000028"/>
   <point r="0.2500000000000000" E="126.2436170499999974"/>
   <point r="0.3000000000000000" E="87.7791358099999997"/>
   <point r="0.3500000000000000" E="61.2807841600000032"/>
   <point r="0.4000000000000000" E="42.5951627299999984"/>
   <point r="0.4500000000000000" E="29.2490216600000004"/>
   <point r="0.5000000000000000" E="19.6228390700000013"/>
   <point r="0.5500000000000000" E="12.6151876900000008"/>
   <point r="0.6000000000000000" E="7.4734250400000004"/>
   <point r="0.6500000000000000" E="3.6821937800000000"/>
   <point r="0.7000000000000000" E="0.0000000000000000"/>
   <point r="0.7500000000000000" E="0.0000000000000000"/>
  </potential_pair>
 </per_pair_data>
 <per_pair_data type1="2" type2="2">
  <!-- H-H, Z: 1-1 pair potential -->
  <potential_pair num_points="9" y1="1.e50" yn="0.0">
   <point r="0.0500000000000000" E="238.9493954499999973"/>
   <point r="0.1000000000000000" E="95.7360375500000060"/>
   <point r="0.1500000000000000" E="48.9823011100000016"/>
   <point r="0.2000000000000000" E="26.6019543300000016"/>
   <point r="0.2500000000000000" E="14.0858091000000005"/>
   <point r="0.3000000000000000" E="6.5175642099999997"/>
   <point r="0.3500000000000000" E="1.7351753500000000"/>
   <point r="0.4000000000000000" E="0.0000000000000000"/>
   <point r="0.4500000000000000" E="0.0000000000000000"/>
  </potential_pair>
 </per_pair_data>
</Glue_params>
</pairpot>
<GAP_params label="GAP_2026_3_22_0_20_43_31_374" gap_version="1759661564">
  <GAP_data do_core="T">
    <e0 Z="1" value=".00000000000000000E+000"/>
    <e0 Z="2" value=".00000000000000000E+000"/>
    <e0 Z="3" value=".00000000000000000E+000"/>
    <e0 Z="4" value=".00000000000000000E+000"/>
    <e0 Z="5" value=".00000000000000000E+000"/>
    <e0 Z="6" value=".00000000000000000E+000"/>
    <e0 Z="7" value=".00000000000000000E+000"/>
    <e0 Z="8" value=".00000000000000000E+000"/>
    <e0 Z="9" value=".00000000000000000E+000"/>
    <e0 Z="10" value=".00000000000000000E+000"/>
    <e0 Z="11" value=".00000000000000000E+000"/>
    <e0 Z="12" value=".00000000000000000E+000"/>
    <e0 Z="13" value=".00000000000000000E+000"/>
    <e0 Z="14" value=".00000000000000000E+000"/>
    <e0 Z="15" value=".00000000000000000E+000"/>
    <e0 Z="16" value=".00000000000000000E+000"/>
    <e0 Z="17" value=".00000000000000000E+000"/>
    <e0 Z="18" value=".00000000000000000E+000"/>
    <e0 Z="19" value=".00000000000000000E+000"/>
    <e0 Z="20" value=".00000000000000000E+000"/>
    <e0 Z="21" value=".00000000000000000E+000"/>
    <e0 Z="22" value=".00000000000000000E+000"/>
    <e0 Z="23" value=".00000000000000000E+000"/>
    <e0 Z="24" value=".00000000000000000E+000"/>
    <e0 Z="25" value=".00000000000000000E+000"/>
    <e0 Z="26" value=".00000000000000000E+000"/>
    <e0 Z="27" value=".00000000000000000E+000"/>
    <e0 Z="28" value=".00000000000000000E+000"/>
    <e0 Z="29" value=".00000000000000000E+000"/>
    <e0 Z="30" value=".00000000000000000E+000"/>
    <e0 Z="31" value=".00000000000000000E+000"/>
    <e0 Z="32" value=".00000000000000000E+000"/>
    <e0 Z="33" value=".00000000000000000E+000"/>
    <e0 Z="34" value=".00000000000000000E+000"/>
    <e0 Z="35" value=".00000000000000000E+000"/>
    <e0 Z="36" value=".00000000000000000E+000"/>
    <e0 Z="37" value=".00000000000000000E+000"/>
    <e0 Z="38" value=".00000000000000000E+000"/>
    <e0 Z="39" value=".00000000000000000E+000"/>
    <e0 Z="40" value=".00000000000000000E+000"/>
    <e0 Z="41" value=".00000000000000000E+000"/>
    <e0 Z="42" value=".00000000000000000E+000"/>
    <e0 Z="43" value=".00000000000000000E+000"/>
    <e0 Z="44" value=".00000000000000000E+000"/>
    <e0 Z="45" value=".00000000000000000E+000"/>
    <e0 Z="46" value=".00000000000000000E+000"/>
    <e0 Z="47" value=".00000000000000000E+000"/>
    <e0 Z="48" value=".00000000000000000E+000"/>
    <e0 Z="49" value=".00000000000000000E+000"/>
    <e0 Z="50" value=".00000000000000000E+000"/>
    <e0 Z="51" value=".00000000000000000E+000"/>
    <e0 Z="52" value=".00000000000000000E+000"/>
    <e0 Z="53" value=".00000000000000000E+000"/>
    <e0 Z="54" value=".00000000000000000E+000"/>
    <e0 Z="55" value=".00000000000000000E+000"/>
    <e0 Z="56" value=".00000000000000000E+000"/>
    <e0 Z="57" value=".00000000000000000E+000"/>
    <e0 Z="58" value=".00000000000000000E+000"/>
    <e0 Z="59" value=".00000000000000000E+000"/>
    <e0 Z="60" value=".00000000000000000E+000"/>
    <e0 Z="61" value=".00000000000000000E+000"/>
    <e0 Z="62" value=".00000000000000000E+000"/>
    <e0 Z="63" value=".00000000000000000E+000"/>
    <e0 Z="64" value=".00000000000000000E+000"/>
    <e0 Z="65" value=".00000000000000000E+000"/>
    <e0 Z="66" value=".00000000000000000E+000"/>
    <e0 Z="67" value=".00000000000000000E+000"/>
    <e0 Z="68" value=".00000000000000000E+000"/>
    <e0 Z="69" value=".00000000000000000E+000"/>
    <e0 Z="70" value=".00000000000000000E+000"/>
    <e0 Z="71" value=".00000000000000000E+000"/>
    <e0 Z="72" value=".00000000000000000E+000"/>
    <e0 Z="73" value=".00000000000000000E+000"/>
    <e0 Z="74" value=".00000000000000000E+000"/>
    <e0 Z="75" value=".00000000000000000E+000"/>
    <e0 Z="76" value=".00000000000000000E+000"/>
    <e0 Z="77" value=".00000000000000000E+000"/>
    <e0 Z="78" value=".00000000000000000E+000"/>
    <e0 Z="79" value=".00000000000000000E+000"/>
    <e0 Z="80" value=".00000000000000000E+000"/>
    <e0 Z="81" value=".00000000000000000E+000"/>
    <e0 Z="82" value=".00000000000000000E+000"/>
    <e0 Z="83" value=".00000000000000000E+000"/>
    <e0 Z="84" value=".00000000000000000E+000"/>
    <e0 Z="85" value=".00000000000000000E+000"/>
    <e0 Z="86" value=".00000000000000000E+000"/>
    <e0 Z="87" value=".00000000000000000E+000"/>
    <e0 Z="88" value=".00000000000000000E+000"/>
    <e0 Z="89" value=".00000000000000000E+000"/>
    <e0 Z="90" value=".00000000000000000E+000"/>
    <e0 Z="91" value=".00000000000000000E+000"/>
    <e0 Z="92" value=".00000000000000000E+000"/>
    <e0 Z="93" value=".00000000000000000E+000"/>
    <e0 Z="94" value=".00000000000000000E+000"/>
    <e0 Z="95" value=".00000000000000000E+000"/>
    <e0 Z="96" value=".00000000000000000E+000"/>
    <e0 Z="97" value=".00000000000000000E+000"/>
    <e0 Z="98" value=".00000000000000000E+000"/>
    <e0 Z="99" value=".00000000000000000E+000"/>
    <e0 Z="100" value=".00000000000000000E+000"/>
    <e0 Z="101" value=".00000000000000000E+000"/>
    <e0 Z="102" value=".00000000000000000E+000"/>
    <e0 Z="103" value=".00000000000000000E+000"/>
    <e0 Z="104" value=".00000000000000000E+000"/>
    <e0 Z="105" value=".00000000000000000E+000"/>
    <e0 Z="106" value=".00000000000000000E+000"/>
    <e0 Z="107" value=".00000000000000000E+000"/>
    <e0 Z="108" value=".00000000000000000E+000"/>
    <e0 Z="109" value=".00000000000000000E+000"/>
    <e0 Z="110" value=".00000000000000000E+000"/>
    <e0 Z="111" value=".00000000000000000E+000"/>
    <e0 Z="112" value=".00000000000000000E+000"/>
    <e0 Z="113" value=".00000000000000000E+000"/>
    <e0 Z="114" value=".00000000000000000E+000"/>
    <e0 Z="115" value=".00000000000000000E+000"/>
    <e0 Z="116" value=".00000000000000000E+000"/>
    <e0 Z="117" value=".00000000000000000E+000"/>
    <e0 Z="118" value=".00000000000000000E+000"/>
  </GAP_data>
  <gpSparse label="GAP_2026_3_22_0_20_43_31_374" n_coordinate="8" fitted="T">
    <gpCoordinates label="GAP_2026_3_22_0_20_43_31_3741" dimensions="1" signal_variance=".50000000000000000" signal_mean=".00000000000000000E+000" sparsified="T" n_permutations="1" covariance_type="1" n_sparseX="20" sparseX_filename="CH.xml.sparseX.GAP_2026_3_22_0_20_43_31_3741" sparseX_md5sum="52d5061d55bb2ca2791e97476478969b">
      <theta>  0.50000000000000000E+000 </theta>
      <descriptor> distance_2b Z1=1 Z2=1 cutoff=4.0 n_sparse=20 covariance_type=ard_se delta=0.5 theta_uniform=0.5 sparse_method=uniform add_species=F</descriptor>
      <permutation i="1">1  </permutation>
      <sparseX i="1" alpha="985282.98879881355" sparseCutoff="1.0000000000000000"/>
      <sparseX i="2" alpha="-312739.85053450003" sparseCutoff="1.0000000000000000"/>
      <sparseX i="3" alpha="380313.66096182721" sparseCutoff="1.0000000000000000"/>
      <sparseX i="4" alpha="-393127.66074498900" sparseCutoff="1.0000000000000000"/>
      <sparseX i="5" alpha="310734.69722108054" sparseCutoff="1.0000000000000000"/>
      <sparseX i="6" alpha="-149601.52986366855" sparseCutoff="1.0000000000000000"/>
      <sparseX i="7" alpha="-38389.222439945879" sparseCutoff="1.0000000000000000"/>
      <sparseX i="8" alpha="195696.32376350503" sparseCutoff="1.0000000000000000"/>
      <sparseX i="9" alpha="-284687.64804440166" sparseCutoff="1.0000000000000000"/>
      <sparseX i="10" alpha="298192.05053672619" sparseCutoff="1.0000000000000000"/>
      <sparseX i="11" alpha="-254488.14747203802" sparseCutoff="1.0000000000000000"/>
      <sparseX i="12" alpha="183447.44448777381" sparseCutoff="1.0000000000000000"/>
      <sparseX i="13" alpha="-112445.36352222215" sparseCutoff="1.0000000000000000"/>
      <sparseX i="14" alpha="57967.410432053744" sparseCutoff="1.0000000000000000"/>
      <sparseX i="15" alpha="-24407.454712342722" sparseCutoff="1.0000000000000000"/>
      <sparseX i="16" alpha="7918.9472286305472" sparseCutoff="1.0000000000000000"/>
      <sparseX i="17" alpha="-1934.3986447575799" sparseCutoff=".90450849718747439"/>
      <sparseX i="18" alpha="525.65909789800048" sparseCutoff=".34549150281252422"/>
      <sparseX i="19" alpha="-848294.37335984479" sparseCutoff="1.0000000000000000"/>
      <sparseX i="20" alpha="52945.675104987306" sparseCutoff=".17174340948633571E-003"/>
    </gpCoordinates>
    <gpCoordinates label="GAP_2026_3_22_0_20_43_31_3742" dimensions="1" signal_variance=".50000000000000000" signal_mean=".00000000000000000E+000" sparsified="T" n_permutations="1" covariance_type="1" n_sparseX="20" sparseX_filename="CH.xml.sparseX.GAP_2026_3_22_0_20_43_31_3742" sparseX_md5sum="82c7a245057b8ddbbedab5c262f84b72">
      <theta>  0.50000000000000000E+000 </theta>
      <descriptor> distance_2b Z1=1 Z2=6 cutoff=4.0 n_sparse=20 covariance_type=ard_se delta=0.5 theta_uniform=0.5 sparse_method=uniform add_species=F</descriptor>
      <permutation i="1">1  </permutation>
      <sparseX i="1" alpha="26665.605164312783" sparseCutoff="1.0000000000000000"/>
      <sparseX i="2" alpha="-129110.73135180584" sparseCutoff="1.0000000000000000"/>
      <sparseX i="3" alpha="195181.54475689295" sparseCutoff="1.0000000000000000"/>
      <sparseX i="4" alpha="-222187.00091155290" sparseCutoff="1.0000000000000000"/>
      <sparseX i="5" alpha="284886.05040613032" sparseCutoff="1.0000000000000000"/>
      <sparseX i="6" alpha="-301093.18403738062" sparseCutoff="1.0000000000000000"/>
      <sparseX i="7" alpha="240113.99146858559" sparseCutoff="1.0000000000000000"/>
      <sparseX i="8" alpha="-111883.05782191144" sparseCutoff="1.0000000000000000"/>
      <sparseX i="9" alpha="-40738.260963622553" sparseCutoff="1.0000000000000000"/>
      <sparseX i="10" alpha="166327.18316713170" sparseCutoff="1.0000000000000000"/>
      <sparseX i="11" alpha="-230219.02004113668" sparseCutoff="1.0000000000000000"/>
      <sparseX i="12" alpha="226905.21969295689" sparseCutoff="1.0000000000000000"/>
      <sparseX i="13" alpha="-176104.23059895082" sparseCutoff="1.0000000000000000"/>
      <sparseX i="14" alpha="108396.41410559881" sparseCutoff="1.0000000000000000"/>
      <sparseX i="15" alpha="-49913.443146439378" sparseCutoff="1.0000000000000000"/>
      <sparseX i="16" alpha="13429.742698831678" sparseCutoff="1.0000000000000000"/>
      <sparseX i="17" alpha="1830.4978671581714" sparseCutoff="1.0000000000000000"/>
      <sparseX i="18" alpha="-4627.4304076349772" sparseCutoff=".90450849718747439"/>
      <sparseX i="19" alpha="6560.3001192153206" sparseCutoff=".34549150281252422"/>
      <sparseX i="20" alpha="-60442.744280903986" sparseCutoff=".94254889855389656E-002"/>
    </gpCoordinates>
    <gpCoordinates label="GAP_2026_3_22_0_20_43_31_3743" dimensions="1" signal_variance=".50000000000000000" signal_mean=".00000000000000000E+000" sparsified="T" n_permutations="1" covariance_type="1" n_sparseX="20" sparseX_filename="CH.xml.sparseX.GAP_2026_3_22_0_20_43_31_3743" sparseX_md5sum="309e88fb66e73284eaa3290cc145c6f5">
      <theta>  0.50000000000000000E+000 </theta>
      <descriptor> distance_2b Z1=6 Z2=6 cutoff=4.0 n_sparse=20 covariance_type=ard_se delta=0.5 theta_uniform=0.5 sparse_method=uniform add_species=F</descriptor>
      <permutation i="1">1  </permutation>
      <sparseX i="1" alpha="-87750.038260710411" sparseCutoff="1.0000000000000000"/>
      <sparseX i="2" alpha="379410.15511449362" sparseCutoff="1.0000000000000000"/>
      <sparseX i="3" alpha="-519081.76407878718" sparseCutoff="1.0000000000000000"/>
      <sparseX i="4" alpha="490963.70479858905" sparseCutoff="1.0000000000000000"/>
      <sparseX i="5" alpha="-509275.98246403970" sparseCutoff="1.0000000000000000"/>
      <sparseX i="6" alpha="386420.30636541994" sparseCutoff="1.0000000000000000"/>
      <sparseX i="7" alpha="-119127.94615562752" sparseCutoff="1.0000000000000000"/>
      <sparseX i="8" alpha="-192038.49686439076" sparseCutoff="1.0000000000000000"/>
      <sparseX i="9" alpha="411218.99205102341" sparseCutoff="1.0000000000000000"/>
      <sparseX i="10" alpha="-448476.26472990739" sparseCutoff="1.0000000000000000"/>
      <sparseX i="11" alpha="303622.05037910433" sparseCutoff="1.0000000000000000"/>
      <sparseX i="12" alpha="-55045.221931681524" sparseCutoff="1.0000000000000000"/>
      <sparseX i="13" alpha="-188764.04512892262" sparseCutoff="1.0000000000000000"/>
      <sparseX i="14" alpha="342374.81377281313" sparseCutoff="1.0000000000000000"/>
      <sparseX i="15" alpha="-374932.61734087911" sparseCutoff="1.0000000000000000"/>
      <sparseX i="16" alpha="310276.41093103186" sparseCutoff="1.0000000000000000"/>
      <sparseX i="17" alpha="-202527.77673349966" sparseCutoff="1.0000000000000000"/>
      <sparseX i="18" alpha="115032.96705665009" sparseCutoff=".90450849718747439"/>
      <sparseX i="19" alpha="-130181.43304877095" sparseCutoff=".34549150281252422"/>
      <sparseX i="20" alpha="225960.41423497751" sparseCutoff=".60658510225121864E-001"/>
    </gpCoordinates>
    <gpCoordinates label="GAP_2026_3_22_0_20_43_31_3744" dimensions="3" signal_variance=".10000000000000000E-001" signal_mean=".00000000000000000E+000" sparsified="T" n_permutations="1" covariance_type="4" n_sparseX="100" sparseX_filename="CH.xml.sparseX.GAP_2026_3_22_0_20_43_31_3744" sparseX_md5sum="ee10530fedd39d85394df6765a0bc6fe">
      <theta>  0.20000000000000000E+001  0.20000000000000000E+001  0.20000000000000000E+001 </theta>
      <descriptor> angle_3b Z_center=6 Z1=1 Z2=1 cutoff=2.0 n_sparse=100 covariance_type=pp delta=0.01 theta_uniform=2.0 sparse_method=uniform add_species=F</descriptor>
      <permutation i="1">1 2 3  </permutation>
      <sparseX i="1" alpha="-170343.61878927980" sparseCutoff=".15452317655841880"/>
      <sparseX i="2" alpha="-1320.9576299094601" sparseCutoff="1.0000000000000000"/>
      <sparseX i="3" alpha="5648.5467061092004" sparseCutoff=".66213703047465511"/>
      <sparseX i="4" alpha="57.388492113482386" sparseCutoff=".31132211544160127E-001"/>
      <sparseX i="5" alpha="9728.3275421034014" sparseCutoff="1.0000000000000000"/>
      <sparseX i="6" alpha="9568.5525589543086" sparseCutoff="1.0000000000000000"/>
      <sparseX i="7" alpha="-42045.076490579071" sparseCutoff=".58399279620482282E-001"/>
      <sparseX i="8" alpha="6138.0653023407513" sparseCutoff=".11635656199694977E-002"/>
      <sparseX i="9" alpha="-1821.8471355778547" sparseCutoff="1.0000000000000000"/>
      <sparseX i="10" alpha="-7241.9098403317576" sparseCutoff="1.0000000000000000"/>
      <sparseX i="11" alpha="-18579.128696861346" sparseCutoff=".40519864262613103"/>
      <sparseX i="12" alpha="18537.614384705954" sparseCutoff="1.0000000000000000"/>
      <sparseX i="13" alpha="29377.291489340649" sparseCutoff="1.0000000000000000"/>
      <sparseX i="14" alpha="-26412.135163736853" sparseCutoff="1.0000000000000000"/>
      <sparseX i="15" alpha="19339.834916446816" sparseCutoff=".89758189774537245"/>
      <sparseX i="16" alpha="-76976.019567149007" sparseCutoff=".92792201736946467E-002"/>
      <sparseX i="17" alpha="11267.481276798164" sparseCutoff=".99991233326607354"/>
      <sparseX i="18" alpha="107652.81290880518" sparseCutoff=".12423044794430420E-001"/>
      <sparseX i="19" alpha="-1904.0830913462312" sparseCutoff=".46913625437096190"/>
      <sparseX i="20" alpha="-26484.219685042575" sparseCutoff="1.0000000000000000"/>
      <sparseX i="21" alpha="10853.732996395767" sparseCutoff="1.0000000000000000"/>
      <sparseX i="22" alpha="3060.5643361114344" sparseCutoff="1.0000000000000000"/>
      <sparseX i="23" alpha="19939.120237946914" sparseCutoff="1.0000000000000000"/>
      <sparseX i="24" alpha="-444.72619795691992" sparseCutoff=".69565792309623831"/>
      <sparseX i="25" alpha="71.898372974124044" sparseCutoff="1.0000000000000000"/>
      <sparseX i="26" alpha="-1665.8128226342203" sparseCutoff=".75720646793954738E-002"/>
      <sparseX i="27" alpha="69246.104408169034" sparseCutoff=".69382435518140920E-002"/>
      <sparseX i="28" alpha="-10210.623711268838" sparseCutoff="1.0000000000000000"/>
      <sparseX i="29" alpha="-15673.656193098996" sparseCutoff=".50615736596029981"/>
      <sparseX i="30" alpha="1768.4239028999327" sparseCutoff="1.0000000000000000"/>
      <sparseX i="31" alpha="11786.482759552382" sparseCutoff=".15491984583771823"/>
      <sparseX i="32" alpha="-40177.947473727676" sparseCutoff=".98505582365731315E-001"/>
      <sparseX i="33" alpha="37075.327613123802" sparseCutoff=".11164840783233709E-001"/>
      <sparseX i="34" alpha="4577.6319201706910" sparseCutoff=".79355812274549997"/>
      <sparseX i="35" alpha="2024.0148161159461" sparseCutoff=".99348571811009601"/>
      <sparseX i="36" alpha="-192410.90599788571" sparseCutoff=".22088838382853260"/>
      <sparseX i="37" alpha="76890.023267517114" sparseCutoff=".22088838382853260"/>
      <sparseX i="38" alpha="-93785.386254959580" sparseCutoff=".60576453348093355E-001"/>
      <sparseX i="39" alpha="-18769.583200763482" sparseCutoff=".60865619053906883"/>
      <sparseX i="40" alpha="-4909.5325492365600" sparseCutoff=".98335833405298301"/>
      <sparseX i="41" alpha="539.86593730179175" sparseCutoff=".99254885850875352"/>
      <sparseX i="42" alpha="-66185.911798838089" sparseCutoff="1.0000000000000000"/>
      <sparseX i="43" alpha="18510.346789182047" sparseCutoff=".57049606066561231E-001"/>
      <sparseX i="44" alpha="9779.2770084902750" sparseCutoff=".72740388096982067"/>
      <sparseX i="45" alpha="9823.2013943150796" sparseCutoff=".98823544866237634"/>
      <sparseX i="46" alpha="-10963.249797640981" sparseCutoff=".62490275640402781"/>
      <sparseX i="47" alpha="399.47865403804991" sparseCutoff=".38378052830779286E-004"/>
      <sparseX i="48" alpha="8621.1867287001296" sparseCutoff="1.0000000000000000"/>
      <sparseX i="49" alpha="-7706.2841453899500" sparseCutoff=".52798347785111699"/>
      <sparseX i="50" alpha="183224.97413685458" sparseCutoff=".12908080539694453"/>
      <sparseX i="51" alpha="11919.269218266527" sparseCutoff=".19871550426525747"/>
      <sparseX i="52" alpha="-9866.0149250925606" sparseCutoff=".99934050368706673"/>
      <sparseX i="53" alpha="34841.051516486259" sparseCutoff=".15943123379883239E-001"/>
      <sparseX i="54" alpha="7649.2930483826249" sparseCutoff=".17568641827133810E-002"/>
      <sparseX i="55" alpha="787.03051567678824" sparseCutoff=".92793963807832380"/>
      <sparseX i="56" alpha="13284.528220079439" sparseCutoff=".70359238405374591"/>
      <sparseX i="57" alpha="27991.581061174260" sparseCutoff=".71797633639456224E-001"/>
      <sparseX i="58" alpha="8418.6497610307269" sparseCutoff=".89203039858721861E-003"/>
      <sparseX i="59" alpha="20023.796975072950" sparseCutoff="1.0000000000000000"/>
      <sparseX i="60" alpha="75631.419788145664" sparseCutoff=".76936111904187421E-001"/>
      <sparseX i="61" alpha="16780.117488726246" sparseCutoff=".63741726811878463"/>
      <sparseX i="62" alpha="-1735.0519579604202" sparseCutoff=".98039817380277250"/>
      <sparseX i="63" alpha="65536.470994941279" sparseCutoff=".58089873646934810E-002"/>
      <sparseX i="64" alpha="-13593.434598225940" sparseCutoff=".76362954056513210"/>
      <sparseX i="65" alpha="-2799.9807567077892" sparseCutoff=".54365986052601600"/>
      <sparseX i="66" alpha="126958.83245588862" sparseCutoff=".19276174027540914E-001"/>
      <sparseX i="67" alpha="-78763.281699183193" sparseCutoff=".53423161613233572E-002"/>
      <sparseX i="68" alpha="-5180.4734003162293" sparseCutoff=".50081290707599724"/>
      <sparseX i="69" alpha="31979.372073457729" sparseCutoff=".15427902726017917"/>
      <sparseX i="70" alpha="-17377.928754687116" sparseCutoff=".18388193303716466"/>
      <sparseX i="71" alpha="-24272.610928323349" sparseCutoff="1.0000000000000000"/>
      <sparseX i="72" alpha="-79029.885362787143" sparseCutoff=".23509582879789725"/>
      <sparseX i="73" alpha="11787.350039592891" sparseCutoff=".22878259380812650E-001"/>
      <sparseX i="74" alpha="3674.4287142301350" sparseCutoff=".31462987324671487E-003"/>
      <sparseX i="75" alpha="12209.003846820851" sparseCutoff="1.0000000000000000"/>
      <sparseX i="76" alpha="122157.27538115598" sparseCutoff=".26194512329158103E-001"/>
      <sparseX i="77" alpha="207276.98728286746" sparseCutoff=".20449302500099764"/>
      <sparseX i="78" alpha="-10329.956503363404" sparseCutoff="1.0000000000000000"/>
      <sparseX i="79" alpha="-3221.2116689428949" sparseCutoff=".56228300060752323"/>
      <sparseX i="80" alpha="-13767.693139004052" sparseCutoff="1.0000000000000000"/>
      <sparseX i="81" alpha="58036.225403114680" sparseCutoff=".30180171469832959E-001"/>
      <sparseX i="82" alpha="23184.825076299261" sparseCutoff=".12302414570317324E-001"/>
      <sparseX i="83" alpha="1069.4811806606672" sparseCutoff=".12086426692522105E-003"/>
      <sparseX i="84" alpha="23696.592414724655" sparseCutoff=".58347573001664155E-001"/>
      <sparseX i="85" alpha="1415.5702434946363" sparseCutoff=".94703422187031050"/>
      <sparseX i="86" alpha="-13015.908295830490" sparseCutoff=".41335444498714069E-002"/>
      <sparseX i="87" alpha="-41571.840413447571" sparseCutoff=".48374716258391279E-001"/>
      <sparseX i="88" alpha="-37007.057008979027" sparseCutoff="1.0000000000000000"/>
      <sparseX i="89" alpha="-3069.6300814934821" sparseCutoff=".82955671388491825"/>
      <sparseX i="90" alpha="15496.670492950476" sparseCutoff=".27917221532219738"/>
      <sparseX i="91" alpha="69467.425674365673" sparseCutoff="1.0000000000000000"/>
      <sparseX i="92" alpha="7706.7613987555314" sparseCutoff="1.0000000000000000"/>
      <sparseX i="93" alpha="4275.7950849049230" sparseCutoff=".93138919335478132E-003"/>
      <sparseX i="94" alpha="-105777.78905865697" sparseCutoff=".34646172193651625E-001"/>
      <sparseX i="95" alpha="-11098.918100595050" sparseCutoff="1.0000000000000000"/>
      <sparseX i="96" alpha="2731.2479138246867" sparseCutoff="1.0000000000000000"/>
      <sparseX i="97" alpha="-5204.6373251223422" sparseCutoff=".73995607164821231E-001"/>
      <sparseX i="98" alpha="18121.934567291002" sparseCutoff=".21403975667524627E-002"/>
      <sparseX i="99" alpha="1708.9739874072254" sparseCutoff=".18515145473224637E-003"/>
      <sparseX i="100" alpha="143766.34669693946" sparseCutoff=".47010034351611607E-001"/>
    </gpCoordinates>
    <gpCoordinates label="GAP_2026_3_22_0_20_43_31_3745" dimensions="3" signal_variance=".10000000000000000E-001" signal_mean=".00000000000000000E+000" sparsified="T" n_permutations="1" covariance_type="4" n_sparseX="100" sparseX_filename="CH.xml.sparseX.GAP_2026_3_22_0_20_43_31_3745" sparseX_md5sum="e17f2a5b4e49d19e3bd790932417bcf0">
      <theta>  0.20000000000000000E+001  0.20000000000000000E+001  0.20000000000000000E+001 </theta>
      <descriptor> angle_3b Z_center=6 Z1=1 Z2=6 cutoff=2.0 n_sparse=100 covariance_type=pp delta=0.01 theta_uniform=2.0 sparse_method=uniform add_species=F</descriptor>
      <permutation i="1">1 2 3  </permutation>
      <sparseX i="1" alpha="-16865.134100442992" sparseCutoff="1.0000000000000000"/>
      <sparseX i="2" alpha="-1898.0914897153907" sparseCutoff="1.0000000000000000"/>
      <sparseX i="3" alpha="21067.888087099858" sparseCutoff=".77918751673722264"/>
      <sparseX i="4" alpha="3025.0988097822260" sparseCutoff="1.0000000000000000"/>
      <sparseX i="5" alpha="-184362.46978302026" sparseCutoff=".64955474239117558E-001"/>
      <sparseX i="6" alpha="-9736.0112678436126" sparseCutoff="1.0000000000000000"/>
      <sparseX i="7" alpha="82564.513988453356" sparseCutoff=".61558297024313369E-002"/>
      <sparseX i="8" alpha="511.39415495013304" sparseCutoff="1.0000000000000000"/>
      <sparseX i="9" alpha="4147.1463774998665" sparseCutoff=".59243100675522031"/>
      <sparseX i="10" alpha="68429.915067843278" sparseCutoff=".14881777812732777"/>
      <sparseX i="11" alpha="6746.6674615315360" sparseCutoff="1.0000000000000000"/>
      <sparseX i="12" alpha="-2223.1981455830837" sparseCutoff=".68861516004589030"/>
      <sparseX i="13" alpha="-76343.496421078729" sparseCutoff=".20823316105448773E-001"/>
      <sparseX i="14" alpha="-83028.349488805150" sparseCutoff=".10484548611871009"/>
      <sparseX i="15" alpha="-11000.577076645812" sparseCutoff=".91283264700404998"/>
      <sparseX i="16" alpha="5004.8678701199860" sparseCutoff=".80100265133986603E-003"/>
      <sparseX i="17" alpha="-35292.296935058141" sparseCutoff=".89857029915450859E-001"/>
      <sparseX i="18" alpha="126149.28687079954" sparseCutoff=".15284140005327795E-001"/>
      <sparseX i="19" alpha="70.791858086587979" sparseCutoff=".31999088970881910E-005"/>
      <sparseX i="20" alpha="35786.840682772265" sparseCutoff=".51275348285461619"/>
      <sparseX i="21" alpha="144474.24332817097" sparseCutoff=".12017127012606887"/>
      <sparseX i="22" alpha="-15214.239541625315" sparseCutoff=".10811461336508357"/>
      <sparseX i="23" alpha="-42496.723104591336" sparseCutoff=".36917464549180745"/>
      <sparseX i="24" alpha="159334.47325516096" sparseCutoff=".93239283123722275E-001"/>
      <sparseX i="25" alpha="421.95343981574945" sparseCutoff="1.0000000000000000"/>
      <sparseX i="26" alpha="24188.899677356319" sparseCutoff="1.0000000000000000"/>
      <sparseX i="27" alpha="-3134.2252434720062" sparseCutoff="1.0000000000000000"/>
      <sparseX i="28" alpha="-3005.1837415392665" sparseCutoff="1.0000000000000000"/>
      <sparseX i="29" alpha="270.91386991184794" sparseCutoff="1.0000000000000000"/>
      <sparseX i="30" alpha="-44740.940083823261" sparseCutoff=".98118963082852673E-001"/>
      <sparseX i="31" alpha="22746.070576551479" sparseCutoff="1.0000000000000000"/>
      <sparseX i="32" alpha="25184.245798562024" sparseCutoff=".38834303802881776E-001"/>
      <sparseX i="33" alpha="-153621.99135956497" sparseCutoff=".54764308746876711E-001"/>
      <sparseX i="34" alpha="18151.885635658717" sparseCutoff=".41743154484689682E-002"/>
      <sparseX i="35" alpha="-18831.084120968750" sparseCutoff="1.0000000000000000"/>
      <sparseX i="36" alpha="-34362.882842191262" sparseCutoff="1.0000000000000000"/>
      <sparseX i="37" alpha="-67841.523171834793" sparseCutoff=".84108176545299340E-001"/>
      <sparseX i="38" alpha="14677.805301275075" sparseCutoff="1.0000000000000000"/>
      <sparseX i="39" alpha="45188.236673807296" sparseCutoff=".46477295574319968E-001"/>
      <sparseX i="40" alpha="78344.348130957471" sparseCutoff=".91517442237097364E-002"/>
      <sparseX i="41" alpha="-38859.667437047749" sparseCutoff=".42909747962228403E-003"/>
      <sparseX i="42" alpha="-6996.4042901984058" sparseCutoff="1.0000000000000000"/>
      <sparseX i="43" alpha="244.16930512200807" sparseCutoff="1.0000000000000000"/>
      <sparseX i="44" alpha="214574.72289968564" sparseCutoff=".43950134857698053E-001"/>
      <sparseX i="45" alpha="588.52138363266442" sparseCutoff=".30120536968125111E-002"/>
      <sparseX i="46" alpha="-7292.1540031533996" sparseCutoff=".98806222860001158"/>
      <sparseX i="47" alpha="24187.350012006234" sparseCutoff=".48705123795724059"/>
      <sparseX i="48" alpha="-18845.511844487177" sparseCutoff=".48941971130813006"/>
      <sparseX i="49" alpha="-8661.8486389289264" sparseCutoff=".32711357914906082E-003"/>
      <sparseX i="50" alpha="-64520.700181274013" sparseCutoff=".68320879955443040E-003"/>
      <sparseX i="51" alpha="397.61515444767792" sparseCutoff="1.0000000000000000"/>
      <sparseX i="52" alpha="140498.22357666824" sparseCutoff=".15357514970429274E-001"/>
      <sparseX i="53" alpha="29452.846278629528" sparseCutoff=".36249448183120198"/>
      <sparseX i="54" alpha="-2639.4192342154938" sparseCutoff=".30844790316557247"/>
      <sparseX i="55" alpha="-4885.4781434873375" sparseCutoff="1.0000000000000000"/>
      <sparseX i="56" alpha="-7765.2969180672771" sparseCutoff=".99324818701063133E-004"/>
      <sparseX i="57" alpha="13621.742236843114" sparseCutoff=".12753226693418440"/>
      <sparseX i="58" alpha="78997.898560465910" sparseCutoff=".10541488902080079E-001"/>
      <sparseX i="59" alpha="28127.381323668691" sparseCutoff=".13217286877857670E-001"/>
      <sparseX i="60" alpha="-63142.944908313133" sparseCutoff=".28476095787318079"/>
      <sparseX i="61" alpha="8312.6823396152213" sparseCutoff="1.0000000000000000"/>
      <sparseX i="62" alpha="-1183.7835784155181" sparseCutoff=".99693770658945180"/>
      <sparseX i="63" alpha="-18.072174303694176" sparseCutoff=".29807206830545496E-006"/>
      <sparseX i="64" alpha="-1248.6754868244502" sparseCutoff=".83947621021297769E-002"/>
      <sparseX i="65" alpha="9075.6933521651408" sparseCutoff=".11379864302046200"/>
      <sparseX i="66" alpha="17184.967824141160" sparseCutoff=".23751891309887513"/>
      <sparseX i="67" alpha="-63501.210474508640" sparseCutoff=".92547834298034592E-003"/>
      <sparseX i="68" alpha="-143282.06293521030" sparseCutoff=".36483571264634328E-001"/>
      <sparseX i="69" alpha="21447.850533132518" sparseCutoff=".11598788777279839"/>
      <sparseX i="70" alpha="21399.339740816395" sparseCutoff=".43075188780387574E-001"/>
      <sparseX i="71" alpha="202235.96536649144" sparseCutoff=".27578669650989159E-001"/>
      <sparseX i="72" alpha="-560.34885577752971" sparseCutoff="1.0000000000000000"/>
      <sparseX i="73" alpha="7973.2699176791248" sparseCutoff="1.0000000000000000"/>
      <sparseX i="74" alpha="67416.685586609718" sparseCutoff=".40257748871902935E-001"/>
      <sparseX i="75" alpha="-10781.388779658120" sparseCutoff=".16365570143791736"/>
      <sparseX i="76" alpha="-131995.32976812992" sparseCutoff=".26469953345059360E-001"/>
      <sparseX i="77" alpha="2654.0043124363478" sparseCutoff=".36622368435676944E-003"/>
      <sparseX i="78" alpha="-48067.554915194582" sparseCutoff=".33018181676068570"/>
      <sparseX i="79" alpha="-160800.57366505713" sparseCutoff=".31383522593080859E-002"/>
      <sparseX i="80" alpha="21258.092498507645" sparseCutoff=".24082136390928066"/>
      <sparseX i="81" alpha="-7530.7806487404578" sparseCutoff=".19208729914965178"/>
      <sparseX i="82" alpha="9428.4972866427979" sparseCutoff=".83514891272139136"/>
      <sparseX i="83" alpha="-16031.178130855724" sparseCutoff=".36113002774351555"/>
      <sparseX i="84" alpha="-272737.40803059755" sparseCutoff=".12040919163235460E-001"/>
      <sparseX i="85" alpha="-40573.612261766066" sparseCutoff=".68456967268329905"/>
      <sparseX i="86" alpha="24419.457596874123" sparseCutoff=".68855591317188991"/>
      <sparseX i="87" alpha="8026.8338552935502" sparseCutoff=".41100820481632699"/>
      <sparseX i="88" alpha="-107588.56651506283" sparseCutoff=".15043658260561202"/>
      <sparseX i="89" alpha="22400.613520204060" sparseCutoff=".53439998211036732"/>
      <sparseX i="90" alpha="99808.369132145555" sparseCutoff=".18964769693850247E-001"/>
      <sparseX i="91" alpha="21385.240205228409" sparseCutoff=".63854349586762194"/>
      <sparseX i="92" alpha="-40907.268993736172" sparseCutoff=".21268163735889793E-002"/>
      <sparseX i="93" alpha="-150404.43720736130" sparseCutoff=".50971684898473701E-002"/>
      <sparseX i="94" alpha="-2717.4771801223733" sparseCutoff="1.0000000000000000"/>
      <sparseX i="95" alpha="-149006.18441820596" sparseCutoff=".21313615996527147E-002"/>
      <sparseX i="96" alpha="4183.0714922129901" sparseCutoff=".98381610493542915"/>
      <sparseX i="97" alpha="218492.15741377766" sparseCutoff=".33625836289634392E-001"/>
      <sparseX i="98" alpha="-48231.677048095618" sparseCutoff=".34354182664549926E-002"/>
      <sparseX i="99" alpha="-204249.09570268032" sparseCutoff=".12516801824827728E-001"/>
      <sparseX i="100" alpha="-3895.7584016631968" sparseCutoff="1.0000000000000000"/>
    </gpCoordinates>
    <gpCoordinates label="GAP_2026_3_22_0_20_43_31_3746" dimensions="3" signal_variance=".10000000000000000E-001" signal_mean=".00000000000000000E+000" sparsified="T" n_permutations="1" covariance_type="4" n_sparseX="100" sparseX_filename="CH.xml.sparseX.GAP_2026_3_22_0_20_43_31_3746" sparseX_md5sum="9d2b87bb09576a1aa97f4b90afcf3ce9">
      <theta>  0.20000000000000000E+001  0.20000000000000000E+001  0.20000000000000000E+001 </theta>
      <descriptor> angle_3b Z_center=6 Z1=6 Z2=6 cutoff=2.0 n_sparse=100 covariance_type=pp delta=0.01 theta_uniform=2.0 sparse_method=uniform add_species=F</descriptor>
      <permutation i="1">1 2 3  </permutation>
      <sparseX i="1" alpha="37733.452513629236" sparseCutoff=".56599852548704799"/>
      <sparseX i="2" alpha="-5880.6994106574784" sparseCutoff="1.0000000000000000"/>
      <sparseX i="3" alpha="-78456.826079564591" sparseCutoff="1.0000000000000000"/>
      <sparseX i="4" alpha="-17565.838176566253" sparseCutoff="1.0000000000000000"/>
      <sparseX i="5" alpha="-52049.081280763196" sparseCutoff=".32030396243006298E-002"/>
      <sparseX i="6" alpha="-1767.3609869950460" sparseCutoff="1.0000000000000000"/>
      <sparseX i="7" alpha="-10140.144888232577" sparseCutoff="1.0000000000000000"/>
      <sparseX i="8" alpha="-719027.29116749309" sparseCutoff=".76189662166766233E-002"/>
      <sparseX i="9" alpha="52566.899730418023" sparseCutoff="1.0000000000000000"/>
      <sparseX i="10" alpha="-68671.070762581323" sparseCutoff=".17223689322103153"/>
      <sparseX i="11" alpha="71861.178732189132" sparseCutoff="1.0000000000000000"/>
      <sparseX i="12" alpha="61310.371353292394" sparseCutoff=".17223689322103153"/>
      <sparseX i="13" alpha="-45112.829697853042" sparseCutoff=".91278016998600453"/>
      <sparseX i="14" alpha="-5594.3274418156734" sparseCutoff=".76790706700851707"/>
      <sparseX i="15" alpha="69836.714216887369" sparseCutoff=".50284205640433621E-001"/>
      <sparseX i="16" alpha="16910.536071655199" sparseCutoff=".77770049989357259"/>
      <sparseX i="17" alpha="-44251.292337335857" sparseCutoff="1.0000000000000000"/>
      <sparseX i="18" alpha="62355.417195484159" sparseCutoff="1.0000000000000000"/>
      <sparseX i="19" alpha="-33122.230388514072" sparseCutoff="1.0000000000000000"/>
      <sparseX i="20" alpha="-34179.229456399917" sparseCutoff=".11283670819681139"/>
      <sparseX i="21" alpha="15080.952413166220" sparseCutoff="1.0000000000000000"/>
      <sparseX i="22" alpha="-593285.14205095568" sparseCutoff=".18542830427112689E-001"/>
      <sparseX i="23" alpha="-113863.43787584179" sparseCutoff=".14267636685153240"/>
      <sparseX i="24" alpha="10569.507332627310" sparseCutoff="1.0000000000000000"/>
      <sparseX i="25" alpha="-25980.365380638726" sparseCutoff=".14267636685153240"/>
      <sparseX i="26" alpha="2970.0075218992079" sparseCutoff="1.0000000000000000"/>
      <sparseX i="27" alpha="52185.926184792501" sparseCutoff=".35756741469741771"/>
      <sparseX i="28" alpha="48391.739462364043" sparseCutoff=".35756741469741771"/>
      <sparseX i="29" alpha="-111181.09283878216" sparseCutoff=".94795272738859704"/>
      <sparseX i="30" alpha="131543.29842489111" sparseCutoff=".18710904913370113"/>
      <sparseX i="31" alpha="-39508.500531883306" sparseCutoff=".60843786396117661"/>
      <sparseX i="32" alpha="60699.677239391465" sparseCutoff=".91780016262676978"/>
      <sparseX i="33" alpha="16013.222239087003" sparseCutoff="1.0000000000000000"/>
      <sparseX i="34" alpha="18907.432780803796" sparseCutoff="1.0000000000000000"/>
      <sparseX i="35" alpha="10010.044562942749" sparseCutoff="1.0000000000000000"/>
      <sparseX i="36" alpha="-63750.906936231426" sparseCutoff="1.0000000000000000"/>
      <sparseX i="37" alpha="-25214.377006533156" sparseCutoff=".92329408881631991"/>
      <sparseX i="38" alpha="-21863.025587973101" sparseCutoff=".36098355103555886E-002"/>
      <sparseX i="39" alpha="67856.428038919257" sparseCutoff=".30976176035637992"/>
      <sparseX i="40" alpha="-13329.174709344208" sparseCutoff="1.0000000000000000"/>
      <sparseX i="41" alpha="-20927.019396749427" sparseCutoff="1.0000000000000000"/>
      <sparseX i="42" alpha="-38561.545279178397" sparseCutoff="1.0000000000000000"/>
      <sparseX i="43" alpha="65458.002514790154" sparseCutoff="1.0000000000000000"/>
      <sparseX i="44" alpha="1642.3280310920607" sparseCutoff="1.0000000000000000"/>
      <sparseX i="45" alpha="-45127.816759065870" sparseCutoff="1.0000000000000000"/>
      <sparseX i="46" alpha="-63699.092256256568" sparseCutoff="1.0000000000000000"/>
      <sparseX i="47" alpha="19917.659620329578" sparseCutoff="1.0000000000000000"/>
      <sparseX i="48" alpha="43628.385099433945" sparseCutoff="1.0000000000000000"/>
      <sparseX i="49" alpha="6841.7395950897026" sparseCutoff=".54492274489679704"/>
      <sparseX i="50" alpha="-24685.231046903624" sparseCutoff="1.0000000000000000"/>
      <sparseX i="51" alpha="20681.664859523440" sparseCutoff="1.0000000000000000"/>
      <sparseX i="52" alpha="47300.046287470483" sparseCutoff=".28299966026041484"/>
      <sparseX i="53" alpha="28147.996706046597" sparseCutoff=".84734601322610681E-001"/>
      <sparseX i="54" alpha="25898.348289778001" sparseCutoff="1.0000000000000000"/>
      <sparseX i="55" alpha="102915.32035074559" sparseCutoff="1.0000000000000000"/>
      <sparseX i="56" alpha="38249.452434276551" sparseCutoff="1.0000000000000000"/>
      <sparseX i="57" alpha="9065.9048381365283" sparseCutoff=".67606131723310525"/>
      <sparseX i="58" alpha="-32094.540471867207" sparseCutoff=".84463407587553541"/>
      <sparseX i="59" alpha="210014.64288470763" sparseCutoff=".10293750702807949"/>
      <sparseX i="60" alpha="369489.37758637266" sparseCutoff=".77369565165316444E-002"/>
      <sparseX i="61" alpha="-241536.65895108876" sparseCutoff=".83497219272226808E-001"/>
      <sparseX i="62" alpha="-238.10298022068187" sparseCutoff=".28265960192337004E-005"/>
      <sparseX i="63" alpha="-46267.579695444023" sparseCutoff="1.0000000000000000"/>
      <sparseX i="64" alpha="-558044.04249313881" sparseCutoff=".18282130734527113E-001"/>
      <sparseX i="65" alpha="-719605.99089438340" sparseCutoff=".38363687510555504E-002"/>
      <sparseX i="66" alpha="-144334.44459562830" sparseCutoff=".81389064458506410E-001"/>
      <sparseX i="67" alpha="-29188.572651168095" sparseCutoff=".29994415677111574E-003"/>
      <sparseX i="68" alpha="-7680.9079357756309" sparseCutoff=".22456884648619502E-003"/>
      <sparseX i="69" alpha="-93415.262796184936" sparseCutoff=".19666805501967074E-002"/>
      <sparseX i="70" alpha="96883.683644385892" sparseCutoff=".32352422347866561"/>
      <sparseX i="71" alpha="11567.921810553600" sparseCutoff=".11683326183498655E-002"/>
      <sparseX i="72" alpha="-352380.70936483261" sparseCutoff=".46622784585634458E-001"/>
      <sparseX i="73" alpha="10960.383425587639" sparseCutoff=".66352449128185342"/>
      <sparseX i="74" alpha="-57476.383935312071" sparseCutoff=".57400701812955154E-003"/>
      <sparseX i="75" alpha="61896.636207443866" sparseCutoff=".51411870168553775"/>
      <sparseX i="76" alpha="27777.747001332311" sparseCutoff=".13814071348062229E-002"/>
      <sparseX i="77" alpha="-61416.703386678797" sparseCutoff=".97735934363401289"/>
      <sparseX i="78" alpha="-484207.39786467631" sparseCutoff=".28567864406048749E-001"/>
      <sparseX i="79" alpha="-231987.59414086441" sparseCutoff=".76036471924196825E-002"/>
      <sparseX i="80" alpha="-14412.916574422221" sparseCutoff=".40306049832829324E-003"/>
      <sparseX i="81" alpha="343249.83028348169" sparseCutoff=".30886836578597667E-001"/>
      <sparseX i="82" alpha="-16880.560567160799" sparseCutoff=".74380685420803960"/>
      <sparseX i="83" alpha="-11959.961165234939" sparseCutoff=".96388227806772475"/>
      <sparseX i="84" alpha="765224.39813059103" sparseCutoff=".11495513397479062E-001"/>
      <sparseX i="85" alpha="-6.2239557092565345" sparseCutoff=".13886751552740547E-006"/>
      <sparseX i="86" alpha="-36639.143641365954" sparseCutoff=".97406150702207040E-003"/>
      <sparseX i="87" alpha="76956.883372685770" sparseCutoff=".94082033863378356"/>
      <sparseX i="88" alpha="38628.568036622586" sparseCutoff="1.0000000000000000"/>
      <sparseX i="89" alpha="29853.221479928096" sparseCutoff=".73430061006145930"/>
      <sparseX i="90" alpha="-1932.6148637479967" sparseCutoff=".83703117303657670"/>
      <sparseX i="91" alpha="271504.34833187994" sparseCutoff=".43554877823030004E-001"/>
      <sparseX i="92" alpha="-11622.276564861002" sparseCutoff=".88010057097220662"/>
      <sparseX i="93" alpha="-374439.16844517534" sparseCutoff=".32964196898031213E-001"/>
      <sparseX i="94" alpha="-100290.53849750700" sparseCutoff=".10609154095989431"/>
      <sparseX i="95" alpha="-15759.830231775519" sparseCutoff=".92841947047586215"/>
      <sparseX i="96" alpha="13004.649522494161" sparseCutoff="1.0000000000000000"/>
      <sparseX i="97" alpha="-59665.760843439864" sparseCutoff=".15184127776560502"/>
      <sparseX i="98" alpha="-1423.0853790163965" sparseCutoff=".76700497395240386"/>
      <sparseX i="99" alpha="748454.14342781040" sparseCutoff=".20511921781777957E-001"/>
      <sparseX i="100" alpha="41184.541687767218" sparseCutoff=".33067760678474845"/>
    </gpCoordinates>
    <gpCoordinates label="GAP_2026_3_22_0_20_43_31_3747" dimensions="75" signal_variance=".10000000000000001E+000" signal_mean=".00000000000000000E+000" sparsified="T" n_permutations="1" covariance_type="2" zeta="4.0000000000000000" n_sparseX="500" sparseX_filename="CH.xml.sparseX.GAP_2026_3_22_0_20_43_31_3747" sparseX_md5sum="137841cdf1320734939f739629073f45">
      <descriptor> soap_turbo l_max=4 alpha_max={4 4} atom_sigma_r={0.2 0.2} atom_sigma_t={0.2 0.2} atom_sigma_r_scaling={0.1 0.1} atom_sigma_t_scaling={0.1 0.1} zeta=4 rcut_hard=4.0 rcut_soft=3.5 basis=poly3gauss scaling_mode=polynomial add_species=F amplitude_scaling={2.0 2.0} n_species=2 species_Z={1 6} central_index=1 radial_enhancement=1 compress_mode=trivial central_weight={1.0 1.0} n_sparse=500 delta=0.1 f0=0.0 covariance_type=dot_product sparse_method=cur_points</descriptor>
      <permutation i="1">1  </permutation>
      <sparseX i="1" alpha="253172.10325212148" sparseCutoff="1.0000000000000000"/>
      <sparseX i="2" alpha="-69686.483679884434" sparseCutoff="1.0000000000000000"/>
      <sparseX i="3" alpha="-1535.1122287558219" sparseCutoff="1.0000000000000000"/>
      <sparseX i="4" alpha="-1873.6578250135367" sparseCutoff="1.0000000000000000"/>
      <sparseX i="5" alpha="1725.7001526478512" sparseCutoff="1.0000000000000000"/>
      <sparseX i="6" alpha="94871.078240537478" sparseCutoff="1.0000000000000000"/>
      <sparseX i="7" alpha="4602.7533352104292" sparseCutoff="1.0000000000000000"/>
      <sparseX i="8" alpha="33100.388971269422" sparseCutoff="1.0000000000000000"/>
      <sparseX i="9" alpha="-13294.814009942353" sparseCutoff="1.0000000000000000"/>
      <sparseX i="10" alpha="4477.6849905661993" sparseCutoff="1.0000000000000000"/>
      <sparseX i="11" alpha="3667.0195410517986" sparseCutoff="1.0000000000000000"/>
      <sparseX i="12" alpha="-14735.155831819635" sparseCutoff="1.0000000000000000"/>
      <sparseX i="13" alpha="23489.913109572117" sparseCutoff="1.0000000000000000"/>
      <sparseX i="14" alpha="-135.33212520813964" sparseCutoff="1.0000000000000000"/>
      <sparseX i="15" alpha="-12830.862047468185" sparseCutoff="1.0000000000000000"/>
      <sparseX i="16" alpha="-21389.137499731991" sparseCutoff="1.0000000000000000"/>
      <sparseX i="17" alpha="-32044.965992648908" sparseCutoff="1.0000000000000000"/>
      <sparseX i="18" alpha="25432.267124272697" sparseCutoff="1.0000000000000000"/>
      <sparseX i="19" alpha="8735.3836506737644" sparseCutoff="1.0000000000000000"/>
      <sparseX i="20" alpha="-195.91321258566956" sparseCutoff="1.0000000000000000"/>
      <sparseX i="21" alpha="-3937.5002466734368" sparseCutoff="1.0000000000000000"/>
      <sparseX i="22" alpha="-67356.174007825801" sparseCutoff="1.0000000000000000"/>
      <sparseX i="23" alpha="-312447.42341718962" sparseCutoff="1.0000000000000000"/>
      <sparseX i="24" alpha="-171951.62103189464" sparseCutoff="1.0000000000000000"/>
      <sparseX i="25" alpha="-10764.456293444015" sparseCutoff="1.0000000000000000"/>
      <sparseX i="26" alpha="-2905.8987923261807" sparseCutoff="1.0000000000000000"/>
      <sparseX i="27" alpha="-21267.811448771234" sparseCutoff="1.0000000000000000"/>
      <sparseX i="28" alpha="-2885.2906309750756" sparseCutoff="1.0000000000000000"/>
      <sparseX i="29" alpha="-19261.201553180123" sparseCutoff="1.0000000000000000"/>
      <sparseX i="30" alpha="17187.063267291858" sparseCutoff="1.0000000000000000"/>
      <sparseX i="31" alpha="-1329.9963907883814" sparseCutoff="1.0000000000000000"/>
      <sparseX i="32" alpha="-44013.762672859964" sparseCutoff="1.0000000000000000"/>
      <sparseX i="33" alpha="37198.979396039867" sparseCutoff="1.0000000000000000"/>
      <sparseX i="34" alpha="-621638.93648200436" sparseCutoff="1.0000000000000000"/>
      <sparseX i="35" alpha="-443875.70488291024" sparseCutoff="1.0000000000000000"/>
      <sparseX i="36" alpha="60585.663134704380" sparseCutoff="1.0000000000000000"/>
      <sparseX i="37" alpha="2949.8967812580968" sparseCutoff="1.0000000000000000"/>
      <sparseX i="38" alpha="460702.02308495494" sparseCutoff="1.0000000000000000"/>
      <sparseX i="39" alpha="343124.97491989180" sparseCutoff="1.0000000000000000"/>
      <sparseX i="40" alpha="-87934.867093723296" sparseCutoff="1.0000000000000000"/>
      <sparseX i="41" alpha="647496.00895136059" sparseCutoff="1.0000000000000000"/>
      <sparseX i="42" alpha="37624.803605588655" sparseCutoff="1.0000000000000000"/>
      <sparseX i="43" alpha="28518.119736895820" sparseCutoff="1.0000000000000000"/>
      <sparseX i="44" alpha="51438.376548012231" sparseCutoff="1.0000000000000000"/>
      <sparseX i="45" alpha="26283.337126279166" sparseCutoff="1.0000000000000000"/>
      <sparseX i="46" alpha="11600.706869001428" sparseCutoff="1.0000000000000000"/>
      <sparseX i="47" alpha="16445.498244701510" sparseCutoff="1.0000000000000000"/>
      <sparseX i="48" alpha="-87195.191193163104" sparseCutoff="1.0000000000000000"/>
      <sparseX i="49" alpha="1397.8281026882021" sparseCutoff="1.0000000000000000"/>
      <sparseX i="50" alpha="129313.62357170932" sparseCutoff="1.0000000000000000"/>
      <sparseX i="51" alpha="70840.105553388799" sparseCutoff="1.0000000000000000"/>
      <sparseX i="52" alpha="61954.606468059283" sparseCutoff="1.0000000000000000"/>
      <sparseX i="53" alpha="-13914.970993265271" sparseCutoff="1.0000000000000000"/>
      <sparseX i="54" alpha="-34854.959729809925" sparseCutoff="1.0000000000000000"/>
      <sparseX i="55" alpha="10430.027173444143" sparseCutoff="1.0000000000000000"/>
      <sparseX i="56" alpha="-67289.915961750638" sparseCutoff="1.0000000000000000"/>
      <sparseX i="57" alpha="57699.520163517576" sparseCutoff="1.0000000000000000"/>
      <sparseX i="58" alpha="51115.233965083818" sparseCutoff="1.0000000000000000"/>
      <sparseX i="59" alpha="-548889.58433191746" sparseCutoff="1.0000000000000000"/>
      <sparseX i="60" alpha="71902.057416634590" sparseCutoff="1.0000000000000000"/>
      <sparseX i="61" alpha="51227.731454643450" sparseCutoff="1.0000000000000000"/>
      <sparseX i="62" alpha="17494.081712085142" sparseCutoff="1.0000000000000000"/>
      <sparseX i="63" alpha="-154193.22796631922" sparseCutoff="1.0000000000000000"/>
      <sparseX i="64" alpha="-54305.423375927523" sparseCutoff="1.0000000000000000"/>
      <sparseX i="65" alpha="-22271.555076012926" sparseCutoff="1.0000000000000000"/>
      <sparseX i="66" alpha="42497.947650360948" sparseCutoff="1.0000000000000000"/>
      <sparseX i="67" alpha="-16606.256416258908" sparseCutoff="1.0000000000000000"/>
      <sparseX i="68" alpha="-7438.6474364795104" sparseCutoff="1.0000000000000000"/>
      <sparseX i="69" alpha="-250276.96255806557" sparseCutoff="1.0000000000000000"/>
      <sparseX i="70" alpha="41346.796190447087" sparseCutoff="1.0000000000000000"/>
      <sparseX i="71" alpha="-13990.999965135497" sparseCutoff="1.0000000000000000"/>
      <sparseX i="72" alpha="-43187.438642931666" sparseCutoff="1.0000000000000000"/>
      <sparseX i="73" alpha="115133.20388072346" sparseCutoff="1.0000000000000000"/>
      <sparseX i="74" alpha="39417.138855120014" sparseCutoff="1.0000000000000000"/>
      <sparseX i="75" alpha="-57770.731290136966" sparseCutoff="1.0000000000000000"/>
      <sparseX i="76" alpha="-40532.206833244549" sparseCutoff="1.0000000000000000"/>
      <sparseX i="77" alpha="10976.963652021353" sparseCutoff="1.0000000000000000"/>
      <sparseX i="78" alpha="-64383.227469899422" sparseCutoff="1.0000000000000000"/>
      <sparseX i="79" alpha="-3592.4815894080789" sparseCutoff="1.0000000000000000"/>
      <sparseX i="80" alpha="22242.752821201266" sparseCutoff="1.0000000000000000"/>
      <sparseX i="81" alpha="-4034.2105215766696" sparseCutoff="1.0000000000000000"/>
      <sparseX i="82" alpha="72129.480443517532" sparseCutoff="1.0000000000000000"/>
      <sparseX i="83" alpha="66262.809138861383" sparseCutoff="1.0000000000000000"/>
      <sparseX i="84" alpha="47220.190056372892" sparseCutoff="1.0000000000000000"/>
      <sparseX i="85" alpha="-9012.0025404086864" sparseCutoff="1.0000000000000000"/>
      <sparseX i="86" alpha="13611.457573565511" sparseCutoff="1.0000000000000000"/>
      <sparseX i="87" alpha="-31129.360920440166" sparseCutoff="1.0000000000000000"/>
      <sparseX i="88" alpha="213206.96976929123" sparseCutoff="1.0000000000000000"/>
      <sparseX i="89" alpha="-67897.260810109336" sparseCutoff="1.0000000000000000"/>
      <sparseX i="90" alpha="-550.81023224270712" sparseCutoff="1.0000000000000000"/>
      <sparseX i="91" alpha="6552.3419106870842" sparseCutoff="1.0000000000000000"/>
      <sparseX i="92" alpha="-65848.702309952292" sparseCutoff="1.0000000000000000"/>
      <sparseX i="93" alpha="-104606.77829011533" sparseCutoff="1.0000000000000000"/>
      <sparseX i="94" alpha="21798.850978394992" sparseCutoff="1.0000000000000000"/>
      <sparseX i="95" alpha="198971.84985248614" sparseCutoff="1.0000000000000000"/>
      <sparseX i="96" alpha="25980.823971118651" sparseCutoff="1.0000000000000000"/>
      <sparseX i="97" alpha="29889.433949585120" sparseCutoff="1.0000000000000000"/>
      <sparseX i="98" alpha="-51669.386506003546" sparseCutoff="1.0000000000000000"/>
      <sparseX i="99" alpha="-190673.61385982975" sparseCutoff="1.0000000000000000"/>
      <sparseX i="100" alpha="11889.276751650028" sparseCutoff="1.0000000000000000"/>
      <sparseX i="101" alpha="2211.0637377531157" sparseCutoff="1.0000000000000000"/>
      <sparseX i="102" alpha="81608.878161921515" sparseCutoff="1.0000000000000000"/>
      <sparseX i="103" alpha="230935.52196578801" sparseCutoff="1.0000000000000000"/>
      <sparseX i="104" alpha="-11370.662200059331" sparseCutoff="1.0000000000000000"/>
      <sparseX i="105" alpha="21665.466131892113" sparseCutoff="1.0000000000000000"/>
      <sparseX i="106" alpha="26697.611385790759" sparseCutoff="1.0000000000000000"/>
      <sparseX i="107" alpha="3207.1615610026838" sparseCutoff="1.0000000000000000"/>
      <sparseX i="108" alpha="25361.761505450177" sparseCutoff="1.0000000000000000"/>
      <sparseX i="109" alpha="-25562.253355872570" sparseCutoff="1.0000000000000000"/>
      <sparseX i="110" alpha="4551.7479074879620" sparseCutoff="1.0000000000000000"/>
      <sparseX i="111" alpha="60996.903318830460" sparseCutoff="1.0000000000000000"/>
      <sparseX i="112" alpha="40316.292015440224" sparseCutoff="1.0000000000000000"/>
      <sparseX i="113" alpha="-7817.5104038723111" sparseCutoff="1.0000000000000000"/>
      <sparseX i="114" alpha="3398.9099488403731" sparseCutoff="1.0000000000000000"/>
      <sparseX i="115" alpha="-117240.72681565574" sparseCutoff="1.0000000000000000"/>
      <sparseX i="116" alpha="33253.699272800004" sparseCutoff="1.0000000000000000"/>
      <sparseX i="117" alpha="91219.558362656899" sparseCutoff="1.0000000000000000"/>
      <sparseX i="118" alpha="-66542.695992759924" sparseCutoff="1.0000000000000000"/>
      <sparseX i="119" alpha="-398525.21456741873" sparseCutoff="1.0000000000000000"/>
      <sparseX i="120" alpha="165428.67559487789" sparseCutoff="1.0000000000000000"/>
      <sparseX i="121" alpha="-35507.376261054662" sparseCutoff="1.0000000000000000"/>
      <sparseX i="122" alpha="55894.649988777397" sparseCutoff="1.0000000000000000"/>
      <sparseX i="123" alpha="-17185.910808754536" sparseCutoff="1.0000000000000000"/>
      <sparseX i="124" alpha="-38539.015231318284" sparseCutoff="1.0000000000000000"/>
      <sparseX i="125" alpha="34373.135147611181" sparseCutoff="1.0000000000000000"/>
      <sparseX i="126" alpha="-3327.9441822701988" sparseCutoff="1.0000000000000000"/>
      <sparseX i="127" alpha="100453.20004998396" sparseCutoff="1.0000000000000000"/>
      <sparseX i="128" alpha="25328.298620831796" sparseCutoff="1.0000000000000000"/>
      <sparseX i="129" alpha="3250.6278133626920" sparseCutoff="1.0000000000000000"/>
      <sparseX i="130" alpha="-14581.118031323585" sparseCutoff="1.0000000000000000"/>
      <sparseX i="131" alpha="-32859.503605626131" sparseCutoff="1.0000000000000000"/>
      <sparseX i="132" alpha="23882.727833744739" sparseCutoff="1.0000000000000000"/>
      <sparseX i="133" alpha="12069.985873482297" sparseCutoff="1.0000000000000000"/>
      <sparseX i="134" alpha="21030.450511704279" sparseCutoff="1.0000000000000000"/>
      <sparseX i="135" alpha="-11970.107386923786" sparseCutoff="1.0000000000000000"/>
      <sparseX i="136" alpha="27040.872184452699" sparseCutoff="1.0000000000000000"/>
      <sparseX i="137" alpha="55060.015875342673" sparseCutoff="1.0000000000000000"/>
      <sparseX i="138" alpha="-4608.9266963769360" sparseCutoff="1.0000000000000000"/>
      <sparseX i="139" alpha="35593.638853338780" sparseCutoff="1.0000000000000000"/>
      <sparseX i="140" alpha="129871.38725263969" sparseCutoff="1.0000000000000000"/>
      <sparseX i="141" alpha="-145339.31589990103" sparseCutoff="1.0000000000000000"/>
      <sparseX i="142" alpha="22408.823853250855" sparseCutoff="1.0000000000000000"/>
      <sparseX i="143" alpha="6432.0995992144826" sparseCutoff="1.0000000000000000"/>
      <sparseX i="144" alpha="-37179.982032521635" sparseCutoff="1.0000000000000000"/>
      <sparseX i="145" alpha="69251.314718077265" sparseCutoff="1.0000000000000000"/>
      <sparseX i="146" alpha="-26467.425200406906" sparseCutoff="1.0000000000000000"/>
      <sparseX i="147" alpha="-4731.4588238320612" sparseCutoff="1.0000000000000000"/>
      <sparseX i="148" alpha="-17227.568248837528" sparseCutoff="1.0000000000000000"/>
      <sparseX i="149" alpha="3064.1086330435232" sparseCutoff="1.0000000000000000"/>
      <sparseX i="150" alpha="-22750.570078580960" sparseCutoff="1.0000000000000000"/>
      <sparseX i="151" alpha="15188.648546614048" sparseCutoff="1.0000000000000000"/>
      <sparseX i="152" alpha="125300.22203495492" sparseCutoff="1.0000000000000000"/>
      <sparseX i="153" alpha="137694.39084486774" sparseCutoff="1.0000000000000000"/>
      <sparseX i="154" alpha="-41658.905138445967" sparseCutoff="1.0000000000000000"/>
      <sparseX i="155" alpha="-5424.6292309277333" sparseCutoff="1.0000000000000000"/>
      <sparseX i="156" alpha="-31153.083519224972" sparseCutoff="1.0000000000000000"/>
      <sparseX i="157" alpha="169372.15164033105" sparseCutoff="1.0000000000000000"/>
      <sparseX i="158" alpha="-90845.672326600543" sparseCutoff="1.0000000000000000"/>
      <sparseX i="159" alpha="4116.3409915070588" sparseCutoff="1.0000000000000000"/>
      <sparseX i="160" alpha="101540.15439798373" sparseCutoff="1.0000000000000000"/>
      <sparseX i="161" alpha="-31458.707076156628" sparseCutoff="1.0000000000000000"/>
      <sparseX i="162" alpha="-94744.123047522866" sparseCutoff="1.0000000000000000"/>
      <sparseX i="163" alpha="-89676.347665660927" sparseCutoff="1.0000000000000000"/>
      <sparseX i="164" alpha="-5827.8158838848476" sparseCutoff="1.0000000000000000"/>
      <sparseX i="165" alpha="109308.49282337310" sparseCutoff="1.0000000000000000"/>
      <sparseX i="166" alpha="-12.923143060189382" sparseCutoff="1.0000000000000000"/>
      <sparseX i="167" alpha="-83323.786487302554" sparseCutoff="1.0000000000000000"/>
      <sparseX i="168" alpha="-36539.953357012149" sparseCutoff="1.0000000000000000"/>
      <sparseX i="169" alpha="11681.275250382816" sparseCutoff="1.0000000000000000"/>
      <sparseX i="170" alpha="87804.253190653209" sparseCutoff="1.0000000000000000"/>
      <sparseX i="171" alpha="-5612.9589333939193" sparseCutoff="1.0000000000000000"/>
      <sparseX i="172" alpha="7310.3270171456061" sparseCutoff="1.0000000000000000"/>
      <sparseX i="173" alpha="-50082.408142970089" sparseCutoff="1.0000000000000000"/>
      <sparseX i="174" alpha="-38547.836435589292" sparseCutoff="1.0000000000000000"/>
      <sparseX i="175" alpha="-9333.4726867702248" sparseCutoff="1.0000000000000000"/>
      <sparseX i="176" alpha="-522.11464300665421" sparseCutoff="1.0000000000000000"/>
      <sparseX i="177" alpha="65682.013891466137" sparseCutoff="1.0000000000000000"/>
      <sparseX i="178" alpha="2015.2061792285174" sparseCutoff="1.0000000000000000"/>
      <sparseX i="179" alpha="38299.696434567297" sparseCutoff="1.0000000000000000"/>
      <sparseX i="180" alpha="17310.300750928385" sparseCutoff="1.0000000000000000"/>
      <sparseX i="181" alpha="44212.597193504458" sparseCutoff="1.0000000000000000"/>
      <sparseX i="182" alpha="-2708.7424295854780" sparseCutoff="1.0000000000000000"/>
      <sparseX i="183" alpha="-9380.2132612901605" sparseCutoff="1.0000000000000000"/>
      <sparseX i="184" alpha="-6171.8925224678378" sparseCutoff="1.0000000000000000"/>
      <sparseX i="185" alpha="-67410.498734551584" sparseCutoff="1.0000000000000000"/>
      <sparseX i="186" alpha="-41013.695406580700" sparseCutoff="1.0000000000000000"/>
      <sparseX i="187" alpha="137883.85090665866" sparseCutoff="1.0000000000000000"/>
      <sparseX i="188" alpha="-6795.2897882127327" sparseCutoff="1.0000000000000000"/>
      <sparseX i="189" alpha="-30458.969551597529" sparseCutoff="1.0000000000000000"/>
      <sparseX i="190" alpha="-12868.296071498393" sparseCutoff="1.0000000000000000"/>
      <sparseX i="191" alpha="-4525.7788638349257" sparseCutoff="1.0000000000000000"/>
      <sparseX i="192" alpha="-2927.1740812251187" sparseCutoff="1.0000000000000000"/>
      <sparseX i="193" alpha="-17282.510404095792" sparseCutoff="1.0000000000000000"/>
      <sparseX i="194" alpha="12593.470055003891" sparseCutoff="1.0000000000000000"/>
      <sparseX i="195" alpha="-39308.283589654318" sparseCutoff="1.0000000000000000"/>
      <sparseX i="196" alpha="-170833.98198171210" sparseCutoff="1.0000000000000000"/>
      <sparseX i="197" alpha="11086.600601476892" sparseCutoff="1.0000000000000000"/>
      <sparseX i="198" alpha="11030.259163284310" sparseCutoff="1.0000000000000000"/>
      <sparseX i="199" alpha="-57709.915090153692" sparseCutoff="1.0000000000000000"/>
      <sparseX i="200" alpha="-24911.234977411841" sparseCutoff="1.0000000000000000"/>
      <sparseX i="201" alpha="10835.827486556105" sparseCutoff="1.0000000000000000"/>
      <sparseX i="202" alpha="26342.806737080882" sparseCutoff="1.0000000000000000"/>
      <sparseX i="203" alpha="2543.2933571065514" sparseCutoff="1.0000000000000000"/>
      <sparseX i="204" alpha="-28957.309359044641" sparseCutoff="1.0000000000000000"/>
      <sparseX i="205" alpha="17001.283596401023" sparseCutoff="1.0000000000000000"/>
      <sparseX i="206" alpha="-10885.179112330157" sparseCutoff="1.0000000000000000"/>
      <sparseX i="207" alpha="-44090.809642383792" sparseCutoff="1.0000000000000000"/>
      <sparseX i="208" alpha="-10188.232960171097" sparseCutoff="1.0000000000000000"/>
      <sparseX i="209" alpha="35672.774233358898" sparseCutoff="1.0000000000000000"/>
      <sparseX i="210" alpha="-18025.505821647846" sparseCutoff="1.0000000000000000"/>
      <sparseX i="211" alpha="-8882.9286158273208" sparseCutoff="1.0000000000000000"/>
      <sparseX i="212" alpha="145710.68287247495" sparseCutoff="1.0000000000000000"/>
      <sparseX i="213" alpha="-58244.855003495933" sparseCutoff="1.0000000000000000"/>
      <sparseX i="214" alpha="-37131.437178248772" sparseCutoff="1.0000000000000000"/>
      <sparseX i="215" alpha="-25377.626534866176" sparseCutoff="1.0000000000000000"/>
      <sparseX i="216" alpha="-639376.25707170554" sparseCutoff="1.0000000000000000"/>
      <sparseX i="217" alpha="-59648.355035690467" sparseCutoff="1.0000000000000000"/>
      <sparseX i="218" alpha="105853.70276379096" sparseCutoff="1.0000000000000000"/>
      <sparseX i="219" alpha="179250.92641600722" sparseCutoff="1.0000000000000000"/>
      <sparseX i="220" alpha="25955.412901982378" sparseCutoff="1.0000000000000000"/>
      <sparseX i="221" alpha="-19519.367279329344" sparseCutoff="1.0000000000000000"/>
      <sparseX i="222" alpha="-61863.719706414457" sparseCutoff="1.0000000000000000"/>
      <sparseX i="223" alpha="-11841.967596883569" sparseCutoff="1.0000000000000000"/>
      <sparseX i="224" alpha="119784.70507644114" sparseCutoff="1.0000000000000000"/>
      <sparseX i="225" alpha="11499.796974605581" sparseCutoff="1.0000000000000000"/>
      <sparseX i="226" alpha="134772.78434487214" sparseCutoff="1.0000000000000000"/>
      <sparseX i="227" alpha="-592.17596287769652" sparseCutoff="1.0000000000000000"/>
      <sparseX i="228" alpha="-4308.7633426766388" sparseCutoff="1.0000000000000000"/>
      <sparseX i="229" alpha="-8343.2423478951787" sparseCutoff="1.0000000000000000"/>
      <sparseX i="230" alpha="30998.463047986621" sparseCutoff="1.0000000000000000"/>
      <sparseX i="231" alpha="-1319.9991067148294" sparseCutoff="1.0000000000000000"/>
      <sparseX i="232" alpha="-4034.2450768629192" sparseCutoff="1.0000000000000000"/>
      <sparseX i="233" alpha="9537.2615505139311" sparseCutoff="1.0000000000000000"/>
      <sparseX i="234" alpha="196928.26140096912" sparseCutoff="1.0000000000000000"/>
      <sparseX i="235" alpha="-37705.864407732537" sparseCutoff="1.0000000000000000"/>
      <sparseX i="236" alpha="-18630.688484110462" sparseCutoff="1.0000000000000000"/>
      <sparseX i="237" alpha="-77504.159298311526" sparseCutoff="1.0000000000000000"/>
      <sparseX i="238" alpha="-58393.814521438217" sparseCutoff="1.0000000000000000"/>
      <sparseX i="239" alpha="27427.879831711132" sparseCutoff="1.0000000000000000"/>
      <sparseX i="240" alpha="-3106.4168583632227" sparseCutoff="1.0000000000000000"/>
      <sparseX i="241" alpha="97226.419732127382" sparseCutoff="1.0000000000000000"/>
      <sparseX i="242" alpha="-33377.739617621271" sparseCutoff="1.0000000000000000"/>
      <sparseX i="243" alpha="39383.791004411352" sparseCutoff="1.0000000000000000"/>
      <sparseX i="244" alpha="-27522.993749395198" sparseCutoff="1.0000000000000000"/>
      <sparseX i="245" alpha="-2127.7491204397120" sparseCutoff="1.0000000000000000"/>
      <sparseX i="246" alpha="28891.222865958647" sparseCutoff="1.0000000000000000"/>
      <sparseX i="247" alpha="3687.4730668340826" sparseCutoff="1.0000000000000000"/>
      <sparseX i="248" alpha="-15309.737023659112" sparseCutoff="1.0000000000000000"/>
      <sparseX i="249" alpha="178186.11090100257" sparseCutoff="1.0000000000000000"/>
      <sparseX i="250" alpha="15168.798336690554" sparseCutoff="1.0000000000000000"/>
      <sparseX i="251" alpha="4268.5925482469129" sparseCutoff="1.0000000000000000"/>
      <sparseX i="252" alpha="64791.143902280462" sparseCutoff="1.0000000000000000"/>
      <sparseX i="253" alpha="15669.468704185039" sparseCutoff="1.0000000000000000"/>
      <sparseX i="254" alpha="-59206.793276947959" sparseCutoff="1.0000000000000000"/>
      <sparseX i="255" alpha="-40423.449058860409" sparseCutoff="1.0000000000000000"/>
      <sparseX i="256" alpha="-44527.737288365985" sparseCutoff="1.0000000000000000"/>
      <sparseX i="257" alpha="7881.2807801631425" sparseCutoff="1.0000000000000000"/>
      <sparseX i="258" alpha="12221.593595207698" sparseCutoff="1.0000000000000000"/>
      <sparseX i="259" alpha="5599.9704165570083" sparseCutoff="1.0000000000000000"/>
      <sparseX i="260" alpha="12311.579295994901" sparseCutoff="1.0000000000000000"/>
      <sparseX i="261" alpha="67428.945729800791" sparseCutoff="1.0000000000000000"/>
      <sparseX i="262" alpha="-107267.74729999667" sparseCutoff="1.0000000000000000"/>
      <sparseX i="263" alpha="-5660.5137494157680" sparseCutoff="1.0000000000000000"/>
      <sparseX i="264" alpha="42339.267353200012" sparseCutoff="1.0000000000000000"/>
      <sparseX i="265" alpha="-27867.510053550181" sparseCutoff="1.0000000000000000"/>
      <sparseX i="266" alpha="-68736.010655095059" sparseCutoff="1.0000000000000000"/>
      <sparseX i="267" alpha="-32685.730211164551" sparseCutoff="1.0000000000000000"/>
      <sparseX i="268" alpha="17938.637177804492" sparseCutoff="1.0000000000000000"/>
      <sparseX i="269" alpha="22435.904301337021" sparseCutoff="1.0000000000000000"/>
      <sparseX i="270" alpha="-4542.5868304959531" sparseCutoff="1.0000000000000000"/>
      <sparseX i="271" alpha="-70642.933104909520" sparseCutoff="1.0000000000000000"/>
      <sparseX i="272" alpha="71239.040387206129" sparseCutoff="1.0000000000000000"/>
      <sparseX i="273" alpha="-21012.409432921377" sparseCutoff="1.0000000000000000"/>
      <sparseX i="274" alpha="-18954.681654553970" sparseCutoff="1.0000000000000000"/>
      <sparseX i="275" alpha="26765.220921011813" sparseCutoff="1.0000000000000000"/>
      <sparseX i="276" alpha="53156.813265972385" sparseCutoff="1.0000000000000000"/>
      <sparseX i="277" alpha="150045.11984683937" sparseCutoff="1.0000000000000000"/>
      <sparseX i="278" alpha="-25904.605444767829" sparseCutoff="1.0000000000000000"/>
      <sparseX i="279" alpha="-1240.2508430698076" sparseCutoff="1.0000000000000000"/>
      <sparseX i="280" alpha="-2491.9187064242697" sparseCutoff="1.0000000000000000"/>
      <sparseX i="281" alpha="68602.460847501599" sparseCutoff="1.0000000000000000"/>
      <sparseX i="282" alpha="-111608.90563519778" sparseCutoff="1.0000000000000000"/>
      <sparseX i="283" alpha="7089.4897699279982" sparseCutoff="1.0000000000000000"/>
      <sparseX i="284" alpha="-24496.089271363278" sparseCutoff="1.0000000000000000"/>
      <sparseX i="285" alpha="1260.4463951941625" sparseCutoff="1.0000000000000000"/>
      <sparseX i="286" alpha="5581.5776876767859" sparseCutoff="1.0000000000000000"/>
      <sparseX i="287" alpha="106138.51567531459" sparseCutoff="1.0000000000000000"/>
      <sparseX i="288" alpha="-4217.0827591382731" sparseCutoff="1.0000000000000000"/>
      <sparseX i="289" alpha="1011.1194133783608" sparseCutoff="1.0000000000000000"/>
      <sparseX i="290" alpha="28443.588155993617" sparseCutoff="1.0000000000000000"/>
      <sparseX i="291" alpha="139461.67627299362" sparseCutoff="1.0000000000000000"/>
      <sparseX i="292" alpha="-95241.100618441924" sparseCutoff="1.0000000000000000"/>
      <sparseX i="293" alpha="66552.764085334595" sparseCutoff="1.0000000000000000"/>
      <sparseX i="294" alpha="-43870.728192663395" sparseCutoff="1.0000000000000000"/>
      <sparseX i="295" alpha="30499.134032782229" sparseCutoff="1.0000000000000000"/>
      <sparseX i="296" alpha="-183818.01960331164" sparseCutoff="1.0000000000000000"/>
      <sparseX i="297" alpha="-56626.345952060001" sparseCutoff="1.0000000000000000"/>
      <sparseX i="298" alpha="24809.993291417126" sparseCutoff="1.0000000000000000"/>
      <sparseX i="299" alpha="48054.591135439587" sparseCutoff="1.0000000000000000"/>
      <sparseX i="300" alpha="-14478.305331131840" sparseCutoff="1.0000000000000000"/>
      <sparseX i="301" alpha="33632.241881866466" sparseCutoff="1.0000000000000000"/>
      <sparseX i="302" alpha="7505.4187739028084" sparseCutoff="1.0000000000000000"/>
      <sparseX i="303" alpha="-12181.456967404880" sparseCutoff="1.0000000000000000"/>
      <sparseX i="304" alpha="-112742.29830975378" sparseCutoff="1.0000000000000000"/>
      <sparseX i="305" alpha="-23082.098669064337" sparseCutoff="1.0000000000000000"/>
      <sparseX i="306" alpha="108787.21527996669" sparseCutoff="1.0000000000000000"/>
      <sparseX i="307" alpha="-15719.803127836138" sparseCutoff="1.0000000000000000"/>
      <sparseX i="308" alpha="-54764.202628473016" sparseCutoff="1.0000000000000000"/>
      <sparseX i="309" alpha="-40422.844712981445" sparseCutoff="1.0000000000000000"/>
      <sparseX i="310" alpha="45192.991046823015" sparseCutoff="1.0000000000000000"/>
      <sparseX i="311" alpha="16335.830610420391" sparseCutoff="1.0000000000000000"/>
      <sparseX i="312" alpha="16038.569003801951" sparseCutoff="1.0000000000000000"/>
      <sparseX i="313" alpha="34852.327930834464" sparseCutoff="1.0000000000000000"/>
      <sparseX i="314" alpha="7300.9181327087917" sparseCutoff="1.0000000000000000"/>
      <sparseX i="315" alpha="-53612.272218789760" sparseCutoff="1.0000000000000000"/>
      <sparseX i="316" alpha="-40180.760875448308" sparseCutoff="1.0000000000000000"/>
      <sparseX i="317" alpha="-2786.0520261707898" sparseCutoff="1.0000000000000000"/>
      <sparseX i="318" alpha="-39246.629777018941" sparseCutoff="1.0000000000000000"/>
      <sparseX i="319" alpha="-11095.462823074506" sparseCutoff="1.0000000000000000"/>
      <sparseX i="320" alpha="594.31465294344355" sparseCutoff="1.0000000000000000"/>
      <sparseX i="321" alpha="8314.6156754059302" sparseCutoff="1.0000000000000000"/>
      <sparseX i="322" alpha="-4511.1564809221327" sparseCutoff="1.0000000000000000"/>
      <sparseX i="323" alpha="46833.066410202780" sparseCutoff="1.0000000000000000"/>
      <sparseX i="324" alpha="-15515.596279727530" sparseCutoff="1.0000000000000000"/>
      <sparseX i="325" alpha="-16847.904050984285" sparseCutoff="1.0000000000000000"/>
      <sparseX i="326" alpha="-75415.048088813244" sparseCutoff="1.0000000000000000"/>
      <sparseX i="327" alpha="-23984.877670557933" sparseCutoff="1.0000000000000000"/>
      <sparseX i="328" alpha="-33035.741069217162" sparseCutoff="1.0000000000000000"/>
      <sparseX i="329" alpha="-38443.159206721815" sparseCutoff="1.0000000000000000"/>
      <sparseX i="330" alpha="-21582.148269402733" sparseCutoff="1.0000000000000000"/>
      <sparseX i="331" alpha="18059.553649212779" sparseCutoff="1.0000000000000000"/>
      <sparseX i="332" alpha="-158575.25583238128" sparseCutoff="1.0000000000000000"/>
      <sparseX i="333" alpha="123365.22384273866" sparseCutoff="1.0000000000000000"/>
      <sparseX i="334" alpha="-40891.664824203646" sparseCutoff="1.0000000000000000"/>
      <sparseX i="335" alpha="-20807.045513400415" sparseCutoff="1.0000000000000000"/>
      <sparseX i="336" alpha="-47829.958378895433" sparseCutoff="1.0000000000000000"/>
      <sparseX i="337" alpha="-27593.582380682939" sparseCutoff="1.0000000000000000"/>
      <sparseX i="338" alpha="-34869.859870511427" sparseCutoff="1.0000000000000000"/>
      <sparseX i="339" alpha="7438.5624579487157" sparseCutoff="1.0000000000000000"/>
      <sparseX i="340" alpha="-48759.263817086081" sparseCutoff="1.0000000000000000"/>
      <sparseX i="341" alpha="-17564.993647776275" sparseCutoff="1.0000000000000000"/>
      <sparseX i="342" alpha="-3778.2565434123776" sparseCutoff="1.0000000000000000"/>
      <sparseX i="343" alpha="-77662.745548998399" sparseCutoff="1.0000000000000000"/>
      <sparseX i="344" alpha="-54703.939992945161" sparseCutoff="1.0000000000000000"/>
      <sparseX i="345" alpha="-11015.278065865301" sparseCutoff="1.0000000000000000"/>
      <sparseX i="346" alpha="51955.605764832355" sparseCutoff="1.0000000000000000"/>
      <sparseX i="347" alpha="-27593.084145758567" sparseCutoff="1.0000000000000000"/>
      <sparseX i="348" alpha="-33413.543986519537" sparseCutoff="1.0000000000000000"/>
      <sparseX i="349" alpha="-137464.95618534950" sparseCutoff="1.0000000000000000"/>
      <sparseX i="350" alpha="-511791.45642766799" sparseCutoff="1.0000000000000000"/>
      <sparseX i="351" alpha="20683.414972049901" sparseCutoff="1.0000000000000000"/>
      <sparseX i="352" alpha="37258.032693415727" sparseCutoff="1.0000000000000000"/>
      <sparseX i="353" alpha="100123.25397324449" sparseCutoff="1.0000000000000000"/>
      <sparseX i="354" alpha="-1486.1943572201722" sparseCutoff="1.0000000000000000"/>
      <sparseX i="355" alpha="15225.104960335513" sparseCutoff="1.0000000000000000"/>
      <sparseX i="356" alpha="-6197.1794529002946" sparseCutoff="1.0000000000000000"/>
      <sparseX i="357" alpha="-191306.01527333035" sparseCutoff="1.0000000000000000"/>
      <sparseX i="358" alpha="15494.606195183364" sparseCutoff="1.0000000000000000"/>
      <sparseX i="359" alpha="-3485.8885220479074" sparseCutoff="1.0000000000000000"/>
      <sparseX i="360" alpha="-22117.941662979923" sparseCutoff="1.0000000000000000"/>
      <sparseX i="361" alpha="10049.258117096711" sparseCutoff="1.0000000000000000"/>
      <sparseX i="362" alpha="-142217.72631508115" sparseCutoff="1.0000000000000000"/>
      <sparseX i="363" alpha="-123102.28319912552" sparseCutoff="1.0000000000000000"/>
      <sparseX i="364" alpha="-204328.89793554434" sparseCutoff="1.0000000000000000"/>
      <sparseX i="365" alpha="249848.74637760987" sparseCutoff="1.0000000000000000"/>
      <sparseX i="366" alpha="-199975.54673700052" sparseCutoff="1.0000000000000000"/>
      <sparseX i="367" alpha="397506.66781288909" sparseCutoff="1.0000000000000000"/>
      <sparseX i="368" alpha="-2958.4585803110867" sparseCutoff="1.0000000000000000"/>
      <sparseX i="369" alpha="-17882.945630855938" sparseCutoff="1.0000000000000000"/>
      <sparseX i="370" alpha="-99542.523795893823" sparseCutoff="1.0000000000000000"/>
      <sparseX i="371" alpha="1172.2914436330971" sparseCutoff="1.0000000000000000"/>
      <sparseX i="372" alpha="185379.63479670745" sparseCutoff="1.0000000000000000"/>
      <sparseX i="373" alpha="215406.14135625641" sparseCutoff="1.0000000000000000"/>
      <sparseX i="374" alpha="-7491.4170027222945" sparseCutoff="1.0000000000000000"/>
      <sparseX i="375" alpha="-333235.01935371832" sparseCutoff="1.0000000000000000"/>
      <sparseX i="376" alpha="-64953.692810642278" sparseCutoff="1.0000000000000000"/>
      <sparseX i="377" alpha="-194169.17518559736" sparseCutoff="1.0000000000000000"/>
      <sparseX i="378" alpha="380509.84489280201" sparseCutoff="1.0000000000000000"/>
      <sparseX i="379" alpha="-129775.14542437094" sparseCutoff="1.0000000000000000"/>
      <sparseX i="380" alpha="-21437.295069184765" sparseCutoff="1.0000000000000000"/>
      <sparseX i="381" alpha="236741.72436891845" sparseCutoff="1.0000000000000000"/>
      <sparseX i="382" alpha="386973.15891978005" sparseCutoff="1.0000000000000000"/>
      <sparseX i="383" alpha="-218914.52589428000" sparseCutoff="1.0000000000000000"/>
      <sparseX i="384" alpha="25667.395625287445" sparseCutoff="1.0000000000000000"/>
      <sparseX i="385" alpha="-191611.54187374754" sparseCutoff="1.0000000000000000"/>
      <sparseX i="386" alpha="149364.22872861271" sparseCutoff="1.0000000000000000"/>
      <sparseX i="387" alpha="698208.67007693427" sparseCutoff="1.0000000000000000"/>
      <sparseX i="388" alpha="53534.740020371646" sparseCutoff="1.0000000000000000"/>
      <sparseX i="389" alpha="357118.62243609846" sparseCutoff="1.0000000000000000"/>
      <sparseX i="390" alpha="-284747.12118879444" sparseCutoff="1.0000000000000000"/>
      <sparseX i="391" alpha="-128870.84068209883" sparseCutoff="1.0000000000000000"/>
      <sparseX i="392" alpha="-123959.53294232278" sparseCutoff="1.0000000000000000"/>
      <sparseX i="393" alpha="38444.602290530340" sparseCutoff="1.0000000000000000"/>
      <sparseX i="394" alpha="27425.665035490430" sparseCutoff="1.0000000000000000"/>
      <sparseX i="395" alpha="-31151.376924737611" sparseCutoff="1.0000000000000000"/>
      <sparseX i="396" alpha="166033.65090235864" sparseCutoff="1.0000000000000000"/>
      <sparseX i="397" alpha="-60896.730367324446" sparseCutoff="1.0000000000000000"/>
      <sparseX i="398" alpha="-50239.803838153908" sparseCutoff="1.0000000000000000"/>
      <sparseX i="399" alpha="71573.354947467116" sparseCutoff="1.0000000000000000"/>
      <sparseX i="400" alpha="24988.663282150956" sparseCutoff="1.0000000000000000"/>
      <sparseX i="401" alpha="-258046.31198360343" sparseCutoff="1.0000000000000000"/>
      <sparseX i="402" alpha="-78442.695885829758" sparseCutoff="1.0000000000000000"/>
      <sparseX i="403" alpha="-530119.22280688316" sparseCutoff="1.0000000000000000"/>
      <sparseX i="404" alpha="71177.914300469085" sparseCutoff="1.0000000000000000"/>
      <sparseX i="405" alpha="-133690.80671506046" sparseCutoff="1.0000000000000000"/>
      <sparseX i="406" alpha="-31992.105360159483" sparseCutoff="1.0000000000000000"/>
      <sparseX i="407" alpha="147432.57201735387" sparseCutoff="1.0000000000000000"/>
      <sparseX i="408" alpha="43280.577901003962" sparseCutoff="1.0000000000000000"/>
      <sparseX i="409" alpha="4649.7610651725481" sparseCutoff="1.0000000000000000"/>
      <sparseX i="410" alpha="64186.851144113120" sparseCutoff="1.0000000000000000"/>
      <sparseX i="411" alpha="-463781.70984017174" sparseCutoff="1.0000000000000000"/>
      <sparseX i="412" alpha="-108587.36176917613" sparseCutoff="1.0000000000000000"/>
      <sparseX i="413" alpha="52842.527902200469" sparseCutoff="1.0000000000000000"/>
      <sparseX i="414" alpha="-124093.73721176546" sparseCutoff="1.0000000000000000"/>
      <sparseX i="415" alpha="98208.463627699835" sparseCutoff="1.0000000000000000"/>
      <sparseX i="416" alpha="-162294.64832543462" sparseCutoff="1.0000000000000000"/>
      <sparseX i="417" alpha="588471.98741024313" sparseCutoff="1.0000000000000000"/>
      <sparseX i="418" alpha="-19016.037912147218" sparseCutoff="1.0000000000000000"/>
      <sparseX i="419" alpha="-216361.33807457387" sparseCutoff="1.0000000000000000"/>
      <sparseX i="420" alpha="-248200.97208896451" sparseCutoff="1.0000000000000000"/>
      <sparseX i="421" alpha="-59542.767892838681" sparseCutoff="1.0000000000000000"/>
      <sparseX i="422" alpha="-613.09425115936085" sparseCutoff="1.0000000000000000"/>
      <sparseX i="423" alpha="62899.264901343042" sparseCutoff="1.0000000000000000"/>
      <sparseX i="424" alpha="162535.67603132667" sparseCutoff="1.0000000000000000"/>
      <sparseX i="425" alpha="-357181.43778767041" sparseCutoff="1.0000000000000000"/>
      <sparseX i="426" alpha="128695.30987002938" sparseCutoff="1.0000000000000000"/>
      <sparseX i="427" alpha="-9127.1114488359217" sparseCutoff="1.0000000000000000"/>
      <sparseX i="428" alpha="-225879.44126654838" sparseCutoff="1.0000000000000000"/>
      <sparseX i="429" alpha="128320.76679856701" sparseCutoff="1.0000000000000000"/>
      <sparseX i="430" alpha="-11390.914662219377" sparseCutoff="1.0000000000000000"/>
      <sparseX i="431" alpha="67321.286829965014" sparseCutoff="1.0000000000000000"/>
      <sparseX i="432" alpha="73553.751155735023" sparseCutoff="1.0000000000000000"/>
      <sparseX i="433" alpha="69495.603644446164" sparseCutoff="1.0000000000000000"/>
      <sparseX i="434" alpha="416842.16341850115" sparseCutoff="1.0000000000000000"/>
      <sparseX i="435" alpha="229356.20921833618" sparseCutoff="1.0000000000000000"/>
      <sparseX i="436" alpha="63345.622505580832" sparseCutoff="1.0000000000000000"/>
      <sparseX i="437" alpha="107790.82771750339" sparseCutoff="1.0000000000000000"/>
      <sparseX i="438" alpha="-81806.586749297858" sparseCutoff="1.0000000000000000"/>
      <sparseX i="439" alpha="211188.94031352689" sparseCutoff="1.0000000000000000"/>
      <sparseX i="440" alpha="-64005.405699046627" sparseCutoff="1.0000000000000000"/>
      <sparseX i="441" alpha="-103828.48676073528" sparseCutoff="1.0000000000000000"/>
      <sparseX i="442" alpha="54178.710298964979" sparseCutoff="1.0000000000000000"/>
      <sparseX i="443" alpha="239764.21572368423" sparseCutoff="1.0000000000000000"/>
      <sparseX i="444" alpha="-133313.33200654353" sparseCutoff="1.0000000000000000"/>
      <sparseX i="445" alpha="-66805.883190093460" sparseCutoff="1.0000000000000000"/>
      <sparseX i="446" alpha="-155188.97296060281" sparseCutoff="1.0000000000000000"/>
      <sparseX i="447" alpha="-99400.102728591562" sparseCutoff="1.0000000000000000"/>
      <sparseX i="448" alpha="195899.39527858686" sparseCutoff="1.0000000000000000"/>
      <sparseX i="449" alpha="-27108.969252701212" sparseCutoff="1.0000000000000000"/>
      <sparseX i="450" alpha="1159.9067984860824" sparseCutoff="1.0000000000000000"/>
      <sparseX i="451" alpha="97550.305325405963" sparseCutoff="1.0000000000000000"/>
      <sparseX i="452" alpha="1814.0505747181362" sparseCutoff="1.0000000000000000"/>
      <sparseX i="453" alpha="253398.53469472329" sparseCutoff="1.0000000000000000"/>
      <sparseX i="454" alpha="-46605.044961245403" sparseCutoff="1.0000000000000000"/>
      <sparseX i="455" alpha="-175950.69151369599" sparseCutoff="1.0000000000000000"/>
      <sparseX i="456" alpha="135509.48709202048" sparseCutoff="1.0000000000000000"/>
      <sparseX i="457" alpha="-236031.18497790096" sparseCutoff="1.0000000000000000"/>
      <sparseX i="458" alpha="-82941.133395430006" sparseCutoff="1.0000000000000000"/>
      <sparseX i="459" alpha="-71358.946180370243" sparseCutoff="1.0000000000000000"/>
      <sparseX i="460" alpha="132373.18677115301" sparseCutoff="1.0000000000000000"/>
      <sparseX i="461" alpha="-31264.378664017553" sparseCutoff="1.0000000000000000"/>
      <sparseX i="462" alpha="63729.427151880373" sparseCutoff="1.0000000000000000"/>
      <sparseX i="463" alpha="-66436.056649838021" sparseCutoff="1.0000000000000000"/>
      <sparseX i="464" alpha="-5465.4687187822392" sparseCutoff="1.0000000000000000"/>
      <sparseX i="465" alpha="62641.596945883743" sparseCutoff="1.0000000000000000"/>
      <sparseX i="466" alpha="274932.28859413927" sparseCutoff="1.0000000000000000"/>
      <sparseX i="467" alpha="12147.239693806201" sparseCutoff="1.0000000000000000"/>
      <sparseX i="468" alpha="-219456.47624406667" sparseCutoff="1.0000000000000000"/>
      <sparseX i="469" alpha="-26703.709105924030" sparseCutoff="1.0000000000000000"/>
      <sparseX i="470" alpha="112523.99057026781" sparseCutoff="1.0000000000000000"/>
      <sparseX i="471" alpha="87114.116521775475" sparseCutoff="1.0000000000000000"/>
      <sparseX i="472" alpha="36643.906614316220" sparseCutoff="1.0000000000000000"/>
      <sparseX i="473" alpha="-97272.494299779457" sparseCutoff="1.0000000000000000"/>
      <sparseX i="474" alpha="270152.44535681285" sparseCutoff="1.0000000000000000"/>
      <sparseX i="475" alpha="-60966.057729435757" sparseCutoff="1.0000000000000000"/>
      <sparseX i="476" alpha="55493.705538092458" sparseCutoff="1.0000000000000000"/>
      <sparseX i="477" alpha="151649.01322996576" sparseCutoff="1.0000000000000000"/>
      <sparseX i="478" alpha="56635.246212319165" sparseCutoff="1.0000000000000000"/>
      <sparseX i="479" alpha="135162.37154687769" sparseCutoff="1.0000000000000000"/>
      <sparseX i="480" alpha="-67909.681705593597" sparseCutoff="1.0000000000000000"/>
      <sparseX i="481" alpha="-102323.55617497741" sparseCutoff="1.0000000000000000"/>
      <sparseX i="482" alpha="-7322.0107245927220" sparseCutoff="1.0000000000000000"/>
      <sparseX i="483" alpha="94967.778367078659" sparseCutoff="1.0000000000000000"/>
      <sparseX i="484" alpha="227421.65419932790" sparseCutoff="1.0000000000000000"/>
      <sparseX i="485" alpha="11662.890791149448" sparseCutoff="1.0000000000000000"/>
      <sparseX i="486" alpha="-69779.354835001956" sparseCutoff="1.0000000000000000"/>
      <sparseX i="487" alpha="-46614.191307068366" sparseCutoff="1.0000000000000000"/>
      <sparseX i="488" alpha="157870.56249486588" sparseCutoff="1.0000000000000000"/>
      <sparseX i="489" alpha="-23266.881899926215" sparseCutoff="1.0000000000000000"/>
      <sparseX i="490" alpha="159645.99784547166" sparseCutoff="1.0000000000000000"/>
      <sparseX i="491" alpha="-65036.906937966676" sparseCutoff="1.0000000000000000"/>
      <sparseX i="492" alpha="86903.736091568091" sparseCutoff="1.0000000000000000"/>
      <sparseX i="493" alpha="30810.539442996549" sparseCutoff="1.0000000000000000"/>
      <sparseX i="494" alpha="-168760.02248587357" sparseCutoff="1.0000000000000000"/>
      <sparseX i="495" alpha="-34714.916694755833" sparseCutoff="1.0000000000000000"/>
      <sparseX i="496" alpha="28948.265574356450" sparseCutoff="1.0000000000000000"/>
      <sparseX i="497" alpha="-23958.752101738770" sparseCutoff="1.0000000000000000"/>
      <sparseX i="498" alpha="-209785.71829928859" sparseCutoff="1.0000000000000000"/>
      <sparseX i="499" alpha="-132300.64651157692" sparseCutoff="1.0000000000000000"/>
      <sparseX i="500" alpha="-59748.499529954759" sparseCutoff="1.0000000000000000"/>
    </gpCoordinates>
    <gpCoordinates label="GAP_2026_3_22_0_20_43_31_3748" dimensions="75" signal_variance=".10000000000000001E+000" signal_mean=".00000000000000000E+000" sparsified="T" n_permutations="1" covariance_type="2" zeta="4.0000000000000000" n_sparseX="500" sparseX_filename="CH.xml.sparseX.GAP_2026_3_22_0_20_43_31_3748" sparseX_md5sum="c70c3767772e67e2bb1a0234d90fa260">
      <descriptor> soap_turbo l_max=4 alpha_max={4 4} atom_sigma_r={0.2 0.2} atom_sigma_t={0.2 0.2} atom_sigma_r_scaling={0.1 0.1} atom_sigma_t_scaling={0.1 0.1} zeta=4 rcut_hard=4.0 rcut_soft=3.5 basis=poly3gauss scaling_mode=polynomial add_species=F amplitude_scaling={2.0 2.0} n_species=2 species_Z={1 6} central_index=2 radial_enhancement=1 compress_mode=trivial central_weight={1.0 1.0} n_sparse=500 delta=0.1 f0=0.0 covariance_type=dot_product sparse_method=cur_points</descriptor>
      <permutation i="1">1  </permutation>
      <sparseX i="1" alpha="-70573.276211854507" sparseCutoff="1.0000000000000000"/>
      <sparseX i="2" alpha="-894348.14275609620" sparseCutoff="1.0000000000000000"/>
      <sparseX i="3" alpha="1122004.4286415593" sparseCutoff="1.0000000000000000"/>
      <sparseX i="4" alpha="228026.02116847507" sparseCutoff="1.0000000000000000"/>
      <sparseX i="5" alpha="97490.065890267942" sparseCutoff="1.0000000000000000"/>
      <sparseX i="6" alpha="-5885.6488561223869" sparseCutoff="1.0000000000000000"/>
      <sparseX i="7" alpha="1619.3369740467804" sparseCutoff="1.0000000000000000"/>
      <sparseX i="8" alpha="883262.98651119019" sparseCutoff="1.0000000000000000"/>
      <sparseX i="9" alpha="-38463.092206047331" sparseCutoff="1.0000000000000000"/>
      <sparseX i="10" alpha="-1020930.1342306578" sparseCutoff="1.0000000000000000"/>
      <sparseX i="11" alpha="-67018.843236553395" sparseCutoff="1.0000000000000000"/>
      <sparseX i="12" alpha="-67908.228179574508" sparseCutoff="1.0000000000000000"/>
      <sparseX i="13" alpha="31030.839145210695" sparseCutoff="1.0000000000000000"/>
      <sparseX i="14" alpha="4724.9584926350617" sparseCutoff="1.0000000000000000"/>
      <sparseX i="15" alpha="-155780.86435887578" sparseCutoff="1.0000000000000000"/>
      <sparseX i="16" alpha="56134.663329513169" sparseCutoff="1.0000000000000000"/>
      <sparseX i="17" alpha="-23854.875931159895" sparseCutoff="1.0000000000000000"/>
      <sparseX i="18" alpha="88257.081186993048" sparseCutoff="1.0000000000000000"/>
      <sparseX i="19" alpha="3369.8301355978042" sparseCutoff="1.0000000000000000"/>
      <sparseX i="20" alpha="-73691.962471027509" sparseCutoff="1.0000000000000000"/>
      <sparseX i="21" alpha="-4787.7477279023833" sparseCutoff="1.0000000000000000"/>
      <sparseX i="22" alpha="-78279.906858232876" sparseCutoff="1.0000000000000000"/>
      <sparseX i="23" alpha="-320031.93649805279" sparseCutoff="1.0000000000000000"/>
      <sparseX i="24" alpha="942116.50844447513" sparseCutoff="1.0000000000000000"/>
      <sparseX i="25" alpha="140760.06331143953" sparseCutoff="1.0000000000000000"/>
      <sparseX i="26" alpha="-112972.33999007205" sparseCutoff="1.0000000000000000"/>
      <sparseX i="27" alpha="-21607.768745162026" sparseCutoff="1.0000000000000000"/>
      <sparseX i="28" alpha="177362.26338888888" sparseCutoff="1.0000000000000000"/>
      <sparseX i="29" alpha="773306.60908909026" sparseCutoff="1.0000000000000000"/>
      <sparseX i="30" alpha="-444003.89384366095" sparseCutoff="1.0000000000000000"/>
      <sparseX i="31" alpha="3907.0610365024768" sparseCutoff="1.0000000000000000"/>
      <sparseX i="32" alpha="-7284.2633880222311" sparseCutoff="1.0000000000000000"/>
      <sparseX i="33" alpha="79566.272195374113" sparseCutoff="1.0000000000000000"/>
      <sparseX i="34" alpha="-734.04755085974659" sparseCutoff="1.0000000000000000"/>
      <sparseX i="35" alpha="16554.484993856684" sparseCutoff="1.0000000000000000"/>
      <sparseX i="36" alpha="211.67981731200786" sparseCutoff="1.0000000000000000"/>
      <sparseX i="37" alpha="-558.53064010695971" sparseCutoff="1.0000000000000000"/>
      <sparseX i="38" alpha="22196.273667835667" sparseCutoff="1.0000000000000000"/>
      <sparseX i="39" alpha="-1276779.7033538520" sparseCutoff="1.0000000000000000"/>
      <sparseX i="40" alpha="-2974.4106079374142" sparseCutoff="1.0000000000000000"/>
      <sparseX i="41" alpha="26554.181557746379" sparseCutoff="1.0000000000000000"/>
      <sparseX i="42" alpha="1442.3998481164381" sparseCutoff="1.0000000000000000"/>
      <sparseX i="43" alpha="93161.588347825294" sparseCutoff="1.0000000000000000"/>
      <sparseX i="44" alpha="674161.88849070668" sparseCutoff="1.0000000000000000"/>
      <sparseX i="45" alpha="-28710.894709779415" sparseCutoff="1.0000000000000000"/>
      <sparseX i="46" alpha="178579.78799251202" sparseCutoff="1.0000000000000000"/>
      <sparseX i="47" alpha="4538.0448393976530" sparseCutoff="1.0000000000000000"/>
      <sparseX i="48" alpha="-1260.5202948399412" sparseCutoff="1.0000000000000000"/>
      <sparseX i="49" alpha="-23442.797359640932" sparseCutoff="1.0000000000000000"/>
      <sparseX i="50" alpha="-530867.81560252898" sparseCutoff="1.0000000000000000"/>
      <sparseX i="51" alpha="-3787.0178164028944" sparseCutoff="1.0000000000000000"/>
      <sparseX i="52" alpha="4210.4334079695745" sparseCutoff="1.0000000000000000"/>
      <sparseX i="53" alpha="-88674.701917359140" sparseCutoff="1.0000000000000000"/>
      <sparseX i="54" alpha="59680.054633991298" sparseCutoff="1.0000000000000000"/>
      <sparseX i="55" alpha="-8434.7596837564633" sparseCutoff="1.0000000000000000"/>
      <sparseX i="56" alpha="1141929.7664829241" sparseCutoff="1.0000000000000000"/>
      <sparseX i="57" alpha="21418.604929926405" sparseCutoff="1.0000000000000000"/>
      <sparseX i="58" alpha="264245.72237970604" sparseCutoff="1.0000000000000000"/>
      <sparseX i="59" alpha="-13396.566185491443" sparseCutoff="1.0000000000000000"/>
      <sparseX i="60" alpha="20251.057697895663" sparseCutoff="1.0000000000000000"/>
      <sparseX i="61" alpha="-9249.8127557159878" sparseCutoff="1.0000000000000000"/>
      <sparseX i="62" alpha="-212891.24728533017" sparseCutoff="1.0000000000000000"/>
      <sparseX i="63" alpha="-792.43669685910163" sparseCutoff="1.0000000000000000"/>
      <sparseX i="64" alpha="16964.092704813913" sparseCutoff="1.0000000000000000"/>
      <sparseX i="65" alpha="-739.29437680305978" sparseCutoff="1.0000000000000000"/>
      <sparseX i="66" alpha="19560.067837481911" sparseCutoff="1.0000000000000000"/>
      <sparseX i="67" alpha="197293.80458107992" sparseCutoff="1.0000000000000000"/>
      <sparseX i="68" alpha="-10336.309012459637" sparseCutoff="1.0000000000000000"/>
      <sparseX i="69" alpha="-2794.9646602752887" sparseCutoff="1.0000000000000000"/>
      <sparseX i="70" alpha="6235.6081011302613" sparseCutoff="1.0000000000000000"/>
      <sparseX i="71" alpha="-506.30193701787005" sparseCutoff="1.0000000000000000"/>
      <sparseX i="72" alpha="-45058.245801294928" sparseCutoff="1.0000000000000000"/>
      <sparseX i="73" alpha="117038.02063459677" sparseCutoff="1.0000000000000000"/>
      <sparseX i="74" alpha="49505.023366841415" sparseCutoff="1.0000000000000000"/>
      <sparseX i="75" alpha="-11223.946737639921" sparseCutoff="1.0000000000000000"/>
      <sparseX i="76" alpha="-14383.813454254303" sparseCutoff="1.0000000000000000"/>
      <sparseX i="77" alpha="43218.737745417588" sparseCutoff="1.0000000000000000"/>
      <sparseX i="78" alpha="106828.56462719901" sparseCutoff="1.0000000000000000"/>
      <sparseX i="79" alpha="-63522.237397343488" sparseCutoff="1.0000000000000000"/>
      <sparseX i="80" alpha="-440604.82277031784" sparseCutoff="1.0000000000000000"/>
      <sparseX i="81" alpha="-144065.24780175110" sparseCutoff="1.0000000000000000"/>
      <sparseX i="82" alpha="-713723.63113998598" sparseCutoff="1.0000000000000000"/>
      <sparseX i="83" alpha="-195907.12410239506" sparseCutoff="1.0000000000000000"/>
      <sparseX i="84" alpha="614758.78540972725" sparseCutoff="1.0000000000000000"/>
      <sparseX i="85" alpha="-28375.816453291962" sparseCutoff="1.0000000000000000"/>
      <sparseX i="86" alpha="-72304.066613240968" sparseCutoff="1.0000000000000000"/>
      <sparseX i="87" alpha="274241.15937388048" sparseCutoff="1.0000000000000000"/>
      <sparseX i="88" alpha="67114.675799166376" sparseCutoff="1.0000000000000000"/>
      <sparseX i="89" alpha="-67201.679077283479" sparseCutoff="1.0000000000000000"/>
      <sparseX i="90" alpha="443953.74175429594" sparseCutoff="1.0000000000000000"/>
      <sparseX i="91" alpha="1119600.5351179470" sparseCutoff="1.0000000000000000"/>
      <sparseX i="92" alpha="3616.3997837479856" sparseCutoff="1.0000000000000000"/>
      <sparseX i="93" alpha="-28218.456000423303" sparseCutoff="1.0000000000000000"/>
      <sparseX i="94" alpha="-638238.05553115997" sparseCutoff="1.0000000000000000"/>
      <sparseX i="95" alpha="406127.95932846010" sparseCutoff="1.0000000000000000"/>
      <sparseX i="96" alpha="-35514.393052262792" sparseCutoff="1.0000000000000000"/>
      <sparseX i="97" alpha="-170501.03974384308" sparseCutoff="1.0000000000000000"/>
      <sparseX i="98" alpha="-15674.156438222759" sparseCutoff="1.0000000000000000"/>
