<GAP_2026_3_23_120_0_29_31_605>
<Potential label="GAP_2026_3_23_120_0_29_31_605" init_args="IP GAP label=GAP_2026_3_23_120_0_29_31_605"/>
<GAP_params label="GAP_2026_3_23_120_0_29_31_605" gap_version="1686220958">
  <GAP_data do_core="F">
    <e0 Z="1" value=".00000000000000000E+000"/>
    <e0 Z="2" value=".00000000000000000E+000"/>
    <e0 Z="3" value=".00000000000000000E+000"/>
    <e0 Z="4" value=".00000000000000000E+000"/>
    <e0 Z="5" value=".00000000000000000E+000"/>
    <e0 Z="6" value=".00000000000000000E+000"/>
    <e0 Z="7" value=".00000000000000000E+000"/>
    <e0 Z="8" value=".00000000000000000E+000"/>
    <e0 Z="9" value=".00000000000000000E+000"/>
    <e0 Z="10" value=".00000000000000000E+000"/>
    <e0 Z="11" value=".00000000000000000E+000"/>
    <e0 Z="12" value=".00000000000000000E+000"/>
    <e0 Z="13" value=".00000000000000000E+000"/>
    <e0 Z="14" value=".00000000000000000E+000"/>
    <e0 Z="15" value=".00000000000000000E+000"/>
    <e0 Z="16" value=".00000000000000000E+000"/>
    <e0 Z="17" value=".00000000000000000E+000"/>
    <e0 Z="18" value=".00000000000000000E+000"/>
    <e0 Z="19" value=".00000000000000000E+000"/>
    <e0 Z="20" value=".00000000000000000E+000"/>
    <e0 Z="21" value=".00000000000000000E+000"/>
    <e0 Z="22" value=".00000000000000000E+000"/>
    <e0 Z="23" value=".00000000000000000E+000"/>
    <e0 Z="24" value=".00000000000000000E+000"/>
    <e0 Z="25" value=".00000000000000000E+000"/>
    <e0 Z="26" value=".00000000000000000E+000"/>
    <e0 Z="27" value=".00000000000000000E+000"/>
    <e0 Z="28" value=".00000000000000000E+000"/>
    <e0 Z="29" value=".00000000000000000E+000"/>
    <e0 Z="30" value=".00000000000000000E+000"/>
    <e0 Z="31" value=".00000000000000000E+000"/>
    <e0 Z="32" value=".00000000000000000E+000"/>
    <e0 Z="33" value=".00000000000000000E+000"/>
    <e0 Z="34" value=".00000000000000000E+000"/>
    <e0 Z="35" value=".00000000000000000E+000"/>
    <e0 Z="36" value=".00000000000000000E+000"/>
    <e0 Z="37" value=".00000000000000000E+000"/>
    <e0 Z="38" value=".00000000000000000E+000"/>
    <e0 Z="39" value=".00000000000000000E+000"/>
    <e0 Z="40" value=".00000000000000000E+000"/>
    <e0 Z="41" value=".00000000000000000E+000"/>
    <e0 Z="42" value=".00000000000000000E+000"/>
    <e0 Z="43" value=".00000000000000000E+000"/>
    <e0 Z="44" value=".00000000000000000E+000"/>
    <e0 Z="45" value=".00000000000000000E+000"/>
    <e0 Z="46" value=".00000000000000000E+000"/>
    <e0 Z="47" value=".00000000000000000E+000"/>
    <e0 Z="48" value=".00000000000000000E+000"/>
    <e0 Z="49" value=".00000000000000000E+000"/>
    <e0 Z="50" value=".00000000000000000E+000"/>
    <e0 Z="51" value=".00000000000000000E+000"/>
    <e0 Z="52" value=".00000000000000000E+000"/>
    <e0 Z="53" value=".00000000000000000E+000"/>
    <e0 Z="54" value=".00000000000000000E+000"/>
    <e0 Z="55" value=".00000000000000000E+000"/>
    <e0 Z="56" value=".00000000000000000E+000"/>
    <e0 Z="57" value=".00000000000000000E+000"/>
    <e0 Z="58" value=".00000000000000000E+000"/>
    <e0 Z="59" value=".00000000000000000E+000"/>
    <e0 Z="60" value=".00000000000000000E+000"/>
    <e0 Z="61" value=".00000000000000000E+000"/>
    <e0 Z="62" value=".00000000000000000E+000"/>
    <e0 Z="63" value=".00000000000000000E+000"/>
    <e0 Z="64" value=".00000000000000000E+000"/>
    <e0 Z="65" value=".00000000000000000E+000"/>
    <e0 Z="66" value=".00000000000000000E+000"/>
    <e0 Z="67" value=".00000000000000000E+000"/>
    <e0 Z="68" value=".00000000000000000E+000"/>
    <e0 Z="69" value=".00000000000000000E+000"/>
    <e0 Z="70" value=".00000000000000000E+000"/>
    <e0 Z="71" value=".00000000000000000E+000"/>
    <e0 Z="72" value=".00000000000000000E+000"/>
    <e0 Z="73" value=".00000000000000000E+000"/>
    <e0 Z="74" value=".00000000000000000E+000"/>
    <e0 Z="75" value=".00000000000000000E+000"/>
    <e0 Z="76" value=".00000000000000000E+000"/>
    <e0 Z="77" value=".00000000000000000E+000"/>
    <e0 Z="78" value=".00000000000000000E+000"/>
    <e0 Z="79" value=".00000000000000000E+000"/>
    <e0 Z="80" value=".00000000000000000E+000"/>
    <e0 Z="81" value=".00000000000000000E+000"/>
    <e0 Z="82" value=".00000000000000000E+000"/>
    <e0 Z="83" value=".00000000000000000E+000"/>
    <e0 Z="84" value=".00000000000000000E+000"/>
    <e0 Z="85" value=".00000000000000000E+000"/>
    <e0 Z="86" value=".00000000000000000E+000"/>
    <e0 Z="87" value=".00000000000000000E+000"/>
    <e0 Z="88" value=".00000000000000000E+000"/>
    <e0 Z="89" value=".00000000000000000E+000"/>
    <e0 Z="90" value=".00000000000000000E+000"/>
    <e0 Z="91" value=".00000000000000000E+000"/>
    <e0 Z="92" value=".00000000000000000E+000"/>
    <e0 Z="93" value=".00000000000000000E+000"/>
    <e0 Z="94" value=".00000000000000000E+000"/>
    <e0 Z="95" value=".00000000000000000E+000"/>
    <e0 Z="96" value=".00000000000000000E+000"/>
    <e0 Z="97" value=".00000000000000000E+000"/>
    <e0 Z="98" value=".00000000000000000E+000"/>
    <e0 Z="99" value=".00000000000000000E+000"/>
    <e0 Z="100" value=".00000000000000000E+000"/>
    <e0 Z="101" value=".00000000000000000E+000"/>
    <e0 Z="102" value=".00000000000000000E+000"/>
    <e0 Z="103" value=".00000000000000000E+000"/>
    <e0 Z="104" value=".00000000000000000E+000"/>
    <e0 Z="105" value=".00000000000000000E+000"/>
    <e0 Z="106" value=".00000000000000000E+000"/>
    <e0 Z="107" value=".00000000000000000E+000"/>
    <e0 Z="108" value=".00000000000000000E+000"/>
    <e0 Z="109" value=".00000000000000000E+000"/>
    <e0 Z="110" value=".00000000000000000E+000"/>
    <e0 Z="111" value=".00000000000000000E+000"/>
    <e0 Z="112" value=".00000000000000000E+000"/>
    <e0 Z="113" value=".00000000000000000E+000"/>
    <e0 Z="114" value=".00000000000000000E+000"/>
    <e0 Z="115" value=".00000000000000000E+000"/>
    <e0 Z="116" value=".00000000000000000E+000"/>
    <e0 Z="117" value=".00000000000000000E+000"/>
    <e0 Z="118" value=".00000000000000000E+000"/>
  </GAP_data>
  <gpSparse label="GAP_2026_3_23_120_0_29_31_605" n_coordinate="8" fitted="T">
    <gpCoordinates label="GAP_2026_3_23_120_0_29_31_6051" dimensions="1" signal_variance=".50000000000000000" signal_mean=".00000000000000000E+000" sparsified="T" n_permutations="1" covariance_type="1" n_sparseX="30" sparseX_filename="CH.xml.sparseX.GAP_2026_3_23_120_0_29_31_6051" sparseX_md5sum="10c2c161cfd4fc9ea1fb5583ea9f5aff">
      <theta>  0.50000000000000000E+000 </theta>
      <descriptor> distance_2b Z1=1 Z2=1 cutoff=4.0 n_sparse=30 covariance_type=ard_se delta=0.5 theta_uniform=0.5 sparse_method=uniform add_species=F</descriptor>
      <permutation i="1">1  </permutation>
      <sparseX i="1" alpha="7191.3448095726735" sparseCutoff="1.0000000000000000"/>
      <sparseX i="2" alpha="1364.8647567084186" sparseCutoff="1.0000000000000000"/>
      <sparseX i="3" alpha="-10104.006169114933" sparseCutoff="1.0000000000000000"/>
      <sparseX i="4" alpha="-18024.407010519019" sparseCutoff="1.0000000000000000"/>
      <sparseX i="5" alpha="3351.5958164520125" sparseCutoff="1.0000000000000000"/>
      <sparseX i="6" alpha="39209.036106315485" sparseCutoff="1.0000000000000000"/>
      <sparseX i="7" alpha="-2235.0889674132923" sparseCutoff=".46938352210808698"/>
      <sparseX i="8" alpha="13181.186409489224" sparseCutoff="1.0000000000000000"/>
      <sparseX i="9" alpha="4417.0425538192630" sparseCutoff="1.0000000000000000"/>
      <sparseX i="10" alpha="3413.1078414824042" sparseCutoff="1.0000000000000000"/>
      <sparseX i="11" alpha="3459.8676690427378" sparseCutoff="1.0000000000000000"/>
      <sparseX i="12" alpha="17983.342284828541" sparseCutoff="1.0000000000000000"/>
      <sparseX i="13" alpha="-5941.0485083628391" sparseCutoff="1.0000000000000000"/>
      <sparseX i="14" alpha="5845.5279268230461" sparseCutoff="1.0000000000000000"/>
      <sparseX i="15" alpha="7283.0404279086033" sparseCutoff="1.0000000000000000"/>
      <sparseX i="16" alpha="-491.62981053099946" sparseCutoff="1.0000000000000000"/>
      <sparseX i="17" alpha="-33841.734866273080" sparseCutoff="1.0000000000000000"/>
      <sparseX i="18" alpha="25873.078129116377" sparseCutoff="1.0000000000000000"/>
      <sparseX i="19" alpha="-8377.6729849885505" sparseCutoff="1.0000000000000000"/>
      <sparseX i="20" alpha="7452.1878734194524" sparseCutoff="1.0000000000000000"/>
      <sparseX i="21" alpha="-6025.1364342476945" sparseCutoff="1.0000000000000000"/>
      <sparseX i="22" alpha="3483.5430749207994" sparseCutoff="1.0000000000000000"/>
      <sparseX i="23" alpha="1844.1033497756862" sparseCutoff=".13912203605103296"/>
      <sparseX i="24" alpha="2031.7061697218498" sparseCutoff=".43516165745445812E-002"/>
      <sparseX i="25" alpha="3186.4431327766606" sparseCutoff=".92908406827382795"/>
      <sparseX i="26" alpha="907.40650840393164" sparseCutoff="1.0000000000000000"/>
      <sparseX i="27" alpha="-6066.3183304361210" sparseCutoff="1.0000000000000000"/>
      <sparseX i="28" alpha="-33575.524384291712" sparseCutoff="1.0000000000000000"/>
      <sparseX i="29" alpha="15584.005103653091" sparseCutoff="1.0000000000000000"/>
      <sparseX i="30" alpha="-39295.104722030010" sparseCutoff="1.0000000000000000"/>
    </gpCoordinates>
    <gpCoordinates label="GAP_2026_3_23_120_0_29_31_6052" dimensions="1" signal_variance=".50000000000000000" signal_mean=".00000000000000000E+000" sparsified="T" n_permutations="1" covariance_type="1" n_sparseX="30" sparseX_filename="CH.xml.sparseX.GAP_2026_3_23_120_0_29_31_6052" sparseX_md5sum="a620d6bf710ddbb475c09a922508c12f">
      <theta>  0.50000000000000000E+000 </theta>
      <descriptor> distance_2b Z1=1 Z2=6 cutoff=4.0 n_sparse=30 covariance_type=ard_se delta=0.5 theta_uniform=0.5 sparse_method=uniform add_species=F</descriptor>
      <permutation i="1">1  </permutation>
      <sparseX i="1" alpha="-37679.707919508270" sparseCutoff="1.0000000000000000"/>
      <sparseX i="2" alpha="-70591.345385426379" sparseCutoff="1.0000000000000000"/>
      <sparseX i="3" alpha="3011.7843448873900" sparseCutoff=".22258383959701644"/>
      <sparseX i="4" alpha="-51250.646987798384" sparseCutoff="1.0000000000000000"/>
      <sparseX i="5" alpha="8171.9046658002144" sparseCutoff="1.0000000000000000"/>
      <sparseX i="6" alpha="25775.380864677187" sparseCutoff="1.0000000000000000"/>
      <sparseX i="7" alpha="95617.120301725401" sparseCutoff="1.0000000000000000"/>
      <sparseX i="8" alpha="-59367.378028044266" sparseCutoff="1.0000000000000000"/>
      <sparseX i="9" alpha="43179.662574573973" sparseCutoff="1.0000000000000000"/>
      <sparseX i="10" alpha="-7532.1750442466073" sparseCutoff="1.0000000000000000"/>
      <sparseX i="11" alpha="40192.373978495911" sparseCutoff="1.0000000000000000"/>
      <sparseX i="12" alpha="18317.144841892270" sparseCutoff="1.0000000000000000"/>
      <sparseX i="13" alpha="40833.665347460359" sparseCutoff="1.0000000000000000"/>
      <sparseX i="14" alpha="25821.069876262212" sparseCutoff="1.0000000000000000"/>
      <sparseX i="15" alpha="-6566.9835867916645" sparseCutoff=".78023269557719011"/>
      <sparseX i="16" alpha="19839.866089943549" sparseCutoff="1.0000000000000000"/>
      <sparseX i="17" alpha="20986.316129222290" sparseCutoff="1.0000000000000000"/>
      <sparseX i="18" alpha="1925.1228704197572" sparseCutoff=".42593568138239740"/>
      <sparseX i="19" alpha="-4614.8675312398482" sparseCutoff=".25139847583008856E-001"/>
      <sparseX i="20" alpha="-30853.540350377345" sparseCutoff="1.0000000000000000"/>
      <sparseX i="21" alpha="-41176.912457707003" sparseCutoff="1.0000000000000000"/>
      <sparseX i="22" alpha="42728.650941188906" sparseCutoff="1.0000000000000000"/>
      <sparseX i="23" alpha="-11555.767845153856" sparseCutoff="1.0000000000000000"/>
      <sparseX i="24" alpha="39774.558778701023" sparseCutoff="1.0000000000000000"/>
      <sparseX i="25" alpha="105844.79241999282" sparseCutoff="1.0000000000000000"/>
      <sparseX i="26" alpha="-106567.39875663597" sparseCutoff="1.0000000000000000"/>
      <sparseX i="27" alpha="-72340.183218734426" sparseCutoff="1.0000000000000000"/>
      <sparseX i="28" alpha="-75126.034410322492" sparseCutoff="1.0000000000000000"/>
      <sparseX i="29" alpha="42710.148567565033" sparseCutoff="1.0000000000000000"/>
      <sparseX i="30" alpha="-1168.2116613914129" sparseCutoff="1.0000000000000000"/>
    </gpCoordinates>
    <gpCoordinates label="GAP_2026_3_23_120_0_29_31_6053" dimensions="1" signal_variance=".50000000000000000" signal_mean=".00000000000000000E+000" sparsified="T" n_permutations="1" covariance_type="1" n_sparseX="30" sparseX_filename="CH.xml.sparseX.GAP_2026_3_23_120_0_29_31_6053" sparseX_md5sum="8861537dbbfc477b40aabd327756834a">
      <theta>  0.50000000000000000E+000 </theta>
      <descriptor> distance_2b Z1=6 Z2=6 cutoff=4.0 n_sparse=30 covariance_type=ard_se delta=0.5 theta_uniform=0.5 sparse_method=uniform add_species=F</descriptor>
      <permutation i="1">1  </permutation>
      <sparseX i="1" alpha="-94941.331391719476" sparseCutoff="1.0000000000000000"/>
      <sparseX i="2" alpha="37258.341809611185" sparseCutoff="1.0000000000000000"/>
      <sparseX i="3" alpha="71748.730347137433" sparseCutoff="1.0000000000000000"/>
      <sparseX i="4" alpha="46094.461581205185" sparseCutoff="1.0000000000000000"/>
      <sparseX i="5" alpha="-109218.77945811111" sparseCutoff="1.0000000000000000"/>
      <sparseX i="6" alpha="-70186.952435363608" sparseCutoff="1.0000000000000000"/>
      <sparseX i="7" alpha="-61481.095532785432" sparseCutoff="1.0000000000000000"/>
      <sparseX i="8" alpha="-45250.207670168362" sparseCutoff="1.0000000000000000"/>
      <sparseX i="9" alpha="237323.82720398321" sparseCutoff="1.0000000000000000"/>
      <sparseX i="10" alpha="45471.034821522364" sparseCutoff="1.0000000000000000"/>
      <sparseX i="11" alpha="21971.274902154830" sparseCutoff="1.0000000000000000"/>
      <sparseX i="12" alpha="112204.95634639586" sparseCutoff="1.0000000000000000"/>
      <sparseX i="13" alpha="-6035.4744754788699" sparseCutoff="1.0000000000000000"/>
      <sparseX i="14" alpha="19146.250221586892" sparseCutoff=".95476828743937103"/>
      <sparseX i="15" alpha="-2609.7847335898446" sparseCutoff="1.0000000000000000"/>
      <sparseX i="16" alpha="-10552.348376058015" sparseCutoff="1.0000000000000000"/>
      <sparseX i="17" alpha="19083.279273203098" sparseCutoff=".30195235793841535E-001"/>
      <sparseX i="18" alpha="-31552.308703196675" sparseCutoff="1.0000000000000000"/>
      <sparseX i="19" alpha="17936.498037698850" sparseCutoff=".45501701308447551E-001"/>
      <sparseX i="20" alpha="-94164.377868341282" sparseCutoff="1.0000000000000000"/>
      <sparseX i="21" alpha="72101.513428898310" sparseCutoff="1.0000000000000000"/>
      <sparseX i="22" alpha="-15611.683035240048" sparseCutoff=".56756025970660207"/>
      <sparseX i="23" alpha="-19698.528765324689" sparseCutoff="1.0000000000000000"/>
      <sparseX i="24" alpha="-66504.096476351784" sparseCutoff="1.0000000000000000"/>
      <sparseX i="25" alpha="164955.58919569611" sparseCutoff="1.0000000000000000"/>
      <sparseX i="26" alpha="93057.592564022576" sparseCutoff="1.0000000000000000"/>
      <sparseX i="27" alpha="53134.517013710065" sparseCutoff="1.0000000000000000"/>
      <sparseX i="28" alpha="-192777.42521491606" sparseCutoff="1.0000000000000000"/>
      <sparseX i="29" alpha="-74261.603959150409" sparseCutoff="1.0000000000000000"/>
      <sparseX i="30" alpha="-84235.436418539655" sparseCutoff="1.0000000000000000"/>
    </gpCoordinates>
    <gpCoordinates label="GAP_2026_3_23_120_0_29_31_6054" dimensions="3" signal_variance=".10000000000000000E-001" signal_mean=".00000000000000000E+000" sparsified="T" n_permutations="1" covariance_type="4" n_sparseX="200" sparseX_filename="CH.xml.sparseX.GAP_2026_3_23_120_0_29_31_6054" sparseX_md5sum="645a2c2403058656f5743f427d88f10d">
      <theta>  0.20000000000000000E+001  0.20000000000000000E+001  0.20000000000000000E+001 </theta>
      <descriptor> angle_3b Z_center=6 Z1=1 Z2=1 cutoff=2.0 n_sparse=200 covariance_type=pp delta=0.01 theta_uniform=2.0 sparse_method=uniform add_species=F</descriptor>
      <permutation i="1">1 2 3  </permutation>
      <sparseX i="1" alpha="24621.491507696963" sparseCutoff=".99991233326607354"/>
      <sparseX i="2" alpha="3443.1309066527092" sparseCutoff="1.0000000000000000"/>
      <sparseX i="3" alpha="-6345.4885227455170" sparseCutoff="1.0000000000000000"/>
      <sparseX i="4" alpha="6867.7607742388764" sparseCutoff=".59662359954797661"/>
      <sparseX i="5" alpha="2461.7720624955546" sparseCutoff=".94297012562569205"/>
      <sparseX i="6" alpha="-7395.7263651974845" sparseCutoff=".94776539675400562"/>
      <sparseX i="7" alpha="-5954.5726557910757" sparseCutoff=".89371445524080850"/>
      <sparseX i="8" alpha="104150.18428857527" sparseCutoff=".63174972238533481E-001"/>
      <sparseX i="9" alpha="-33461.475413382570" sparseCutoff=".36919948879610580E-001"/>
      <sparseX i="10" alpha="1502.3920808677517" sparseCutoff=".11371306041996770"/>
      <sparseX i="11" alpha="-2011.0286713831749" sparseCutoff=".98371692299602731"/>
      <sparseX i="12" alpha="14921.471182815392" sparseCutoff="1.0000000000000000"/>
      <sparseX i="13" alpha="26031.462172173840" sparseCutoff=".11371306041996770"/>
      <sparseX i="14" alpha="-3597.1581596242727" sparseCutoff="1.0000000000000000"/>
      <sparseX i="15" alpha="-28.979167369630524" sparseCutoff=".32467641573674100"/>
      <sparseX i="16" alpha="-10659.341542384051" sparseCutoff=".20468748774750356E-001"/>
      <sparseX i="17" alpha="-783.39744014999167" sparseCutoff=".93597170096542937"/>
      <sparseX i="18" alpha="5134.9749951388167" sparseCutoff="1.0000000000000000"/>
      <sparseX i="19" alpha="17479.871555814374" sparseCutoff="1.0000000000000000"/>
      <sparseX i="20" alpha="24527.112822801177" sparseCutoff="1.0000000000000000"/>
      <sparseX i="21" alpha="-35441.321310663756" sparseCutoff=".97663846029626376E-002"/>
      <sparseX i="22" alpha="-23505.409655603624" sparseCutoff=".10495543699335197E-001"/>
      <sparseX i="23" alpha="-109090.46216304624" sparseCutoff=".14004664900669853E-001"/>
      <sparseX i="24" alpha="5003.6027102491626" sparseCutoff=".10099776839119720E-002"/>
      <sparseX i="25" alpha="-7559.3775530533494" sparseCutoff=".24527839539683433E-001"/>
      <sparseX i="26" alpha="1124.8624582369612" sparseCutoff=".22544410527786194E-002"/>
      <sparseX i="27" alpha="3562.2156652334179" sparseCutoff=".61192239825234696E-001"/>
      <sparseX i="28" alpha="-33109.781504453131" sparseCutoff=".15258468869502986E-001"/>
      <sparseX i="29" alpha="-25577.588801582202" sparseCutoff=".89440285675107534E-001"/>
      <sparseX i="30" alpha="85406.451875589279" sparseCutoff=".63640178932931279E-001"/>
      <sparseX i="31" alpha="20752.370632573038" sparseCutoff="1.0000000000000000"/>
      <sparseX i="32" alpha="-21451.219032525310" sparseCutoff=".20625429968271047E-001"/>
      <sparseX i="33" alpha="1495.4824952921094" sparseCutoff="1.0000000000000000"/>
      <sparseX i="34" alpha="15762.820582050239" sparseCutoff="1.0000000000000000"/>
      <sparseX i="35" alpha="7863.8057036598866" sparseCutoff="1.0000000000000000"/>
      <sparseX i="36" alpha="2080.3472559970519" sparseCutoff=".20692739763496093"/>
      <sparseX i="37" alpha="-106.47401011610472" sparseCutoff=".88522626953584793"/>
      <sparseX i="38" alpha="-7675.7107929909507" sparseCutoff=".98335257308838253"/>
      <sparseX i="39" alpha="3804.8473732774510" sparseCutoff="1.0000000000000000"/>
      <sparseX i="40" alpha="-21025.354995243819" sparseCutoff=".11403385445371483"/>
      <sparseX i="41" alpha="-10977.912532118879" sparseCutoff=".99792734545408046E-002"/>
      <sparseX i="42" alpha="-5791.2187692026100" sparseCutoff=".74335472528582969E-001"/>
      <sparseX i="43" alpha="143.26020734428562" sparseCutoff="1.0000000000000000"/>
      <sparseX i="44" alpha="-7086.8315160037082" sparseCutoff="1.0000000000000000"/>
      <sparseX i="45" alpha="-15689.848792871047" sparseCutoff="1.0000000000000000"/>
      <sparseX i="46" alpha="-2649.4134145046423" sparseCutoff="1.0000000000000000"/>
      <sparseX i="47" alpha="-1866.1187311388999" sparseCutoff=".63178751910086373E-001"/>
      <sparseX i="48" alpha="-2002.7715026288481" sparseCutoff=".36589562401500997"/>
      <sparseX i="49" alpha="-8950.0972381306110" sparseCutoff=".98536615387162163"/>
      <sparseX i="50" alpha="14780.637081286884" sparseCutoff=".11164840783233709E-001"/>
      <sparseX i="51" alpha="-27189.423478534449" sparseCutoff=".16218640642731708E-001"/>
      <sparseX i="52" alpha="1280.0125959590810" sparseCutoff=".13384289211353373E-002"/>
      <sparseX i="53" alpha="7424.2241591222637" sparseCutoff=".78977430444193808"/>
      <sparseX i="54" alpha="-10165.766571376107" sparseCutoff=".21607153386062383"/>
      <sparseX i="55" alpha="-14428.907828349531" sparseCutoff=".14614389382577586E-001"/>
      <sparseX i="56" alpha="1566.5099869837163" sparseCutoff=".94665045084951849"/>
      <sparseX i="57" alpha="4272.4560671361241" sparseCutoff=".94665045084951849"/>
      <sparseX i="58" alpha="2546.0754166923621" sparseCutoff="1.0000000000000000"/>
      <sparseX i="59" alpha="71874.062622043493" sparseCutoff=".26151361083895184E-001"/>
      <sparseX i="60" alpha="29597.321075935397" sparseCutoff=".35647943554136030E-001"/>
      <sparseX i="61" alpha="-61064.552094657942" sparseCutoff=".37495536768524906E-001"/>
      <sparseX i="62" alpha="-5104.7208367082367" sparseCutoff=".78066469973006924"/>
      <sparseX i="63" alpha="-11041.721686526254" sparseCutoff="1.0000000000000000"/>
      <sparseX i="64" alpha="6783.9666183751506" sparseCutoff="1.0000000000000000"/>
      <sparseX i="65" alpha="19797.659396682655" sparseCutoff="1.0000000000000000"/>
      <sparseX i="66" alpha="-3104.5451221670937" sparseCutoff=".41336810021522513"/>
      <sparseX i="67" alpha="-3078.5825785296415" sparseCutoff=".22434567791767002E-002"/>
      <sparseX i="68" alpha="4262.1347740000583" sparseCutoff=".96257930150603221"/>
      <sparseX i="69" alpha="2938.9169716540327" sparseCutoff="1.0000000000000000"/>
      <sparseX i="70" alpha="-10752.944835062643" sparseCutoff="1.0000000000000000"/>
      <sparseX i="71" alpha="-1989.8710249058588" sparseCutoff="1.0000000000000000"/>
      <sparseX i="72" alpha="4257.1975654489388" sparseCutoff="1.0000000000000000"/>
      <sparseX i="73" alpha="-4522.4786405440218" sparseCutoff="1.0000000000000000"/>
      <sparseX i="74" alpha="3294.7978120674015" sparseCutoff=".35318983545755012"/>
      <sparseX i="75" alpha="-9173.6557626982649" sparseCutoff=".74270362674457491"/>
      <sparseX i="76" alpha="15410.988057194352" sparseCutoff=".40930507480194334E-001"/>
      <sparseX i="77" alpha="-4848.9523916782591" sparseCutoff="1.0000000000000000"/>
      <sparseX i="78" alpha="1919.9133362473426" sparseCutoff="1.0000000000000000"/>
      <sparseX i="79" alpha="-34745.071733942590" sparseCutoff=".12423117297558876"/>
      <sparseX i="80" alpha="6483.4888552539724" sparseCutoff="1.0000000000000000"/>
      <sparseX i="81" alpha="3968.8601721499695" sparseCutoff="1.0000000000000000"/>
      <sparseX i="82" alpha="41236.991944729147" sparseCutoff=".12597627922942856"/>
      <sparseX i="83" alpha="-309.62079042412512" sparseCutoff=".15102314960128533E-002"/>
      <sparseX i="84" alpha="8976.9390151349053" sparseCutoff=".32522295909188703E-001"/>
      <sparseX i="85" alpha="2777.2096682240872" sparseCutoff=".92574490726039782"/>
      <sparseX i="86" alpha="-11409.408814618799" sparseCutoff=".78407263517254533"/>
      <sparseX i="87" alpha="-1910.1008352754939" sparseCutoff=".54508813200233597E-002"/>
      <sparseX i="88" alpha="-12400.236931755837" sparseCutoff=".68655590864885307"/>
      <sparseX i="89" alpha="2208.7679448772783" sparseCutoff="1.0000000000000000"/>
      <sparseX i="90" alpha="12477.828651868596" sparseCutoff=".94874785066475142"/>
      <sparseX i="91" alpha="-20934.997980824824" sparseCutoff=".99817881120271079"/>
      <sparseX i="92" alpha="2732.4772067747381" sparseCutoff="1.0000000000000000"/>
      <sparseX i="93" alpha="17911.804868509222" sparseCutoff=".43645477278033301"/>
      <sparseX i="94" alpha="4553.2284474741928" sparseCutoff=".93426827662583911"/>
      <sparseX i="95" alpha="-7863.9033203941126" sparseCutoff=".46663293440729953"/>
      <sparseX i="96" alpha="-128575.47948478245" sparseCutoff=".52414168432847741E-001"/>
      <sparseX i="97" alpha="2820.0494188565340" sparseCutoff="1.0000000000000000"/>
      <sparseX i="98" alpha="1323.2996240558527" sparseCutoff="1.0000000000000000"/>
      <sparseX i="99" alpha="-484.18741491648535" sparseCutoff="1.0000000000000000"/>
      <sparseX i="100" alpha="-49259.943560203057" sparseCutoff=".32976501688176105E-001"/>
      <sparseX i="101" alpha="3442.7217067730116" sparseCutoff="1.0000000000000000"/>
      <sparseX i="102" alpha="2175.3275416739880" sparseCutoff=".41783886680954874"/>
      <sparseX i="103" alpha="-19652.960709243500" sparseCutoff=".33948519549239597"/>
      <sparseX i="104" alpha="-76911.949552181424" sparseCutoff=".25136535386322323E-001"/>
      <sparseX i="105" alpha="4189.5055377000817" sparseCutoff="1.0000000000000000"/>
      <sparseX i="106" alpha="2714.2052672730083" sparseCutoff=".99999792322937586"/>
      <sparseX i="107" alpha="-12192.686868407562" sparseCutoff="1.0000000000000000"/>
      <sparseX i="108" alpha="-12125.855976727678" sparseCutoff="1.0000000000000000"/>
      <sparseX i="109" alpha="-564.63059772233987" sparseCutoff=".11930323013018664E-001"/>
      <sparseX i="110" alpha="288.48922949675875" sparseCutoff="1.0000000000000000"/>
      <sparseX i="111" alpha="-48.249085445060146" sparseCutoff="1.0000000000000000"/>
      <sparseX i="112" alpha="62.298598836737732" sparseCutoff="1.0000000000000000"/>
      <sparseX i="113" alpha="-7547.0143692427555" sparseCutoff=".20947876642052332E-002"/>
      <sparseX i="114" alpha="31074.751505593693" sparseCutoff=".10428682130117545"/>
      <sparseX i="115" alpha="341.32052252407175" sparseCutoff=".89203039858721861E-003"/>
      <sparseX i="116" alpha="-886.01906340633946" sparseCutoff=".64551445703991961E-003"/>
      <sparseX i="117" alpha="913.23154482655616" sparseCutoff=".14628431107184425E-001"/>
      <sparseX i="118" alpha="-5375.9211209368832" sparseCutoff=".81375403504859768E-003"/>
      <sparseX i="119" alpha="-9931.9129968451580" sparseCutoff=".67401897767296282"/>
      <sparseX i="120" alpha="-16359.654168251949" sparseCutoff="1.0000000000000000"/>
      <sparseX i="121" alpha="-150101.57264380559" sparseCutoff=".45377328376169340E-001"/>
      <sparseX i="122" alpha="492.76431750313770" sparseCutoff=".35075132733654441"/>
      <sparseX i="123" alpha="31012.834589381640" sparseCutoff=".20195368629295407"/>
      <sparseX i="124" alpha="-22634.375422640642" sparseCutoff=".99968475805878965"/>
      <sparseX i="125" alpha="16429.643696632855" sparseCutoff=".89805865740060864"/>
      <sparseX i="126" alpha="6261.0918314413266" sparseCutoff="1.0000000000000000"/>
      <sparseX i="127" alpha="-6.5132699179417513" sparseCutoff=".26259882928275286E-005"/>
      <sparseX i="128" alpha="2111.9166060745265" sparseCutoff=".76686596125306505"/>
      <sparseX i="129" alpha="-13571.471618123143" sparseCutoff=".81883187728074864E-002"/>
      <sparseX i="130" alpha="-1598.7668959532182" sparseCutoff=".35681630370859103E-003"/>
      <sparseX i="131" alpha="-53907.515875322541" sparseCutoff=".26780915177161135E-001"/>
      <sparseX i="132" alpha="1397.4706248685447" sparseCutoff="1.0000000000000000"/>
      <sparseX i="133" alpha="-3180.4265084346157" sparseCutoff=".75086664567295369"/>
      <sparseX i="134" alpha="8881.7364546271820" sparseCutoff=".34241500544800979"/>
      <sparseX i="135" alpha="90206.039149809367" sparseCutoff=".49175170676608260E-001"/>
      <sparseX i="136" alpha="-163.89132511201143" sparseCutoff=".35916206114416157E-003"/>
      <sparseX i="137" alpha="9031.6732886237824" sparseCutoff=".30290363635117745"/>
      <sparseX i="138" alpha="8053.4824733332434" sparseCutoff=".54827846309875949"/>
      <sparseX i="139" alpha="1293.8238176884681" sparseCutoff=".99789404398648252"/>
      <sparseX i="140" alpha="17823.044812117114" sparseCutoff=".16590021307771163"/>
      <sparseX i="141" alpha="-1922.6038892629665" sparseCutoff=".78131707864396471"/>
      <sparseX i="142" alpha="32199.517583745986" sparseCutoff=".18583273980350201E-001"/>
      <sparseX i="143" alpha="-3561.4061632249595" sparseCutoff=".97896191828363233"/>
      <sparseX i="144" alpha="-11052.546168472834" sparseCutoff=".79156750370556372"/>
      <sparseX i="145" alpha="-1233.5018542735318" sparseCutoff="1.0000000000000000"/>
      <sparseX i="146" alpha="9945.0697145951599" sparseCutoff=".22093071659950853"/>
      <sparseX i="147" alpha="5913.9460972571715" sparseCutoff="1.0000000000000000"/>
      <sparseX i="148" alpha="-1037.7240855184230" sparseCutoff="1.0000000000000000"/>
      <sparseX i="149" alpha="440.24655560017692" sparseCutoff=".18063343146137274E-002"/>
      <sparseX i="150" alpha="-1006.1123586694260" sparseCutoff=".12632854451951059E-002"/>
      <sparseX i="151" alpha="6408.0103393400786" sparseCutoff=".72780903281542209E-003"/>
      <sparseX i="152" alpha="-14978.458402309208" sparseCutoff="1.0000000000000000"/>
      <sparseX i="153" alpha="-14917.772577150790" sparseCutoff="1.0000000000000000"/>
      <sparseX i="154" alpha="14247.153744996593" sparseCutoff=".42645046483521909E-001"/>
      <sparseX i="155" alpha="11443.574213481474" sparseCutoff=".18803418384929493E-001"/>
      <sparseX i="156" alpha="-4312.9852928985665" sparseCutoff=".30699567283380635"/>
      <sparseX i="157" alpha="-4424.0401674820705" sparseCutoff="1.0000000000000000"/>
      <sparseX i="158" alpha="30700.069446957943" sparseCutoff="1.0000000000000000"/>
      <sparseX i="159" alpha="-7.3015563937411869" sparseCutoff=".23852459710462065E-004"/>
      <sparseX i="160" alpha="4278.4672909763212" sparseCutoff=".36465226792809835E-001"/>
      <sparseX i="161" alpha="27486.028784905655" sparseCutoff=".23910003323634247E-001"/>
      <sparseX i="162" alpha="-5654.0520210580544" sparseCutoff=".14006014998507699"/>
      <sparseX i="163" alpha="-2021.5255154124807" sparseCutoff="1.0000000000000000"/>
      <sparseX i="164" alpha="47524.829066383230" sparseCutoff=".11505591638980652E-001"/>
      <sparseX i="165" alpha="9657.8850984309211" sparseCutoff=".54618673429541298E-001"/>
      <sparseX i="166" alpha="-3521.0695163338441" sparseCutoff=".49650397676429697"/>
      <sparseX i="167" alpha="-9859.9494058406272" sparseCutoff="1.0000000000000000"/>
      <sparseX i="168" alpha="849.73600452241067" sparseCutoff="1.0000000000000000"/>
      <sparseX i="169" alpha="275.39261473569559" sparseCutoff=".80467031144073964"/>
      <sparseX i="170" alpha="10890.303034834546" sparseCutoff=".81909524986716775E-001"/>
      <sparseX i="171" alpha="-1920.8485985701279" sparseCutoff="1.0000000000000000"/>
      <sparseX i="172" alpha="-745.30168033227653" sparseCutoff="1.0000000000000000"/>
      <sparseX i="173" alpha="30.893671010269141" sparseCutoff=".67771414741133837E-004"/>
      <sparseX i="174" alpha="8649.1128158739048" sparseCutoff="1.0000000000000000"/>
      <sparseX i="175" alpha="38843.790172558918" sparseCutoff=".19179029024218530E-001"/>
      <sparseX i="176" alpha="-3763.8703678434717" sparseCutoff="1.0000000000000000"/>
      <sparseX i="177" alpha="133.78200839988605" sparseCutoff=".11450909958577434E-004"/>
      <sparseX i="178" alpha="6907.2679041018118" sparseCutoff=".96136586883249697"/>
      <sparseX i="179" alpha="-269.39974948790143" sparseCutoff=".31462987324671487E-003"/>
      <sparseX i="180" alpha="-929.11131627146358" sparseCutoff="1.0000000000000000"/>
      <sparseX i="181" alpha="-21343.229343981482" sparseCutoff="1.0000000000000000"/>
      <sparseX i="182" alpha="-11707.087968611724" sparseCutoff=".29646204929483200"/>
      <sparseX i="183" alpha="5635.4308393944111" sparseCutoff=".43756315179175109E-001"/>
      <sparseX i="184" alpha="9444.7083860338698" sparseCutoff=".72837981347215563"/>
      <sparseX i="185" alpha="-11431.131908689224" sparseCutoff=".14282634269878303"/>
      <sparseX i="186" alpha="-5796.4532685363165" sparseCutoff="1.0000000000000000"/>
      <sparseX i="187" alpha="-177.72973490277096" sparseCutoff=".35893833021868371"/>
      <sparseX i="188" alpha="-6936.7980972644091" sparseCutoff=".36778195719088747E-001"/>
      <sparseX i="189" alpha="-7357.6907512583221" sparseCutoff=".10906664361807406"/>
      <sparseX i="190" alpha="5980.0443987377621" sparseCutoff="1.0000000000000000"/>
      <sparseX i="191" alpha="-13015.910910332706" sparseCutoff="1.0000000000000000"/>
      <sparseX i="192" alpha="33713.196686493873" sparseCutoff=".20671242932027711E-001"/>
      <sparseX i="193" alpha="166.51682916426788" sparseCutoff=".12075629858054882E-003"/>
      <sparseX i="194" alpha="-16459.712237373060" sparseCutoff="1.0000000000000000"/>
      <sparseX i="195" alpha="41004.553838316075" sparseCutoff=".82560537947387255E-001"/>
      <sparseX i="196" alpha="-8949.1375155887836" sparseCutoff=".28233342884587825"/>
      <sparseX i="197" alpha="4631.8517129867205" sparseCutoff=".43440088909756719"/>
      <sparseX i="198" alpha="4808.9942342076138" sparseCutoff=".36259799796148195"/>
      <sparseX i="199" alpha="2289.4339232848224" sparseCutoff=".65171103862014346"/>
      <sparseX i="200" alpha="2194.4377700886712" sparseCutoff=".72015553075002769"/>
    </gpCoordinates>
    <gpCoordinates label="GAP_2026_3_23_120_0_29_31_6055" dimensions="3" signal_variance=".10000000000000000E-001" signal_mean=".00000000000000000E+000" sparsified="T" n_permutations="1" covariance_type="4" n_sparseX="200" sparseX_filename="CH.xml.sparseX.GAP_2026_3_23_120_0_29_31_6055" sparseX_md5sum="471ac730bc0624f7800987ecf3c894cc">
      <theta>  0.20000000000000000E+001  0.20000000000000000E+001  0.20000000000000000E+001 </theta>
      <descriptor> angle_3b Z_center=6 Z1=1 Z2=6 cutoff=2.0 n_sparse=200 covariance_type=pp delta=0.01 theta_uniform=2.0 sparse_method=uniform add_species=F</descriptor>
      <permutation i="1">1 2 3  </permutation>
      <sparseX i="1" alpha="46391.380963431831" sparseCutoff=".15869943555217464"/>
      <sparseX i="2" alpha="46717.101242560966" sparseCutoff=".15869943555217464"/>
      <sparseX i="3" alpha="33987.060058142342" sparseCutoff=".13461805527355239"/>
      <sparseX i="4" alpha="-25257.953967791531" sparseCutoff="1.0000000000000000"/>
      <sparseX i="5" alpha="-7519.9922662383688" sparseCutoff="1.0000000000000000"/>
      <sparseX i="6" alpha="-20551.265146990030" sparseCutoff=".54952419890736404E-002"/>
      <sparseX i="7" alpha="-37767.747438317980" sparseCutoff=".54952419890736404E-002"/>
      <sparseX i="8" alpha="-6658.2179861075920" sparseCutoff=".60255001778240997E-003"/>
      <sparseX i="9" alpha="-13129.820215303165" sparseCutoff=".97104388833721589"/>
      <sparseX i="10" alpha="-3391.5187562546389" sparseCutoff="1.0000000000000000"/>
      <sparseX i="11" alpha="-25373.194558019946" sparseCutoff="1.0000000000000000"/>
      <sparseX i="12" alpha="2422.2865403110127" sparseCutoff=".59662359954797661"/>
      <sparseX i="13" alpha="-53411.861912858214" sparseCutoff=".37575922716528820E-001"/>
      <sparseX i="14" alpha="-2724.0774430445977" sparseCutoff=".98806222860001158"/>
      <sparseX i="15" alpha="10534.653902634842" sparseCutoff=".98806222860001158"/>
      <sparseX i="16" alpha="25993.571661096525" sparseCutoff=".14713888518680068"/>
      <sparseX i="17" alpha="59394.054244429157" sparseCutoff=".14713888518680068"/>
      <sparseX i="18" alpha="-7122.5276011482383" sparseCutoff=".13929458024072700"/>
      <sparseX i="19" alpha="-172860.73752892448" sparseCutoff=".20327999249998119E-001"/>
      <sparseX i="20" alpha="82882.244536753016" sparseCutoff=".18545300804286480"/>
      <sparseX i="21" alpha="3578.9956171832687" sparseCutoff=".97104388833721589"/>
      <sparseX i="22" alpha="-22317.338053071544" sparseCutoff=".87882632178996993E-002"/>
      <sparseX i="23" alpha="80073.172520074644" sparseCutoff=".40467799657021519E-001"/>
      <sparseX i="24" alpha="-56612.269655209719" sparseCutoff=".24321213651686564E-001"/>
      <sparseX i="25" alpha="-13816.559618017252" sparseCutoff=".55841382699397266E-002"/>
      <sparseX i="26" alpha="-2796.1096597571777" sparseCutoff="1.0000000000000000"/>
      <sparseX i="27" alpha="-4022.2781903576906" sparseCutoff=".85197506174541693"/>
      <sparseX i="28" alpha="-26994.109713694859" sparseCutoff=".55843435319191448E-001"/>
      <sparseX i="29" alpha="83721.439744740113" sparseCutoff=".81021023830171734E-001"/>
      <sparseX i="30" alpha="-5486.6838041371939" sparseCutoff=".36894422835090768"/>
      <sparseX i="31" alpha="15494.044839101214" sparseCutoff=".27192891668376407"/>
      <sparseX i="32" alpha="20252.388178364974" sparseCutoff="1.0000000000000000"/>
      <sparseX i="33" alpha="-1972.7447118679031" sparseCutoff=".21870211684617467E-002"/>
      <sparseX i="34" alpha="984.93343483057026" sparseCutoff=".29857712897993105E-001"/>
      <sparseX i="35" alpha="-1828.3880332406632" sparseCutoff=".43856494531613321"/>
      <sparseX i="36" alpha="3973.8187497185463" sparseCutoff=".86852619851856550"/>
      <sparseX i="37" alpha="450.21863445234442" sparseCutoff=".11218810642220078E-002"/>
      <sparseX i="38" alpha="2745.1256978902948" sparseCutoff=".85539143039972121"/>
      <sparseX i="39" alpha="12348.391045257007" sparseCutoff=".85173350825309924"/>
      <sparseX i="40" alpha="2476.9404818883327" sparseCutoff="1.0000000000000000"/>
      <sparseX i="41" alpha="8115.7989436058879" sparseCutoff="1.0000000000000000"/>
      <sparseX i="42" alpha="11497.154713113070" sparseCutoff="1.0000000000000000"/>
      <sparseX i="43" alpha="-20622.838338152651" sparseCutoff=".21667584017626041E-002"/>
      <sparseX i="44" alpha="-10945.053060492026" sparseCutoff=".36565942120436734E-002"/>
      <sparseX i="45" alpha="-4785.3762155207751" sparseCutoff="1.0000000000000000"/>
      <sparseX i="46" alpha="7570.6272455029566" sparseCutoff="1.0000000000000000"/>
      <sparseX i="47" alpha="-2935.8629912113424" sparseCutoff=".44901656711046389"/>
      <sparseX i="48" alpha="9573.5640563186553" sparseCutoff="1.0000000000000000"/>
      <sparseX i="49" alpha="6151.3465749840789" sparseCutoff="1.0000000000000000"/>
      <sparseX i="50" alpha="13861.071573867281" sparseCutoff=".70122656371738323"/>
      <sparseX i="51" alpha="6809.5270244349422" sparseCutoff=".10882387361473466E-001"/>
      <sparseX i="52" alpha="-2289.0346468731586" sparseCutoff="1.0000000000000000"/>
      <sparseX i="53" alpha="4626.3301688183055" sparseCutoff="1.0000000000000000"/>
      <sparseX i="54" alpha="-6422.2159723970390" sparseCutoff=".73715133623366558"/>
      <sparseX i="55" alpha="-52556.793512977551" sparseCutoff=".24301455654428240E-001"/>
      <sparseX i="56" alpha="-10559.594434897079" sparseCutoff=".18524898342367927E-001"/>
      <sparseX i="57" alpha="4290.8228489096646" sparseCutoff="1.0000000000000000"/>
      <sparseX i="58" alpha="-17790.805821696267" sparseCutoff=".19940223209383396E-001"/>
      <sparseX i="59" alpha="-7769.8508149893778" sparseCutoff=".82056940909927589"/>
      <sparseX i="60" alpha="-33250.184186747640" sparseCutoff=".35726252437179806E-001"/>
      <sparseX i="61" alpha="-1387.4929103855613" sparseCutoff="1.0000000000000000"/>
      <sparseX i="62" alpha="6912.8979707953858" sparseCutoff=".27177159463006462"/>
      <sparseX i="63" alpha="13567.682497764863" sparseCutoff=".38960131918091645"/>
      <sparseX i="64" alpha="-13162.064884102250" sparseCutoff=".69025437141504956E-001"/>
      <sparseX i="65" alpha="5411.7624887095981" sparseCutoff="1.0000000000000000"/>
      <sparseX i="66" alpha="2694.0073093932319" sparseCutoff="1.0000000000000000"/>
      <sparseX i="67" alpha="8099.5378448229430" sparseCutoff="1.0000000000000000"/>
      <sparseX i="68" alpha="-61264.376106633019" sparseCutoff=".63076363370727861E-001"/>
      <sparseX i="69" alpha="-65793.540746910337" sparseCutoff=".99729042982438787E-002"/>
      <sparseX i="70" alpha="-16861.609493615273" sparseCutoff=".56041393129924977"/>
      <sparseX i="71" alpha="-12642.902139983158" sparseCutoff="1.0000000000000000"/>
      <sparseX i="72" alpha="-8673.3754791119336" sparseCutoff="1.0000000000000000"/>
      <sparseX i="73" alpha="7044.2892653102572" sparseCutoff=".96794874942015496E-001"/>
      <sparseX i="74" alpha="3264.3124076070271" sparseCutoff=".38422560440309506"/>
      <sparseX i="75" alpha="-16842.544711075934" sparseCutoff=".64582296543632434"/>
      <sparseX i="76" alpha="-34799.292934502031" sparseCutoff=".44798346054662763E-001"/>
      <sparseX i="77" alpha="-18305.851510080043" sparseCutoff=".64601258106607173"/>
      <sparseX i="78" alpha="-205385.85094158360" sparseCutoff=".37780600276102846E-001"/>
      <sparseX i="79" alpha="-20346.470846464421" sparseCutoff=".27298621628746855E-002"/>
      <sparseX i="80" alpha="9829.0239709638008" sparseCutoff=".96204359846460474"/>
      <sparseX i="81" alpha="-201.94363941449149" sparseCutoff="1.0000000000000000"/>
      <sparseX i="82" alpha="-7288.9883643976236" sparseCutoff=".83217995207707984"/>
      <sparseX i="83" alpha="3179.1966755141798" sparseCutoff=".96204359846460474"/>
      <sparseX i="84" alpha="-21445.128446517050" sparseCutoff=".90031065691760781E-002"/>
      <sparseX i="85" alpha="-7200.6081585713255" sparseCutoff="1.0000000000000000"/>
      <sparseX i="86" alpha="44268.220591558354" sparseCutoff=".10811461336508357"/>
      <sparseX i="87" alpha="-105907.92528134034" sparseCutoff=".38560573607484550E-001"/>
      <sparseX i="88" alpha="19294.921517844476" sparseCutoff=".37737017872808232"/>
      <sparseX i="89" alpha="10718.192251311499" sparseCutoff="1.0000000000000000"/>
      <sparseX i="90" alpha="-2154.0127429822505" sparseCutoff=".99338276226723865"/>
      <sparseX i="91" alpha="-1526.3142078925869" sparseCutoff=".51275348285461619"/>
      <sparseX i="92" alpha="49354.029454164011" sparseCutoff=".98118963082852673E-001"/>
      <sparseX i="93" alpha="-76210.061611920377" sparseCutoff=".78257855211928962E-002"/>
      <sparseX i="94" alpha="-1433.6889012846962" sparseCutoff=".25020681301402004E-003"/>
      <sparseX i="95" alpha="-43111.341486161611" sparseCutoff=".15052860255120482E-001"/>
      <sparseX i="96" alpha="-32768.839956033953" sparseCutoff=".33820453875285633"/>
      <sparseX i="97" alpha="-11115.729475878243" sparseCutoff="1.0000000000000000"/>
      <sparseX i="98" alpha="-15255.142299306615" sparseCutoff="1.0000000000000000"/>
      <sparseX i="99" alpha="34055.207534409834" sparseCutoff=".25475359000228104"/>
      <sparseX i="100" alpha="-18646.783618768874" sparseCutoff="1.0000000000000000"/>
      <sparseX i="101" alpha="57582.426630726775" sparseCutoff=".23588202396083946E-001"/>
      <sparseX i="102" alpha="-36763.271649290698" sparseCutoff=".19391419933944332E-001"/>
      <sparseX i="103" alpha="1114.4949520375649" sparseCutoff="1.0000000000000000"/>
      <sparseX i="104" alpha="-53393.665819069116" sparseCutoff=".21521271404302066E-001"/>
      <sparseX i="105" alpha="-1677.2416825027658" sparseCutoff=".65641629228607001"/>
      <sparseX i="106" alpha="32400.220992173639" sparseCutoff=".53332098953931695"/>
      <sparseX i="107" alpha="-3012.7806720459917" sparseCutoff=".86935224954951495"/>
      <sparseX i="108" alpha="-2934.2796152740880" sparseCutoff="1.0000000000000000"/>
      <sparseX i="109" alpha="9961.4793030294986" sparseCutoff="1.0000000000000000"/>
      <sparseX i="110" alpha="12758.840092734963" sparseCutoff=".31292744588583410"/>
      <sparseX i="111" alpha="14233.718274471012" sparseCutoff="1.0000000000000000"/>
      <sparseX i="112" alpha="1930.9928168765184" sparseCutoff=".29334182772516315E-002"/>
      <sparseX i="113" alpha="-18249.089761253952" sparseCutoff="1.0000000000000000"/>
      <sparseX i="114" alpha="-901.66184822810010" sparseCutoff=".85819637248387060"/>
      <sparseX i="115" alpha="-17664.578612566311" sparseCutoff=".18526138833755978E-001"/>
      <sparseX i="116" alpha="-5673.3385018797726" sparseCutoff=".33203028495368943E-001"/>
      <sparseX i="117" alpha="-34485.865007203945" sparseCutoff=".12006019004719581"/>
      <sparseX i="118" alpha="-8573.7018341627336" sparseCutoff="1.0000000000000000"/>
      <sparseX i="119" alpha="-211259.76137587446" sparseCutoff=".25724055002699420E-001"/>
      <sparseX i="120" alpha="4044.2654658384236" sparseCutoff=".74391243916900984"/>
      <sparseX i="121" alpha="134076.58900189510" sparseCutoff=".77295114135759957E-001"/>
      <sparseX i="122" alpha="-40554.981467303303" sparseCutoff=".16222087010271807"/>
      <sparseX i="123" alpha="30244.842170383312" sparseCutoff=".13620297760191699"/>
      <sparseX i="124" alpha="-36614.761043256774" sparseCutoff=".45298203943103077E-001"/>
      <sparseX i="125" alpha="5451.2521066386171" sparseCutoff="1.0000000000000000"/>
      <sparseX i="126" alpha="8318.8178445698868" sparseCutoff=".45902366241860282E-001"/>
      <sparseX i="127" alpha="48101.628192971570" sparseCutoff=".40136108252150889E-002"/>
      <sparseX i="128" alpha="-1.1755074441290487" sparseCutoff=".17147706515840966E-006"/>
      <sparseX i="129" alpha="50593.751606858503" sparseCutoff=".84108176545299340E-001"/>
      <sparseX i="130" alpha="-38310.022744655638" sparseCutoff=".25377767587439329E-001"/>
      <sparseX i="131" alpha="2748.5928482428053" sparseCutoff="1.0000000000000000"/>
      <sparseX i="132" alpha="-10771.327148878971" sparseCutoff=".90179469720418282"/>
      <sparseX i="133" alpha="2742.1528674685687" sparseCutoff=".32935517220032062"/>
      <sparseX i="134" alpha="7639.4141792360060" sparseCutoff=".44059251248511677"/>
      <sparseX i="135" alpha="-15851.780007902789" sparseCutoff=".33748190681425205E-002"/>
      <sparseX i="136" alpha="-14896.177536126390" sparseCutoff=".59243092741875025"/>
      <sparseX i="137" alpha="-722.58020538075891" sparseCutoff=".59243092741875025"/>
      <sparseX i="138" alpha="4405.0126198921316" sparseCutoff=".60735656170735552"/>
      <sparseX i="139" alpha="-49679.543013551454" sparseCutoff=".68301315550788833E-001"/>
      <sparseX i="140" alpha="-8803.9390841663680" sparseCutoff=".59880264241491332"/>
      <sparseX i="141" alpha="-15117.077746872772" sparseCutoff=".24831103481396683E-001"/>
      <sparseX i="142" alpha="-38058.071800615457" sparseCutoff=".26733458077643435E-001"/>
      <sparseX i="143" alpha="-45834.960283527005" sparseCutoff=".15478757944487731"/>
      <sparseX i="144" alpha="401.69215306405033" sparseCutoff=".80100265133986603E-003"/>
      <sparseX i="145" alpha="-68679.730684731083" sparseCutoff=".91516187551485308E-002"/>
      <sparseX i="146" alpha="-7629.1467806938190" sparseCutoff=".88655826585471775"/>
      <sparseX i="147" alpha="2300.8142993176625" sparseCutoff=".79576643803390035"/>
      <sparseX i="148" alpha="2606.4113825643130" sparseCutoff="1.0000000000000000"/>
      <sparseX i="149" alpha="28537.313873266536" sparseCutoff=".17200194808511277"/>
      <sparseX i="150" alpha="6618.3941957379247" sparseCutoff="1.0000000000000000"/>
      <sparseX i="151" alpha="-4322.1146132325275" sparseCutoff="1.0000000000000000"/>
      <sparseX i="152" alpha="-28.431951109026734" sparseCutoff=".34482856940882486E-005"/>
      <sparseX i="153" alpha="10326.931789554958" sparseCutoff="1.0000000000000000"/>
      <sparseX i="154" alpha="-4384.2501854867896" sparseCutoff=".87287593286493315"/>
      <sparseX i="155" alpha="6967.6318842799146" sparseCutoff=".57318267938652112"/>
      <sparseX i="156" alpha="-22587.976171365572" sparseCutoff="1.0000000000000000"/>
      <sparseX i="157" alpha="-2504.2002200147185" sparseCutoff=".60242037224025213E-001"/>
      <sparseX i="158" alpha="-43322.031341717775" sparseCutoff=".53915936914140039E-001"/>
      <sparseX i="159" alpha="-5721.4174866800740" sparseCutoff=".96418838227950387"/>
      <sparseX i="160" alpha="-28909.205150055670" sparseCutoff=".23338610565286905"/>
      <sparseX i="161" alpha="54908.665038527768" sparseCutoff=".56995424788256623E-001"/>
      <sparseX i="162" alpha="-76.809282961447494" sparseCutoff=".42170200883898720E-003"/>
      <sparseX i="163" alpha="-1207.3371199504627" sparseCutoff=".19289738609418183E-003"/>
      <sparseX i="164" alpha="12581.017783699835" sparseCutoff=".68638107586780173"/>
      <sparseX i="165" alpha="-88467.638150013227" sparseCutoff=".51202248713691167E-001"/>
      <sparseX i="166" alpha="-79922.580646280490" sparseCutoff=".12920401624193595"/>
      <sparseX i="167" alpha="3225.6501751178544" sparseCutoff="1.0000000000000000"/>
      <sparseX i="168" alpha="-2450.3980059292826" sparseCutoff="1.0000000000000000"/>
      <sparseX i="169" alpha="9347.1977408674211" sparseCutoff=".52899248577901299E-001"/>
      <sparseX i="170" alpha="3527.2300165421361" sparseCutoff="1.0000000000000000"/>
      <sparseX i="171" alpha="5391.9548091356301" sparseCutoff=".77987295840763737"/>
      <sparseX i="172" alpha="196.55234649110139" sparseCutoff=".27467484718434187E-002"/>
      <sparseX i="173" alpha="16922.572978111537" sparseCutoff=".72069973127783993"/>
      <sparseX i="174" alpha="36240.672856036872" sparseCutoff="1.0000000000000000"/>
      <sparseX i="175" alpha="17038.114318560903" sparseCutoff=".11624227650389934"/>
      <sparseX i="176" alpha="-1888.1045394202065" sparseCutoff=".99698098685465775"/>
      <sparseX i="177" alpha="-17191.033316672212" sparseCutoff="1.0000000000000000"/>
      <sparseX i="178" alpha="-12318.338454185423" sparseCutoff=".52504567637659705"/>
      <sparseX i="179" alpha="-.52740524422875169E-001" sparseCutoff=".62574784576163722E-007"/>
      <sparseX i="180" alpha="13097.234208609781" sparseCutoff=".32584629603835691"/>
      <sparseX i="181" alpha="29898.116787823208" sparseCutoff=".37473745849651074E-001"/>
      <sparseX i="182" alpha="-17622.560246541576" sparseCutoff="1.0000000000000000"/>
      <sparseX i="183" alpha="-5107.7548458667206" sparseCutoff="1.0000000000000000"/>
      <sparseX i="184" alpha="-13226.336885324425" sparseCutoff="1.0000000000000000"/>
      <sparseX i="185" alpha="4592.3081555068338" sparseCutoff=".70601728933094576"/>
      <sparseX i="186" alpha="-3915.0023264264432" sparseCutoff="1.0000000000000000"/>
      <sparseX i="187" alpha="3759.7698937757982" sparseCutoff="1.0000000000000000"/>
      <sparseX i="188" alpha="-5511.0621695922837" sparseCutoff="1.0000000000000000"/>
      <sparseX i="189" alpha="13613.787390321910" sparseCutoff="1.0000000000000000"/>
      <sparseX i="190" alpha="-76399.824937639554" sparseCutoff=".31124276621391000"/>
      <sparseX i="191" alpha="-24127.822681335932" sparseCutoff=".39740253608223697"/>
      <sparseX i="192" alpha="8199.0128007584972" sparseCutoff=".20678391878637020"/>
      <sparseX i="193" alpha="-17924.104978432912" sparseCutoff=".48830110379890809E-001"/>
      <sparseX i="194" alpha="13804.528477646778" sparseCutoff=".24691020559537002"/>
      <sparseX i="195" alpha="19790.887993415399" sparseCutoff=".55847353352390472"/>
      <sparseX i="196" alpha="2983.4561637705365" sparseCutoff="1.0000000000000000"/>
      <sparseX i="197" alpha="-1891.0511672203561" sparseCutoff=".60073171725345842"/>
      <sparseX i="198" alpha="42866.993938160158" sparseCutoff="1.0000000000000000"/>
      <sparseX i="199" alpha="7184.8980418251322" sparseCutoff=".93094204960980509"/>
      <sparseX i="200" alpha="-11702.658745228946" sparseCutoff=".24462417798135155"/>
    </gpCoordinates>
    <gpCoordinates label="GAP_2026_3_23_120_0_29_31_6056" dimensions="3" signal_variance=".10000000000000000E-001" signal_mean=".00000000000000000E+000" sparsified="T" n_permutations="1" covariance_type="4" n_sparseX="200" sparseX_filename="CH.xml.sparseX.GAP_2026_3_23_120_0_29_31_6056" sparseX_md5sum="d482d6268fc897eaa01b5a5ba4901190">
      <theta>  0.20000000000000000E+001  0.20000000000000000E+001  0.20000000000000000E+001 </theta>
      <descriptor> angle_3b Z_center=6 Z1=6 Z2=6 cutoff=2.0 n_sparse=200 covariance_type=pp delta=0.01 theta_uniform=2.0 sparse_method=uniform add_species=F</descriptor>
      <permutation i="1">1 2 3  </permutation>
      <sparseX i="1" alpha="21864.340279678956" sparseCutoff=".76952947170620256"/>
      <sparseX i="2" alpha="17156.579970332110" sparseCutoff=".14267636685153240"/>
      <sparseX i="3" alpha="71643.130157759748" sparseCutoff="1.0000000000000000"/>
      <sparseX i="4" alpha="-47713.762886194134" sparseCutoff=".14267636685153240"/>
      <sparseX i="5" alpha="-70348.747363225746" sparseCutoff=".59274799049551075E-001"/>
      <sparseX i="6" alpha="12625.898471797080" sparseCutoff="1.0000000000000000"/>
      <sparseX i="7" alpha="-10945.287771296782" sparseCutoff=".84825793365405411"/>
      <sparseX i="8" alpha="25534.417210294090" sparseCutoff=".84825793365405411"/>
      <sparseX i="9" alpha="-185863.11642847481" sparseCutoff=".53514467050350074E-001"/>
      <sparseX i="10" alpha="38497.789296878575" sparseCutoff=".44893634608438064E-002"/>
      <sparseX i="11" alpha="-22543.790091456558" sparseCutoff=".58753059397471572E-003"/>
      <sparseX i="12" alpha="-32359.693185686087" sparseCutoff=".89487321711836931E-002"/>
      <sparseX i="13" alpha="264516.92163427139" sparseCutoff=".59274799049551075E-001"/>
      <sparseX i="14" alpha="199538.78167052648" sparseCutoff=".20377030143270445E-001"/>
      <sparseX i="15" alpha="-794.44426619697936" sparseCutoff=".17811012704430039E-002"/>
      <sparseX i="16" alpha="-796.27840187721006" sparseCutoff=".33401103677031929"/>
      <sparseX i="17" alpha="15949.596646105600" sparseCutoff=".14524336581821795"/>
      <sparseX i="18" alpha="-25299.386533495948" sparseCutoff="1.0000000000000000"/>
      <sparseX i="19" alpha="-86542.080942902467" sparseCutoff=".26935819089258729E-001"/>
      <sparseX i="20" alpha="9844.8854955821862" sparseCutoff=".56735902302313401E-002"/>
      <sparseX i="21" alpha="6383.2931169081685" sparseCutoff=".37531963769056377E-002"/>
      <sparseX i="22" alpha="-12632.918042819165" sparseCutoff=".99885079828347623"/>
      <sparseX i="23" alpha="-24325.066218669108" sparseCutoff=".77108881707409171"/>
      <sparseX i="24" alpha="65022.929681025213" sparseCutoff=".64244960625895270E-001"/>
      <sparseX i="25" alpha="-816297.88528550614" sparseCutoff=".20031578268747907E-001"/>
      <sparseX i="26" alpha="-32999.578589871970" sparseCutoff=".13845882307393587"/>
      <sparseX i="27" alpha="-13084.234382900302" sparseCutoff=".97361713195810418"/>
      <sparseX i="28" alpha="87182.024175008919" sparseCutoff=".63085623016115155"/>
      <sparseX i="29" alpha="11880.637238482164" sparseCutoff=".44237041964647861"/>
      <sparseX i="30" alpha="-6247.0294770379205" sparseCutoff=".48504354776744522E-001"/>
      <sparseX i="31" alpha="-113424.88837466070" sparseCutoff="1.0000000000000000"/>
      <sparseX i="32" alpha="-770.38180692592005" sparseCutoff=".22694854365590267E-003"/>
      <sparseX i="33" alpha="11034.795148965834" sparseCutoff=".96944498280647018"/>
      <sparseX i="34" alpha="94159.775684472712" sparseCutoff="1.0000000000000000"/>
      <sparseX i="35" alpha="-369917.46827491745" sparseCutoff=".20896196698833858E-001"/>
      <sparseX i="36" alpha="-11774.908216411639" sparseCutoff=".83737063647116505"/>
      <sparseX i="37" alpha="-17861.495806192259" sparseCutoff=".85173350825309924"/>
      <sparseX i="38" alpha="5314.3751756466800" sparseCutoff=".99908043564658677"/>
      <sparseX i="39" alpha="5972.5857774336564" sparseCutoff=".87770749897993405"/>
      <sparseX i="40" alpha="221629.63307562991" sparseCutoff="1.0000000000000000"/>
      <sparseX i="41" alpha="-33392.598138812566" sparseCutoff=".45028997347806854E-002"/>
      <sparseX i="42" alpha="-41212.623233807368" sparseCutoff=".14620795429874133E-002"/>
      <sparseX i="43" alpha="-74872.886969518368" sparseCutoff="1.0000000000000000"/>
      <sparseX i="44" alpha="20396.423331626691" sparseCutoff="1.0000000000000000"/>
      <sparseX i="45" alpha="-2256.4257316483290" sparseCutoff=".28142397217187365E-002"/>
      <sparseX i="46" alpha="102592.36336487165" sparseCutoff=".25780373769091702E-001"/>
      <sparseX i="47" alpha="100500.53550317435" sparseCutoff=".24304333401567291E-001"/>
      <sparseX i="48" alpha="35374.326701285579" sparseCutoff=".45200599592975690E-001"/>
      <sparseX i="49" alpha="15474.636528686271" sparseCutoff=".62930926578403323E-001"/>
      <sparseX i="50" alpha="77965.357982683810" sparseCutoff=".53512834985499580E-001"/>
      <sparseX i="51" alpha="-1830.1032858376805" sparseCutoff=".95727053237676807"/>
      <sparseX i="52" alpha="-603.09332634454097" sparseCutoff=".11027681954465463"/>
      <sparseX i="53" alpha="-14031.803773884616" sparseCutoff=".10556474975432832"/>
      <sparseX i="54" alpha="37176.109238084195" sparseCutoff=".74074335308051464E-001"/>
      <sparseX i="55" alpha="29090.807116260472" sparseCutoff="1.0000000000000000"/>
      <sparseX i="56" alpha="25987.646725084946" sparseCutoff="1.0000000000000000"/>
      <sparseX i="57" alpha="20617.296980810133" sparseCutoff="1.0000000000000000"/>
      <sparseX i="58" alpha="-123.99613971506844" sparseCutoff=".93210512715713456E-004"/>
      <sparseX i="59" alpha="-1489.0556286823246" sparseCutoff=".45667580043189007E-003"/>
      <sparseX i="60" alpha="-11259.258196479703" sparseCutoff="1.0000000000000000"/>
      <sparseX i="61" alpha="-3259.9742545461054" sparseCutoff="1.0000000000000000"/>
      <sparseX i="62" alpha="13426.186616313948" sparseCutoff="1.0000000000000000"/>
      <sparseX i="63" alpha="2672.3793427237447" sparseCutoff="1.0000000000000000"/>
      <sparseX i="64" alpha="-22094.722742653415" sparseCutoff="1.0000000000000000"/>
      <sparseX i="65" alpha="-17685.621603917196" sparseCutoff="1.0000000000000000"/>
      <sparseX i="66" alpha="-21322.696224949741" sparseCutoff="1.0000000000000000"/>
      <sparseX i="67" alpha="-93429.278916592259" sparseCutoff=".27350212364056437E-001"/>
      <sparseX i="68" alpha="-64698.148128742621" sparseCutoff=".38575416492562969"/>
      <sparseX i="69" alpha="12649.724490350945" sparseCutoff=".49724957132097755E-002"/>
      <sparseX i="70" alpha="-92296.239430806731" sparseCutoff=".35196867577048672E-001"/>
      <sparseX i="71" alpha="-2725.5897889295602" sparseCutoff=".47153867659552190"/>
      <sparseX i="72" alpha="11401.109874816068" sparseCutoff=".47535943702670579E-001"/>
      <sparseX i="73" alpha="37742.122937207547" sparseCutoff="1.0000000000000000"/>
      <sparseX i="74" alpha="5016.2612850149280" sparseCutoff=".83351423253693480"/>
      <sparseX i="75" alpha="-20363.158923281560" sparseCutoff=".32030396243006298E-002"/>
      <sparseX i="76" alpha="-10295.264626856879" sparseCutoff=".86945835332097564E-002"/>
      <sparseX i="77" alpha="50452.972853736253" sparseCutoff="1.0000000000000000"/>
      <sparseX i="78" alpha="-68017.867098453295" sparseCutoff=".22496704329215522E-001"/>
      <sparseX i="79" alpha="-11871.342135540002" sparseCutoff=".19148802252771591"/>
      <sparseX i="80" alpha="-32185.861503913969" sparseCutoff="1.0000000000000000"/>
      <sparseX i="81" alpha="-61652.836570143932" sparseCutoff="1.0000000000000000"/>
      <sparseX i="82" alpha="29667.449102892220" sparseCutoff="1.0000000000000000"/>
      <sparseX i="83" alpha="99496.164920473049" sparseCutoff="1.0000000000000000"/>
      <sparseX i="84" alpha="-1830.4488135833951" sparseCutoff=".59148648008647660E-004"/>
      <sparseX i="85" alpha="8260.3504343612422" sparseCutoff=".51155343521107866"/>
      <sparseX i="86" alpha="8870.4387083501479" sparseCutoff=".59007720563317156E-002"/>
      <sparseX i="87" alpha="-70766.137520103526" sparseCutoff=".99304968336929611"/>
      <sparseX i="88" alpha="-11295.582187539625" sparseCutoff=".92329408881631991"/>
      <sparseX i="89" alpha="39032.911560681117" sparseCutoff="1.0000000000000000"/>
      <sparseX i="90" alpha="8490.6946333036649" sparseCutoff="1.0000000000000000"/>
      <sparseX i="91" alpha="31789.701520870305" sparseCutoff="1.0000000000000000"/>
      <sparseX i="92" alpha="7626.3762095735374" sparseCutoff=".17234093025357111E-001"/>
      <sparseX i="93" alpha="-73093.830091342592" sparseCutoff=".29438886568889933E-002"/>
      <sparseX i="94" alpha="-22249.476927488049" sparseCutoff="1.0000000000000000"/>
      <sparseX i="95" alpha="-32704.427834818995" sparseCutoff="1.0000000000000000"/>
      <sparseX i="96" alpha="-93768.708756693275" sparseCutoff=".17250800831382668"/>
      <sparseX i="97" alpha=".54755124563284352" sparseCutoff=".14732053833671236E-005"/>
      <sparseX i="98" alpha="26430.867730478629" sparseCutoff=".23557186771821098"/>
      <sparseX i="99" alpha="287247.04581450613" sparseCutoff=".87918486177603172E-001"/>
      <sparseX i="100" alpha="-2076.0962583766354" sparseCutoff=".72553228654015367E-003"/>
      <sparseX i="101" alpha="40370.297952068904" sparseCutoff=".95373083272362580"/>
      <sparseX i="102" alpha="18601.664609941276" sparseCutoff=".12777978809347446E-001"/>
      <sparseX i="103" alpha="1272.1815599091326" sparseCutoff="1.0000000000000000"/>
      <sparseX i="104" alpha="-4267.2911756460353" sparseCutoff=".14886213220048405E-001"/>
      <sparseX i="105" alpha="-35.060867309703880" sparseCutoff=".25813168181954005E-004"/>
      <sparseX i="106" alpha="-344631.66566953895" sparseCutoff=".16734983057349453E-001"/>
      <sparseX i="107" alpha="-16231.775819402472" sparseCutoff=".29334182772516315E-002"/>
      <sparseX i="108" alpha="60725.486850432309" sparseCutoff=".17223689322103153"/>
      <sparseX i="109" alpha="-17415.568854315163" sparseCutoff=".59948438025111628E-001"/>
      <sparseX i="110" alpha="105800.80835862158" sparseCutoff=".59545456470284996"/>
      <sparseX i="111" alpha="-191307.78357150839" sparseCutoff="1.0000000000000000"/>
      <sparseX i="112" alpha="-24498.511360941324" sparseCutoff=".35058251880409974"/>
      <sparseX i="113" alpha="30796.425032956507" sparseCutoff="1.0000000000000000"/>
      <sparseX i="114" alpha="3576.3137340413423" sparseCutoff="1.0000000000000000"/>
      <sparseX i="115" alpha="2661.2606112973572" sparseCutoff=".38337395681265485E-002"/>
      <sparseX i="116" alpha="28652.177604390745" sparseCutoff=".12813633609345965"/>
      <sparseX i="117" alpha="33545.205859987618" sparseCutoff=".83510122422604560"/>
      <sparseX i="118" alpha="-99121.233731437809" sparseCutoff=".94673303831169231E-002"/>
      <sparseX i="119" alpha="90571.742451495214" sparseCutoff=".28166123637321272"/>
      <sparseX i="120" alpha="-42239.745536752453" sparseCutoff="1.0000000000000000"/>
      <sparseX i="121" alpha="28389.605794436564" sparseCutoff="1.0000000000000000"/>
      <sparseX i="122" alpha="-6262.1480716803999" sparseCutoff="1.0000000000000000"/>
      <sparseX i="123" alpha="-160442.53783529127" sparseCutoff=".10420671070774579"/>
      <sparseX i="124" alpha="12249.144878989358" sparseCutoff="1.0000000000000000"/>
      <sparseX i="125" alpha="16921.444003493856" sparseCutoff=".15802108880288379E-001"/>
      <sparseX i="126" alpha="19840.387224051494" sparseCutoff=".53421030533395190E-001"/>
      <sparseX i="127" alpha="127629.88343240037" sparseCutoff=".51842118512625945"/>
      <sparseX i="128" alpha="7715.9947941541486" sparseCutoff=".71192652446609344E-002"/>
      <sparseX i="129" alpha="-17715.350086638366" sparseCutoff=".64202225008204439"/>
      <sparseX i="130" alpha="33176.792860864211" sparseCutoff=".35756741469741771"/>
      <sparseX i="131" alpha="7458.2673179094136" sparseCutoff=".35756741469741771"/>
      <sparseX i="132" alpha="-117364.98110909099" sparseCutoff=".32276906199169253"/>
      <sparseX i="133" alpha="122159.98278405075" sparseCutoff=".99914135487535871"/>
      <sparseX i="134" alpha="-10841.197007281176" sparseCutoff=".14551888001655650"/>
      <sparseX i="135" alpha="17594.263938498640" sparseCutoff="1.0000000000000000"/>
      <sparseX i="136" alpha="-137831.94599120214" sparseCutoff=".10647701399086401"/>
      <sparseX i="137" alpha="1825.0712702047276" sparseCutoff=".25972269153088856"/>
      <sparseX i="138" alpha="-62518.183457303945" sparseCutoff=".55516064248085217"/>
      <sparseX i="139" alpha="19030.997105491828" sparseCutoff=".87559358191835246"/>
      <sparseX i="140" alpha="128842.02778002534" sparseCutoff=".21142673381486377"/>
      <sparseX i="141" alpha="9009.3068058466051" sparseCutoff="1.0000000000000000"/>
      <sparseX i="142" alpha="-46231.488756269879" sparseCutoff="1.0000000000000000"/>
      <sparseX i="143" alpha="-9851.7153569308248" sparseCutoff="1.0000000000000000"/>
      <sparseX i="144" alpha="46820.920369788371" sparseCutoff=".29959948784626034"/>
      <sparseX i="145" alpha="-81197.467422079004" sparseCutoff=".99942831260499854"/>
      <sparseX i="146" alpha="13263.339065422659" sparseCutoff="1.0000000000000000"/>
      <sparseX i="147" alpha="-102867.54481734705" sparseCutoff=".47150229720776138"/>
      <sparseX i="148" alpha="-49159.673096173276" sparseCutoff="1.0000000000000000"/>
      <sparseX i="149" alpha="22332.702570434023" sparseCutoff="1.0000000000000000"/>
      <sparseX i="150" alpha="38719.626019191135" sparseCutoff=".30455028441435869E-002"/>
      <sparseX i="151" alpha="3679.9090016015225" sparseCutoff="1.0000000000000000"/>
      <sparseX i="152" alpha="-29556.337415619928" sparseCutoff=".16218735650688598E-001"/>
      <sparseX i="153" alpha="77624.108065082182" sparseCutoff="1.0000000000000000"/>
      <sparseX i="154" alpha="-22105.095564134732" sparseCutoff="1.0000000000000000"/>
      <sparseX i="155" alpha="-49717.261024398678" sparseCutoff="1.0000000000000000"/>
      <sparseX i="156" alpha="-44550.637806616607" sparseCutoff="1.0000000000000000"/>
      <sparseX i="157" alpha="-18594.348258873688" sparseCutoff=".30976176035637992"/>
      <sparseX i="158" alpha="-122269.17154533950" sparseCutoff=".99965379042266478"/>
      <sparseX i="159" alpha="7015.4769959451169" sparseCutoff="1.0000000000000000"/>
      <sparseX i="160" alpha="-6193.4538936914305" sparseCutoff=".36966914451986010"/>
      <sparseX i="161" alpha="-149784.25877992745" sparseCutoff=".10767023112282670E-001"/>
      <sparseX i="162" alpha="2931.4124180356985" sparseCutoff=".21413156933035582E-002"/>
      <sparseX i="163" alpha="-78030.091248244731" sparseCutoff=".18248696631993072"/>
      <sparseX i="164" alpha="54839.612856013657" sparseCutoff=".99621147398520393"/>
      <sparseX i="165" alpha="-48026.642374816416" sparseCutoff=".40388112516287139"/>
      <sparseX i="166" alpha="-3059.3151931697957" sparseCutoff=".57102442591638103"/>
      <sparseX i="167" alpha="8766.6366788428677" sparseCutoff=".92763834956041018E-003"/>
      <sparseX i="168" alpha="164594.42343854561" sparseCutoff=".11000801128618232E-001"/>
      <sparseX i="169" alpha="-2106.4123038768530" sparseCutoff=".34353133313548345"/>
      <sparseX i="170" alpha="139748.33280068447" sparseCutoff=".17722023802307529E-001"/>
      <sparseX i="171" alpha="-47396.275963434280" sparseCutoff="1.0000000000000000"/>
      <sparseX i="172" alpha="-17551.200699646033" sparseCutoff="1.0000000000000000"/>
      <sparseX i="173" alpha="-36895.924290411829" sparseCutoff="1.0000000000000000"/>
      <sparseX i="174" alpha="-71837.646627510956" sparseCutoff=".47073692263602640E-001"/>
      <sparseX i="175" alpha="11885.263326112590" sparseCutoff=".36879418351711118"/>
      <sparseX i="176" alpha="-23507.557151389181" sparseCutoff=".70240400047135687"/>
      <sparseX i="177" alpha="1768.3661264544112" sparseCutoff=".15250640503331225"/>
      <sparseX i="178" alpha="-26776.301431968121" sparseCutoff=".99125775960103590"/>
      <sparseX i="179" alpha="-18874.793843522377" sparseCutoff="1.0000000000000000"/>
      <sparseX i="180" alpha="10491.329501850314" sparseCutoff=".30057336238402121E-002"/>
      <sparseX i="181" alpha="-165572.76576118261" sparseCutoff=".81389064458506410E-001"/>
      <sparseX i="182" alpha="80108.777786524355" sparseCutoff=".10959980173038097"/>
      <sparseX i="183" alpha="-13902.417499450021" sparseCutoff=".22026737782035455E-002"/>
      <sparseX i="184" alpha="-9298.8702748187425" sparseCutoff=".36877818029327830"/>
      <sparseX i="185" alpha="36256.431192396019" sparseCutoff="1.0000000000000000"/>
      <sparseX i="186" alpha="22893.921572786676" sparseCutoff=".97638380343001430"/>
      <sparseX i="187" alpha="-52184.152555380300" sparseCutoff=".55664373962106883"/>
      <sparseX i="188" alpha="-4210.3483963278914" sparseCutoff=".14173632038937626E-001"/>
      <sparseX i="189" alpha="-1021.9647872178771" sparseCutoff=".54394097618244319"/>
      <sparseX i="190" alpha="-9290.4077083639768" sparseCutoff=".97923488751197718"/>
      <sparseX i="191" alpha="-2106.6744958935692" sparseCutoff=".67985972751161139E-003"/>
      <sparseX i="192" alpha="-20657.663395726486" sparseCutoff=".31136231928523839"/>
      <sparseX i="193" alpha="31100.187303500556" sparseCutoff=".50701435872482992E-001"/>
      <sparseX i="194" alpha="536.40079092197232" sparseCutoff=".21439229237226631E-001"/>
      <sparseX i="195" alpha="-142246.19250731714" sparseCutoff=".49437142188729633E-001"/>
      <sparseX i="196" alpha="75373.731061006591" sparseCutoff=".33658714602680706"/>
      <sparseX i="197" alpha="-28469.822089786318" sparseCutoff=".91278016998600453"/>
      <sparseX i="198" alpha="118188.86183134239" sparseCutoff=".28299966026041484"/>
      <sparseX i="199" alpha="58966.162446544164" sparseCutoff=".47251264865063702E-001"/>
      <sparseX i="200" alpha="21411.449863065201" sparseCutoff="1.0000000000000000"/>
    </gpCoordinates>
    <gpCoordinates label="GAP_2026_3_23_120_0_29_31_6057" dimensions="75" signal_variance=".10000000000000001E+000" signal_mean=".00000000000000000E+000" sparsified="T" n_permutations="1" covariance_type="2" zeta="4.0000000000000000" n_sparseX="1000" sparseX_filename="CH.xml.sparseX.GAP_2026_3_23_120_0_29_31_6057" sparseX_md5sum="9dd3b9ccdfee23509ed9d4f686a84e9b">
      <descriptor> soap_turbo l_max=4 alpha_max={4 4} atom_sigma_r={0.2 0.2} atom_sigma_t={0.2 0.2} atom_sigma_r_scaling={0.1 0.1} atom_sigma_t_scaling={0.1 0.1} zeta=4 rcut_hard=4.0 rcut_soft=3.5 basis=poly3gauss scaling_mode=polynomial add_species=F amplitude_scaling={2.0 2.0} n_species=2 species_Z={1 6} central_index=1 radial_enhancement=1 compress_mode=trivial central_weight={1.0 1.0} n_sparse=1000 delta=0.1 f0=0.0 covariance_type=dot_product sparse_method=cur_points</descriptor>
      <permutation i="1">1  </permutation>
      <sparseX i="1" alpha="-14805.352120023907" sparseCutoff="1.0000000000000000"/>
      <sparseX i="2" alpha="27289.367347494870" sparseCutoff="1.0000000000000000"/>
      <sparseX i="3" alpha="95789.454687756734" sparseCutoff="1.0000000000000000"/>
      <sparseX i="4" alpha="25312.357924164695" sparseCutoff="1.0000000000000000"/>
      <sparseX i="5" alpha="17558.141580838372" sparseCutoff="1.0000000000000000"/>
      <sparseX i="6" alpha="46216.581008453279" sparseCutoff="1.0000000000000000"/>
      <sparseX i="7" alpha="4748.0784914138694" sparseCutoff="1.0000000000000000"/>
      <sparseX i="8" alpha="68160.809304576556" sparseCutoff="1.0000000000000000"/>
      <sparseX i="9" alpha="-15373.132967060903" sparseCutoff="1.0000000000000000"/>
      <sparseX i="10" alpha="3543.9880148501693" sparseCutoff="1.0000000000000000"/>
      <sparseX i="11" alpha="-11466.323577172587" sparseCutoff="1.0000000000000000"/>
      <sparseX i="12" alpha="-29201.465817848635" sparseCutoff="1.0000000000000000"/>
      <sparseX i="13" alpha="13711.279357476815" sparseCutoff="1.0000000000000000"/>
      <sparseX i="14" alpha="1612.6077616555028" sparseCutoff="1.0000000000000000"/>
      <sparseX i="15" alpha="7652.9183266592036" sparseCutoff="1.0000000000000000"/>
      <sparseX i="16" alpha="60914.410427271985" sparseCutoff="1.0000000000000000"/>
      <sparseX i="17" alpha="-11584.055588459676" sparseCutoff="1.0000000000000000"/>
      <sparseX i="18" alpha="2171.4575345446601" sparseCutoff="1.0000000000000000"/>
      <sparseX i="19" alpha="65442.841738866940" sparseCutoff="1.0000000000000000"/>
      <sparseX i="20" alpha="11347.823150792527" sparseCutoff="1.0000000000000000"/>
      <sparseX i="21" alpha="-27438.352518314092" sparseCutoff="1.0000000000000000"/>
      <sparseX i="22" alpha="-5694.8378534617405" sparseCutoff="1.0000000000000000"/>
      <sparseX i="23" alpha="62153.477502676040" sparseCutoff="1.0000000000000000"/>
      <sparseX i="24" alpha="-3772.4028561700957" sparseCutoff="1.0000000000000000"/>
      <sparseX i="25" alpha="21001.480609498671" sparseCutoff="1.0000000000000000"/>
      <sparseX i="26" alpha="27577.376948658442" sparseCutoff="1.0000000000000000"/>
      <sparseX i="27" alpha="7213.2460805159790" sparseCutoff="1.0000000000000000"/>
      <sparseX i="28" alpha="15559.676250079965" sparseCutoff="1.0000000000000000"/>
      <sparseX i="29" alpha="4672.7778377866489" sparseCutoff="1.0000000000000000"/>
      <sparseX i="30" alpha="-3064.3374110900554" sparseCutoff="1.0000000000000000"/>
      <sparseX i="31" alpha="210.30718255766720" sparseCutoff="1.0000000000000000"/>
      <sparseX i="32" alpha="-2036.6614673505967" sparseCutoff="1.0000000000000000"/>
      <sparseX i="33" alpha="-2805.2552879098748" sparseCutoff="1.0000000000000000"/>
      <sparseX i="34" alpha="1145.4816070838519" sparseCutoff="1.0000000000000000"/>
      <sparseX i="35" alpha="-54944.530247447881" sparseCutoff="1.0000000000000000"/>
      <sparseX i="36" alpha="-40323.437295469608" sparseCutoff="1.0000000000000000"/>
      <sparseX i="37" alpha="12963.950020041808" sparseCutoff="1.0000000000000000"/>
      <sparseX i="38" alpha="-51242.234503552740" sparseCutoff="1.0000000000000000"/>
      <sparseX i="39" alpha="106938.44748745537" sparseCutoff="1.0000000000000000"/>
      <sparseX i="40" alpha="-3138.9168358977759" sparseCutoff="1.0000000000000000"/>
      <sparseX i="41" alpha="11247.939688524004" sparseCutoff="1.0000000000000000"/>
      <sparseX i="42" alpha="724.01010885996243" sparseCutoff="1.0000000000000000"/>
      <sparseX i="43" alpha="-4912.5070196529714" sparseCutoff="1.0000000000000000"/>
      <sparseX i="44" alpha="33870.421320189736" sparseCutoff="1.0000000000000000"/>
      <sparseX i="45" alpha="-10052.785589050789" sparseCutoff="1.0000000000000000"/>
      <sparseX i="46" alpha="59159.848402428666" sparseCutoff="1.0000000000000000"/>
      <sparseX i="47" alpha="-6378.8764819011913" sparseCutoff="1.0000000000000000"/>
      <sparseX i="48" alpha="5712.4749029144759" sparseCutoff="1.0000000000000000"/>
      <sparseX i="49" alpha="-23525.295695401135" sparseCutoff="1.0000000000000000"/>
      <sparseX i="50" alpha="6832.6566332402626" sparseCutoff="1.0000000000000000"/>
      <sparseX i="51" alpha="1976.4394769029007" sparseCutoff="1.0000000000000000"/>
      <sparseX i="52" alpha="-6365.6145118871700" sparseCutoff="1.0000000000000000"/>
      <sparseX i="53" alpha="7160.8619217221158" sparseCutoff="1.0000000000000000"/>
      <sparseX i="54" alpha="2916.2078235047948" sparseCutoff="1.0000000000000000"/>
      <sparseX i="55" alpha="52.769096132343982" sparseCutoff="1.0000000000000000"/>
      <sparseX i="56" alpha="-42602.054536136508" sparseCutoff="1.0000000000000000"/>
      <sparseX i="57" alpha="-531.30349065357007" sparseCutoff="1.0000000000000000"/>
      <sparseX i="58" alpha="204.49006684518815" sparseCutoff="1.0000000000000000"/>
      <sparseX i="59" alpha="-3233.3330610360331" sparseCutoff="1.0000000000000000"/>
      <sparseX i="60" alpha="19142.297412766253" sparseCutoff="1.0000000000000000"/>
      <sparseX i="61" alpha="-10641.226199378769" sparseCutoff="1.0000000000000000"/>
      <sparseX i="62" alpha="152426.34320902926" sparseCutoff="1.0000000000000000"/>
      <sparseX i="63" alpha="1468.7676720254337" sparseCutoff="1.0000000000000000"/>
      <sparseX i="64" alpha="4574.7011290985611" sparseCutoff="1.0000000000000000"/>
      <sparseX i="65" alpha="3718.7034381694193" sparseCutoff="1.0000000000000000"/>
      <sparseX i="66" alpha="-5240.6846414306256" sparseCutoff="1.0000000000000000"/>
      <sparseX i="67" alpha="-63562.493118283674" sparseCutoff="1.0000000000000000"/>
      <sparseX i="68" alpha="4566.5393321678403" sparseCutoff="1.0000000000000000"/>
      <sparseX i="69" alpha="40636.560249676593" sparseCutoff="1.0000000000000000"/>
      <sparseX i="70" alpha="-1539.5746660933557" sparseCutoff="1.0000000000000000"/>
      <sparseX i="71" alpha="3207.8416924252415" sparseCutoff="1.0000000000000000"/>
      <sparseX i="72" alpha="-433200.55084057798" sparseCutoff="1.0000000000000000"/>
      <sparseX i="73" alpha="-35895.766390017889" sparseCutoff="1.0000000000000000"/>
      <sparseX i="74" alpha="-32674.756628832311" sparseCutoff="1.0000000000000000"/>
      <sparseX i="75" alpha="-81943.677438077561" sparseCutoff="1.0000000000000000"/>
      <sparseX i="76" alpha="-217441.09427625799" sparseCutoff="1.0000000000000000"/>
      <sparseX i="77" alpha="-379848.13047410821" sparseCutoff="1.0000000000000000"/>
      <sparseX i="78" alpha="-42449.036779158887" sparseCutoff="1.0000000000000000"/>
      <sparseX i="79" alpha="40627.263998119357" sparseCutoff="1.0000000000000000"/>
      <sparseX i="80" alpha="-426.44445619703924" sparseCutoff="1.0000000000000000"/>
      <sparseX i="81" alpha="19493.590649722872" sparseCutoff="1.0000000000000000"/>
      <sparseX i="82" alpha="-175982.83122992489" sparseCutoff="1.0000000000000000"/>
      <sparseX i="83" alpha="-7703.8865987142026" sparseCutoff="1.0000000000000000"/>
      <sparseX i="84" alpha="4211.6159784447455" sparseCutoff="1.0000000000000000"/>
      <sparseX i="85" alpha="63995.781228584208" sparseCutoff="1.0000000000000000"/>
      <sparseX i="86" alpha="-15737.147099148078" sparseCutoff="1.0000000000000000"/>
      <sparseX i="87" alpha="-259588.43018599311" sparseCutoff="1.0000000000000000"/>
      <sparseX i="88" alpha="32153.580682964839" sparseCutoff="1.0000000000000000"/>
      <sparseX i="89" alpha="-39559.719675995679" sparseCutoff="1.0000000000000000"/>
      <sparseX i="90" alpha="-102709.53993939127" sparseCutoff="1.0000000000000000"/>
      <sparseX i="91" alpha="-15883.921585833748" sparseCutoff="1.0000000000000000"/>
      <sparseX i="92" alpha="-9932.4327564333325" sparseCutoff="1.0000000000000000"/>
      <sparseX i="93" alpha="46975.044356208557" sparseCutoff="1.0000000000000000"/>
      <sparseX i="94" alpha="-26244.806104300555" sparseCutoff="1.0000000000000000"/>
      <sparseX i="95" alpha="-21083.388808970667" sparseCutoff="1.0000000000000000"/>
      <sparseX i="96" alpha="734.56543967963944" sparseCutoff="1.0000000000000000"/>
      <sparseX i="97" alpha="-262.58663023454108" sparseCutoff="1.0000000000000000"/>
      <sparseX i="98" alpha="31175.872814312141" sparseCutoff="1.0000000000000000"/>
      <sparseX i="99" alpha="13687.576842428341" sparseCutoff="1.0000000000000000"/>
      <sparseX i="100" alpha="8898.8233890333959" sparseCutoff="1.0000000000000000"/>
      <sparseX i="101" alpha="2070.6331421127911" sparseCutoff="1.0000000000000000"/>
      <sparseX i="102" alpha="-22701.489807435464" sparseCutoff="1.0000000000000000"/>
      <sparseX i="103" alpha="11394.011879575157" sparseCutoff="1.0000000000000000"/>
      <sparseX i="104" alpha="-19018.164988844343" sparseCutoff="1.0000000000000000"/>
      <sparseX i="105" alpha="7162.6057194959012" sparseCutoff="1.0000000000000000"/>
      <sparseX i="106" alpha="21314.516205611326" sparseCutoff="1.0000000000000000"/>
      <sparseX i="107" alpha="833.21453609271771" sparseCutoff="1.0000000000000000"/>
      <sparseX i="108" alpha="-344.55734531155196" sparseCutoff="1.0000000000000000"/>
      <sparseX i="109" alpha="8231.2306306620649" sparseCutoff="1.0000000000000000"/>
      <sparseX i="110" alpha="-104301.02279362011" sparseCutoff="1.0000000000000000"/>
      <sparseX i="111" alpha="8183.9750477521711" sparseCutoff="1.0000000000000000"/>
      <sparseX i="112" alpha="1724.9364569930706" sparseCutoff="1.0000000000000000"/>
      <sparseX i="113" alpha="1151.0096347510116" sparseCutoff="1.0000000000000000"/>
      <sparseX i="114" alpha="46.974466125903064" sparseCutoff="1.0000000000000000"/>
      <sparseX i="115" alpha="1124.5646339050695" sparseCutoff="1.0000000000000000"/>
      <sparseX i="116" alpha="-586.94377220788033" sparseCutoff="1.0000000000000000"/>
      <sparseX i="117" alpha="-1098.5770333560829" sparseCutoff="1.0000000000000000"/>
      <sparseX i="118" alpha="-16053.106981188605" sparseCutoff="1.0000000000000000"/>
      <sparseX i="119" alpha="52422.257146606738" sparseCutoff="1.0000000000000000"/>
      <sparseX i="120" alpha="63385.194455187055" sparseCutoff="1.0000000000000000"/>
      <sparseX i="121" alpha="141950.12240371748" sparseCutoff="1.0000000000000000"/>
      <sparseX i="122" alpha="-65090.172599511694" sparseCutoff="1.0000000000000000"/>
      <sparseX i="123" alpha="11849.103224396275" sparseCutoff="1.0000000000000000"/>
      <sparseX i="124" alpha="-9679.9459556402962" sparseCutoff="1.0000000000000000"/>
      <sparseX i="125" alpha="-24819.559974938969" sparseCutoff="1.0000000000000000"/>
      <sparseX i="126" alpha="-38513.026926688151" sparseCutoff="1.0000000000000000"/>
      <sparseX i="127" alpha="91566.796894856161" sparseCutoff="1.0000000000000000"/>
      <sparseX i="128" alpha="7370.1762289860271" sparseCutoff="1.0000000000000000"/>
      <sparseX i="129" alpha="-130064.99593437379" sparseCutoff="1.0000000000000000"/>
      <sparseX i="130" alpha="-7378.6274384871094" sparseCutoff="1.0000000000000000"/>
      <sparseX i="131" alpha="51527.275870873062" sparseCutoff="1.0000000000000000"/>
      <sparseX i="132" alpha="20923.324708610908" sparseCutoff="1.0000000000000000"/>
      <sparseX i="133" alpha="32310.788024829504" sparseCutoff="1.0000000000000000"/>
      <sparseX i="134" alpha="48180.109274195958" sparseCutoff="1.0000000000000000"/>
      <sparseX i="135" alpha="5252.3716594006910" sparseCutoff="1.0000000000000000"/>
      <sparseX i="136" alpha="6502.5255837919158" sparseCutoff="1.0000000000000000"/>
      <sparseX i="137" alpha="-11173.785320677363" sparseCutoff="1.0000000000000000"/>
      <sparseX i="138" alpha="-3983.0279138265846" sparseCutoff="1.0000000000000000"/>
      <sparseX i="139" alpha="-16950.590830829853" sparseCutoff="1.0000000000000000"/>
      <sparseX i="140" alpha="77040.311639583902" sparseCutoff="1.0000000000000000"/>
      <sparseX i="141" alpha="-26958.150718389748" sparseCutoff="1.0000000000000000"/>
      <sparseX i="142" alpha="-1367.9182997892758" sparseCutoff="1.0000000000000000"/>
      <sparseX i="143" alpha="13448.068900322103" sparseCutoff="1.0000000000000000"/>
      <sparseX i="144" alpha="-34500.912103263552" sparseCutoff="1.0000000000000000"/>
      <sparseX i="145" alpha="-60136.683560348203" sparseCutoff="1.0000000000000000"/>
      <sparseX i="146" alpha="-23891.261200147550" sparseCutoff="1.0000000000000000"/>
      <sparseX i="147" alpha="43058.667015587933" sparseCutoff="1.0000000000000000"/>
      <sparseX i="148" alpha="-23146.467162290122" sparseCutoff="1.0000000000000000"/>
      <sparseX i="149" alpha="14886.122497878481" sparseCutoff="1.0000000000000000"/>
      <sparseX i="150" alpha="30143.960254502352" sparseCutoff="1.0000000000000000"/>
      <sparseX i="151" alpha="1073.6423269704537" sparseCutoff="1.0000000000000000"/>
      <sparseX i="152" alpha="-11213.394636623165" sparseCutoff="1.0000000000000000"/>
      <sparseX i="153" alpha="454.25250635682869" sparseCutoff="1.0000000000000000"/>
      <sparseX i="154" alpha="-993.26714202554786" sparseCutoff="1.0000000000000000"/>
      <sparseX i="155" alpha="11841.477629200408" sparseCutoff="1.0000000000000000"/>
      <sparseX i="156" alpha="18771.252698900575" sparseCutoff="1.0000000000000000"/>
      <sparseX i="157" alpha="365.80768792696148" sparseCutoff="1.0000000000000000"/>
      <sparseX i="158" alpha="62759.187477578096" sparseCutoff="1.0000000000000000"/>
      <sparseX i="159" alpha="18116.020715214778" sparseCutoff="1.0000000000000000"/>
      <sparseX i="160" alpha="-9106.4564082608176" sparseCutoff="1.0000000000000000"/>
      <sparseX i="161" alpha="-48561.804079249872" sparseCutoff="1.0000000000000000"/>
      <sparseX i="162" alpha="-202014.37927769558" sparseCutoff="1.0000000000000000"/>
      <sparseX i="163" alpha="-55834.682055914112" sparseCutoff="1.0000000000000000"/>
      <sparseX i="164" alpha="73382.181999725566" sparseCutoff="1.0000000000000000"/>
      <sparseX i="165" alpha="17196.262065250790" sparseCutoff="1.0000000000000000"/>
      <sparseX i="166" alpha="-44261.876506739791" sparseCutoff="1.0000000000000000"/>
      <sparseX i="167" alpha="55175.551346639346" sparseCutoff="1.0000000000000000"/>
      <sparseX i="168" alpha="1255.3002862430185" sparseCutoff="1.0000000000000000"/>
      <sparseX i="169" alpha="1384.1425194548044" sparseCutoff="1.0000000000000000"/>
      <sparseX i="170" alpha="28326.548308235506" sparseCutoff="1.0000000000000000"/>
      <sparseX i="171" alpha="72894.876920289971" sparseCutoff="1.0000000000000000"/>
      <sparseX i="172" alpha="-6971.4988533193073" sparseCutoff="1.0000000000000000"/>
      <sparseX i="173" alpha="-21237.248369575340" sparseCutoff="1.0000000000000000"/>
      <sparseX i="174" alpha="10919.564246567770" sparseCutoff="1.0000000000000000"/>
      <sparseX i="175" alpha="16053.949946456232" sparseCutoff="1.0000000000000000"/>
      <sparseX i="176" alpha="-7690.8609770828898" sparseCutoff="1.0000000000000000"/>
      <sparseX i="177" alpha="17152.409508625828" sparseCutoff="1.0000000000000000"/>
      <sparseX i="178" alpha="-73697.167047080278" sparseCutoff="1.0000000000000000"/>
      <sparseX i="179" alpha="-6520.4800205242609" sparseCutoff="1.0000000000000000"/>
      <sparseX i="180" alpha="-80084.286710365152" sparseCutoff="1.0000000000000000"/>
      <sparseX i="181" alpha="17107.996372130750" sparseCutoff="1.0000000000000000"/>
      <sparseX i="182" alpha="-12607.657525561106" sparseCutoff="1.0000000000000000"/>
      <sparseX i="183" alpha="18191.316786835847" sparseCutoff="1.0000000000000000"/>
      <sparseX i="184" alpha="11539.568465131126" sparseCutoff="1.0000000000000000"/>
      <sparseX i="185" alpha="21714.177962895810" sparseCutoff="1.0000000000000000"/>
      <sparseX i="186" alpha="-7733.5221062893306" sparseCutoff="1.0000000000000000"/>
      <sparseX i="187" alpha="24576.173981587657" sparseCutoff="1.0000000000000000"/>
      <sparseX i="188" alpha="103648.60219583035" sparseCutoff="1.0000000000000000"/>
      <sparseX i="189" alpha="-1365.8704516741232" sparseCutoff="1.0000000000000000"/>
      <sparseX i="190" alpha="-235.78338838250514" sparseCutoff="1.0000000000000000"/>
      <sparseX i="191" alpha="-245648.68590762682" sparseCutoff="1.0000000000000000"/>
      <sparseX i="192" alpha="103278.29089242358" sparseCutoff="1.0000000000000000"/>
      <sparseX i="193" alpha="-404.79737885233811" sparseCutoff="1.0000000000000000"/>
      <sparseX i="194" alpha="5221.2762321552455" sparseCutoff="1.0000000000000000"/>
      <sparseX i="195" alpha="-1626.0507606040003" sparseCutoff="1.0000000000000000"/>
      <sparseX i="196" alpha="17006.954858147070" sparseCutoff="1.0000000000000000"/>
      <sparseX i="197" alpha="17467.839894881225" sparseCutoff="1.0000000000000000"/>
      <sparseX i="198" alpha="29952.820282034820" sparseCutoff="1.0000000000000000"/>
      <sparseX i="199" alpha="-21336.008879501118" sparseCutoff="1.0000000000000000"/>
      <sparseX i="200" alpha="12741.391226517473" sparseCutoff="1.0000000000000000"/>
      <sparseX i="201" alpha="46202.793115721361" sparseCutoff="1.0000000000000000"/>
      <sparseX i="202" alpha="397.88046376214004" sparseCutoff="1.0000000000000000"/>
      <sparseX i="203" alpha="-374.92819986886195" sparseCutoff="1.0000000000000000"/>
      <sparseX i="204" alpha="32132.344358652306" sparseCutoff="1.0000000000000000"/>
      <sparseX i="205" alpha="19040.412695560317" sparseCutoff="1.0000000000000000"/>
      <sparseX i="206" alpha="-7832.1916329126434" sparseCutoff="1.0000000000000000"/>
      <sparseX i="207" alpha="30596.411351560859" sparseCutoff="1.0000000000000000"/>
      <sparseX i="208" alpha="27081.557902607969" sparseCutoff="1.0000000000000000"/>
      <sparseX i="209" alpha="-34319.102046780150" sparseCutoff="1.0000000000000000"/>
      <sparseX i="210" alpha="-6032.4149584659463" sparseCutoff="1.0000000000000000"/>
      <sparseX i="211" alpha="2014.2085895383973" sparseCutoff="1.0000000000000000"/>
      <sparseX i="212" alpha="-37083.707849355473" sparseCutoff="1.0000000000000000"/>
      <sparseX i="213" alpha="6998.8750750111794" sparseCutoff="1.0000000000000000"/>
      <sparseX i="214" alpha="-9308.2481388375327" sparseCutoff="1.0000000000000000"/>
      <sparseX i="215" alpha="-30753.044990495018" sparseCutoff="1.0000000000000000"/>
      <sparseX i="216" alpha="-9618.2174687575753" sparseCutoff="1.0000000000000000"/>
      <sparseX i="217" alpha="159754.40233730644" sparseCutoff="1.0000000000000000"/>
      <sparseX i="218" alpha="31249.041048835759" sparseCutoff="1.0000000000000000"/>
      <sparseX i="219" alpha="2281.8654150465172" sparseCutoff="1.0000000000000000"/>
      <sparseX i="220" alpha="-29546.539277705659" sparseCutoff="1.0000000000000000"/>
      <sparseX i="221" alpha="60497.961787151398" sparseCutoff="1.0000000000000000"/>
      <sparseX i="222" alpha="-45604.465598050134" sparseCutoff="1.0000000000000000"/>
      <sparseX i="223" alpha="-7904.1258695283868" sparseCutoff="1.0000000000000000"/>
      <sparseX i="224" alpha="-13.976335136573550" sparseCutoff="1.0000000000000000"/>
      <sparseX i="225" alpha="-8708.4879925256701" sparseCutoff="1.0000000000000000"/>
      <sparseX i="226" alpha="19378.100427893394" sparseCutoff="1.0000000000000000"/>
      <sparseX i="227" alpha="-6633.4598727619596" sparseCutoff="1.0000000000000000"/>
      <sparseX i="228" alpha="-29267.309494502741" sparseCutoff="1.0000000000000000"/>
      <sparseX i="229" alpha="-7146.0406544188518" sparseCutoff="1.0000000000000000"/>
      <sparseX i="230" alpha="53761.237430123307" sparseCutoff="1.0000000000000000"/>
      <sparseX i="231" alpha="-349614.15410299442" sparseCutoff="1.0000000000000000"/>
      <sparseX i="232" alpha="12539.755910341390" sparseCutoff="1.0000000000000000"/>
      <sparseX i="233" alpha="41712.054973391321" sparseCutoff="1.0000000000000000"/>
      <sparseX i="234" alpha="-71402.165875666091" sparseCutoff="1.0000000000000000"/>
      <sparseX i="235" alpha="880.70826226732731" sparseCutoff="1.0000000000000000"/>
      <sparseX i="236" alpha="-66521.257775690989" sparseCutoff="1.0000000000000000"/>
      <sparseX i="237" alpha="-62490.913613515630" sparseCutoff="1.0000000000000000"/>
      <sparseX i="238" alpha="22265.068802983435" sparseCutoff="1.0000000000000000"/>
      <sparseX i="239" alpha="31725.345924636204" sparseCutoff="1.0000000000000000"/>
      <sparseX i="240" alpha="26175.717280343648" sparseCutoff="1.0000000000000000"/>
      <sparseX i="241" alpha="-7871.3380746245448" sparseCutoff="1.0000000000000000"/>
      <sparseX i="242" alpha="-5534.0186367630013" sparseCutoff="1.0000000000000000"/>
      <sparseX i="243" alpha="1463.7337615692668" sparseCutoff="1.0000000000000000"/>
      <sparseX i="244" alpha="-51777.444628476769" sparseCutoff="1.0000000000000000"/>
      <sparseX i="245" alpha="42437.659905795786" sparseCutoff="1.0000000000000000"/>
      <sparseX i="246" alpha="1493.5756378765534" sparseCutoff="1.0000000000000000"/>
      <sparseX i="247" alpha="15902.769330449019" sparseCutoff="1.0000000000000000"/>
      <sparseX i="248" alpha="7157.5043929874282" sparseCutoff="1.0000000000000000"/>
      <sparseX i="249" alpha="9084.3983254540290" sparseCutoff="1.0000000000000000"/>
      <sparseX i="250" alpha="-1564.2371541708560" sparseCutoff="1.0000000000000000"/>
      <sparseX i="251" alpha="-2360.5473850191388" sparseCutoff="1.0000000000000000"/>
      <sparseX i="252" alpha="-25421.082956285678" sparseCutoff="1.0000000000000000"/>
      <sparseX i="253" alpha="6328.8294915381930" sparseCutoff="1.0000000000000000"/>
      <sparseX i="254" alpha="-16481.926083900144" sparseCutoff="1.0000000000000000"/>
      <sparseX i="255" alpha="24325.526267398483" sparseCutoff="1.0000000000000000"/>
      <sparseX i="256" alpha="5317.2331448860159" sparseCutoff="1.0000000000000000"/>
      <sparseX i="257" alpha="-41191.694105661198" sparseCutoff="1.0000000000000000"/>
      <sparseX i="258" alpha="-3756.4646550117955" sparseCutoff="1.0000000000000000"/>
      <sparseX i="259" alpha="-30279.391446323989" sparseCutoff="1.0000000000000000"/>
      <sparseX i="260" alpha="-22338.961536477113" sparseCutoff="1.0000000000000000"/>
      <sparseX i="261" alpha="-16481.003534873300" sparseCutoff="1.0000000000000000"/>
      <sparseX i="262" alpha="59426.164008982378" sparseCutoff="1.0000000000000000"/>
      <sparseX i="263" alpha="37743.051458181566" sparseCutoff="1.0000000000000000"/>
      <sparseX i="264" alpha="-48584.348166225689" sparseCutoff="1.0000000000000000"/>
      <sparseX i="265" alpha="8867.9845726454823" sparseCutoff="1.0000000000000000"/>
      <sparseX i="266" alpha="6680.6282145169525" sparseCutoff="1.0000000000000000"/>
      <sparseX i="267" alpha="69552.878545149506" sparseCutoff="1.0000000000000000"/>
      <sparseX i="268" alpha="-28856.150724470906" sparseCutoff="1.0000000000000000"/>
      <sparseX i="269" alpha="23583.208511147004" sparseCutoff="1.0000000000000000"/>
      <sparseX i="270" alpha="-11262.086411396282" sparseCutoff="1.0000000000000000"/>
      <sparseX i="271" alpha="-17220.640784815405" sparseCutoff="1.0000000000000000"/>
      <sparseX i="272" alpha="-44711.619888307127" sparseCutoff="1.0000000000000000"/>
      <sparseX i="273" alpha="-4803.8533454801618" sparseCutoff="1.0000000000000000"/>
      <sparseX i="274" alpha="1770.6497577673022" sparseCutoff="1.0000000000000000"/>
      <sparseX i="275" alpha="656.66574347623487" sparseCutoff="1.0000000000000000"/>
      <sparseX i="276" alpha="276.71822930146976" sparseCutoff="1.0000000000000000"/>
      <sparseX i="277" alpha="-1700.9658454656351" sparseCutoff="1.0000000000000000"/>
      <sparseX i="278" alpha="7999.4666963620375" sparseCutoff="1.0000000000000000"/>
      <sparseX i="279" alpha="42195.191409947773" sparseCutoff="1.0000000000000000"/>
      <sparseX i="280" alpha="-21650.769679649875" sparseCutoff="1.0000000000000000"/>
      <sparseX i="281" alpha="56486.466169965461" sparseCutoff="1.0000000000000000"/>
      <sparseX i="282" alpha="-5120.2052151174503" sparseCutoff="1.0000000000000000"/>
      <sparseX i="283" alpha="3508.9035462563838" sparseCutoff="1.0000000000000000"/>
      <sparseX i="284" alpha="-10578.620345414520" sparseCutoff="1.0000000000000000"/>
      <sparseX i="285" alpha="11094.033377155052" sparseCutoff="1.0000000000000000"/>
      <sparseX i="286" alpha="64563.089390617679" sparseCutoff="1.0000000000000000"/>
      <sparseX i="287" alpha="121952.37508055319" sparseCutoff="1.0000000000000000"/>
      <sparseX i="288" alpha="-17076.544087340670" sparseCutoff="1.0000000000000000"/>
      <sparseX i="289" alpha="30330.166820606632" sparseCutoff="1.0000000000000000"/>
      <sparseX i="290" alpha="56383.868718990976" sparseCutoff="1.0000000000000000"/>
      <sparseX i="291" alpha="16529.260622746497" sparseCutoff="1.0000000000000000"/>
      <sparseX i="292" alpha="55973.364587347118" sparseCutoff="1.0000000000000000"/>
      <sparseX i="293" alpha="-5917.4869775724028" sparseCutoff="1.0000000000000000"/>
      <sparseX i="294" alpha="-65599.043790938245" sparseCutoff="1.0000000000000000"/>
      <sparseX i="295" alpha="-41564.338804811741" sparseCutoff="1.0000000000000000"/>
      <sparseX i="296" alpha="85208.744109299005" sparseCutoff="1.0000000000000000"/>
      <sparseX i="297" alpha="30170.240243327327" sparseCutoff="1.0000000000000000"/>
      <sparseX i="298" alpha="6987.2491744926565" sparseCutoff="1.0000000000000000"/>
      <sparseX i="299" alpha="-1345.6524487241536" sparseCutoff="1.0000000000000000"/>
      <sparseX i="300" alpha="15772.130192621491" sparseCutoff="1.0000000000000000"/>
      <sparseX i="301" alpha="-6060.0795839904004" sparseCutoff="1.0000000000000000"/>
      <sparseX i="302" alpha="22202.858917104637" sparseCutoff="1.0000000000000000"/>
      <sparseX i="303" alpha="8326.4780528781394" sparseCutoff="1.0000000000000000"/>
      <sparseX i="304" alpha="-26666.419804551297" sparseCutoff="1.0000000000000000"/>
      <sparseX i="305" alpha="-18229.158058392335" sparseCutoff="1.0000000000000000"/>
      <sparseX i="306" alpha="-14750.631027571399" sparseCutoff="1.0000000000000000"/>
      <sparseX i="307" alpha="-7559.6761355152767" sparseCutoff="1.0000000000000000"/>
      <sparseX i="308" alpha="27492.073203049822" sparseCutoff="1.0000000000000000"/>
      <sparseX i="309" alpha="-6708.2960835055510" sparseCutoff="1.0000000000000000"/>
      <sparseX i="310" alpha="-4494.8748472744683" sparseCutoff="1.0000000000000000"/>
      <sparseX i="311" alpha="613.99075133769497" sparseCutoff="1.0000000000000000"/>
      <sparseX i="312" alpha="-16805.619901949402" sparseCutoff="1.0000000000000000"/>
      <sparseX i="313" alpha="-8853.3303812672220" sparseCutoff="1.0000000000000000"/>
      <sparseX i="314" alpha="275204.08879508974" sparseCutoff="1.0000000000000000"/>
      <sparseX i="315" alpha="2920.7600178535963" sparseCutoff="1.0000000000000000"/>
      <sparseX i="316" alpha="-771.02176526469304" sparseCutoff="1.0000000000000000"/>
      <sparseX i="317" alpha="-96626.068667254483" sparseCutoff="1.0000000000000000"/>
      <sparseX i="318" alpha="33863.891570180072" sparseCutoff="1.0000000000000000"/>
      <sparseX i="319" alpha="-18864.527604907496" sparseCutoff="1.0000000000000000"/>
      <sparseX i="320" alpha="86226.816635179406" sparseCutoff="1.0000000000000000"/>
      <sparseX i="321" alpha="-3940.0129146865179" sparseCutoff="1.0000000000000000"/>
      <sparseX i="322" alpha="72.623143167238453" sparseCutoff="1.0000000000000000"/>
      <sparseX i="323" alpha="7236.6016322732685" sparseCutoff="1.0000000000000000"/>
      <sparseX i="324" alpha="-3297.4766076703791" sparseCutoff="1.0000000000000000"/>
      <sparseX i="325" alpha="-37628.803831396603" sparseCutoff="1.0000000000000000"/>
      <sparseX i="326" alpha="-12375.241654828564" sparseCutoff="1.0000000000000000"/>
      <sparseX i="327" alpha="20560.825374728673" sparseCutoff="1.0000000000000000"/>
      <sparseX i="328" alpha="-31439.345264006610" sparseCutoff="1.0000000000000000"/>
      <sparseX i="329" alpha="-41846.314821921027" sparseCutoff="1.0000000000000000"/>
      <sparseX i="330" alpha="-708.88204746846156" sparseCutoff="1.0000000000000000"/>
      <sparseX i="331" alpha="-8145.3723970395031" sparseCutoff="1.0000000000000000"/>
      <sparseX i="332" alpha="-7501.6496791499294" sparseCutoff="1.0000000000000000"/>
      <sparseX i="333" alpha="15446.615730221545" sparseCutoff="1.0000000000000000"/>
      <sparseX i="334" alpha="-18538.666010688237" sparseCutoff="1.0000000000000000"/>
