<GAP_2026_3_23_120_0_27_17_354>
<Potential label="GAP_2026_3_23_120_0_27_17_354" init_args="IP GAP label=GAP_2026_3_23_120_0_27_17_354"/>
<GAP_params label="GAP_2026_3_23_120_0_27_17_354" gap_version="1686220958">
  <GAP_data do_core="F">
    <e0 Z="1" value=".00000000000000000E+000"/>
    <e0 Z="2" value=".00000000000000000E+000"/>
    <e0 Z="3" value=".00000000000000000E+000"/>
    <e0 Z="4" value=".00000000000000000E+000"/>
    <e0 Z="5" value=".00000000000000000E+000"/>
    <e0 Z="6" value=".00000000000000000E+000"/>
    <e0 Z="7" value=".00000000000000000E+000"/>
    <e0 Z="8" value=".00000000000000000E+000"/>
    <e0 Z="9" value=".00000000000000000E+000"/>
    <e0 Z="10" value=".00000000000000000E+000"/>
    <e0 Z="11" value=".00000000000000000E+000"/>
    <e0 Z="12" value=".00000000000000000E+000"/>
    <e0 Z="13" value=".00000000000000000E+000"/>
    <e0 Z="14" value=".00000000000000000E+000"/>
    <e0 Z="15" value=".00000000000000000E+000"/>
    <e0 Z="16" value=".00000000000000000E+000"/>
    <e0 Z="17" value=".00000000000000000E+000"/>
    <e0 Z="18" value=".00000000000000000E+000"/>
    <e0 Z="19" value=".00000000000000000E+000"/>
    <e0 Z="20" value=".00000000000000000E+000"/>
    <e0 Z="21" value=".00000000000000000E+000"/>
    <e0 Z="22" value=".00000000000000000E+000"/>
    <e0 Z="23" value=".00000000000000000E+000"/>
    <e0 Z="24" value=".00000000000000000E+000"/>
    <e0 Z="25" value=".00000000000000000E+000"/>
    <e0 Z="26" value=".00000000000000000E+000"/>
    <e0 Z="27" value=".00000000000000000E+000"/>
    <e0 Z="28" value=".00000000000000000E+000"/>
    <e0 Z="29" value=".00000000000000000E+000"/>
    <e0 Z="30" value=".00000000000000000E+000"/>
    <e0 Z="31" value=".00000000000000000E+000"/>
    <e0 Z="32" value=".00000000000000000E+000"/>
    <e0 Z="33" value=".00000000000000000E+000"/>
    <e0 Z="34" value=".00000000000000000E+000"/>
    <e0 Z="35" value=".00000000000000000E+000"/>
    <e0 Z="36" value=".00000000000000000E+000"/>
    <e0 Z="37" value=".00000000000000000E+000"/>
    <e0 Z="38" value=".00000000000000000E+000"/>
    <e0 Z="39" value=".00000000000000000E+000"/>
    <e0 Z="40" value=".00000000000000000E+000"/>
    <e0 Z="41" value=".00000000000000000E+000"/>
    <e0 Z="42" value=".00000000000000000E+000"/>
    <e0 Z="43" value=".00000000000000000E+000"/>
    <e0 Z="44" value=".00000000000000000E+000"/>
    <e0 Z="45" value=".00000000000000000E+000"/>
    <e0 Z="46" value=".00000000000000000E+000"/>
    <e0 Z="47" value=".00000000000000000E+000"/>
    <e0 Z="48" value=".00000000000000000E+000"/>
    <e0 Z="49" value=".00000000000000000E+000"/>
    <e0 Z="50" value=".00000000000000000E+000"/>
    <e0 Z="51" value=".00000000000000000E+000"/>
    <e0 Z="52" value=".00000000000000000E+000"/>
    <e0 Z="53" value=".00000000000000000E+000"/>
    <e0 Z="54" value=".00000000000000000E+000"/>
    <e0 Z="55" value=".00000000000000000E+000"/>
    <e0 Z="56" value=".00000000000000000E+000"/>
    <e0 Z="57" value=".00000000000000000E+000"/>
    <e0 Z="58" value=".00000000000000000E+000"/>
    <e0 Z="59" value=".00000000000000000E+000"/>
    <e0 Z="60" value=".00000000000000000E+000"/>
    <e0 Z="61" value=".00000000000000000E+000"/>
    <e0 Z="62" value=".00000000000000000E+000"/>
    <e0 Z="63" value=".00000000000000000E+000"/>
    <e0 Z="64" value=".00000000000000000E+000"/>
    <e0 Z="65" value=".00000000000000000E+000"/>
    <e0 Z="66" value=".00000000000000000E+000"/>
    <e0 Z="67" value=".00000000000000000E+000"/>
    <e0 Z="68" value=".00000000000000000E+000"/>
    <e0 Z="69" value=".00000000000000000E+000"/>
    <e0 Z="70" value=".00000000000000000E+000"/>
    <e0 Z="71" value=".00000000000000000E+000"/>
    <e0 Z="72" value=".00000000000000000E+000"/>
    <e0 Z="73" value=".00000000000000000E+000"/>
    <e0 Z="74" value=".00000000000000000E+000"/>
    <e0 Z="75" value=".00000000000000000E+000"/>
    <e0 Z="76" value=".00000000000000000E+000"/>
    <e0 Z="77" value=".00000000000000000E+000"/>
    <e0 Z="78" value=".00000000000000000E+000"/>
    <e0 Z="79" value=".00000000000000000E+000"/>
    <e0 Z="80" value=".00000000000000000E+000"/>
    <e0 Z="81" value=".00000000000000000E+000"/>
    <e0 Z="82" value=".00000000000000000E+000"/>
    <e0 Z="83" value=".00000000000000000E+000"/>
    <e0 Z="84" value=".00000000000000000E+000"/>
    <e0 Z="85" value=".00000000000000000E+000"/>
    <e0 Z="86" value=".00000000000000000E+000"/>
    <e0 Z="87" value=".00000000000000000E+000"/>
    <e0 Z="88" value=".00000000000000000E+000"/>
    <e0 Z="89" value=".00000000000000000E+000"/>
    <e0 Z="90" value=".00000000000000000E+000"/>
    <e0 Z="91" value=".00000000000000000E+000"/>
    <e0 Z="92" value=".00000000000000000E+000"/>
    <e0 Z="93" value=".00000000000000000E+000"/>
    <e0 Z="94" value=".00000000000000000E+000"/>
    <e0 Z="95" value=".00000000000000000E+000"/>
    <e0 Z="96" value=".00000000000000000E+000"/>
    <e0 Z="97" value=".00000000000000000E+000"/>
    <e0 Z="98" value=".00000000000000000E+000"/>
    <e0 Z="99" value=".00000000000000000E+000"/>
    <e0 Z="100" value=".00000000000000000E+000"/>
    <e0 Z="101" value=".00000000000000000E+000"/>
    <e0 Z="102" value=".00000000000000000E+000"/>
    <e0 Z="103" value=".00000000000000000E+000"/>
    <e0 Z="104" value=".00000000000000000E+000"/>
    <e0 Z="105" value=".00000000000000000E+000"/>
    <e0 Z="106" value=".00000000000000000E+000"/>
    <e0 Z="107" value=".00000000000000000E+000"/>
    <e0 Z="108" value=".00000000000000000E+000"/>
    <e0 Z="109" value=".00000000000000000E+000"/>
    <e0 Z="110" value=".00000000000000000E+000"/>
    <e0 Z="111" value=".00000000000000000E+000"/>
    <e0 Z="112" value=".00000000000000000E+000"/>
    <e0 Z="113" value=".00000000000000000E+000"/>
    <e0 Z="114" value=".00000000000000000E+000"/>
    <e0 Z="115" value=".00000000000000000E+000"/>
    <e0 Z="116" value=".00000000000000000E+000"/>
    <e0 Z="117" value=".00000000000000000E+000"/>
    <e0 Z="118" value=".00000000000000000E+000"/>
  </GAP_data>
  <gpSparse label="GAP_2026_3_23_120_0_27_17_354" n_coordinate="8" fitted="T">
    <gpCoordinates label="GAP_2026_3_23_120_0_27_17_3541" dimensions="1" signal_variance=".50000000000000000" signal_mean=".00000000000000000E+000" sparsified="T" n_permutations="1" covariance_type="1" n_sparseX="30" sparseX_filename="CH.xml.sparseX.GAP_2026_3_23_120_0_27_17_3541" sparseX_md5sum="4214c09b652e3123ccd826f7c384144c">
      <theta>  0.50000000000000000E+000 </theta>
      <descriptor> distance_2b Z1=1 Z2=1 cutoff=4.0 n_sparse=30 covariance_type=ard_se delta=0.5 theta_uniform=0.5 sparse_method=uniform add_species=F</descriptor>
      <permutation i="1">1  </permutation>
      <sparseX i="1" alpha="-1904.0046072013163" sparseCutoff="1.0000000000000000"/>
      <sparseX i="2" alpha="87.309214480155873" sparseCutoff="1.0000000000000000"/>
      <sparseX i="3" alpha="-24957.625930838669" sparseCutoff="1.0000000000000000"/>
      <sparseX i="4" alpha="458.92903469806805" sparseCutoff=".85676296628162185"/>
      <sparseX i="5" alpha="-1348.0110920733280" sparseCutoff="1.0000000000000000"/>
      <sparseX i="6" alpha="30240.797713259111" sparseCutoff="1.0000000000000000"/>
      <sparseX i="7" alpha="747.76802392628474" sparseCutoff="1.0000000000000000"/>
      <sparseX i="8" alpha="-22417.201069087900" sparseCutoff="1.0000000000000000"/>
      <sparseX i="9" alpha="-4841.0461965704708" sparseCutoff="1.0000000000000000"/>
      <sparseX i="10" alpha="10981.098277356616" sparseCutoff="1.0000000000000000"/>
      <sparseX i="11" alpha="32746.670954313238" sparseCutoff="1.0000000000000000"/>
      <sparseX i="12" alpha="-486.46976050405692" sparseCutoff="1.0000000000000000"/>
      <sparseX i="13" alpha="4650.0161906310404" sparseCutoff="1.0000000000000000"/>
      <sparseX i="14" alpha="789.74786239690161" sparseCutoff="1.0000000000000000"/>
      <sparseX i="15" alpha="10232.147961121153" sparseCutoff="1.0000000000000000"/>
      <sparseX i="16" alpha="-52.403436169398660" sparseCutoff="1.0000000000000000"/>
      <sparseX i="17" alpha="1.9162156013055045" sparseCutoff="1.0000000000000000"/>
      <sparseX i="18" alpha="1441.9850552081643" sparseCutoff=".53140035477369396E-001"/>
      <sparseX i="19" alpha="10269.711450873425" sparseCutoff="1.0000000000000000"/>
      <sparseX i="20" alpha="-696.07550016245455" sparseCutoff=".43255668665426039"/>
      <sparseX i="21" alpha="-2989.4810530411419" sparseCutoff="1.0000000000000000"/>
      <sparseX i="22" alpha="-319.26940574339341" sparseCutoff="1.0000000000000000"/>
      <sparseX i="23" alpha="-7412.1855703839283" sparseCutoff="1.0000000000000000"/>
      <sparseX i="24" alpha="899.78024994194379" sparseCutoff="1.0000000000000000"/>
      <sparseX i="25" alpha="299.35747228717275" sparseCutoff=".55632136063416548E-002"/>
      <sparseX i="26" alpha="-4360.5730993485786" sparseCutoff="1.0000000000000000"/>
      <sparseX i="27" alpha="-21877.226409732473" sparseCutoff="1.0000000000000000"/>
      <sparseX i="28" alpha="15793.537551634203" sparseCutoff="1.0000000000000000"/>
      <sparseX i="29" alpha="16601.293221371405" sparseCutoff="1.0000000000000000"/>
      <sparseX i="30" alpha="-40810.869773308135" sparseCutoff="1.0000000000000000"/>
    </gpCoordinates>
    <gpCoordinates label="GAP_2026_3_23_120_0_27_17_3542" dimensions="1" signal_variance=".50000000000000000" signal_mean=".00000000000000000E+000" sparsified="T" n_permutations="1" covariance_type="1" n_sparseX="30" sparseX_filename="CH.xml.sparseX.GAP_2026_3_23_120_0_27_17_3542" sparseX_md5sum="cdcdcae1a32c5b5d929cfba30bf25534">
      <theta>  0.50000000000000000E+000 </theta>
      <descriptor> distance_2b Z1=1 Z2=6 cutoff=4.0 n_sparse=30 covariance_type=ard_se delta=0.5 theta_uniform=0.5 sparse_method=uniform add_species=F</descriptor>
      <permutation i="1">1  </permutation>
      <sparseX i="1" alpha="17902.168754646602" sparseCutoff="1.0000000000000000"/>
      <sparseX i="2" alpha="9091.3197770028655" sparseCutoff=".95491502812525664E-001"/>
      <sparseX i="3" alpha="82480.871579995961" sparseCutoff="1.0000000000000000"/>
      <sparseX i="4" alpha="46171.087886755507" sparseCutoff="1.0000000000000000"/>
      <sparseX i="5" alpha="-62354.137735294215" sparseCutoff="1.0000000000000000"/>
      <sparseX i="6" alpha="-38519.589452200111" sparseCutoff="1.0000000000000000"/>
      <sparseX i="7" alpha="7437.6413497623989" sparseCutoff="1.0000000000000000"/>
      <sparseX i="8" alpha="32354.938329671440" sparseCutoff="1.0000000000000000"/>
      <sparseX i="9" alpha="80969.055900929437" sparseCutoff="1.0000000000000000"/>
      <sparseX i="10" alpha="-53529.570243074071" sparseCutoff="1.0000000000000000"/>
      <sparseX i="11" alpha="-37147.303436461552" sparseCutoff="1.0000000000000000"/>
      <sparseX i="12" alpha="40781.692281497126" sparseCutoff="1.0000000000000000"/>
      <sparseX i="13" alpha="-675.44552803158467" sparseCutoff="1.0000000000000000"/>
      <sparseX i="14" alpha="-148235.02120335979" sparseCutoff="1.0000000000000000"/>
      <sparseX i="15" alpha="-36557.542402733212" sparseCutoff="1.0000000000000000"/>
      <sparseX i="16" alpha="45545.001527333057" sparseCutoff="1.0000000000000000"/>
      <sparseX i="17" alpha="2149.0478913498214" sparseCutoff=".78023269557719011"/>
      <sparseX i="18" alpha="62970.868934381746" sparseCutoff="1.0000000000000000"/>
      <sparseX i="19" alpha="-6495.4971723835597" sparseCutoff=".42593568138239740"/>
      <sparseX i="20" alpha="-4987.0510058378532" sparseCutoff="1.0000000000000000"/>
      <sparseX i="21" alpha="1487.6913286005633" sparseCutoff=".16366412493960758E-001"/>
      <sparseX i="22" alpha="-36134.711744993358" sparseCutoff="1.0000000000000000"/>
      <sparseX i="23" alpha="-100549.01397272345" sparseCutoff="1.0000000000000000"/>
      <sparseX i="24" alpha="-13734.392998226962" sparseCutoff="1.0000000000000000"/>
      <sparseX i="25" alpha="34413.816678155265" sparseCutoff="1.0000000000000000"/>
      <sparseX i="26" alpha="66438.673956912316" sparseCutoff="1.0000000000000000"/>
      <sparseX i="27" alpha="43103.874510386238" sparseCutoff="1.0000000000000000"/>
      <sparseX i="28" alpha="-49319.648438510318" sparseCutoff="1.0000000000000000"/>
      <sparseX i="29" alpha="15360.957391147269" sparseCutoff="1.0000000000000000"/>
      <sparseX i="30" alpha="6847.3976510180728" sparseCutoff="1.0000000000000000"/>
    </gpCoordinates>
    <gpCoordinates label="GAP_2026_3_23_120_0_27_17_3543" dimensions="1" signal_variance=".50000000000000000" signal_mean=".00000000000000000E+000" sparsified="T" n_permutations="1" covariance_type="1" n_sparseX="30" sparseX_filename="CH.xml.sparseX.GAP_2026_3_23_120_0_27_17_3543" sparseX_md5sum="704dcb26f3593b0c86db4fa281757190">
      <theta>  0.50000000000000000E+000 </theta>
      <descriptor> distance_2b Z1=6 Z2=6 cutoff=4.0 n_sparse=30 covariance_type=ard_se delta=0.5 theta_uniform=0.5 sparse_method=uniform add_species=F</descriptor>
      <permutation i="1">1  </permutation>
      <sparseX i="1" alpha="-13055.092958241890" sparseCutoff="1.0000000000000000"/>
      <sparseX i="2" alpha="-33585.442267775950" sparseCutoff="1.0000000000000000"/>
      <sparseX i="3" alpha="-103554.08940095027" sparseCutoff="1.0000000000000000"/>
      <sparseX i="4" alpha="-215217.63249873486" sparseCutoff="1.0000000000000000"/>
      <sparseX i="5" alpha="167958.98911518688" sparseCutoff="1.0000000000000000"/>
      <sparseX i="6" alpha="109305.16051495301" sparseCutoff="1.0000000000000000"/>
      <sparseX i="7" alpha="-97049.725762186921" sparseCutoff="1.0000000000000000"/>
      <sparseX i="8" alpha="-73571.224428012079" sparseCutoff="1.0000000000000000"/>
      <sparseX i="9" alpha="-9630.0299678992433" sparseCutoff="1.0000000000000000"/>
      <sparseX i="10" alpha="-58360.008401937070" sparseCutoff="1.0000000000000000"/>
      <sparseX i="11" alpha="-80976.773315918617" sparseCutoff="1.0000000000000000"/>
      <sparseX i="12" alpha="-206179.86242321483" sparseCutoff="1.0000000000000000"/>
      <sparseX i="13" alpha="64833.712880320330" sparseCutoff="1.0000000000000000"/>
      <sparseX i="14" alpha="113291.16904588135" sparseCutoff="1.0000000000000000"/>
      <sparseX i="15" alpha="223.01963516828965" sparseCutoff="1.0000000000000000"/>
      <sparseX i="16" alpha="24341.242293147643" sparseCutoff=".95476828743937103"/>
      <sparseX i="17" alpha="20846.914634666391" sparseCutoff="1.0000000000000000"/>
      <sparseX i="18" alpha="-4566.3821575422598" sparseCutoff="1.0000000000000000"/>
      <sparseX i="19" alpha="92809.231270798773" sparseCutoff="1.0000000000000000"/>
      <sparseX i="20" alpha="21651.038262389393" sparseCutoff=".30195235793841535E-001"/>
      <sparseX i="21" alpha="21544.989022211783" sparseCutoff=".45501701308447551E-001"/>
      <sparseX i="22" alpha="-22877.448468341510" sparseCutoff="1.0000000000000000"/>
      <sparseX i="23" alpha="-18883.982928032347" sparseCutoff=".56756025970660207"/>
      <sparseX i="24" alpha="43040.002029887481" sparseCutoff="1.0000000000000000"/>
      <sparseX i="25" alpha="37148.021753966903" sparseCutoff="1.0000000000000000"/>
      <sparseX i="26" alpha="-26504.657015157216" sparseCutoff="1.0000000000000000"/>
      <sparseX i="27" alpha="114892.35439847810" sparseCutoff="1.0000000000000000"/>
      <sparseX i="28" alpha="56524.921186738815" sparseCutoff="1.0000000000000000"/>
      <sparseX i="29" alpha="-141464.02611398147" sparseCutoff="1.0000000000000000"/>
      <sparseX i="30" alpha="254233.94306767298" sparseCutoff="1.0000000000000000"/>
    </gpCoordinates>
    <gpCoordinates label="GAP_2026_3_23_120_0_27_17_3544" dimensions="3" signal_variance=".10000000000000000E-001" signal_mean=".00000000000000000E+000" sparsified="T" n_permutations="1" covariance_type="4" n_sparseX="200" sparseX_filename="CH.xml.sparseX.GAP_2026_3_23_120_0_27_17_3544" sparseX_md5sum="93b81f1c105782a12b61c3444f00c1a9">
      <theta>  0.20000000000000000E+001  0.20000000000000000E+001  0.20000000000000000E+001 </theta>
      <descriptor> angle_3b Z_center=6 Z1=1 Z2=1 cutoff=2.0 n_sparse=200 covariance_type=pp delta=0.01 theta_uniform=2.0 sparse_method=uniform add_species=F</descriptor>
      <permutation i="1">1 2 3  </permutation>
      <sparseX i="1" alpha="-2027.4036219557606" sparseCutoff="1.0000000000000000"/>
      <sparseX i="2" alpha="1276.0889465941198" sparseCutoff="1.0000000000000000"/>
      <sparseX i="3" alpha="-6136.6519276397767" sparseCutoff="1.0000000000000000"/>
      <sparseX i="4" alpha="9226.6327195057165" sparseCutoff=".59662359954797661"/>
      <sparseX i="5" alpha="-703.27434711807291" sparseCutoff=".94297012562569205"/>
      <sparseX i="6" alpha="-3570.7122917403626" sparseCutoff=".94776539675400562"/>
      <sparseX i="7" alpha="101055.61562384076" sparseCutoff=".63174972238533481E-001"/>
      <sparseX i="8" alpha="1103.5053946246801" sparseCutoff=".89371445524080850"/>
      <sparseX i="9" alpha="-40675.542774203648" sparseCutoff=".36919948879610580E-001"/>
      <sparseX i="10" alpha="-7289.5028969134037" sparseCutoff=".98371692299602731"/>
      <sparseX i="11" alpha="16768.787503442007" sparseCutoff=".11371306041996770"/>
      <sparseX i="12" alpha="-50093.125650914117" sparseCutoff=".98371692299602731"/>
      <sparseX i="13" alpha="-36692.552699641499" sparseCutoff=".11371306041996770"/>
      <sparseX i="14" alpha="4971.7037406597237" sparseCutoff="1.0000000000000000"/>
      <sparseX i="15" alpha="-7969.9695722050810" sparseCutoff="1.0000000000000000"/>
      <sparseX i="16" alpha="12174.023463267242" sparseCutoff=".32467641573674100"/>
      <sparseX i="17" alpha="-50937.549932965390" sparseCutoff=".20468748774750356E-001"/>
      <sparseX i="18" alpha="6847.2886334992345" sparseCutoff=".93597170096542937"/>
      <sparseX i="19" alpha="-3271.0095418045421" sparseCutoff="1.0000000000000000"/>
      <sparseX i="20" alpha="-12892.186695954919" sparseCutoff="1.0000000000000000"/>
      <sparseX i="21" alpha="-403.10441592456277" sparseCutoff="1.0000000000000000"/>
      <sparseX i="22" alpha="-97946.673061412643" sparseCutoff=".97663846029626376E-002"/>
      <sparseX i="23" alpha="-5818.4565488193684" sparseCutoff=".10495543699335197E-001"/>
      <sparseX i="24" alpha="-104847.45154430512" sparseCutoff=".14004664900669853E-001"/>
      <sparseX i="25" alpha="1970.4701003246255" sparseCutoff=".10099776839119720E-002"/>
      <sparseX i="26" alpha="3156.8744807196813" sparseCutoff=".22544410527786194E-002"/>
      <sparseX i="27" alpha="8342.3201616893675" sparseCutoff=".61192239825234696E-001"/>
      <sparseX i="28" alpha="-8968.5511964096095" sparseCutoff=".89440285675107534E-001"/>
      <sparseX i="29" alpha="18728.103890022045" sparseCutoff=".63640178932931279E-001"/>
      <sparseX i="30" alpha="-4144.6309930069692" sparseCutoff="1.0000000000000000"/>
      <sparseX i="31" alpha="-5294.5331313560700" sparseCutoff=".40437667134696764"/>
      <sparseX i="32" alpha="24270.548741830273" sparseCutoff=".20625429968271047E-001"/>
      <sparseX i="33" alpha="8249.5537589401047" sparseCutoff=".37714124292543394"/>
      <sparseX i="34" alpha="5858.0826365148523" sparseCutoff=".72388898577337213"/>
      <sparseX i="35" alpha="10355.704137277877" sparseCutoff="1.0000000000000000"/>
      <sparseX i="36" alpha="30836.316589867896" sparseCutoff=".20692739763496093"/>
      <sparseX i="37" alpha="1061.6518076091538" sparseCutoff=".88522626953584793"/>
      <sparseX i="38" alpha="-10180.848573714944" sparseCutoff=".98335257308838253"/>
      <sparseX i="39" alpha="5815.0568326520370" sparseCutoff="1.0000000000000000"/>
      <sparseX i="40" alpha="-29065.774301939244" sparseCutoff=".11403385445371483"/>
      <sparseX i="41" alpha="9235.5904225198938" sparseCutoff="1.0000000000000000"/>
      <sparseX i="42" alpha="-2524.7147646152130" sparseCutoff="1.0000000000000000"/>
      <sparseX i="43" alpha="25922.444839852640" sparseCutoff="1.0000000000000000"/>
      <sparseX i="44" alpha="345.08299863005413" sparseCutoff=".51237972144131416"/>
      <sparseX i="45" alpha="1625.3701560784580" sparseCutoff="1.0000000000000000"/>
      <sparseX i="46" alpha="11711.412859646380" sparseCutoff=".63178751910086373E-001"/>
      <sparseX i="47" alpha="693.45967607076079" sparseCutoff=".36589562401500997"/>
      <sparseX i="48" alpha="-15802.718619383792" sparseCutoff=".11164840783233709E-001"/>
      <sparseX i="49" alpha="-3297.7947619553097" sparseCutoff=".77295374983299081"/>
      <sparseX i="50" alpha="66717.040262267794" sparseCutoff=".75723321901080012E-001"/>
      <sparseX i="51" alpha="21194.885042109858" sparseCutoff="1.0000000000000000"/>
      <sparseX i="52" alpha="8658.2398701242619" sparseCutoff=".78977430444193808"/>
      <sparseX i="53" alpha="-2280.5328313803511" sparseCutoff=".14614389382577586E-001"/>
      <sparseX i="54" alpha="-10529.465245907744" sparseCutoff=".54346979294280895"/>
      <sparseX i="55" alpha="-912.88334149172215" sparseCutoff=".44815011362991930E-003"/>
      <sparseX i="56" alpha="-4717.4865935170574" sparseCutoff=".94665045084951849"/>
      <sparseX i="57" alpha="-850.99681297056577" sparseCutoff="1.0000000000000000"/>
      <sparseX i="58" alpha="-2332.6768248966073" sparseCutoff="1.0000000000000000"/>
      <sparseX i="59" alpha="-20508.177843191497" sparseCutoff=".27913583661549723E-001"/>
      <sparseX i="60" alpha="706.61231889566659" sparseCutoff="1.0000000000000000"/>
      <sparseX i="61" alpha="6330.9321669361061" sparseCutoff=".81571774949547793"/>
      <sparseX i="62" alpha="-15817.427350260095" sparseCutoff=".47453995850521719"/>
      <sparseX i="63" alpha="-9274.4647098392416" sparseCutoff="1.0000000000000000"/>
      <sparseX i="64" alpha="7350.6127318583221" sparseCutoff=".23069077066329535"/>
      <sparseX i="65" alpha="-4571.8029861685118" sparseCutoff=".76607249482657491"/>
      <sparseX i="66" alpha="23701.072092691964" sparseCutoff="1.0000000000000000"/>
      <sparseX i="67" alpha="4636.6630972257080" sparseCutoff="1.0000000000000000"/>
      <sparseX i="68" alpha="10876.249302549220" sparseCutoff="1.0000000000000000"/>
      <sparseX i="69" alpha="-6657.5498680585370" sparseCutoff=".19285135023864300E-002"/>
      <sparseX i="70" alpha="20073.184881991812" sparseCutoff=".62932503413186874E-001"/>
      <sparseX i="71" alpha="20664.244827874398" sparseCutoff=".34862688640536788"/>
      <sparseX i="72" alpha="-33060.756459692937" sparseCutoff=".42536387033904222E-001"/>
      <sparseX i="73" alpha="2620.3183418470790" sparseCutoff="1.0000000000000000"/>
      <sparseX i="74" alpha="-3252.9563735945235" sparseCutoff="1.0000000000000000"/>
      <sparseX i="75" alpha="2598.5012462369059" sparseCutoff=".74270362674457491"/>
      <sparseX i="76" alpha="-5134.2912158552599" sparseCutoff=".19781808695460597E-001"/>
      <sparseX i="77" alpha="-33421.730631544546" sparseCutoff=".46075151762329635E-002"/>
      <sparseX i="78" alpha="9112.4832534205816" sparseCutoff="1.0000000000000000"/>
      <sparseX i="79" alpha="6.2023122833463562" sparseCutoff=".21793398679754564E-004"/>
      <sparseX i="80" alpha="-668.33598464387921" sparseCutoff=".92166584191522705"/>
      <sparseX i="81" alpha="22863.828814780140" sparseCutoff=".80424832665879579E-002"/>
      <sparseX i="82" alpha="3345.0502088410312" sparseCutoff="1.0000000000000000"/>
      <sparseX i="83" alpha="-14297.901470486760" sparseCutoff="1.0000000000000000"/>
      <sparseX i="84" alpha="5309.3943810805877" sparseCutoff=".19061220423607361E-002"/>
      <sparseX i="85" alpha="28550.241402850173" sparseCutoff=".32522295909188703E-001"/>
      <sparseX i="86" alpha="11494.647976320512" sparseCutoff=".97484583164027960"/>
      <sparseX i="87" alpha="63.644745076904989" sparseCutoff=".10752609691496022E-004"/>
      <sparseX i="88" alpha="-7330.7130907757582" sparseCutoff=".68655590864885307"/>
      <sparseX i="89" alpha="-4337.9773170166900" sparseCutoff="1.0000000000000000"/>
      <sparseX i="90" alpha="-11653.893763197022" sparseCutoff=".57097940988581297"/>
      <sparseX i="91" alpha="-31450.794907134921" sparseCutoff=".25077629702054849E-001"/>
      <sparseX i="92" alpha="-807.80475925940596" sparseCutoff="1.0000000000000000"/>
      <sparseX i="93" alpha="20989.146120392888" sparseCutoff=".21501232328848485E-001"/>
      <sparseX i="94" alpha="2758.0182288120045" sparseCutoff="1.0000000000000000"/>
      <sparseX i="95" alpha="-2638.9306925578067" sparseCutoff="1.0000000000000000"/>
      <sparseX i="96" alpha="-4820.9809947526110" sparseCutoff=".49712212365352726"/>
      <sparseX i="97" alpha="-9445.4575389703332" sparseCutoff=".97753459730516090"/>
      <sparseX i="98" alpha="4298.4635169251951" sparseCutoff=".17042593326079497"/>
      <sparseX i="99" alpha="-24285.464815695377" sparseCutoff="1.0000000000000000"/>
      <sparseX i="100" alpha="14549.825602079012" sparseCutoff=".85185417822934184"/>
      <sparseX i="101" alpha="-131120.81522984285" sparseCutoff=".25136535386322323E-001"/>
      <sparseX i="102" alpha="1901.0883335835358" sparseCutoff="1.0000000000000000"/>
      <sparseX i="103" alpha="60164.782131641594" sparseCutoff=".45710693409809385E-001"/>
      <sparseX i="104" alpha="36124.379939164661" sparseCutoff=".38140237731444593E-001"/>
      <sparseX i="105" alpha="38086.932363829408" sparseCutoff=".30352595208289590E-001"/>
      <sparseX i="106" alpha="16842.669825880661" sparseCutoff=".21816269819370399"/>
      <sparseX i="107" alpha="-1548.5687721659674" sparseCutoff=".41599068051849469"/>
      <sparseX i="108" alpha="-7636.5548238377833" sparseCutoff="1.0000000000000000"/>
      <sparseX i="109" alpha="636.47917954382251" sparseCutoff=".54987767201703508E-001"/>
      <sparseX i="110" alpha="24231.928401178498" sparseCutoff=".11930323013018664E-001"/>
      <sparseX i="111" alpha="-1577.5226411642898" sparseCutoff="1.0000000000000000"/>
      <sparseX i="112" alpha="15782.954193143658" sparseCutoff=".20607822471326254E-001"/>
      <sparseX i="113" alpha="-13668.051010378991" sparseCutoff=".15957949542154681"/>
      <sparseX i="114" alpha="-62507.383866935190" sparseCutoff=".52185066146394732E-001"/>
      <sparseX i="115" alpha="741.63433877120144" sparseCutoff=".90288891982406883"/>
      <sparseX i="116" alpha="9887.1575733244626" sparseCutoff="1.0000000000000000"/>
      <sparseX i="117" alpha="2852.6089899830818" sparseCutoff=".45570110162737598E-002"/>
      <sparseX i="118" alpha="-5846.4342654934062" sparseCutoff="1.0000000000000000"/>
      <sparseX i="119" alpha="-5815.4312953653416" sparseCutoff=".14628431107184425E-001"/>
      <sparseX i="120" alpha="3791.5262145561856" sparseCutoff=".30251845738425232"/>
      <sparseX i="121" alpha="-741.94170232319834" sparseCutoff=".20305376579050487E-003"/>
      <sparseX i="122" alpha="-12770.535690741841" sparseCutoff=".12001660573100814E-001"/>
      <sparseX i="123" alpha="-18105.770794834563" sparseCutoff=".65216127979742566"/>
      <sparseX i="124" alpha="5739.9833661959456" sparseCutoff=".49112531187668784"/>
      <sparseX i="125" alpha="13830.725252423430" sparseCutoff=".24319476647456784"/>
      <sparseX i="126" alpha="-2035.3248292113647" sparseCutoff="1.0000000000000000"/>
      <sparseX i="127" alpha="983.72581522913333" sparseCutoff=".32096164539364147E-002"/>
      <sparseX i="128" alpha="4754.2216046387348" sparseCutoff="1.0000000000000000"/>
      <sparseX i="129" alpha="696.27900584125041" sparseCutoff="1.0000000000000000"/>
      <sparseX i="130" alpha="10713.039592276778" sparseCutoff="1.0000000000000000"/>
      <sparseX i="131" alpha="11104.004124762081" sparseCutoff=".29261872048939930E-001"/>
      <sparseX i="132" alpha="305.50895623473457" sparseCutoff=".65581245215813009E-004"/>
      <sparseX i="133" alpha="5368.8797275291281" sparseCutoff=".99789404398648252"/>
      <sparseX i="134" alpha="33814.657044253705" sparseCutoff=".16590021307771163"/>
      <sparseX i="135" alpha="-22069.621701000084" sparseCutoff=".19532056907429057"/>
      <sparseX i="136" alpha="145.86384760865494" sparseCutoff=".75441144931818760"/>
      <sparseX i="137" alpha="-1628.2090670990096" sparseCutoff=".32937342328808689"/>
      <sparseX i="138" alpha="1182.2339193634680" sparseCutoff=".15491984583771823"/>
      <sparseX i="139" alpha="8051.8180880470254" sparseCutoff=".38699659954863880"/>
      <sparseX i="140" alpha="-3028.8390083392583" sparseCutoff="1.0000000000000000"/>
      <sparseX i="141" alpha="3424.9519796761679" sparseCutoff=".99846307700416048"/>
      <sparseX i="142" alpha="4220.2150915625816" sparseCutoff=".61297988033249817E-002"/>
      <sparseX i="143" alpha="-1886.6405773602651" sparseCutoff=".76976660019673115"/>
      <sparseX i="144" alpha="-3984.7694734058482" sparseCutoff=".91946349224405255"/>
      <sparseX i="145" alpha="1036.4870613013882" sparseCutoff="1.0000000000000000"/>
      <sparseX i="146" alpha="-1259.8926040998426" sparseCutoff="1.0000000000000000"/>
      <sparseX i="147" alpha="3807.0511806168024" sparseCutoff=".18063343146137274E-002"/>
      <sparseX i="148" alpha="-1072.4194366610745" sparseCutoff=".12632854451951059E-002"/>
      <sparseX i="149" alpha="-6069.5455057478021" sparseCutoff="1.0000000000000000"/>
      <sparseX i="150" alpha="8433.0798010935578" sparseCutoff=".65285416662115292E-002"/>
      <sparseX i="151" alpha="-2963.4652209907472" sparseCutoff="1.0000000000000000"/>
      <sparseX i="152" alpha="-9583.5460141921430" sparseCutoff=".47596802108084580E-002"/>
      <sparseX i="153" alpha="-11720.652731057660" sparseCutoff=".49473135414234970"/>
      <sparseX i="154" alpha="5492.7489197206196" sparseCutoff=".18457510356902906E-001"/>
      <sparseX i="155" alpha="-21218.651952221466" sparseCutoff=".18803418384929493E-001"/>
      <sparseX i="156" alpha="429.16766410080021" sparseCutoff=".44589934834848854E-003"/>
      <sparseX i="157" alpha="-5390.1082578627220" sparseCutoff="1.0000000000000000"/>
      <sparseX i="158" alpha="10.244423836232766" sparseCutoff=".17346022890377785E-004"/>
      <sparseX i="159" alpha="-58776.932945735265" sparseCutoff=".32534074631731524E-001"/>
      <sparseX i="160" alpha="-678.68966793948255" sparseCutoff="1.0000000000000000"/>
      <sparseX i="161" alpha="3695.8579198212142" sparseCutoff=".61183583007608522"/>
      <sparseX i="162" alpha="44.199006853813572" sparseCutoff=".23852459710462065E-004"/>
      <sparseX i="163" alpha="-1266.4120312675020" sparseCutoff="1.0000000000000000"/>
      <sparseX i="164" alpha="-3242.4116927185892" sparseCutoff=".36465226792809835E-001"/>
      <sparseX i="165" alpha="32599.519837704709" sparseCutoff=".23910003323634247E-001"/>
      <sparseX i="166" alpha="-11094.070036497602" sparseCutoff="1.0000000000000000"/>
      <sparseX i="167" alpha="6502.4280261869962" sparseCutoff=".37688043574872817E-002"/>
      <sparseX i="168" alpha="-12390.847106735013" sparseCutoff=".21559014918696157"/>
      <sparseX i="169" alpha="-148.35929411437561" sparseCutoff=".14050803370607712E-003"/>
      <sparseX i="170" alpha="-2485.2827148285287" sparseCutoff=".54618673429541298E-001"/>
      <sparseX i="171" alpha="3100.6559434790993" sparseCutoff=".98536615387162163"/>
      <sparseX i="172" alpha="-9244.7926840687360" sparseCutoff=".12635932289211642E-001"/>
      <sparseX i="173" alpha="19131.954665388959" sparseCutoff=".41419856064419724"/>
      <sparseX i="174" alpha="38352.063331910656" sparseCutoff=".64556476066403801E-001"/>
      <sparseX i="175" alpha="-120.54865978690950" sparseCutoff="1.0000000000000000"/>
      <sparseX i="176" alpha="159.37982652499659" sparseCutoff=".67771414741133837E-004"/>
      <sparseX i="177" alpha="-7418.0607309483257" sparseCutoff=".50227879516726581E-002"/>
      <sparseX i="178" alpha="8018.3929365277736" sparseCutoff="1.0000000000000000"/>
      <sparseX i="179" alpha="47752.627505403900" sparseCutoff=".19179029024218530E-001"/>
      <sparseX i="180" alpha="-2752.3488462473201" sparseCutoff="1.0000000000000000"/>
      <sparseX i="181" alpha="-10082.602841341130" sparseCutoff="1.0000000000000000"/>
      <sparseX i="182" alpha="27302.565730560902" sparseCutoff="1.0000000000000000"/>
      <sparseX i="183" alpha="-759.02944781284612" sparseCutoff=".85370616097909413"/>
      <sparseX i="184" alpha="14076.750809847761" sparseCutoff=".43756315179175109E-001"/>
      <sparseX i="185" alpha="-8482.6020027651102" sparseCutoff=".59540606969782350"/>
      <sparseX i="186" alpha="-14558.375764254513" sparseCutoff=".14282634269878303"/>
      <sparseX i="187" alpha="2309.2903429715548" sparseCutoff="1.0000000000000000"/>
      <sparseX i="188" alpha="-43864.039308533582" sparseCutoff=".30048719576480698E-001"/>
      <sparseX i="189" alpha="-2996.4222625473017" sparseCutoff="1.0000000000000000"/>
      <sparseX i="190" alpha="-16893.333861111008" sparseCutoff=".10906664361807406"/>
      <sparseX i="191" alpha="-209.14977631911376" sparseCutoff="1.0000000000000000"/>
      <sparseX i="192" alpha="-19619.532980361804" sparseCutoff=".59716750111150824E-001"/>
      <sparseX i="193" alpha="-3005.9786334655746" sparseCutoff=".98061287829823163"/>
      <sparseX i="194" alpha="6109.7957813162466" sparseCutoff="1.0000000000000000"/>
      <sparseX i="195" alpha="7575.6329894078071" sparseCutoff="1.0000000000000000"/>
      <sparseX i="196" alpha="-5502.9138154049842" sparseCutoff=".13685958579802454"/>
      <sparseX i="197" alpha="15545.749590082978" sparseCutoff=".50123743767792224E-001"/>
      <sparseX i="198" alpha="-134242.71869634849" sparseCutoff=".32588356760675341E-001"/>
      <sparseX i="199" alpha="2539.7102614601167" sparseCutoff=".36259799796148195"/>
      <sparseX i="200" alpha="5774.3229809529194" sparseCutoff=".72015553075002769"/>
    </gpCoordinates>
    <gpCoordinates label="GAP_2026_3_23_120_0_27_17_3545" dimensions="3" signal_variance=".10000000000000000E-001" signal_mean=".00000000000000000E+000" sparsified="T" n_permutations="1" covariance_type="4" n_sparseX="200" sparseX_filename="CH.xml.sparseX.GAP_2026_3_23_120_0_27_17_3545" sparseX_md5sum="ede23824dbeb15732d854fde1b3d0453">
      <theta>  0.20000000000000000E+001  0.20000000000000000E+001  0.20000000000000000E+001 </theta>
      <descriptor> angle_3b Z_center=6 Z1=1 Z2=6 cutoff=2.0 n_sparse=200 covariance_type=pp delta=0.01 theta_uniform=2.0 sparse_method=uniform add_species=F</descriptor>
      <permutation i="1">1 2 3  </permutation>
      <sparseX i="1" alpha="31864.690775326049" sparseCutoff=".64955474239117558E-001"/>
      <sparseX i="2" alpha="-45929.542977673475" sparseCutoff=".36917464549180745"/>
      <sparseX i="3" alpha="2658.0685403751322" sparseCutoff=".36917464549180745"/>
      <sparseX i="4" alpha="5125.2163093958379" sparseCutoff=".15869943555217464"/>
      <sparseX i="5" alpha="-77256.729994204536" sparseCutoff=".13461805527355239"/>
      <sparseX i="6" alpha="25763.091604149286" sparseCutoff="1.0000000000000000"/>
      <sparseX i="7" alpha="-5170.5459889974800" sparseCutoff="1.0000000000000000"/>
      <sparseX i="8" alpha="-27352.295846401405" sparseCutoff=".54952419890736404E-002"/>
      <sparseX i="9" alpha="-49136.003427362353" sparseCutoff=".54952419890736404E-002"/>
      <sparseX i="10" alpha="-5543.4792295874513" sparseCutoff=".60255001778240997E-003"/>
      <sparseX i="11" alpha="-23860.088770445072" sparseCutoff=".97104388833721589"/>
      <sparseX i="12" alpha="-1904.6836910475563" sparseCutoff="1.0000000000000000"/>
      <sparseX i="13" alpha="-78124.589172574430" sparseCutoff="1.0000000000000000"/>
      <sparseX i="14" alpha="5773.1652969595643" sparseCutoff=".59662359954797661"/>
      <sparseX i="15" alpha="-64192.641730005555" sparseCutoff=".37575922716528820E-001"/>
      <sparseX i="16" alpha="4380.6893762152386" sparseCutoff=".98806222860001158"/>
      <sparseX i="17" alpha="-4541.7528199822973" sparseCutoff=".98806222860001158"/>
      <sparseX i="18" alpha="42371.885247906685" sparseCutoff=".14713888518680068"/>
      <sparseX i="19" alpha="-58540.183007417974" sparseCutoff=".14713888518680068"/>
      <sparseX i="20" alpha="45335.947819632049" sparseCutoff=".13929458024072700"/>
      <sparseX i="21" alpha="-75497.156183587562" sparseCutoff=".20327999249998119E-001"/>
      <sparseX i="22" alpha="55142.175211745103" sparseCutoff=".18545300804286480"/>
      <sparseX i="23" alpha="26182.711884703564" sparseCutoff=".97104388833721589"/>
      <sparseX i="24" alpha="-18852.050667192449" sparseCutoff=".87882632178996993E-002"/>
      <sparseX i="25" alpha="6756.1659330243647" sparseCutoff=".40467799657021519E-001"/>
      <sparseX i="26" alpha="-82697.315787897649" sparseCutoff=".24321213651686564E-001"/>
      <sparseX i="27" alpha="14046.644800341719" sparseCutoff=".55841382699397266E-002"/>
      <sparseX i="28" alpha="51897.510230146094" sparseCutoff="1.0000000000000000"/>
      <sparseX i="29" alpha="691.06501485222486" sparseCutoff=".85197506174541693"/>
      <sparseX i="30" alpha="-5234.2162602582493" sparseCutoff=".14893625484177905E-002"/>
      <sparseX i="31" alpha="-7745.8728527675166" sparseCutoff=".55843435319191448E-001"/>
      <sparseX i="32" alpha="60285.446299141091" sparseCutoff=".17915500452562193E-001"/>
      <sparseX i="33" alpha="125382.23495927856" sparseCutoff=".81021023830171734E-001"/>
      <sparseX i="34" alpha="6438.0545803191762" sparseCutoff=".36894422835090768"/>
      <sparseX i="35" alpha="24930.299392223842" sparseCutoff=".27192891668376407"/>
      <sparseX i="36" alpha="12933.987175654216" sparseCutoff="1.0000000000000000"/>
      <sparseX i="37" alpha="2809.7086522094178" sparseCutoff=".21870211684617467E-002"/>
      <sparseX i="38" alpha="58869.291004628853" sparseCutoff=".29857712897993105E-001"/>
      <sparseX i="39" alpha="-8900.3330299805311" sparseCutoff=".43856494531613321"/>
      <sparseX i="40" alpha="38576.730919642556" sparseCutoff=".19165339425358516E-001"/>
      <sparseX i="41" alpha="2467.0579868503164" sparseCutoff=".11218810642220078E-002"/>
      <sparseX i="42" alpha="4550.2450910121624" sparseCutoff=".85173350825309924"/>
      <sparseX i="43" alpha="14664.638645305633" sparseCutoff="1.0000000000000000"/>
      <sparseX i="44" alpha="-18829.736382850879" sparseCutoff="1.0000000000000000"/>
      <sparseX i="45" alpha="-4129.1528945441914" sparseCutoff="1.0000000000000000"/>
      <sparseX i="46" alpha="-4651.9774823783227" sparseCutoff="1.0000000000000000"/>
      <sparseX i="47" alpha="-50757.036626160043" sparseCutoff=".47028575303467289E-001"/>
      <sparseX i="48" alpha="-34068.742879668025" sparseCutoff=".72205120886857368E-002"/>
      <sparseX i="49" alpha="-18321.519146840816" sparseCutoff=".48569106796853945E-001"/>
      <sparseX i="50" alpha="-16153.690604595799" sparseCutoff=".36565942120436734E-002"/>
      <sparseX i="51" alpha="-7513.6655316224842" sparseCutoff=".52921445849396453E-001"/>
      <sparseX i="52" alpha="4215.6612845569871" sparseCutoff="1.0000000000000000"/>
      <sparseX i="53" alpha="7322.2708461513494" sparseCutoff="1.0000000000000000"/>
      <sparseX i="54" alpha="14442.237929655392" sparseCutoff=".10882387361473466E-001"/>
      <sparseX i="55" alpha="43227.194562850214" sparseCutoff=".47621358551340620"/>
      <sparseX i="56" alpha="1063.7134691710571" sparseCutoff=".23959842306544299E-001"/>
      <sparseX i="57" alpha="-10753.284419494072" sparseCutoff=".73959967839123009"/>
      <sparseX i="58" alpha="6283.2356789044470" sparseCutoff="1.0000000000000000"/>
      <sparseX i="59" alpha="7396.3151477413594" sparseCutoff="1.0000000000000000"/>
      <sparseX i="60" alpha="-19411.528140452690" sparseCutoff=".24301455654428240E-001"/>
      <sparseX i="61" alpha="19545.843758832951" sparseCutoff=".12017127012606887"/>
      <sparseX i="62" alpha="-5236.6249271074530" sparseCutoff=".26077992181075035E-001"/>
      <sparseX i="63" alpha="-15988.017710613745" sparseCutoff=".57427985232872972E-001"/>
      <sparseX i="64" alpha="-9297.1071101880243" sparseCutoff=".33674374774809901"/>
      <sparseX i="65" alpha="5422.6586917016002" sparseCutoff=".77918751673722264"/>
      <sparseX i="66" alpha="1609.1635591364000" sparseCutoff=".51275348285461619"/>
      <sparseX i="67" alpha="-10610.119663638103" sparseCutoff=".98118963082852673E-001"/>
      <sparseX i="68" alpha="-57812.503143803682" sparseCutoff=".37279974795122467"/>
      <sparseX i="69" alpha="-11259.950533860028" sparseCutoff=".13253151598371704"/>
      <sparseX i="70" alpha="-10389.556012165340" sparseCutoff="1.0000000000000000"/>
      <sparseX i="71" alpha="-4799.9355585323856" sparseCutoff=".64582296543632434"/>
      <sparseX i="72" alpha="-1504.4921918299997" sparseCutoff="1.0000000000000000"/>
      <sparseX i="73" alpha="-15897.353771573542" sparseCutoff=".15284140005327795E-001"/>
      <sparseX i="74" alpha="-32240.735545415508" sparseCutoff="1.0000000000000000"/>
      <sparseX i="75" alpha="-27692.369400256695" sparseCutoff=".45016598097041838E-002"/>
      <sparseX i="76" alpha="-204.90767340100390" sparseCutoff="1.0000000000000000"/>
      <sparseX i="77" alpha="-2462.7974347680038" sparseCutoff=".83217995207707984"/>
      <sparseX i="78" alpha="5511.1899159802815" sparseCutoff=".96204359846460474"/>
      <sparseX i="79" alpha="-3049.4991161081516" sparseCutoff="1.0000000000000000"/>
      <sparseX i="80" alpha="-11438.445203075584" sparseCutoff=".90031065691760781E-002"/>
      <sparseX i="81" alpha="-6528.1718899769430" sparseCutoff=".91363228793021389"/>
      <sparseX i="82" alpha="129147.40192504560" sparseCutoff=".45834275012699960E-001"/>
      <sparseX i="83" alpha="-12377.254131260830" sparseCutoff=".37737017872808232"/>
      <sparseX i="84" alpha="35158.826921637570" sparseCutoff="1.0000000000000000"/>
      <sparseX i="85" alpha="-2115.6320303538014" sparseCutoff="1.0000000000000000"/>
      <sparseX i="86" alpha="995.84402985920349" sparseCutoff="1.0000000000000000"/>
      <sparseX i="87" alpha="18950.785812548416" sparseCutoff=".42382388686729205"/>
      <sparseX i="88" alpha="-5863.4483067903393" sparseCutoff=".67017306052777315"/>
      <sparseX i="89" alpha="-38709.813667051902" sparseCutoff=".20851511165633441E-001"/>
      <sparseX i="90" alpha="-5543.8973988048210" sparseCutoff=".58723565023342285E-003"/>
      <sparseX i="91" alpha="-31175.785495820022" sparseCutoff=".58680540296235872E-001"/>
      <sparseX i="92" alpha="-20677.266002378772" sparseCutoff="1.0000000000000000"/>
      <sparseX i="93" alpha="-46718.902606736679" sparseCutoff=".81662499063485019E-002"/>
      <sparseX i="94" alpha="115999.64037166320" sparseCutoff=".37645711862402065E-001"/>
      <sparseX i="95" alpha="-60277.325251791699" sparseCutoff=".15954268796825793E-001"/>
      <sparseX i="96" alpha="-1805.4854724017132" sparseCutoff="1.0000000000000000"/>
      <sparseX i="97" alpha="8920.4954525311332" sparseCutoff=".27358370432440464E-002"/>
      <sparseX i="98" alpha="1908.4141207055063" sparseCutoff=".80100265133986603E-003"/>
      <sparseX i="99" alpha="-63383.749044104472" sparseCutoff=".12195623922786085E-001"/>
      <sparseX i="100" alpha="2762.3376781538859" sparseCutoff="1.0000000000000000"/>
      <sparseX i="101" alpha="-4834.3141977358773" sparseCutoff=".65641629228607001"/>
      <sparseX i="102" alpha="42899.067618218083" sparseCutoff=".53332098953931695"/>
      <sparseX i="103" alpha="2844.4460646446601" sparseCutoff=".19594624710287637E-002"/>
      <sparseX i="104" alpha="12948.695309881146" sparseCutoff=".41377647812256184E-002"/>
      <sparseX i="105" alpha="-21681.219384088003" sparseCutoff=".33007127062718807E-002"/>
      <sparseX i="106" alpha="-7254.1790073850070" sparseCutoff=".46665729218083585"/>
      <sparseX i="107" alpha="-1960.4369182637463" sparseCutoff=".95480773015835052"/>
      <sparseX i="108" alpha="7043.9417842108196" sparseCutoff="1.0000000000000000"/>
      <sparseX i="109" alpha="4315.1433809573564" sparseCutoff=".29334182772516315E-002"/>
      <sparseX i="110" alpha="-10199.892575507365" sparseCutoff="1.0000000000000000"/>
      <sparseX i="111" alpha="-.51421710419150590" sparseCutoff=".15861797009359459E-006"/>
      <sparseX i="112" alpha="-2114.2372800226362" sparseCutoff=".20573455699825552E-003"/>
      <sparseX i="113" alpha="-1129.5082427634911" sparseCutoff="1.0000000000000000"/>
      <sparseX i="114" alpha="-2678.1920688730252" sparseCutoff=".30395746697976883"/>
      <sparseX i="115" alpha="-9327.7609117598568" sparseCutoff=".32409784271237085"/>
      <sparseX i="116" alpha="12281.677521604237" sparseCutoff="1.0000000000000000"/>
      <sparseX i="117" alpha="-4242.3547420084560" sparseCutoff="1.0000000000000000"/>
      <sparseX i="118" alpha="-20422.600018678255" sparseCutoff=".89995162857774424E-002"/>
      <sparseX i="119" alpha="-5753.9651956036851" sparseCutoff=".72443168260208057"/>
      <sparseX i="120" alpha="15259.026439891541" sparseCutoff=".16222087010271807"/>
      <sparseX i="121" alpha="-16616.781165531243" sparseCutoff="1.0000000000000000"/>
      <sparseX i="122" alpha="16178.720453396720" sparseCutoff="1.0000000000000000"/>
      <sparseX i="123" alpha="-913.78325129319251" sparseCutoff=".94243965277774044"/>
      <sparseX i="124" alpha="-33874.329515467245" sparseCutoff=".14444170511783150E-001"/>
      <sparseX i="125" alpha="6093.9834325802922" sparseCutoff=".70777320773186048"/>
      <sparseX i="126" alpha="1309.2535784448733" sparseCutoff="1.0000000000000000"/>
      <sparseX i="127" alpha="-1453.7966181503532" sparseCutoff=".10431408456662017E-002"/>
      <sparseX i="128" alpha="-53820.096574082512" sparseCutoff=".13766272394065471"/>
      <sparseX i="129" alpha="-5019.1069054285972" sparseCutoff="1.0000000000000000"/>
      <sparseX i="130" alpha="-10624.293645448777" sparseCutoff="1.0000000000000000"/>
      <sparseX i="131" alpha="11846.235020398990" sparseCutoff=".61800720542760712"/>
      <sparseX i="132" alpha="-2124.4622362279706" sparseCutoff="1.0000000000000000"/>
      <sparseX i="133" alpha="3875.1269785390750" sparseCutoff="1.0000000000000000"/>
      <sparseX i="134" alpha="-8103.9290363541240" sparseCutoff="1.0000000000000000"/>
      <sparseX i="135" alpha="-19924.410637750043" sparseCutoff=".33748190681425205E-002"/>
      <sparseX i="136" alpha="1731.6395286660011" sparseCutoff="1.0000000000000000"/>
      <sparseX i="137" alpha="-11984.492477990798" sparseCutoff=".59243092741875025"/>
      <sparseX i="138" alpha="-9803.1186877365835" sparseCutoff="1.0000000000000000"/>
      <sparseX i="139" alpha="8159.2495758458954" sparseCutoff=".21843753576497728E-002"/>
      <sparseX i="140" alpha="57147.276931910666" sparseCutoff=".14598546839556581E-001"/>
      <sparseX i="141" alpha="-22826.404020099504" sparseCutoff=".17104803029474469"/>
      <sparseX i="142" alpha="-71161.094355636524" sparseCutoff=".70935357991775416E-001"/>
      <sparseX i="143" alpha="-3392.7600974480702" sparseCutoff=".25711230171601121E-002"/>
      <sparseX i="144" alpha="8284.2736699955967" sparseCutoff="1.0000000000000000"/>
      <sparseX i="145" alpha="-10337.272197426477" sparseCutoff="1.0000000000000000"/>
      <sparseX i="146" alpha="-1275.0244090490125" sparseCutoff=".28602574259812410E-001"/>
      <sparseX i="147" alpha="-9582.4920783239941" sparseCutoff="1.0000000000000000"/>
      <sparseX i="148" alpha="19257.992986637826" sparseCutoff="1.0000000000000000"/>
      <sparseX i="149" alpha="-5388.6454451194231" sparseCutoff=".30008725469136294"/>
      <sparseX i="150" alpha="316.02329211884717" sparseCutoff=".39840527002519349"/>
      <sparseX i="151" alpha="947.60114947530155" sparseCutoff=".58861645951063724"/>
      <sparseX i="152" alpha="20671.704752888938" sparseCutoff=".60242037224025213E-001"/>
      <sparseX i="153" alpha="-89175.560895764589" sparseCutoff=".53915936914140039E-001"/>
      <sparseX i="154" alpha="14243.793614137894" sparseCutoff="1.0000000000000000"/>
      <sparseX i="155" alpha="-31157.890925829601" sparseCutoff=".13457401834038679"/>
      <sparseX i="156" alpha="10629.478600120057" sparseCutoff="1.0000000000000000"/>
      <sparseX i="157" alpha="1947.6950833755654" sparseCutoff=".70158023187183083"/>
      <sparseX i="158" alpha="-2156.4014913378160" sparseCutoff="1.0000000000000000"/>
      <sparseX i="159" alpha="630.64413098395016" sparseCutoff=".42170200883898720E-003"/>
      <sparseX i="160" alpha="3285.5962383285578" sparseCutoff=".68638107586780173"/>
      <sparseX i="161" alpha="36836.462309854236" sparseCutoff=".14359883091793707"/>
      <sparseX i="162" alpha="-14903.998118586200" sparseCutoff="1.0000000000000000"/>
      <sparseX i="163" alpha="-3309.1602974509601" sparseCutoff=".17610216638703213E-002"/>
      <sparseX i="164" alpha="7414.3592634841789" sparseCutoff=".78904414454336980"/>
      <sparseX i="165" alpha="593.72180327324656" sparseCutoff=".27467484718434187E-002"/>
      <sparseX i="166" alpha="-1.7311785097301555" sparseCutoff=".29079706732893411E-006"/>
      <sparseX i="167" alpha="74528.371662472084" sparseCutoff=".17333906991954959"/>
      <sparseX i="168" alpha="25054.026839158269" sparseCutoff=".11385663577795202"/>
      <sparseX i="169" alpha="-39368.419979961414" sparseCutoff=".77934116137088503E-002"/>
      <sparseX i="170" alpha="-92318.204249851580" sparseCutoff=".51545769961376164E-001"/>
      <sparseX i="171" alpha="-8045.5615949024750" sparseCutoff=".84588709629679348E-003"/>
      <sparseX i="172" alpha="-19319.932731739798" sparseCutoff=".32584629603835691"/>
      <sparseX i="173" alpha="-22026.315815769285" sparseCutoff="1.0000000000000000"/>
      <sparseX i="174" alpha="-4297.2818390330649" sparseCutoff="1.0000000000000000"/>
      <sparseX i="175" alpha="-5944.0513971803139" sparseCutoff=".97513200524988730"/>
      <sparseX i="176" alpha="-7138.3232041723704" sparseCutoff=".59916040733720777"/>
      <sparseX i="177" alpha="-36701.893832150825" sparseCutoff=".59916040733720777"/>
      <sparseX i="178" alpha="-25744.861092578194" sparseCutoff="1.0000000000000000"/>
      <sparseX i="179" alpha="7699.4819291525582" sparseCutoff="1.0000000000000000"/>
      <sparseX i="180" alpha="-21.887274374431087" sparseCutoff=".18484972475036685E-003"/>
      <sparseX i="181" alpha="-33733.892899122191" sparseCutoff=".17666403767462291"/>
      <sparseX i="182" alpha="55296.195920096354" sparseCutoff=".39163512409729978"/>
      <sparseX i="183" alpha="24205.201969086615" sparseCutoff=".68482999279067203"/>
      <sparseX i="184" alpha="-20241.663034839148" sparseCutoff=".10086744326252184"/>
      <sparseX i="185" alpha="8703.9623789651432" sparseCutoff=".21206596921860721"/>
      <sparseX i="186" alpha="49256.540821136812" sparseCutoff=".29102722637134704E-001"/>
      <sparseX i="187" alpha="2468.7876173469554" sparseCutoff=".81397740300498045"/>
      <sparseX i="188" alpha="32386.816562965221" sparseCutoff=".10312024841045153E-001"/>
      <sparseX i="189" alpha="-22109.448043622895" sparseCutoff=".60073171725345842"/>
      <sparseX i="190" alpha="3273.0446480898077" sparseCutoff=".84759617071274262"/>
      <sparseX i="191" alpha="15922.411388199227" sparseCutoff="1.0000000000000000"/>
      <sparseX i="192" alpha="3289.2298278990870" sparseCutoff="1.0000000000000000"/>
      <sparseX i="193" alpha="14330.092470350488" sparseCutoff=".99999625910907675"/>
      <sparseX i="194" alpha="8044.6685424302077" sparseCutoff="1.0000000000000000"/>
      <sparseX i="195" alpha="16393.201013087888" sparseCutoff=".69158821397463455"/>
      <sparseX i="196" alpha="4858.9618809561671" sparseCutoff="1.0000000000000000"/>
      <sparseX i="197" alpha="5978.9233257199257" sparseCutoff="1.0000000000000000"/>
      <sparseX i="198" alpha="2804.4665979545971" sparseCutoff="1.0000000000000000"/>
      <sparseX i="199" alpha="4271.9498397533707" sparseCutoff=".15605583208092672"/>
      <sparseX i="200" alpha="-392.13376030546436" sparseCutoff=".42916141761351057E-003"/>
    </gpCoordinates>
    <gpCoordinates label="GAP_2026_3_23_120_0_27_17_3546" dimensions="3" signal_variance=".10000000000000000E-001" signal_mean=".00000000000000000E+000" sparsified="T" n_permutations="1" covariance_type="4" n_sparseX="200" sparseX_filename="CH.xml.sparseX.GAP_2026_3_23_120_0_27_17_3546" sparseX_md5sum="36e9c31c18c0134c17685e9bde539f8a">
      <theta>  0.20000000000000000E+001  0.20000000000000000E+001  0.20000000000000000E+001 </theta>
      <descriptor> angle_3b Z_center=6 Z1=6 Z2=6 cutoff=2.0 n_sparse=200 covariance_type=pp delta=0.01 theta_uniform=2.0 sparse_method=uniform add_species=F</descriptor>
      <permutation i="1">1 2 3  </permutation>
      <sparseX i="1" alpha="46232.436969174705" sparseCutoff="1.0000000000000000"/>
      <sparseX i="2" alpha="9500.2032589876035" sparseCutoff="1.0000000000000000"/>
      <sparseX i="3" alpha="35829.637767456450" sparseCutoff="1.0000000000000000"/>
      <sparseX i="4" alpha="-37297.691081089870" sparseCutoff=".48460862778711838"/>
      <sparseX i="5" alpha="-98780.020661847549" sparseCutoff=".59274799049551075E-001"/>
      <sparseX i="6" alpha="271.20730113418682" sparseCutoff="1.0000000000000000"/>
      <sparseX i="7" alpha="-271.17745582906991" sparseCutoff=".84825793365405411"/>
      <sparseX i="8" alpha="39897.799979510601" sparseCutoff=".84825793365405411"/>
      <sparseX i="9" alpha="18470.238185980175" sparseCutoff=".44893634608438064E-002"/>
      <sparseX i="10" alpha="-12533.650949818893" sparseCutoff=".58753059397471572E-003"/>
      <sparseX i="11" alpha="9891.1035985760682" sparseCutoff=".53514467050350074E-001"/>
      <sparseX i="12" alpha="-190386.19898871257" sparseCutoff=".89487321711836931E-002"/>
      <sparseX i="13" alpha="-82001.973043992330" sparseCutoff=".59274799049551075E-001"/>
      <sparseX i="14" alpha="47068.060667928650" sparseCutoff=".20377030143270445E-001"/>
      <sparseX i="15" alpha="8221.8673488664772" sparseCutoff=".17811012704430039E-002"/>
      <sparseX i="16" alpha="227684.52483951676" sparseCutoff=".33401103677031929"/>
      <sparseX i="17" alpha="-103360.82205080289" sparseCutoff=".14524336581821795"/>
      <sparseX i="18" alpha="15097.097358053135" sparseCutoff="1.0000000000000000"/>
      <sparseX i="19" alpha="-46730.642358470053" sparseCutoff=".26935819089258729E-001"/>
      <sparseX i="20" alpha="1882.3653776551243" sparseCutoff=".56735902302313401E-002"/>
      <sparseX i="21" alpha="18865.668058123822" sparseCutoff=".37531963769056377E-002"/>
      <sparseX i="22" alpha="58524.750266500749" sparseCutoff=".99885079828347623"/>
      <sparseX i="23" alpha="-40770.752000954031" sparseCutoff=".77108881707409171"/>
      <sparseX i="24" alpha="69076.918478810388" sparseCutoff=".64244960625895270E-001"/>
      <sparseX i="25" alpha="-41173.885246784419" sparseCutoff=".30734497989838797E-001"/>
      <sparseX i="26" alpha="-660666.60664159211" sparseCutoff=".20031578268747907E-001"/>
      <sparseX i="27" alpha="-178409.10205739274" sparseCutoff=".13845882307393587"/>
      <sparseX i="28" alpha="22291.525120709568" sparseCutoff=".13845882307393587"/>
      <sparseX i="29" alpha="51914.935205386129" sparseCutoff=".63085623016115155"/>
      <sparseX i="30" alpha="-55554.356107497842" sparseCutoff="1.0000000000000000"/>
      <sparseX i="31" alpha="98857.589001237779" sparseCutoff=".44237041964647861"/>
      <sparseX i="32" alpha="59222.522039867938" sparseCutoff=".50102419762765082E-001"/>
      <sparseX i="33" alpha="11091.079621942999" sparseCutoff="1.0000000000000000"/>
      <sparseX i="34" alpha="-3672.3454028376041" sparseCutoff=".22694854365590267E-003"/>
      <sparseX i="35" alpha="206.79690899682291" sparseCutoff=".11349648025994051E-003"/>
      <sparseX i="36" alpha="95319.758926183684" sparseCutoff="1.0000000000000000"/>
      <sparseX i="37" alpha="-404343.40239520493" sparseCutoff=".20896196698833858E-001"/>
      <sparseX i="38" alpha="-35787.010370021228" sparseCutoff=".83737063647116505"/>
      <sparseX i="39" alpha="157747.52399374946" sparseCutoff=".72690749887280526E-001"/>
      <sparseX i="40" alpha="51552.970741600453" sparseCutoff="1.0000000000000000"/>
      <sparseX i="41" alpha="-19164.594986757409" sparseCutoff="1.0000000000000000"/>
      <sparseX i="42" alpha="-39395.295038483535" sparseCutoff=".85173350825309924"/>
      <sparseX i="43" alpha="-21817.031976369413" sparseCutoff=".99908043564658677"/>
      <sparseX i="44" alpha="37339.904655779450" sparseCutoff=".53459014798641469"/>
      <sparseX i="45" alpha="7307.5342227271467" sparseCutoff="1.0000000000000000"/>
      <sparseX i="46" alpha="3870.8073808560521" sparseCutoff="1.0000000000000000"/>
      <sparseX i="47" alpha="-9986.0326565433224" sparseCutoff="1.0000000000000000"/>
      <sparseX i="48" alpha="-58767.185223681015" sparseCutoff="1.0000000000000000"/>
      <sparseX i="49" alpha="-97001.103993217883" sparseCutoff=".53902429919574357"/>
      <sparseX i="50" alpha="-17865.483632370186" sparseCutoff=".25733188106909161"/>
      <sparseX i="51" alpha="-61152.780208645047" sparseCutoff=".45028997347806854E-002"/>
      <sparseX i="52" alpha="86660.412711362078" sparseCutoff=".26964354792150319"/>
      <sparseX i="53" alpha="-31325.747031919429" sparseCutoff=".98877546415552042"/>
      <sparseX i="54" alpha="-91443.341263378650" sparseCutoff="1.0000000000000000"/>
      <sparseX i="55" alpha="365857.22071389772" sparseCutoff=".56213188125599389E-001"/>
      <sparseX i="56" alpha="-61444.800403622838" sparseCutoff=".38234216429468615E-001"/>
      <sparseX i="57" alpha="-906.91016772305795" sparseCutoff=".27588061246176451E-003"/>
      <sparseX i="58" alpha="-53160.815311018683" sparseCutoff=".39279621185555769"/>
      <sparseX i="59" alpha="14945.492680601519" sparseCutoff=".24304333401567291E-001"/>
      <sparseX i="60" alpha="-78915.341339778708" sparseCutoff=".62930926578403323E-001"/>
      <sparseX i="61" alpha="-24792.505193606830" sparseCutoff=".46703511079556270"/>
      <sparseX i="62" alpha="10697.812125983015" sparseCutoff=".95727053237676807"/>
      <sparseX i="63" alpha="562.68490800884001" sparseCutoff=".11027681954465463"/>
      <sparseX i="64" alpha="-30647.246939923047" sparseCutoff=".10556474975432832"/>
      <sparseX i="65" alpha="42022.415511699561" sparseCutoff="1.0000000000000000"/>
      <sparseX i="66" alpha="23206.305865715505" sparseCutoff="1.0000000000000000"/>
      <sparseX i="67" alpha="12238.935486784943" sparseCutoff="1.0000000000000000"/>
      <sparseX i="68" alpha="44145.261903900828" sparseCutoff=".15583959946920457E-001"/>
      <sparseX i="69" alpha="-1343.3129453833485" sparseCutoff=".93210512715713456E-004"/>
      <sparseX i="70" alpha="95452.198706754731" sparseCutoff="1.0000000000000000"/>
      <sparseX i="71" alpha="-55631.142951045564" sparseCutoff=".56416970760131942E-002"/>
      <sparseX i="72" alpha="-2647.4866293151458" sparseCutoff=".53289975140270507"/>
      <sparseX i="73" alpha="22808.639643811242" sparseCutoff="1.0000000000000000"/>
      <sparseX i="74" alpha="27324.421284270378" sparseCutoff="1.0000000000000000"/>
      <sparseX i="75" alpha="-13435.262419990919" sparseCutoff=".92329408881631991"/>
      <sparseX i="76" alpha="2311.8134142807503" sparseCutoff=".92329408881631991"/>
      <sparseX i="77" alpha="25153.648393741092" sparseCutoff="1.0000000000000000"/>
      <sparseX i="78" alpha="17405.577442802540" sparseCutoff="1.0000000000000000"/>
      <sparseX i="79" alpha="34690.499847039595" sparseCutoff="1.0000000000000000"/>
      <sparseX i="80" alpha="-12373.076831676977" sparseCutoff=".63950992906880999E-002"/>
      <sparseX i="81" alpha="13547.978261393810" sparseCutoff=".58193773313458416E-001"/>
      <sparseX i="82" alpha="-341960.33015145373" sparseCutoff=".27350212364056437E-001"/>
      <sparseX i="83" alpha="-104025.21328854293" sparseCutoff=".15193208863186841"/>
      <sparseX i="84" alpha="32643.923864316952" sparseCutoff=".16866009777878904"/>
      <sparseX i="85" alpha="-55852.982749742660" sparseCutoff="1.0000000000000000"/>
      <sparseX i="86" alpha="41228.621679481243" sparseCutoff=".22496704329215522E-001"/>
      <sparseX i="87" alpha="-55948.417067155504" sparseCutoff=".88700020201165797"/>
      <sparseX i="88" alpha="32457.888349295612" sparseCutoff=".19148802252771591"/>
      <sparseX i="89" alpha="-19906.416989536498" sparseCutoff=".14973289637616460E-001"/>
      <sparseX i="90" alpha="3332.1481532605781" sparseCutoff=".98368157498232356"/>
      <sparseX i="91" alpha="-3624.4569192776162" sparseCutoff="1.0000000000000000"/>
      <sparseX i="92" alpha="70307.979869435920" sparseCutoff="1.0000000000000000"/>
      <sparseX i="93" alpha="76645.223908057233" sparseCutoff=".17127126602777105E-001"/>
      <sparseX i="94" alpha="-14047.776754711238" sparseCutoff=".64499010373856991"/>
      <sparseX i="95" alpha="-23225.541154167186" sparseCutoff="1.0000000000000000"/>
      <sparseX i="96" alpha="8818.2244090040058" sparseCutoff=".14554406489201144E-002"/>
      <sparseX i="97" alpha="-18257.177549492426" sparseCutoff=".29438886568889933E-002"/>
      <sparseX i="98" alpha="-118937.14379373437" sparseCutoff=".30285782501263403"/>
      <sparseX i="99" alpha="62392.331941757453" sparseCutoff=".16526153423218115E-001"/>
      <sparseX i="100" alpha="-29678.468958385642" sparseCutoff=".21866171964008540E-001"/>
      <sparseX i="101" alpha="-3.3063454536841128" sparseCutoff=".29604620652511999E-006"/>
      <sparseX i="102" alpha="2017.8731460138160" sparseCutoff=".72553228654015367E-003"/>
      <sparseX i="103" alpha="117876.75662929274" sparseCutoff=".67145963354700189E-001"/>
      <sparseX i="104" alpha="-62713.231634265045" sparseCutoff=".62730884871233228"/>
      <sparseX i="105" alpha="-79877.361647624974" sparseCutoff="1.0000000000000000"/>
      <sparseX i="106" alpha="-323830.60150629323" sparseCutoff=".10334090135238028"/>
      <sparseX i="107" alpha="9276.8712339201775" sparseCutoff="1.0000000000000000"/>
      <sparseX i="108" alpha="-38727.136889281457" sparseCutoff="1.0000000000000000"/>
      <sparseX i="109" alpha="-42519.065099319698" sparseCutoff="1.0000000000000000"/>
      <sparseX i="110" alpha="-44346.622408467279" sparseCutoff="1.0000000000000000"/>
      <sparseX i="111" alpha="-13805.959642894635" sparseCutoff=".30976176035637992"/>
      <sparseX i="112" alpha="2077.4326047132818" sparseCutoff="1.0000000000000000"/>
      <sparseX i="113" alpha="-1748.7086923446955" sparseCutoff=".28409106636020307E-003"/>
      <sparseX i="114" alpha="-5264.6069512303475" sparseCutoff=".65418244685214816E-001"/>
      <sparseX i="115" alpha="-34003.833678293573" sparseCutoff=".21301811106073720E-001"/>
      <sparseX i="116" alpha="54241.114907256939" sparseCutoff="1.0000000000000000"/>
      <sparseX i="117" alpha="35129.185552066781" sparseCutoff="1.0000000000000000"/>
      <sparseX i="118" alpha="-30146.545646128343" sparseCutoff="1.0000000000000000"/>
      <sparseX i="119" alpha="-19654.574502001167" sparseCutoff="1.0000000000000000"/>
      <sparseX i="120" alpha="19924.180411330621" sparseCutoff=".38337395681265485E-002"/>
      <sparseX i="121" alpha="38584.319571764674" sparseCutoff=".12813633609345965"/>
      <sparseX i="122" alpha="84220.274426382603" sparseCutoff=".82688764357501288"/>
      <sparseX i="123" alpha="4790.4857759412807" sparseCutoff=".84463407587553541"/>
      <sparseX i="124" alpha="-63158.331311987611" sparseCutoff=".42572716006879691"/>
      <sparseX i="125" alpha="-33866.374779067097" sparseCutoff="1.0000000000000000"/>
      <sparseX i="126" alpha="-54053.965698025087" sparseCutoff="1.0000000000000000"/>
      <sparseX i="127" alpha="94349.711305343342" sparseCutoff=".23850907300218396E-001"/>
      <sparseX i="128" alpha="-25240.426604091383" sparseCutoff=".11179041689605373E-001"/>
      <sparseX i="129" alpha="-117473.80205485318" sparseCutoff=".39056292663637538E-002"/>
      <sparseX i="130" alpha="-48874.737428591085" sparseCutoff=".89995162857774424E-002"/>
      <sparseX i="131" alpha="28231.393340576222" sparseCutoff=".42784024581397972"/>
      <sparseX i="132" alpha="2759.5454399849077" sparseCutoff=".79085791554526919"/>
      <sparseX i="133" alpha="139578.16624742310" sparseCutoff=".52006527427428915E-001"/>
      <sparseX i="134" alpha="-87086.836543617188" sparseCutoff=".84424033284245603"/>
      <sparseX i="135" alpha="-3115.2214504824019" sparseCutoff=".14551888001655650"/>
      <sparseX i="136" alpha="1978.4430935507185" sparseCutoff="1.0000000000000000"/>
      <sparseX i="137" alpha="28878.960866365520" sparseCutoff="1.0000000000000000"/>
      <sparseX i="138" alpha="-15569.994484957177" sparseCutoff="1.0000000000000000"/>
      <sparseX i="139" alpha="-299.91009265968529" sparseCutoff=".26271051170756454E-004"/>
      <sparseX i="140" alpha="3122.8394174945383" sparseCutoff=".11962133687590804E-002"/>
      <sparseX i="141" alpha="67371.230356523927" sparseCutoff=".76784169959070925"/>
      <sparseX i="142" alpha="36567.055199232309" sparseCutoff="1.0000000000000000"/>
      <sparseX i="143" alpha="-27912.021198876420" sparseCutoff=".91278016998600453"/>
      <sparseX i="144" alpha="23047.012841965716" sparseCutoff=".41954631814446397"/>
      <sparseX i="145" alpha="743.79399958234967" sparseCutoff=".12175980170499767E-003"/>
      <sparseX i="146" alpha="23496.947074154774" sparseCutoff="1.0000000000000000"/>
      <sparseX i="147" alpha="38889.183507768139" sparseCutoff=".37325820649095343"/>
      <sparseX i="148" alpha="-282224.46416859288" sparseCutoff=".25717580616510749E-001"/>
      <sparseX i="149" alpha="67675.812539053848" sparseCutoff="1.0000000000000000"/>
      <sparseX i="150" alpha="-58460.289563706472" sparseCutoff="1.0000000000000000"/>
      <sparseX i="151" alpha="37199.327294332608" sparseCutoff=".17223689322103153"/>
      <sparseX i="152" alpha="30909.021156007548" sparseCutoff="1.0000000000000000"/>
      <sparseX i="153" alpha="19179.108842113852" sparseCutoff=".17223689322103153"/>
      <sparseX i="154" alpha="-552.59950574895731" sparseCutoff=".11626227769850408E-004"/>
      <sparseX i="155" alpha="-125892.70970306135" sparseCutoff="1.0000000000000000"/>
      <sparseX i="156" alpha="36787.008186619547" sparseCutoff="1.0000000000000000"/>
      <sparseX i="157" alpha="27319.220021276989" sparseCutoff=".16218735650688598E-001"/>
      <sparseX i="158" alpha="-14045.855732219487" sparseCutoff="1.0000000000000000"/>
      <sparseX i="159" alpha="-75866.254707719578" sparseCutoff=".27993706193451939E-002"/>
      <sparseX i="160" alpha="3279.3546685327642" sparseCutoff=".92401329300688717"/>
      <sparseX i="161" alpha="-152176.72866427217" sparseCutoff=".10145623517313105E-001"/>
      <sparseX i="162" alpha="-29309.713829991459" sparseCutoff="1.0000000000000000"/>
      <sparseX i="163" alpha="-1872.0256338894242" sparseCutoff=".36966914451986010"/>
      <sparseX i="164" alpha="6795.0124660811016" sparseCutoff=".36966914451986010"/>
      <sparseX i="165" alpha="25148.246458784564" sparseCutoff=".21413156933035582E-002"/>
      <sparseX i="166" alpha="42685.193693625471" sparseCutoff=".23988113372139561"/>
      <sparseX i="167" alpha="18722.029455159896" sparseCutoff=".34899445579226512"/>
      <sparseX i="168" alpha="-51198.808509151735" sparseCutoff=".99677407036187016"/>
      <sparseX i="169" alpha="11016.433130505127" sparseCutoff=".99286345653479902"/>
      <sparseX i="170" alpha="166.63478916647549" sparseCutoff=".35756741469741771"/>
      <sparseX i="171" alpha="-23255.852893036066" sparseCutoff=".35756741469741771"/>
      <sparseX i="172" alpha="-24141.084881734569" sparseCutoff=".79961813253537350E-003"/>
      <sparseX i="173" alpha="67363.490986818753" sparseCutoff=".32075273810140789E-001"/>
      <sparseX i="174" alpha="22174.014792978716" sparseCutoff=".34094323627733704E-002"/>
      <sparseX i="175" alpha="-1059.3277649270215" sparseCutoff=".36270535622107136E-004"/>
      <sparseX i="176" alpha="-1121.4069886350048" sparseCutoff=".88725698120552909"/>
      <sparseX i="177" alpha="-33948.352832606717" sparseCutoff=".99994550092658818"/>
      <sparseX i="178" alpha="74721.305337306825" sparseCutoff=".86539190152934098E-001"/>
      <sparseX i="179" alpha="54447.788561575646" sparseCutoff=".57506961906008913"/>
      <sparseX i="180" alpha="21145.322140802829" sparseCutoff=".52726371646314111E-002"/>
      <sparseX i="181" alpha="40195.720669172551" sparseCutoff=".67020918640548677"/>
      <sparseX i="182" alpha="-33650.897812882402" sparseCutoff=".72769020205999110E-001"/>
      <sparseX i="183" alpha="-64727.169293619183" sparseCutoff=".47073692263602640E-001"/>
      <sparseX i="184" alpha="-31260.686891773828" sparseCutoff=".70240400047135687"/>
      <sparseX i="185" alpha="141778.84824289990" sparseCutoff=".15250640503331225"/>
      <sparseX i="186" alpha="-39589.332621900699" sparseCutoff=".24324098473273992E-002"/>
      <sparseX i="187" alpha="70111.969048607003" sparseCutoff=".76952947170620256"/>
      <sparseX i="188" alpha="96180.542244237920" sparseCutoff=".14267636685153240"/>
      <sparseX i="189" alpha="167.19401980714423" sparseCutoff=".26009569503625462E-002"/>
      <sparseX i="190" alpha="36926.852611737901" sparseCutoff=".21439229237226631E-001"/>
      <sparseX i="191" alpha="-78135.825789698822" sparseCutoff=".23062287986529528"/>
      <sparseX i="192" alpha="43578.462221381131" sparseCutoff=".26561519682701451"/>
      <sparseX i="193" alpha="1713.4342337547625" sparseCutoff=".34570471846828460"/>
      <sparseX i="194" alpha="8563.4547708340942" sparseCutoff=".20601650465421569E-002"/>
      <sparseX i="195" alpha="-3039.1737865871733" sparseCutoff=".71179204915515493E-001"/>
      <sparseX i="196" alpha="25566.232358564212" sparseCutoff=".32673777729066178"/>
      <sparseX i="197" alpha="-92955.841908401053" sparseCutoff=".21519289934792935"/>
      <sparseX i="198" alpha="24447.892162786997" sparseCutoff="1.0000000000000000"/>
      <sparseX i="199" alpha="2435.0324594855251" sparseCutoff=".50145826181298092E-001"/>
      <sparseX i="200" alpha="90242.582041679867" sparseCutoff=".34426560471456313E-001"/>
    </gpCoordinates>
    <gpCoordinates label="GAP_2026_3_23_120_0_27_17_3547" dimensions="75" signal_variance=".10000000000000001E+000" signal_mean=".00000000000000000E+000" sparsified="T" n_permutations="1" covariance_type="2" zeta="4.0000000000000000" n_sparseX="1000" sparseX_filename="CH.xml.sparseX.GAP_2026_3_23_120_0_27_17_3547" sparseX_md5sum="9ef8367719fab7b04f29f788c4ebd7df">
      <descriptor> soap_turbo l_max=4 alpha_max={4 4} atom_sigma_r={0.2 0.2} atom_sigma_t={0.2 0.2} atom_sigma_r_scaling={0.1 0.1} atom_sigma_t_scaling={0.1 0.1} zeta=4 rcut_hard=4.0 rcut_soft=3.5 basis=poly3gauss scaling_mode=polynomial add_species=F amplitude_scaling={2.0 2.0} n_species=2 species_Z={1 6} central_index=1 radial_enhancement=1 compress_mode=trivial central_weight={1.0 1.0} n_sparse=1000 delta=0.1 f0=0.0 covariance_type=dot_product sparse_method=cur_points</descriptor>
      <permutation i="1">1  </permutation>
      <sparseX i="1" alpha="71281.329780089902" sparseCutoff="1.0000000000000000"/>
      <sparseX i="2" alpha="-3987.3680129863692" sparseCutoff="1.0000000000000000"/>
      <sparseX i="3" alpha="110.77546143674985" sparseCutoff="1.0000000000000000"/>
      <sparseX i="4" alpha="-8222.2425592910495" sparseCutoff="1.0000000000000000"/>
      <sparseX i="5" alpha="-10554.262210579387" sparseCutoff="1.0000000000000000"/>
      <sparseX i="6" alpha="13424.874231532813" sparseCutoff="1.0000000000000000"/>
      <sparseX i="7" alpha="-2626.3199266549595" sparseCutoff="1.0000000000000000"/>
      <sparseX i="8" alpha="3426.8836962046289" sparseCutoff="1.0000000000000000"/>
      <sparseX i="9" alpha="2218.9952501483244" sparseCutoff="1.0000000000000000"/>
      <sparseX i="10" alpha="58320.501255787654" sparseCutoff="1.0000000000000000"/>
      <sparseX i="11" alpha="-6405.5353851609825" sparseCutoff="1.0000000000000000"/>
      <sparseX i="12" alpha="-3290.4919060290990" sparseCutoff="1.0000000000000000"/>
      <sparseX i="13" alpha="3121.8333746506187" sparseCutoff="1.0000000000000000"/>
      <sparseX i="14" alpha="-25198.520473046676" sparseCutoff="1.0000000000000000"/>
      <sparseX i="15" alpha="29709.308730879256" sparseCutoff="1.0000000000000000"/>
      <sparseX i="16" alpha="-8813.0993918033328" sparseCutoff="1.0000000000000000"/>
      <sparseX i="17" alpha="65.860847025429720" sparseCutoff="1.0000000000000000"/>
      <sparseX i="18" alpha="2916.0640520269940" sparseCutoff="1.0000000000000000"/>
      <sparseX i="19" alpha="-3163.6481077479834" sparseCutoff="1.0000000000000000"/>
      <sparseX i="20" alpha="7427.1018658736029" sparseCutoff="1.0000000000000000"/>
      <sparseX i="21" alpha="-992.12212608945345" sparseCutoff="1.0000000000000000"/>
      <sparseX i="22" alpha="5837.5627626758260" sparseCutoff="1.0000000000000000"/>
      <sparseX i="23" alpha="-11563.981493115503" sparseCutoff="1.0000000000000000"/>
      <sparseX i="24" alpha="-37547.207059455657" sparseCutoff="1.0000000000000000"/>
      <sparseX i="25" alpha="-4089.5030449723172" sparseCutoff="1.0000000000000000"/>
      <sparseX i="26" alpha="-213.53899250790107" sparseCutoff="1.0000000000000000"/>
      <sparseX i="27" alpha="-4747.6666164841863" sparseCutoff="1.0000000000000000"/>
      <sparseX i="28" alpha="-5128.0593755116552" sparseCutoff="1.0000000000000000"/>
      <sparseX i="29" alpha="791.29443291550513" sparseCutoff="1.0000000000000000"/>
      <sparseX i="30" alpha="-1614.2886306671608" sparseCutoff="1.0000000000000000"/>
      <sparseX i="31" alpha="18100.648590480694" sparseCutoff="1.0000000000000000"/>
      <sparseX i="32" alpha="27328.443939173096" sparseCutoff="1.0000000000000000"/>
      <sparseX i="33" alpha="23837.676860038751" sparseCutoff="1.0000000000000000"/>
      <sparseX i="34" alpha="26594.872163604505" sparseCutoff="1.0000000000000000"/>
      <sparseX i="35" alpha="35384.463955248189" sparseCutoff="1.0000000000000000"/>
      <sparseX i="36" alpha="-42940.442684799520" sparseCutoff="1.0000000000000000"/>
      <sparseX i="37" alpha="25226.061002810926" sparseCutoff="1.0000000000000000"/>
      <sparseX i="38" alpha="2562.7803150096161" sparseCutoff="1.0000000000000000"/>
      <sparseX i="39" alpha="-24387.366318165750" sparseCutoff="1.0000000000000000"/>
      <sparseX i="40" alpha="-46837.662782191430" sparseCutoff="1.0000000000000000"/>
      <sparseX i="41" alpha="-49927.858509308069" sparseCutoff="1.0000000000000000"/>
      <sparseX i="42" alpha="2368.2073829897899" sparseCutoff="1.0000000000000000"/>
      <sparseX i="43" alpha="-5076.4449196000642" sparseCutoff="1.0000000000000000"/>
      <sparseX i="44" alpha="17554.199142745085" sparseCutoff="1.0000000000000000"/>
      <sparseX i="45" alpha="-18853.734821640373" sparseCutoff="1.0000000000000000"/>
      <sparseX i="46" alpha="-1342.0396601364976" sparseCutoff="1.0000000000000000"/>
      <sparseX i="47" alpha="-7927.5390781880315" sparseCutoff="1.0000000000000000"/>
      <sparseX i="48" alpha="-6503.0074290532102" sparseCutoff="1.0000000000000000"/>
      <sparseX i="49" alpha="3001.1274818956858" sparseCutoff="1.0000000000000000"/>
      <sparseX i="50" alpha="-19806.350868359623" sparseCutoff="1.0000000000000000"/>
      <sparseX i="51" alpha="-9675.3386003163760" sparseCutoff="1.0000000000000000"/>
      <sparseX i="52" alpha="-751.35925203686861" sparseCutoff="1.0000000000000000"/>
      <sparseX i="53" alpha="30417.080868138513" sparseCutoff="1.0000000000000000"/>
      <sparseX i="54" alpha="239576.31580030080" sparseCutoff="1.0000000000000000"/>
      <sparseX i="55" alpha="4258.8973228199102" sparseCutoff="1.0000000000000000"/>
      <sparseX i="56" alpha="35081.991820126466" sparseCutoff="1.0000000000000000"/>
      <sparseX i="57" alpha="-48672.247568132501" sparseCutoff="1.0000000000000000"/>
      <sparseX i="58" alpha="8880.7745007189624" sparseCutoff="1.0000000000000000"/>
      <sparseX i="59" alpha="-382768.66358671390" sparseCutoff="1.0000000000000000"/>
      <sparseX i="60" alpha="47902.309716963631" sparseCutoff="1.0000000000000000"/>
      <sparseX i="61" alpha="-7279.2473056418503" sparseCutoff="1.0000000000000000"/>
      <sparseX i="62" alpha="19584.482793258376" sparseCutoff="1.0000000000000000"/>
      <sparseX i="63" alpha="-208593.91610356158" sparseCutoff="1.0000000000000000"/>
      <sparseX i="64" alpha="247.90817784086400" sparseCutoff="1.0000000000000000"/>
      <sparseX i="65" alpha="-46204.034262759007" sparseCutoff="1.0000000000000000"/>
      <sparseX i="66" alpha="-2734.1437732721079" sparseCutoff="1.0000000000000000"/>
      <sparseX i="67" alpha="-39335.420065566956" sparseCutoff="1.0000000000000000"/>
      <sparseX i="68" alpha="-34647.056111844075" sparseCutoff="1.0000000000000000"/>
      <sparseX i="69" alpha="-5237.6605621950257" sparseCutoff="1.0000000000000000"/>
      <sparseX i="70" alpha="4875.1522668901653" sparseCutoff="1.0000000000000000"/>
      <sparseX i="71" alpha="1841.5640180857831" sparseCutoff="1.0000000000000000"/>
      <sparseX i="72" alpha="24744.969641628155" sparseCutoff="1.0000000000000000"/>
      <sparseX i="73" alpha="-3601.0724372812665" sparseCutoff="1.0000000000000000"/>
      <sparseX i="74" alpha="-178118.02463646021" sparseCutoff="1.0000000000000000"/>
      <sparseX i="75" alpha="1610.1848820548389" sparseCutoff="1.0000000000000000"/>
      <sparseX i="76" alpha="-149180.55257783670" sparseCutoff="1.0000000000000000"/>
      <sparseX i="77" alpha="-15032.925631179505" sparseCutoff="1.0000000000000000"/>
      <sparseX i="78" alpha="38088.948361900111" sparseCutoff="1.0000000000000000"/>
      <sparseX i="79" alpha="1150.8305228060240" sparseCutoff="1.0000000000000000"/>
      <sparseX i="80" alpha="-1386.8933274908941" sparseCutoff="1.0000000000000000"/>
      <sparseX i="81" alpha="-17562.404323729388" sparseCutoff="1.0000000000000000"/>
      <sparseX i="82" alpha="-12318.986749790982" sparseCutoff="1.0000000000000000"/>
      <sparseX i="83" alpha="-26330.815372932895" sparseCutoff="1.0000000000000000"/>
      <sparseX i="84" alpha="-2050.4442833723997" sparseCutoff="1.0000000000000000"/>
      <sparseX i="85" alpha="-32666.197817273100" sparseCutoff="1.0000000000000000"/>
      <sparseX i="86" alpha="2571.7320975381344" sparseCutoff="1.0000000000000000"/>
      <sparseX i="87" alpha="-52366.293170758770" sparseCutoff="1.0000000000000000"/>
      <sparseX i="88" alpha="40881.220243339652" sparseCutoff="1.0000000000000000"/>
      <sparseX i="89" alpha="12476.291887558446" sparseCutoff="1.0000000000000000"/>
      <sparseX i="90" alpha="-25253.944070724094" sparseCutoff="1.0000000000000000"/>
      <sparseX i="91" alpha="12875.069305597510" sparseCutoff="1.0000000000000000"/>
      <sparseX i="92" alpha="-3049.2160110201507" sparseCutoff="1.0000000000000000"/>
      <sparseX i="93" alpha="-5956.9299680050453" sparseCutoff="1.0000000000000000"/>
      <sparseX i="94" alpha="-1628.2270823037200" sparseCutoff="1.0000000000000000"/>
      <sparseX i="95" alpha="-27420.858322395554" sparseCutoff="1.0000000000000000"/>
      <sparseX i="96" alpha="-5751.9698282730233" sparseCutoff="1.0000000000000000"/>
      <sparseX i="97" alpha="5719.5174476870152" sparseCutoff="1.0000000000000000"/>
      <sparseX i="98" alpha="-8341.5703361844444" sparseCutoff="1.0000000000000000"/>
      <sparseX i="99" alpha="-22617.902262533320" sparseCutoff="1.0000000000000000"/>
      <sparseX i="100" alpha="32989.240748346616" sparseCutoff="1.0000000000000000"/>
      <sparseX i="101" alpha="16475.642613266609" sparseCutoff="1.0000000000000000"/>
      <sparseX i="102" alpha="27842.055743894685" sparseCutoff="1.0000000000000000"/>
      <sparseX i="103" alpha="-9254.1146699163801" sparseCutoff="1.0000000000000000"/>
      <sparseX i="104" alpha="-100.06193723692698" sparseCutoff="1.0000000000000000"/>
      <sparseX i="105" alpha="-7342.4054958145662" sparseCutoff="1.0000000000000000"/>
      <sparseX i="106" alpha="-35612.910002560136" sparseCutoff="1.0000000000000000"/>
      <sparseX i="107" alpha="-171859.78157828769" sparseCutoff="1.0000000000000000"/>
      <sparseX i="108" alpha="-3832.9188709777536" sparseCutoff="1.0000000000000000"/>
      <sparseX i="109" alpha="297.79562347378464" sparseCutoff="1.0000000000000000"/>
      <sparseX i="110" alpha="173.74389510779920" sparseCutoff="1.0000000000000000"/>
      <sparseX i="111" alpha="-984.92952210746000" sparseCutoff="1.0000000000000000"/>
      <sparseX i="112" alpha="-4.3540531653250714" sparseCutoff="1.0000000000000000"/>
      <sparseX i="113" alpha="-218395.65956421051" sparseCutoff="1.0000000000000000"/>
      <sparseX i="114" alpha="-57261.685865347012" sparseCutoff="1.0000000000000000"/>
      <sparseX i="115" alpha="40479.853353421815" sparseCutoff="1.0000000000000000"/>
      <sparseX i="116" alpha="87936.932271501413" sparseCutoff="1.0000000000000000"/>
      <sparseX i="117" alpha="14684.850846274587" sparseCutoff="1.0000000000000000"/>
      <sparseX i="118" alpha="-29444.911711529716" sparseCutoff="1.0000000000000000"/>
      <sparseX i="119" alpha="22464.848061432851" sparseCutoff="1.0000000000000000"/>
      <sparseX i="120" alpha="-28588.138818840886" sparseCutoff="1.0000000000000000"/>
      <sparseX i="121" alpha="-74964.790774856097" sparseCutoff="1.0000000000000000"/>
      <sparseX i="122" alpha="-22443.962557205476" sparseCutoff="1.0000000000000000"/>
      <sparseX i="123" alpha="807.70040228911705" sparseCutoff="1.0000000000000000"/>
      <sparseX i="124" alpha="-2120.6565974850287" sparseCutoff="1.0000000000000000"/>
      <sparseX i="125" alpha="-14350.136888209327" sparseCutoff="1.0000000000000000"/>
      <sparseX i="126" alpha="-12142.417475871332" sparseCutoff="1.0000000000000000"/>
      <sparseX i="127" alpha="14172.627007272162" sparseCutoff="1.0000000000000000"/>
      <sparseX i="128" alpha="-12749.932033332212" sparseCutoff="1.0000000000000000"/>
      <sparseX i="129" alpha="-58987.447275324710" sparseCutoff="1.0000000000000000"/>
      <sparseX i="130" alpha="-6965.9882232098334" sparseCutoff="1.0000000000000000"/>
      <sparseX i="131" alpha="-14736.244124583489" sparseCutoff="1.0000000000000000"/>
      <sparseX i="132" alpha="-14506.538653247297" sparseCutoff="1.0000000000000000"/>
      <sparseX i="133" alpha="1507.7325100289424" sparseCutoff="1.0000000000000000"/>
      <sparseX i="134" alpha="-26370.004990072634" sparseCutoff="1.0000000000000000"/>
      <sparseX i="135" alpha="-29157.375804240528" sparseCutoff="1.0000000000000000"/>
      <sparseX i="136" alpha="-36614.309768287814" sparseCutoff="1.0000000000000000"/>
      <sparseX i="137" alpha="89379.207463727798" sparseCutoff="1.0000000000000000"/>
      <sparseX i="138" alpha="-3427.8419855290972" sparseCutoff="1.0000000000000000"/>
      <sparseX i="139" alpha="1345.8563958170369" sparseCutoff="1.0000000000000000"/>
      <sparseX i="140" alpha="-23747.227582637792" sparseCutoff="1.0000000000000000"/>
      <sparseX i="141" alpha="-22157.643974638479" sparseCutoff="1.0000000000000000"/>
      <sparseX i="142" alpha="-3342.2125638458579" sparseCutoff="1.0000000000000000"/>
      <sparseX i="143" alpha="-1474.1641476410616" sparseCutoff="1.0000000000000000"/>
      <sparseX i="144" alpha="-3629.6578183816432" sparseCutoff="1.0000000000000000"/>
      <sparseX i="145" alpha="-1269.2223195951065" sparseCutoff="1.0000000000000000"/>
      <sparseX i="146" alpha="-257.88737089912235" sparseCutoff="1.0000000000000000"/>
      <sparseX i="147" alpha="-10744.227260891577" sparseCutoff="1.0000000000000000"/>
      <sparseX i="148" alpha="1519.7272810209499" sparseCutoff="1.0000000000000000"/>
      <sparseX i="149" alpha="-4082.1997161399031" sparseCutoff="1.0000000000000000"/>
      <sparseX i="150" alpha="4142.9992212823308" sparseCutoff="1.0000000000000000"/>
      <sparseX i="151" alpha="-17768.575730239972" sparseCutoff="1.0000000000000000"/>
      <sparseX i="152" alpha="62724.858729352491" sparseCutoff="1.0000000000000000"/>
      <sparseX i="153" alpha="-17045.933661035164" sparseCutoff="1.0000000000000000"/>
      <sparseX i="154" alpha="38233.253432871825" sparseCutoff="1.0000000000000000"/>
      <sparseX i="155" alpha="-3852.0760473067457" sparseCutoff="1.0000000000000000"/>
      <sparseX i="156" alpha="-5074.8362870172496" sparseCutoff="1.0000000000000000"/>
      <sparseX i="157" alpha="-49780.330877606277" sparseCutoff="1.0000000000000000"/>
      <sparseX i="158" alpha="3892.8541066918174" sparseCutoff="1.0000000000000000"/>
      <sparseX i="159" alpha="-51970.702277131248" sparseCutoff="1.0000000000000000"/>
      <sparseX i="160" alpha="74565.184103012783" sparseCutoff="1.0000000000000000"/>
      <sparseX i="161" alpha="35166.178218793626" sparseCutoff="1.0000000000000000"/>
      <sparseX i="162" alpha="6227.7004497317212" sparseCutoff="1.0000000000000000"/>
      <sparseX i="163" alpha="3252.9272609683230" sparseCutoff="1.0000000000000000"/>
      <sparseX i="164" alpha="81931.855532152040" sparseCutoff="1.0000000000000000"/>
      <sparseX i="165" alpha="2062.0344640088629" sparseCutoff="1.0000000000000000"/>
      <sparseX i="166" alpha="16807.159994701866" sparseCutoff="1.0000000000000000"/>
      <sparseX i="167" alpha="-40593.441159852766" sparseCutoff="1.0000000000000000"/>
      <sparseX i="168" alpha="-4313.4010000092931" sparseCutoff="1.0000000000000000"/>
      <sparseX i="169" alpha="-13172.410470123823" sparseCutoff="1.0000000000000000"/>
      <sparseX i="170" alpha="-4627.5535837440175" sparseCutoff="1.0000000000000000"/>
      <sparseX i="171" alpha="-5003.5724000900009" sparseCutoff="1.0000000000000000"/>
      <sparseX i="172" alpha="-23466.487341735578" sparseCutoff="1.0000000000000000"/>
      <sparseX i="173" alpha="-48325.352418075854" sparseCutoff="1.0000000000000000"/>
      <sparseX i="174" alpha="-22657.266651870246" sparseCutoff="1.0000000000000000"/>
      <sparseX i="175" alpha="13717.726216478506" sparseCutoff="1.0000000000000000"/>
      <sparseX i="176" alpha="27414.236847567387" sparseCutoff="1.0000000000000000"/>
      <sparseX i="177" alpha="20235.437946802154" sparseCutoff="1.0000000000000000"/>
      <sparseX i="178" alpha="-10532.116973056483" sparseCutoff="1.0000000000000000"/>
      <sparseX i="179" alpha="-85109.000739374169" sparseCutoff="1.0000000000000000"/>
      <sparseX i="180" alpha="51488.561936179292" sparseCutoff="1.0000000000000000"/>
      <sparseX i="181" alpha="18782.924527697298" sparseCutoff="1.0000000000000000"/>
      <sparseX i="182" alpha="-3846.7426638415727" sparseCutoff="1.0000000000000000"/>
      <sparseX i="183" alpha="16747.974233063229" sparseCutoff="1.0000000000000000"/>
      <sparseX i="184" alpha="45067.102055463256" sparseCutoff="1.0000000000000000"/>
      <sparseX i="185" alpha="7985.8026917113675" sparseCutoff="1.0000000000000000"/>
      <sparseX i="186" alpha="13440.476729010401" sparseCutoff="1.0000000000000000"/>
      <sparseX i="187" alpha="75474.550555960130" sparseCutoff="1.0000000000000000"/>
      <sparseX i="188" alpha="8658.2895985731429" sparseCutoff="1.0000000000000000"/>
      <sparseX i="189" alpha="-5064.9165999845700" sparseCutoff="1.0000000000000000"/>
      <sparseX i="190" alpha="-569.67070520320840" sparseCutoff="1.0000000000000000"/>
      <sparseX i="191" alpha="-487.63921386203663" sparseCutoff="1.0000000000000000"/>
      <sparseX i="192" alpha="-72.973453770944062" sparseCutoff="1.0000000000000000"/>
      <sparseX i="193" alpha="1036.1734078215222" sparseCutoff="1.0000000000000000"/>
      <sparseX i="194" alpha="87183.125318120510" sparseCutoff="1.0000000000000000"/>
      <sparseX i="195" alpha="-562.02978390258443" sparseCutoff="1.0000000000000000"/>
      <sparseX i="196" alpha="-8461.1100301823917" sparseCutoff="1.0000000000000000"/>
      <sparseX i="197" alpha="43407.406712825752" sparseCutoff="1.0000000000000000"/>
      <sparseX i="198" alpha="-844.22560786995689" sparseCutoff="1.0000000000000000"/>
      <sparseX i="199" alpha="-60708.977025788023" sparseCutoff="1.0000000000000000"/>
      <sparseX i="200" alpha="-92098.274096272129" sparseCutoff="1.0000000000000000"/>
      <sparseX i="201" alpha="47250.297073117261" sparseCutoff="1.0000000000000000"/>
      <sparseX i="202" alpha="22185.542569954629" sparseCutoff="1.0000000000000000"/>
      <sparseX i="203" alpha="-28247.496350342848" sparseCutoff="1.0000000000000000"/>
      <sparseX i="204" alpha="-19641.786255090672" sparseCutoff="1.0000000000000000"/>
      <sparseX i="205" alpha="-788.56122073547465" sparseCutoff="1.0000000000000000"/>
      <sparseX i="206" alpha="-8199.8734665624634" sparseCutoff="1.0000000000000000"/>
      <sparseX i="207" alpha="12969.641628917965" sparseCutoff="1.0000000000000000"/>
      <sparseX i="208" alpha="-18511.529041226240" sparseCutoff="1.0000000000000000"/>
      <sparseX i="209" alpha="-26445.258156636588" sparseCutoff="1.0000000000000000"/>
      <sparseX i="210" alpha="6972.8074476627780" sparseCutoff="1.0000000000000000"/>
      <sparseX i="211" alpha="105915.88251539346" sparseCutoff="1.0000000000000000"/>
      <sparseX i="212" alpha="19709.472810896757" sparseCutoff="1.0000000000000000"/>
      <sparseX i="213" alpha="-18661.155602918443" sparseCutoff="1.0000000000000000"/>
      <sparseX i="214" alpha="-1304.7582213170724" sparseCutoff="1.0000000000000000"/>
      <sparseX i="215" alpha="1379.6477628306591" sparseCutoff="1.0000000000000000"/>
      <sparseX i="216" alpha="-20202.810442278442" sparseCutoff="1.0000000000000000"/>
      <sparseX i="217" alpha="12727.768105427978" sparseCutoff="1.0000000000000000"/>
      <sparseX i="218" alpha="80451.289688422257" sparseCutoff="1.0000000000000000"/>
      <sparseX i="219" alpha="7862.1617567397861" sparseCutoff="1.0000000000000000"/>
      <sparseX i="220" alpha="-27869.282748888465" sparseCutoff="1.0000000000000000"/>
      <sparseX i="221" alpha="-3752.7628893231176" sparseCutoff="1.0000000000000000"/>
      <sparseX i="222" alpha="9899.6175087944303" sparseCutoff="1.0000000000000000"/>
      <sparseX i="223" alpha="10164.433705838299" sparseCutoff="1.0000000000000000"/>
      <sparseX i="224" alpha="2666.1025788433612" sparseCutoff="1.0000000000000000"/>
      <sparseX i="225" alpha="27252.597412633299" sparseCutoff="1.0000000000000000"/>
      <sparseX i="226" alpha="-13166.468028589792" sparseCutoff="1.0000000000000000"/>
      <sparseX i="227" alpha="-26662.343241286548" sparseCutoff="1.0000000000000000"/>
      <sparseX i="228" alpha="-810.15713646771030" sparseCutoff="1.0000000000000000"/>
      <sparseX i="229" alpha="19840.223507773484" sparseCutoff="1.0000000000000000"/>
      <sparseX i="230" alpha="-146290.16098319809" sparseCutoff="1.0000000000000000"/>
      <sparseX i="231" alpha="610.77199209513981" sparseCutoff="1.0000000000000000"/>
      <sparseX i="232" alpha="882.89914461206240" sparseCutoff="1.0000000000000000"/>
      <sparseX i="233" alpha="-47519.463629389764" sparseCutoff="1.0000000000000000"/>
      <sparseX i="234" alpha="-24038.837758053913" sparseCutoff="1.0000000000000000"/>
      <sparseX i="235" alpha="1936.2648739031738" sparseCutoff="1.0000000000000000"/>
      <sparseX i="236" alpha="-61468.832868181555" sparseCutoff="1.0000000000000000"/>
      <sparseX i="237" alpha="-44064.444608811602" sparseCutoff="1.0000000000000000"/>
      <sparseX i="238" alpha="7313.0754288798953" sparseCutoff="1.0000000000000000"/>
      <sparseX i="239" alpha="43228.708237591367" sparseCutoff="1.0000000000000000"/>
      <sparseX i="240" alpha="-56404.075317360635" sparseCutoff="1.0000000000000000"/>
      <sparseX i="241" alpha="11711.245426716670" sparseCutoff="1.0000000000000000"/>
      <sparseX i="242" alpha="-1883.1455068693181" sparseCutoff="1.0000000000000000"/>
      <sparseX i="243" alpha="-37207.634051155394" sparseCutoff="1.0000000000000000"/>
      <sparseX i="244" alpha="123258.11469605930" sparseCutoff="1.0000000000000000"/>
      <sparseX i="245" alpha="11033.874117441715" sparseCutoff="1.0000000000000000"/>
      <sparseX i="246" alpha="7407.9562823666274" sparseCutoff="1.0000000000000000"/>
      <sparseX i="247" alpha="-15953.230235070041" sparseCutoff="1.0000000000000000"/>
      <sparseX i="248" alpha="-247670.36249389188" sparseCutoff="1.0000000000000000"/>
      <sparseX i="249" alpha="5159.1433391940154" sparseCutoff="1.0000000000000000"/>
      <sparseX i="250" alpha="15881.556737526453" sparseCutoff="1.0000000000000000"/>
      <sparseX i="251" alpha="14684.701936856216" sparseCutoff="1.0000000000000000"/>
      <sparseX i="252" alpha="-6365.2747345549651" sparseCutoff="1.0000000000000000"/>
      <sparseX i="253" alpha="-36158.905350863395" sparseCutoff="1.0000000000000000"/>
      <sparseX i="254" alpha="-1240.6976264793852" sparseCutoff="1.0000000000000000"/>
      <sparseX i="255" alpha="14859.597414984544" sparseCutoff="1.0000000000000000"/>
      <sparseX i="256" alpha="2459.5715558046513" sparseCutoff="1.0000000000000000"/>
      <sparseX i="257" alpha="-27120.951598319731" sparseCutoff="1.0000000000000000"/>
      <sparseX i="258" alpha="-51686.078790569823" sparseCutoff="1.0000000000000000"/>
      <sparseX i="259" alpha="-1441.6828282375820" sparseCutoff="1.0000000000000000"/>
      <sparseX i="260" alpha="57239.850229523581" sparseCutoff="1.0000000000000000"/>
      <sparseX i="261" alpha="3937.2581625782982" sparseCutoff="1.0000000000000000"/>
      <sparseX i="262" alpha="-60395.820654118586" sparseCutoff="1.0000000000000000"/>
      <sparseX i="263" alpha="-9457.3361588939770" sparseCutoff="1.0000000000000000"/>
      <sparseX i="264" alpha="-18566.348933711561" sparseCutoff="1.0000000000000000"/>
      <sparseX i="265" alpha="-17020.037391143251" sparseCutoff="1.0000000000000000"/>
      <sparseX i="266" alpha="66635.305920263811" sparseCutoff="1.0000000000000000"/>
      <sparseX i="267" alpha="-8470.7823238463279" sparseCutoff="1.0000000000000000"/>
      <sparseX i="268" alpha="16701.130206291800" sparseCutoff="1.0000000000000000"/>
      <sparseX i="269" alpha="-24189.412645387994" sparseCutoff="1.0000000000000000"/>
      <sparseX i="270" alpha="241.71655591650855" sparseCutoff="1.0000000000000000"/>
      <sparseX i="271" alpha="-1313.4417409008136" sparseCutoff="1.0000000000000000"/>
      <sparseX i="272" alpha="4763.6422898515702" sparseCutoff="1.0000000000000000"/>
      <sparseX i="273" alpha="-27977.231476741956" sparseCutoff="1.0000000000000000"/>
      <sparseX i="274" alpha="-30754.244412745185" sparseCutoff="1.0000000000000000"/>
      <sparseX i="275" alpha="25544.459019600701" sparseCutoff="1.0000000000000000"/>
      <sparseX i="276" alpha="1351.9368711547161" sparseCutoff="1.0000000000000000"/>
      <sparseX i="277" alpha="7415.6267754033570" sparseCutoff="1.0000000000000000"/>
      <sparseX i="278" alpha="-26294.372427681548" sparseCutoff="1.0000000000000000"/>
      <sparseX i="279" alpha="-24305.418274773976" sparseCutoff="1.0000000000000000"/>
      <sparseX i="280" alpha="-188290.23106841801" sparseCutoff="1.0000000000000000"/>
      <sparseX i="281" alpha="30426.877916528469" sparseCutoff="1.0000000000000000"/>
      <sparseX i="282" alpha="924.40110144259029" sparseCutoff="1.0000000000000000"/>
      <sparseX i="283" alpha="5194.0170492600928" sparseCutoff="1.0000000000000000"/>
      <sparseX i="284" alpha="4110.5231478854612" sparseCutoff="1.0000000000000000"/>
      <sparseX i="285" alpha="34874.319607701960" sparseCutoff="1.0000000000000000"/>
      <sparseX i="286" alpha="-20073.795534249908" sparseCutoff="1.0000000000000000"/>
      <sparseX i="287" alpha="-32480.170289899012" sparseCutoff="1.0000000000000000"/>
      <sparseX i="288" alpha="-15847.447521170499" sparseCutoff="1.0000000000000000"/>
      <sparseX i="289" alpha="8543.2576987993580" sparseCutoff="1.0000000000000000"/>
      <sparseX i="290" alpha="29193.882036385879" sparseCutoff="1.0000000000000000"/>
      <sparseX i="291" alpha="14394.593546076318" sparseCutoff="1.0000000000000000"/>
      <sparseX i="292" alpha="-28622.704742929982" sparseCutoff="1.0000000000000000"/>
      <sparseX i="293" alpha="4333.1970485647953" sparseCutoff="1.0000000000000000"/>
      <sparseX i="294" alpha="-6008.7097463530808" sparseCutoff="1.0000000000000000"/>
      <sparseX i="295" alpha="-159.40950806958864" sparseCutoff="1.0000000000000000"/>
      <sparseX i="296" alpha="6588.8119237188375" sparseCutoff="1.0000000000000000"/>
      <sparseX i="297" alpha="14973.610767334452" sparseCutoff="1.0000000000000000"/>
      <sparseX i="298" alpha="-32037.841174617159" sparseCutoff="1.0000000000000000"/>
      <sparseX i="299" alpha="3101.0963552885837" sparseCutoff="1.0000000000000000"/>
      <sparseX i="300" alpha="-12862.694525287803" sparseCutoff="1.0000000000000000"/>
      <sparseX i="301" alpha="16481.738625512135" sparseCutoff="1.0000000000000000"/>
      <sparseX i="302" alpha="-28021.757668052767" sparseCutoff="1.0000000000000000"/>
      <sparseX i="303" alpha="-11994.078191505305" sparseCutoff="1.0000000000000000"/>
      <sparseX i="304" alpha="1955.5352287924559" sparseCutoff="1.0000000000000000"/>
      <sparseX i="305" alpha="27386.106089873392" sparseCutoff="1.0000000000000000"/>
      <sparseX i="306" alpha="13912.722286508548" sparseCutoff="1.0000000000000000"/>
      <sparseX i="307" alpha="17069.934276060652" sparseCutoff="1.0000000000000000"/>
      <sparseX i="308" alpha="-790.05083350893517" sparseCutoff="1.0000000000000000"/>
      <sparseX i="309" alpha="-76382.541511731979" sparseCutoff="1.0000000000000000"/>
      <sparseX i="310" alpha="-248665.86248553637" sparseCutoff="1.0000000000000000"/>
      <sparseX i="311" alpha="-33730.093083134409" sparseCutoff="1.0000000000000000"/>
      <sparseX i="312" alpha="-15889.018796253642" sparseCutoff="1.0000000000000000"/>
      <sparseX i="313" alpha="30320.107840537672" sparseCutoff="1.0000000000000000"/>
      <sparseX i="314" alpha="183894.37340570305" sparseCutoff="1.0000000000000000"/>
      <sparseX i="315" alpha="170343.62439478221" sparseCutoff="1.0000000000000000"/>
      <sparseX i="316" alpha="85484.080166800544" sparseCutoff="1.0000000000000000"/>
      <sparseX i="317" alpha="88143.758561294846" sparseCutoff="1.0000000000000000"/>
      <sparseX i="318" alpha="-100312.88753129565" sparseCutoff="1.0000000000000000"/>
      <sparseX i="319" alpha="8771.6781958734100" sparseCutoff="1.0000000000000000"/>
      <sparseX i="320" alpha="37997.994018151694" sparseCutoff="1.0000000000000000"/>
      <sparseX i="321" alpha="3317.0369564708758" sparseCutoff="1.0000000000000000"/>
      <sparseX i="322" alpha="-3266.8767207720039" sparseCutoff="1.0000000000000000"/>
      <sparseX i="323" alpha="205652.33921975829" sparseCutoff="1.0000000000000000"/>
      <sparseX i="324" alpha="82.455294218411623" sparseCutoff="1.0000000000000000"/>
      <sparseX i="325" alpha="979.56336759099338" sparseCutoff="1.0000000000000000"/>
      <sparseX i="326" alpha="35960.764833821282" sparseCutoff="1.0000000000000000"/>
      <sparseX i="327" alpha="33888.262046938355" sparseCutoff="1.0000000000000000"/>
      <sparseX i="328" alpha="66406.772021525219" sparseCutoff="1.0000000000000000"/>
      <sparseX i="329" alpha="35067.631976447672" sparseCutoff="1.0000000000000000"/>
      <sparseX i="330" alpha="-109834.95731339593" sparseCutoff="1.0000000000000000"/>
      <sparseX i="331" alpha="-27046.044314583749" sparseCutoff="1.0000000000000000"/>
      <sparseX i="332" alpha="12132.865581100956" sparseCutoff="1.0000000000000000"/>
      <sparseX i="333" alpha="-6219.4415268159883" sparseCutoff="1.0000000000000000"/>
