<GAP_2026_3_23_120_0_31_50_83>
<Potential label="GAP_2026_3_23_120_0_31_50_83" init_args="IP GAP label=GAP_2026_3_23_120_0_31_50_83"/>
<GAP_params label="GAP_2026_3_23_120_0_31_50_83" gap_version="1686220958">
  <GAP_data do_core="F">
    <e0 Z="1" value=".00000000000000000E+000"/>
    <e0 Z="2" value=".00000000000000000E+000"/>
    <e0 Z="3" value=".00000000000000000E+000"/>
    <e0 Z="4" value=".00000000000000000E+000"/>
    <e0 Z="5" value=".00000000000000000E+000"/>
    <e0 Z="6" value=".00000000000000000E+000"/>
    <e0 Z="7" value=".00000000000000000E+000"/>
    <e0 Z="8" value=".00000000000000000E+000"/>
    <e0 Z="9" value=".00000000000000000E+000"/>
    <e0 Z="10" value=".00000000000000000E+000"/>
    <e0 Z="11" value=".00000000000000000E+000"/>
    <e0 Z="12" value=".00000000000000000E+000"/>
    <e0 Z="13" value=".00000000000000000E+000"/>
    <e0 Z="14" value=".00000000000000000E+000"/>
    <e0 Z="15" value=".00000000000000000E+000"/>
    <e0 Z="16" value=".00000000000000000E+000"/>
    <e0 Z="17" value=".00000000000000000E+000"/>
    <e0 Z="18" value=".00000000000000000E+000"/>
    <e0 Z="19" value=".00000000000000000E+000"/>
    <e0 Z="20" value=".00000000000000000E+000"/>
    <e0 Z="21" value=".00000000000000000E+000"/>
    <e0 Z="22" value=".00000000000000000E+000"/>
    <e0 Z="23" value=".00000000000000000E+000"/>
    <e0 Z="24" value=".00000000000000000E+000"/>
    <e0 Z="25" value=".00000000000000000E+000"/>
    <e0 Z="26" value=".00000000000000000E+000"/>
    <e0 Z="27" value=".00000000000000000E+000"/>
    <e0 Z="28" value=".00000000000000000E+000"/>
    <e0 Z="29" value=".00000000000000000E+000"/>
    <e0 Z="30" value=".00000000000000000E+000"/>
    <e0 Z="31" value=".00000000000000000E+000"/>
    <e0 Z="32" value=".00000000000000000E+000"/>
    <e0 Z="33" value=".00000000000000000E+000"/>
    <e0 Z="34" value=".00000000000000000E+000"/>
    <e0 Z="35" value=".00000000000000000E+000"/>
    <e0 Z="36" value=".00000000000000000E+000"/>
    <e0 Z="37" value=".00000000000000000E+000"/>
    <e0 Z="38" value=".00000000000000000E+000"/>
    <e0 Z="39" value=".00000000000000000E+000"/>
    <e0 Z="40" value=".00000000000000000E+000"/>
    <e0 Z="41" value=".00000000000000000E+000"/>
    <e0 Z="42" value=".00000000000000000E+000"/>
    <e0 Z="43" value=".00000000000000000E+000"/>
    <e0 Z="44" value=".00000000000000000E+000"/>
    <e0 Z="45" value=".00000000000000000E+000"/>
    <e0 Z="46" value=".00000000000000000E+000"/>
    <e0 Z="47" value=".00000000000000000E+000"/>
    <e0 Z="48" value=".00000000000000000E+000"/>
    <e0 Z="49" value=".00000000000000000E+000"/>
    <e0 Z="50" value=".00000000000000000E+000"/>
    <e0 Z="51" value=".00000000000000000E+000"/>
    <e0 Z="52" value=".00000000000000000E+000"/>
    <e0 Z="53" value=".00000000000000000E+000"/>
    <e0 Z="54" value=".00000000000000000E+000"/>
    <e0 Z="55" value=".00000000000000000E+000"/>
    <e0 Z="56" value=".00000000000000000E+000"/>
    <e0 Z="57" value=".00000000000000000E+000"/>
    <e0 Z="58" value=".00000000000000000E+000"/>
    <e0 Z="59" value=".00000000000000000E+000"/>
    <e0 Z="60" value=".00000000000000000E+000"/>
    <e0 Z="61" value=".00000000000000000E+000"/>
    <e0 Z="62" value=".00000000000000000E+000"/>
    <e0 Z="63" value=".00000000000000000E+000"/>
    <e0 Z="64" value=".00000000000000000E+000"/>
    <e0 Z="65" value=".00000000000000000E+000"/>
    <e0 Z="66" value=".00000000000000000E+000"/>
    <e0 Z="67" value=".00000000000000000E+000"/>
    <e0 Z="68" value=".00000000000000000E+000"/>
    <e0 Z="69" value=".00000000000000000E+000"/>
    <e0 Z="70" value=".00000000000000000E+000"/>
    <e0 Z="71" value=".00000000000000000E+000"/>
    <e0 Z="72" value=".00000000000000000E+000"/>
    <e0 Z="73" value=".00000000000000000E+000"/>
    <e0 Z="74" value=".00000000000000000E+000"/>
    <e0 Z="75" value=".00000000000000000E+000"/>
    <e0 Z="76" value=".00000000000000000E+000"/>
    <e0 Z="77" value=".00000000000000000E+000"/>
    <e0 Z="78" value=".00000000000000000E+000"/>
    <e0 Z="79" value=".00000000000000000E+000"/>
    <e0 Z="80" value=".00000000000000000E+000"/>
    <e0 Z="81" value=".00000000000000000E+000"/>
    <e0 Z="82" value=".00000000000000000E+000"/>
    <e0 Z="83" value=".00000000000000000E+000"/>
    <e0 Z="84" value=".00000000000000000E+000"/>
    <e0 Z="85" value=".00000000000000000E+000"/>
    <e0 Z="86" value=".00000000000000000E+000"/>
    <e0 Z="87" value=".00000000000000000E+000"/>
    <e0 Z="88" value=".00000000000000000E+000"/>
    <e0 Z="89" value=".00000000000000000E+000"/>
    <e0 Z="90" value=".00000000000000000E+000"/>
    <e0 Z="91" value=".00000000000000000E+000"/>
    <e0 Z="92" value=".00000000000000000E+000"/>
    <e0 Z="93" value=".00000000000000000E+000"/>
    <e0 Z="94" value=".00000000000000000E+000"/>
    <e0 Z="95" value=".00000000000000000E+000"/>
    <e0 Z="96" value=".00000000000000000E+000"/>
    <e0 Z="97" value=".00000000000000000E+000"/>
    <e0 Z="98" value=".00000000000000000E+000"/>
    <e0 Z="99" value=".00000000000000000E+000"/>
    <e0 Z="100" value=".00000000000000000E+000"/>
    <e0 Z="101" value=".00000000000000000E+000"/>
    <e0 Z="102" value=".00000000000000000E+000"/>
    <e0 Z="103" value=".00000000000000000E+000"/>
    <e0 Z="104" value=".00000000000000000E+000"/>
    <e0 Z="105" value=".00000000000000000E+000"/>
    <e0 Z="106" value=".00000000000000000E+000"/>
    <e0 Z="107" value=".00000000000000000E+000"/>
    <e0 Z="108" value=".00000000000000000E+000"/>
    <e0 Z="109" value=".00000000000000000E+000"/>
    <e0 Z="110" value=".00000000000000000E+000"/>
    <e0 Z="111" value=".00000000000000000E+000"/>
    <e0 Z="112" value=".00000000000000000E+000"/>
    <e0 Z="113" value=".00000000000000000E+000"/>
    <e0 Z="114" value=".00000000000000000E+000"/>
    <e0 Z="115" value=".00000000000000000E+000"/>
    <e0 Z="116" value=".00000000000000000E+000"/>
    <e0 Z="117" value=".00000000000000000E+000"/>
    <e0 Z="118" value=".00000000000000000E+000"/>
  </GAP_data>
  <gpSparse label="GAP_2026_3_23_120_0_31_50_83" n_coordinate="8" fitted="T">
    <gpCoordinates label="GAP_2026_3_23_120_0_31_50_831" dimensions="1" signal_variance=".50000000000000000" signal_mean=".00000000000000000E+000" sparsified="T" n_permutations="1" covariance_type="1" n_sparseX="30" sparseX_filename="CH.xml.sparseX.GAP_2026_3_23_120_0_31_50_831" sparseX_md5sum="3b41a1f994cb88fa81f11143490e7db8">
      <theta>  0.50000000000000000E+000 </theta>
      <descriptor> distance_2b Z1=1 Z2=1 cutoff=4.0 n_sparse=30 covariance_type=ard_se delta=0.5 theta_uniform=0.5 sparse_method=uniform add_species=F</descriptor>
      <permutation i="1">1  </permutation>
      <sparseX i="1" alpha="404.23605660678868" sparseCutoff="1.0000000000000000"/>
      <sparseX i="2" alpha="-631.32196181503832" sparseCutoff="1.0000000000000000"/>
      <sparseX i="3" alpha="-1339.6025541190897" sparseCutoff="1.0000000000000000"/>
      <sparseX i="4" alpha="-12612.571854989379" sparseCutoff="1.0000000000000000"/>
      <sparseX i="5" alpha="460.57929939039764" sparseCutoff=".85676296628162185"/>
      <sparseX i="6" alpha="5005.1567470441860" sparseCutoff="1.0000000000000000"/>
      <sparseX i="7" alpha="8583.7462762398718" sparseCutoff="1.0000000000000000"/>
      <sparseX i="8" alpha="14993.893238383731" sparseCutoff="1.0000000000000000"/>
      <sparseX i="9" alpha="-9410.9027678597031" sparseCutoff="1.0000000000000000"/>
      <sparseX i="10" alpha="11553.292047955782" sparseCutoff="1.0000000000000000"/>
      <sparseX i="11" alpha="25288.450822794046" sparseCutoff="1.0000000000000000"/>
      <sparseX i="12" alpha="22288.144988579366" sparseCutoff="1.0000000000000000"/>
      <sparseX i="13" alpha="-2145.6984356101948" sparseCutoff="1.0000000000000000"/>
      <sparseX i="14" alpha="276.39483156944266" sparseCutoff="1.0000000000000000"/>
      <sparseX i="15" alpha="-42913.307521150447" sparseCutoff="1.0000000000000000"/>
      <sparseX i="16" alpha="37483.223506210219" sparseCutoff="1.0000000000000000"/>
      <sparseX i="17" alpha="-3180.5497281331805" sparseCutoff="1.0000000000000000"/>
      <sparseX i="18" alpha="2422.2772682523723" sparseCutoff="1.0000000000000000"/>
      <sparseX i="19" alpha="-397.54244071791226" sparseCutoff=".37898149140102277"/>
      <sparseX i="20" alpha="217.82406278703962" sparseCutoff="1.0000000000000000"/>
      <sparseX i="21" alpha="-7884.6649368112667" sparseCutoff="1.0000000000000000"/>
      <sparseX i="22" alpha="2570.2889763466010" sparseCutoff="1.0000000000000000"/>
      <sparseX i="23" alpha="895.13114320764760" sparseCutoff="1.0000000000000000"/>
      <sparseX i="24" alpha="715.99710608994701" sparseCutoff=".53140035477369396E-001"/>
      <sparseX i="25" alpha="219.07319430512854" sparseCutoff=".14984621333897774E-002"/>
      <sparseX i="26" alpha="433.49579167773533" sparseCutoff="1.0000000000000000"/>
      <sparseX i="27" alpha="-5025.1515023730390" sparseCutoff="1.0000000000000000"/>
      <sparseX i="28" alpha="-23192.830259538714" sparseCutoff="1.0000000000000000"/>
      <sparseX i="29" alpha="15653.777195147046" sparseCutoff="1.0000000000000000"/>
      <sparseX i="30" alpha="-39581.031660953558" sparseCutoff="1.0000000000000000"/>
    </gpCoordinates>
    <gpCoordinates label="GAP_2026_3_23_120_0_31_50_832" dimensions="1" signal_variance=".50000000000000000" signal_mean=".00000000000000000E+000" sparsified="T" n_permutations="1" covariance_type="1" n_sparseX="30" sparseX_filename="CH.xml.sparseX.GAP_2026_3_23_120_0_31_50_832" sparseX_md5sum="ac2171472bc5e21fd2447ec93777720c">
      <theta>  0.50000000000000000E+000 </theta>
      <descriptor> distance_2b Z1=1 Z2=6 cutoff=4.0 n_sparse=30 covariance_type=ard_se delta=0.5 theta_uniform=0.5 sparse_method=uniform add_species=F</descriptor>
      <permutation i="1">1  </permutation>
      <sparseX i="1" alpha="77335.344257314631" sparseCutoff="1.0000000000000000"/>
      <sparseX i="2" alpha="94057.564543455606" sparseCutoff="1.0000000000000000"/>
      <sparseX i="3" alpha="-20391.620265054153" sparseCutoff="1.0000000000000000"/>
      <sparseX i="4" alpha="-24451.876530888771" sparseCutoff="1.0000000000000000"/>
      <sparseX i="5" alpha="41123.656087083713" sparseCutoff="1.0000000000000000"/>
      <sparseX i="6" alpha="37295.745737655387" sparseCutoff="1.0000000000000000"/>
      <sparseX i="7" alpha="25712.877584394104" sparseCutoff="1.0000000000000000"/>
      <sparseX i="8" alpha="130867.80225136589" sparseCutoff="1.0000000000000000"/>
      <sparseX i="9" alpha="716.58297567308068" sparseCutoff="1.0000000000000000"/>
      <sparseX i="10" alpha="-59680.749923734598" sparseCutoff="1.0000000000000000"/>
      <sparseX i="11" alpha="6074.9808453721926" sparseCutoff="1.0000000000000000"/>
      <sparseX i="12" alpha="-45000.752966646127" sparseCutoff="1.0000000000000000"/>
      <sparseX i="13" alpha="29159.207863093387" sparseCutoff="1.0000000000000000"/>
      <sparseX i="14" alpha="-47701.522709626493" sparseCutoff="1.0000000000000000"/>
      <sparseX i="15" alpha="27685.709938377866" sparseCutoff="1.0000000000000000"/>
      <sparseX i="16" alpha="4321.3168245872639" sparseCutoff=".17739374061673469"/>
      <sparseX i="17" alpha="184.52338356262760" sparseCutoff=".42593568138239740"/>
      <sparseX i="18" alpha="-38699.523960639868" sparseCutoff="1.0000000000000000"/>
      <sparseX i="19" alpha="-7052.2434151387088" sparseCutoff=".87921905348168417"/>
      <sparseX i="20" alpha="-10757.127839695762" sparseCutoff="1.0000000000000000"/>
      <sparseX i="21" alpha="-8472.4303483634139" sparseCutoff=".16366412493960758E-001"/>
      <sparseX i="22" alpha="-71575.318263056266" sparseCutoff="1.0000000000000000"/>
      <sparseX i="23" alpha="-41462.950273614653" sparseCutoff="1.0000000000000000"/>
      <sparseX i="24" alpha="-121233.36147266094" sparseCutoff="1.0000000000000000"/>
      <sparseX i="25" alpha="46485.090862338409" sparseCutoff="1.0000000000000000"/>
      <sparseX i="26" alpha="-4040.4654139505069" sparseCutoff="1.0000000000000000"/>
      <sparseX i="27" alpha="100519.97663098380" sparseCutoff="1.0000000000000000"/>
      <sparseX i="28" alpha="-78589.790716931733" sparseCutoff="1.0000000000000000"/>
      <sparseX i="29" alpha="-61156.932426485924" sparseCutoff="1.0000000000000000"/>
      <sparseX i="30" alpha="14043.416418425410" sparseCutoff="1.0000000000000000"/>
    </gpCoordinates>
    <gpCoordinates label="GAP_2026_3_23_120_0_31_50_833" dimensions="1" signal_variance=".50000000000000000" signal_mean=".00000000000000000E+000" sparsified="T" n_permutations="1" covariance_type="1" n_sparseX="30" sparseX_filename="CH.xml.sparseX.GAP_2026_3_23_120_0_31_50_833" sparseX_md5sum="8a6f8bbf13902a23e133aebad4aa4499">
      <theta>  0.50000000000000000E+000 </theta>
      <descriptor> distance_2b Z1=6 Z2=6 cutoff=4.0 n_sparse=30 covariance_type=ard_se delta=0.5 theta_uniform=0.5 sparse_method=uniform add_species=F</descriptor>
      <permutation i="1">1  </permutation>
      <sparseX i="1" alpha="138157.16470555236" sparseCutoff="1.0000000000000000"/>
      <sparseX i="2" alpha="-3927.9677413677214" sparseCutoff="1.0000000000000000"/>
      <sparseX i="3" alpha="39117.081233769357" sparseCutoff="1.0000000000000000"/>
      <sparseX i="4" alpha="-18204.352669535019" sparseCutoff="1.0000000000000000"/>
      <sparseX i="5" alpha="5828.9915075655927" sparseCutoff="1.0000000000000000"/>
      <sparseX i="6" alpha="-136182.49666541192" sparseCutoff="1.0000000000000000"/>
      <sparseX i="7" alpha="30178.102252640187" sparseCutoff=".84115731743649891"/>
      <sparseX i="8" alpha="44311.829277230609" sparseCutoff="1.0000000000000000"/>
      <sparseX i="9" alpha="124904.61059085887" sparseCutoff="1.0000000000000000"/>
      <sparseX i="10" alpha="170948.94793169977" sparseCutoff="1.0000000000000000"/>
      <sparseX i="11" alpha="-80196.909465973789" sparseCutoff="1.0000000000000000"/>
      <sparseX i="12" alpha="-94871.978528696025" sparseCutoff="1.0000000000000000"/>
      <sparseX i="13" alpha="129992.99365608337" sparseCutoff="1.0000000000000000"/>
      <sparseX i="14" alpha="-42345.417409880072" sparseCutoff="1.0000000000000000"/>
      <sparseX i="15" alpha="-5291.3144896368885" sparseCutoff="1.0000000000000000"/>
      <sparseX i="16" alpha="-6920.8198982003651" sparseCutoff="1.0000000000000000"/>
      <sparseX i="17" alpha="-13684.552719219566" sparseCutoff="1.0000000000000000"/>
      <sparseX i="18" alpha="-2199.7026819927391" sparseCutoff="1.0000000000000000"/>
      <sparseX i="19" alpha="25978.635560922088" sparseCutoff=".30195235793841535E-001"/>
      <sparseX i="20" alpha="20160.373450605122" sparseCutoff=".45501701308447551E-001"/>
      <sparseX i="21" alpha="71301.952231865725" sparseCutoff="1.0000000000000000"/>
      <sparseX i="22" alpha="-116222.19194409854" sparseCutoff="1.0000000000000000"/>
      <sparseX i="23" alpha="81803.448771194235" sparseCutoff="1.0000000000000000"/>
      <sparseX i="24" alpha="-28823.956269365644" sparseCutoff=".56756025970660207"/>
      <sparseX i="25" alpha="9855.8985042873937" sparseCutoff="1.0000000000000000"/>
      <sparseX i="26" alpha="52109.079741498434" sparseCutoff="1.0000000000000000"/>
      <sparseX i="27" alpha="-58314.951876433872" sparseCutoff="1.0000000000000000"/>
      <sparseX i="28" alpha="-240329.29386223760" sparseCutoff="1.0000000000000000"/>
      <sparseX i="29" alpha="-195138.93973208326" sparseCutoff="1.0000000000000000"/>
      <sparseX i="30" alpha="137434.90519113408" sparseCutoff="1.0000000000000000"/>
    </gpCoordinates>
    <gpCoordinates label="GAP_2026_3_23_120_0_31_50_834" dimensions="3" signal_variance=".10000000000000000E-001" signal_mean=".00000000000000000E+000" sparsified="T" n_permutations="1" covariance_type="4" n_sparseX="200" sparseX_filename="CH.xml.sparseX.GAP_2026_3_23_120_0_31_50_834" sparseX_md5sum="f2542f827a56260615c6bf749353b96c">
      <theta>  0.20000000000000000E+001  0.20000000000000000E+001  0.20000000000000000E+001 </theta>
      <descriptor> angle_3b Z_center=6 Z1=1 Z2=1 cutoff=2.0 n_sparse=200 covariance_type=pp delta=0.01 theta_uniform=2.0 sparse_method=uniform add_species=F</descriptor>
      <permutation i="1">1 2 3  </permutation>
      <sparseX i="1" alpha="-5803.6422341316647" sparseCutoff="1.0000000000000000"/>
      <sparseX i="2" alpha="-2708.4983222728815" sparseCutoff="1.0000000000000000"/>
      <sparseX i="3" alpha="3656.6246336475319" sparseCutoff=".59662359954797661"/>
      <sparseX i="4" alpha="1861.8354362897765" sparseCutoff=".94776539675400562"/>
      <sparseX i="5" alpha="-2740.3480060721095" sparseCutoff=".94297012562569205"/>
      <sparseX i="6" alpha="52775.521107403256" sparseCutoff=".63174972238533481E-001"/>
      <sparseX i="7" alpha="980.79003362905019" sparseCutoff=".89371445524080850"/>
      <sparseX i="8" alpha="-2696.6374064032266" sparseCutoff=".36919948879610580E-001"/>
      <sparseX i="9" alpha="1984.9534498482590" sparseCutoff=".11371306041996770"/>
      <sparseX i="10" alpha="-5957.5421967261482" sparseCutoff=".98371692299602731"/>
      <sparseX i="11" alpha="4617.0756548052041" sparseCutoff="1.0000000000000000"/>
      <sparseX i="12" alpha="37578.675450732218" sparseCutoff=".11371306041996770"/>
      <sparseX i="13" alpha="5352.2996655609895" sparseCutoff=".98371692299602731"/>
      <sparseX i="14" alpha="-82264.495919266570" sparseCutoff="1.0000000000000000"/>
      <sparseX i="15" alpha="-2030.4881515320712" sparseCutoff=".32467641573674100"/>
      <sparseX i="16" alpha="-45244.766345074742" sparseCutoff=".20468748774750356E-001"/>
      <sparseX i="17" alpha="-1467.6554566453467" sparseCutoff=".93597170096542937"/>
      <sparseX i="18" alpha="6392.0797518807321" sparseCutoff="1.0000000000000000"/>
      <sparseX i="19" alpha="-4357.2228022554236" sparseCutoff="1.0000000000000000"/>
      <sparseX i="20" alpha="-4744.9184332271107" sparseCutoff="1.0000000000000000"/>
      <sparseX i="21" alpha="-13298.501724238606" sparseCutoff=".97663846029626376E-002"/>
      <sparseX i="22" alpha="-10377.851353386375" sparseCutoff=".10495543699335197E-001"/>
      <sparseX i="23" alpha="-129846.18184674469" sparseCutoff=".14004664900669853E-001"/>
      <sparseX i="24" alpha="3740.9895763536451" sparseCutoff=".10099776839119720E-002"/>
      <sparseX i="25" alpha="16912.328689262038" sparseCutoff=".22544410527786194E-002"/>
      <sparseX i="26" alpha="32181.983370855294" sparseCutoff=".61192239825234696E-001"/>
      <sparseX i="27" alpha="1018.4131557846889" sparseCutoff="1.0000000000000000"/>
      <sparseX i="28" alpha="-1069.3552940706988" sparseCutoff=".89440285675107534E-001"/>
      <sparseX i="29" alpha="138419.84602925763" sparseCutoff=".63640178932931279E-001"/>
      <sparseX i="30" alpha="-772.64088515177082" sparseCutoff="1.0000000000000000"/>
      <sparseX i="31" alpha="12307.787596988595" sparseCutoff=".20625429968271047E-001"/>
      <sparseX i="32" alpha="-1096.3262348736175" sparseCutoff="1.0000000000000000"/>
      <sparseX i="33" alpha="6769.3453043137415" sparseCutoff=".37714124292543394"/>
      <sparseX i="34" alpha="-10982.475170679796" sparseCutoff="1.0000000000000000"/>
      <sparseX i="35" alpha="8436.1946737232211" sparseCutoff="1.0000000000000000"/>
      <sparseX i="36" alpha="16208.246115660173" sparseCutoff=".20692739763496093"/>
      <sparseX i="37" alpha="268.64502652724377" sparseCutoff=".88522626953584793"/>
      <sparseX i="38" alpha="-9415.0946046052522" sparseCutoff=".98335257308838253"/>
      <sparseX i="39" alpha="2908.7375152354789" sparseCutoff="1.0000000000000000"/>
      <sparseX i="40" alpha="-12520.194520605979" sparseCutoff=".11403385445371483"/>
      <sparseX i="41" alpha="-3030.9060753016274" sparseCutoff=".60815549665826973E-001"/>
      <sparseX i="42" alpha="-393.54702307498235" sparseCutoff="1.0000000000000000"/>
      <sparseX i="43" alpha="-5451.6142480118124" sparseCutoff=".55396256725981652"/>
      <sparseX i="44" alpha="-13192.036216415281" sparseCutoff="1.0000000000000000"/>
      <sparseX i="45" alpha="-8437.1744201640704" sparseCutoff="1.0000000000000000"/>
      <sparseX i="46" alpha="2791.4503346633583" sparseCutoff=".63178751910086373E-001"/>
      <sparseX i="47" alpha="-10480.130963381282" sparseCutoff=".36589562401500997"/>
      <sparseX i="48" alpha="259.25117220606091" sparseCutoff=".75558485606865289E-002"/>
      <sparseX i="49" alpha="-3870.7091988437301" sparseCutoff=".40519864262613103"/>
      <sparseX i="50" alpha="8490.9139352842667" sparseCutoff=".22833222546619292E-001"/>
      <sparseX i="51" alpha="-635.48182428602831" sparseCutoff=".83907106702151191"/>
      <sparseX i="52" alpha="-57092.463143608584" sparseCutoff=".11131828524655979"/>
      <sparseX i="53" alpha="3211.8268698866241" sparseCutoff=".78977430444193808"/>
      <sparseX i="54" alpha="-16225.819589341563" sparseCutoff=".14614389382577586E-001"/>
      <sparseX i="55" alpha="-2841.6912859716199" sparseCutoff=".54346979294280895"/>
      <sparseX i="56" alpha="-10829.684630372987" sparseCutoff=".94665045084951849"/>
      <sparseX i="57" alpha="5053.3680443888825" sparseCutoff=".94665045084951849"/>
      <sparseX i="58" alpha="-9857.4953535879231" sparseCutoff=".99995234652609444"/>
      <sparseX i="59" alpha="3634.9600572621498" sparseCutoff="1.0000000000000000"/>
      <sparseX i="60" alpha=".42802230698394206" sparseCutoff=".44111505375892294E-007"/>
      <sparseX i="61" alpha="-215.93689872868723" sparseCutoff=".65847690552622851E-004"/>
      <sparseX i="62" alpha="-42623.741913766840" sparseCutoff=".29123002726096320E-002"/>
      <sparseX i="63" alpha="97139.441838418454" sparseCutoff=".22205073343800563E-001"/>
      <sparseX i="64" alpha="10616.447286937590" sparseCutoff="1.0000000000000000"/>
      <sparseX i="65" alpha="8589.3713707053157" sparseCutoff="1.0000000000000000"/>
      <sparseX i="66" alpha="-18636.781909515888" sparseCutoff=".23546308591638154"/>
      <sparseX i="67" alpha="-7836.0378493484777" sparseCutoff=".15491984583771823"/>
      <sparseX i="68" alpha="-10326.080825757563" sparseCutoff="1.0000000000000000"/>
      <sparseX i="69" alpha="-42276.131406813045" sparseCutoff=".15541948070253292"/>
      <sparseX i="70" alpha="16817.434162334572" sparseCutoff=".96257930150603221"/>
      <sparseX i="71" alpha="6220.8205463830736" sparseCutoff="1.0000000000000000"/>
      <sparseX i="72" alpha="-3928.1545462787317" sparseCutoff="1.0000000000000000"/>
      <sparseX i="73" alpha="-13763.479290554034" sparseCutoff=".74270362674457491"/>
      <sparseX i="74" alpha="8361.0952667661732" sparseCutoff="1.0000000000000000"/>
      <sparseX i="75" alpha="3544.8620080203364" sparseCutoff=".98536615387162163"/>
      <sparseX i="76" alpha="28655.101018433539" sparseCutoff=".77026402570355978E-002"/>
      <sparseX i="77" alpha="4563.1630748019979" sparseCutoff=".62531847113083272"/>
      <sparseX i="78" alpha="-240.13079558750846" sparseCutoff=".42030778469983032"/>
      <sparseX i="79" alpha="-1574.7375279831590" sparseCutoff=".83744490439292729"/>
      <sparseX i="80" alpha="3223.6978109869124" sparseCutoff=".73929881194281155"/>
      <sparseX i="81" alpha="8296.4421844017870" sparseCutoff="1.0000000000000000"/>
      <sparseX i="82" alpha="41545.126474488025" sparseCutoff=".39081590948461919E-001"/>
      <sparseX i="83" alpha="-4589.8591435990584" sparseCutoff=".68766931621297145"/>
      <sparseX i="84" alpha="10652.676134804968" sparseCutoff=".12252115582165668"/>
      <sparseX i="85" alpha="-5557.3198774351795" sparseCutoff="1.0000000000000000"/>
      <sparseX i="86" alpha="121.80097719781320" sparseCutoff=".25690404469851739E-004"/>
      <sparseX i="87" alpha="14827.713272508883" sparseCutoff=".32522295909188703E-001"/>
      <sparseX i="88" alpha="-15209.256125783108" sparseCutoff=".27752207357272707"/>
      <sparseX i="89" alpha="-2537.8838617632146" sparseCutoff=".68655590864885307"/>
      <sparseX i="90" alpha="-26007.328992097453" sparseCutoff=".25077629702054849E-001"/>
      <sparseX i="91" alpha="38581.806577636155" sparseCutoff=".96405224446344945E-002"/>
      <sparseX i="92" alpha="-7825.3207912907510" sparseCutoff="1.0000000000000000"/>
      <sparseX i="93" alpha="8678.3520550585672" sparseCutoff="1.0000000000000000"/>
      <sparseX i="94" alpha="-7339.3395358462676" sparseCutoff="1.0000000000000000"/>
      <sparseX i="95" alpha="-501.12632780574035" sparseCutoff=".32319325824138910E-004"/>
      <sparseX i="96" alpha="-1869.4559853985204" sparseCutoff="1.0000000000000000"/>
      <sparseX i="97" alpha="-3100.0358515342659" sparseCutoff=".49712212365352726"/>
      <sparseX i="98" alpha="1872.8489548847108" sparseCutoff=".99767068658983249"/>
      <sparseX i="99" alpha="2344.4709963211290" sparseCutoff=".60748387166435203"/>
      <sparseX i="100" alpha="3320.4674042559136" sparseCutoff=".23312405217574331"/>
      <sparseX i="101" alpha="6496.9719856273587" sparseCutoff=".16036747421547759E-001"/>
      <sparseX i="102" alpha="-77519.578978178106" sparseCutoff=".37832452908430373E-002"/>
      <sparseX i="103" alpha="-6636.8287906438682" sparseCutoff=".65160431684318154"/>
      <sparseX i="104" alpha="499.44247845443476" sparseCutoff=".32879804487762065E-003"/>
      <sparseX i="105" alpha="21206.100246750422" sparseCutoff=".11930323013018664E-001"/>
      <sparseX i="106" alpha="3051.3020497204434" sparseCutoff="1.0000000000000000"/>
      <sparseX i="107" alpha="-9486.5456881098708" sparseCutoff=".14067120878070383E-001"/>
      <sparseX i="108" alpha="541.14044383063833" sparseCutoff=".33912536273598137E-001"/>
      <sparseX i="109" alpha="8409.3390073500595" sparseCutoff="1.0000000000000000"/>
      <sparseX i="110" alpha="-10197.644162753526" sparseCutoff=".48660441737678090"/>
      <sparseX i="111" alpha="17524.747745874654" sparseCutoff=".22691342620498928"/>
      <sparseX i="112" alpha="-21336.731627866342" sparseCutoff=".36393691856495274E-002"/>
      <sparseX i="113" alpha="5035.2827957563850" sparseCutoff=".30251845738425232"/>
      <sparseX i="114" alpha="78881.510155693497" sparseCutoff="1.0000000000000000"/>
      <sparseX i="115" alpha="2152.8123840292383" sparseCutoff=".12001660573100814E-001"/>
      <sparseX i="116" alpha="3076.1385058323845" sparseCutoff=".10308624834004909E-001"/>
      <sparseX i="117" alpha="-7904.0623322256361" sparseCutoff=".60999160173594857E-001"/>
      <sparseX i="118" alpha="-1818.8877654884557" sparseCutoff=".13913518252422852"/>
      <sparseX i="119" alpha="56370.676241153924" sparseCutoff=".24319476647456784"/>
      <sparseX i="120" alpha="-3760.9760156268758" sparseCutoff="1.0000000000000000"/>
      <sparseX i="121" alpha="16680.475261905558" sparseCutoff=".19230602170074163E-001"/>
      <sparseX i="122" alpha="902.53162396775895" sparseCutoff=".32096164539364147E-002"/>
      <sparseX i="123" alpha="-4205.7321922763567" sparseCutoff=".14800348986299672E-002"/>
      <sparseX i="124" alpha="-2340.4587425884997" sparseCutoff=".10681174604022353"/>
      <sparseX i="125" alpha="56927.598073528883" sparseCutoff=".26780915177161135E-001"/>
      <sparseX i="126" alpha="-29165.922208997414" sparseCutoff=".17660114083938250E-001"/>
      <sparseX i="127" alpha="-1845.0715375472307" sparseCutoff=".97362376611665358"/>
      <sparseX i="128" alpha="596.96582706935646" sparseCutoff="1.0000000000000000"/>
      <sparseX i="129" alpha="-3604.3866154265584" sparseCutoff="1.0000000000000000"/>
      <sparseX i="130" alpha="10278.866557002761" sparseCutoff=".34241500544800979"/>
      <sparseX i="131" alpha="5008.0504209956089" sparseCutoff="1.0000000000000000"/>
      <sparseX i="132" alpha="764.06619249676612" sparseCutoff=".66878559085293632"/>
      <sparseX i="133" alpha="-89011.668356021328" sparseCutoff=".83177452511237204E-002"/>
      <sparseX i="134" alpha="6523.7635430434984" sparseCutoff="1.0000000000000000"/>
      <sparseX i="135" alpha="29514.745232165245" sparseCutoff=".47507465643954133"/>
      <sparseX i="136" alpha="-76842.931435761391" sparseCutoff=".11914239553170267"/>
      <sparseX i="137" alpha="-3614.6235991261701" sparseCutoff=".39658564528640194E-001"/>
      <sparseX i="138" alpha="-1407.8132395171749" sparseCutoff=".45144018264114738E-001"/>
      <sparseX i="139" alpha="1543.5673698047856" sparseCutoff=".33973780538724815E-002"/>
      <sparseX i="140" alpha="9298.6782551131510" sparseCutoff=".92462370701458929"/>
      <sparseX i="141" alpha="-128940.38683528105" sparseCutoff=".27293675763585157E-001"/>
      <sparseX i="142" alpha="-362.69992888094350" sparseCutoff="1.0000000000000000"/>
      <sparseX i="143" alpha="11890.031318272700" sparseCutoff=".98342397228969869E-002"/>
      <sparseX i="144" alpha="12690.726287922262" sparseCutoff=".11727073290930846"/>
      <sparseX i="145" alpha="-8999.1069297267404" sparseCutoff=".10571781964224614E-002"/>
      <sparseX i="146" alpha="235.39776678425164" sparseCutoff="1.0000000000000000"/>
      <sparseX i="147" alpha="-672.15540994187859" sparseCutoff=".82232064284237392E-004"/>
      <sparseX i="148" alpha="-1741.1882383072500" sparseCutoff="1.0000000000000000"/>
      <sparseX i="149" alpha="39501.411458709801" sparseCutoff=".80991672277852714E-001"/>
      <sparseX i="150" alpha="10614.897312413730" sparseCutoff="1.0000000000000000"/>
      <sparseX i="151" alpha="-2589.9761307729177" sparseCutoff=".12632854451951059E-002"/>
      <sparseX i="152" alpha="2243.6971649494312" sparseCutoff=".18457510356902906E-001"/>
      <sparseX i="153" alpha="-12213.964976730351" sparseCutoff=".27416629961513095"/>
      <sparseX i="154" alpha="26192.289964921492" sparseCutoff=".50884101129919701E-001"/>
      <sparseX i="155" alpha="30855.571718464995" sparseCutoff=".76042320655780688E-002"/>
      <sparseX i="156" alpha="-1759.9019651228057" sparseCutoff="1.0000000000000000"/>
      <sparseX i="157" alpha="661.81070867336121" sparseCutoff=".96418884515848480"/>
      <sparseX i="158" alpha="4174.8990062413523" sparseCutoff=".64936328930520792"/>
      <sparseX i="159" alpha="145.52687850101734" sparseCutoff=".49480397328671710E-003"/>
      <sparseX i="160" alpha="-5068.2874519969864" sparseCutoff="1.0000000000000000"/>
      <sparseX i="161" alpha="7681.6221523823688" sparseCutoff=".15133472895750394"/>
      <sparseX i="162" alpha="-19615.780327158503" sparseCutoff=".18762268123940073"/>
      <sparseX i="163" alpha="1313.5381221982070" sparseCutoff=".23070270241594477E-001"/>
      <sparseX i="164" alpha="-3535.6732630238580" sparseCutoff=".13091231165668515E-001"/>
      <sparseX i="165" alpha="-10183.740620229184" sparseCutoff=".31274426786747134E-001"/>
      <sparseX i="166" alpha="520.16648026487405" sparseCutoff=".99822678388070440"/>
      <sparseX i="167" alpha="-4036.6236408850623" sparseCutoff=".61561581175026447E-003"/>
      <sparseX i="168" alpha="-5300.8105587019063" sparseCutoff=".89765215089973771"/>
      <sparseX i="169" alpha="-3789.9304504592328" sparseCutoff=".98556335980160026"/>
      <sparseX i="170" alpha="-4466.0540512121297" sparseCutoff="1.0000000000000000"/>
      <sparseX i="171" alpha="256.86261882059739" sparseCutoff=".67771414741133837E-004"/>
      <sparseX i="172" alpha="5247.0197706115096" sparseCutoff=".99872488265082271"/>
      <sparseX i="173" alpha="8650.6059029966418" sparseCutoff="1.0000000000000000"/>
      <sparseX i="174" alpha="14981.620844586998" sparseCutoff=".19179029024218530E-001"/>
      <sparseX i="175" alpha="3895.3847074277060" sparseCutoff="1.0000000000000000"/>
      <sparseX i="176" alpha="-9657.0498991620425" sparseCutoff=".96136586883249697"/>
      <sparseX i="177" alpha="-16794.913678097320" sparseCutoff=".30203345803138648"/>
      <sparseX i="178" alpha="71218.478631916252" sparseCutoff=".11147195339968089E-001"/>
      <sparseX i="179" alpha="114.78790796272025" sparseCutoff=".19182767954690363E-003"/>
      <sparseX i="180" alpha="-8853.5861248288875" sparseCutoff="1.0000000000000000"/>
      <sparseX i="181" alpha="4446.6914919205765" sparseCutoff=".52770732137796705E-001"/>
      <sparseX i="182" alpha="-53502.528067685722" sparseCutoff=".19076604193909463"/>
      <sparseX i="183" alpha="-1925.9021338350665" sparseCutoff=".49466897587195913E-002"/>
      <sparseX i="184" alpha="1158.6938178728401" sparseCutoff="1.0000000000000000"/>
      <sparseX i="185" alpha="9111.8523959027552" sparseCutoff=".88668226109828185"/>
      <sparseX i="186" alpha="46288.832240165721" sparseCutoff="1.0000000000000000"/>
      <sparseX i="187" alpha="9656.9044045620085" sparseCutoff="1.0000000000000000"/>
      <sparseX i="188" alpha="-9148.4194058186295" sparseCutoff=".10906664361807406"/>
      <sparseX i="189" alpha="-3640.2271002657290" sparseCutoff="1.0000000000000000"/>
      <sparseX i="190" alpha="1589.7754692540284" sparseCutoff="1.0000000000000000"/>
      <sparseX i="191" alpha="316.23583027959432" sparseCutoff="1.0000000000000000"/>
      <sparseX i="192" alpha="17158.247577475289" sparseCutoff=".87460929654276185E-002"/>
      <sparseX i="193" alpha="-45765.701337029393" sparseCutoff="1.0000000000000000"/>
      <sparseX i="194" alpha="-2012.9497420139965" sparseCutoff=".25058385361795439E-003"/>
      <sparseX i="195" alpha="15667.936804412811" sparseCutoff=".61252508968150177"/>
      <sparseX i="196" alpha="44610.448540414705" sparseCutoff=".17428700258697699"/>
      <sparseX i="197" alpha="10269.230132447990" sparseCutoff=".28514895352601799"/>
      <sparseX i="198" alpha="-2451.9299607887829" sparseCutoff=".39291181273048764"/>
      <sparseX i="199" alpha="-3225.2661899427112" sparseCutoff=".36259799796148195"/>
      <sparseX i="200" alpha="-14371.298128525728" sparseCutoff=".72015553075002769"/>
    </gpCoordinates>
    <gpCoordinates label="GAP_2026_3_23_120_0_31_50_835" dimensions="3" signal_variance=".10000000000000000E-001" signal_mean=".00000000000000000E+000" sparsified="T" n_permutations="1" covariance_type="4" n_sparseX="200" sparseX_filename="CH.xml.sparseX.GAP_2026_3_23_120_0_31_50_835" sparseX_md5sum="d767f62c929dfe7205076a9113a790c0">
      <theta>  0.20000000000000000E+001  0.20000000000000000E+001  0.20000000000000000E+001 </theta>
      <descriptor> angle_3b Z_center=6 Z1=1 Z2=6 cutoff=2.0 n_sparse=200 covariance_type=pp delta=0.01 theta_uniform=2.0 sparse_method=uniform add_species=F</descriptor>
      <permutation i="1">1 2 3  </permutation>
      <sparseX i="1" alpha="-18147.128305105649" sparseCutoff=".59243100675522031"/>
      <sparseX i="2" alpha="-575.61588567761476" sparseCutoff=".59243100675522031"/>
      <sparseX i="3" alpha="5107.5510278764386" sparseCutoff="1.0000000000000000"/>
      <sparseX i="4" alpha="8311.5713099050827" sparseCutoff="1.0000000000000000"/>
      <sparseX i="5" alpha="-50785.220870768280" sparseCutoff=".15869943555217464"/>
      <sparseX i="6" alpha="13764.482160011668" sparseCutoff=".13461805527355239"/>
      <sparseX i="7" alpha="5574.7754517102476" sparseCutoff="1.0000000000000000"/>
      <sparseX i="8" alpha="-2042.5820453091324" sparseCutoff="1.0000000000000000"/>
      <sparseX i="9" alpha="-32539.566684047975" sparseCutoff=".54952419890736404E-002"/>
      <sparseX i="10" alpha="-54097.622440003477" sparseCutoff=".54952419890736404E-002"/>
      <sparseX i="11" alpha="-28803.062277282515" sparseCutoff=".60255001778240997E-003"/>
      <sparseX i="12" alpha="-13732.499321444126" sparseCutoff=".97104388833721589"/>
      <sparseX i="13" alpha="-4179.3198248449235" sparseCutoff="1.0000000000000000"/>
      <sparseX i="14" alpha="-29428.945699157390" sparseCutoff="1.0000000000000000"/>
      <sparseX i="15" alpha="-2428.9098298765016" sparseCutoff=".59662359954797661"/>
      <sparseX i="16" alpha="54390.939298040234" sparseCutoff=".37575922716528820E-001"/>
      <sparseX i="17" alpha="5807.5091556044345" sparseCutoff=".98806222860001158"/>
      <sparseX i="18" alpha="-1718.5253666254910" sparseCutoff=".98806222860001158"/>
      <sparseX i="19" alpha="11306.467623126715" sparseCutoff=".14713888518680068"/>
      <sparseX i="20" alpha="-36549.175164395354" sparseCutoff=".14713888518680068"/>
      <sparseX i="21" alpha="53819.254720583718" sparseCutoff=".13929458024072700"/>
      <sparseX i="22" alpha="-123458.56223405163" sparseCutoff=".20327999249998119E-001"/>
      <sparseX i="23" alpha="78615.844845420506" sparseCutoff=".18545300804286480"/>
      <sparseX i="24" alpha="12467.304827334150" sparseCutoff=".97104388833721589"/>
      <sparseX i="25" alpha="-16148.221306207848" sparseCutoff=".87882632178996993E-002"/>
      <sparseX i="26" alpha="-1151.6280069975123" sparseCutoff=".40467799657021519E-001"/>
      <sparseX i="27" alpha="25552.470260628870" sparseCutoff=".24321213651686564E-001"/>
      <sparseX i="28" alpha="32896.775907895753" sparseCutoff=".55841382699397266E-002"/>
      <sparseX i="29" alpha="41303.375728438128" sparseCutoff="1.0000000000000000"/>
      <sparseX i="30" alpha="8933.8880447590200" sparseCutoff=".85197506174541693"/>
      <sparseX i="31" alpha="-43474.790431533394" sparseCutoff=".37155735799691281E-001"/>
      <sparseX i="32" alpha="13296.932199785306" sparseCutoff=".55843435319191448E-001"/>
      <sparseX i="33" alpha="11654.419543559077" sparseCutoff=".36894422835090768"/>
      <sparseX i="34" alpha="9264.7614967769514" sparseCutoff=".27192891668376407"/>
      <sparseX i="35" alpha="-17497.837018681181" sparseCutoff="1.0000000000000000"/>
      <sparseX i="36" alpha="-2118.0446468461319" sparseCutoff="1.0000000000000000"/>
      <sparseX i="37" alpha="10557.217949104073" sparseCutoff="1.0000000000000000"/>
      <sparseX i="38" alpha="5400.9783353436260" sparseCutoff="1.0000000000000000"/>
      <sparseX i="39" alpha="2447.1092991108544" sparseCutoff=".21870211684617467E-002"/>
      <sparseX i="40" alpha="29437.883283750300" sparseCutoff=".29857712897993105E-001"/>
      <sparseX i="41" alpha="-10255.942476362625" sparseCutoff=".43856494531613321"/>
      <sparseX i="42" alpha="-5563.7631694015417" sparseCutoff="1.0000000000000000"/>
      <sparseX i="43" alpha="2166.4320583432927" sparseCutoff=".11218810642220078E-002"/>
      <sparseX i="44" alpha="-109.89633216989641" sparseCutoff=".86852619851856550"/>
      <sparseX i="45" alpha="11432.775964710274" sparseCutoff=".85539143039972121"/>
      <sparseX i="46" alpha="7419.1521183442856" sparseCutoff=".85173350825309924"/>
      <sparseX i="47" alpha="161.35433952657624" sparseCutoff="1.0000000000000000"/>
      <sparseX i="48" alpha="-13159.917474381658" sparseCutoff=".26124139462454528E-003"/>
      <sparseX i="49" alpha="1931.8006391454805" sparseCutoff=".48305330023878934E-003"/>
      <sparseX i="50" alpha="123434.91672117529" sparseCutoff=".12808099576620241E-001"/>
      <sparseX i="51" alpha="-1573.9987563283316" sparseCutoff=".24532097659971830"/>
      <sparseX i="52" alpha="-42308.469247207606" sparseCutoff=".36565942120436734E-002"/>
      <sparseX i="53" alpha="3421.1029616747833" sparseCutoff=".39279583727026668E-001"/>
      <sparseX i="54" alpha="3049.0780999954568" sparseCutoff="1.0000000000000000"/>
      <sparseX i="55" alpha="5969.7942433823946" sparseCutoff="1.0000000000000000"/>
      <sparseX i="56" alpha="3696.7775701766682" sparseCutoff=".61558297024313369E-002"/>
      <sparseX i="57" alpha="4580.2438926718723" sparseCutoff=".38343383842972367"/>
      <sparseX i="58" alpha="-45881.086578511589" sparseCutoff=".70122656371738323"/>
      <sparseX i="59" alpha="-30849.319522056529" sparseCutoff=".64859948386386967"/>
      <sparseX i="60" alpha="35294.287440671120" sparseCutoff=".10882387361473466E-001"/>
      <sparseX i="61" alpha="7785.5409422705497" sparseCutoff="1.0000000000000000"/>
      <sparseX i="62" alpha="5251.2536281679313" sparseCutoff="1.0000000000000000"/>
      <sparseX i="63" alpha="3493.6277022941886" sparseCutoff="1.0000000000000000"/>
      <sparseX i="64" alpha="1144.3167214888722" sparseCutoff=".73715133623366558"/>
      <sparseX i="65" alpha="-72088.228831463028" sparseCutoff=".24301455654428240E-001"/>
      <sparseX i="66" alpha="36683.404139921186" sparseCutoff=".16155984130031262E-001"/>
      <sparseX i="67" alpha="-7645.1416831892357" sparseCutoff="1.0000000000000000"/>
      <sparseX i="68" alpha="-31568.058429850182" sparseCutoff=".22859214291478042"/>
      <sparseX i="69" alpha="435.82690361506400" sparseCutoff=".38960131918091645"/>
      <sparseX i="70" alpha="2847.8860918742325" sparseCutoff="1.0000000000000000"/>
      <sparseX i="71" alpha="55948.199751685846" sparseCutoff=".70083947141274139"/>
      <sparseX i="72" alpha="-6384.3673713302705" sparseCutoff="1.0000000000000000"/>
      <sparseX i="73" alpha="9828.0835506360909" sparseCutoff=".91992572504565573"/>
      <sparseX i="74" alpha="2745.4916983966364" sparseCutoff="1.0000000000000000"/>
      <sparseX i="75" alpha="-35392.877291923221" sparseCutoff=".25815266648719387E-001"/>
      <sparseX i="76" alpha="-1169.2276273065136" sparseCutoff=".91214084872231749"/>
      <sparseX i="77" alpha="-2572.0162680549106" sparseCutoff=".49592642549394916"/>
      <sparseX i="78" alpha="-34983.983198390102" sparseCutoff=".13253151598371704"/>
      <sparseX i="79" alpha="-3237.1944543711270" sparseCutoff="1.0000000000000000"/>
      <sparseX i="80" alpha="-20009.172589848098" sparseCutoff="1.0000000000000000"/>
      <sparseX i="81" alpha="20716.885473796454" sparseCutoff=".64582296543632434"/>
      <sparseX i="82" alpha="6907.6307229792774" sparseCutoff="1.0000000000000000"/>
      <sparseX i="83" alpha="-960.63353661538451" sparseCutoff=".11290518149570383E-003"/>
      <sparseX i="84" alpha="16495.702522395881" sparseCutoff="1.0000000000000000"/>
      <sparseX i="85" alpha="12521.238982553788" sparseCutoff="1.0000000000000000"/>
      <sparseX i="86" alpha="473.68032577260300" sparseCutoff=".92516491043251547"/>
      <sparseX i="87" alpha="6035.2746435212830" sparseCutoff=".81484802970261869E-003"/>
      <sparseX i="88" alpha="-17489.035318065839" sparseCutoff=".12584416644869042E-002"/>
      <sparseX i="89" alpha="-29123.479051332470" sparseCutoff=".27298621628746855E-002"/>
      <sparseX i="90" alpha="6151.1806444275608" sparseCutoff=".46398720686089928"/>
      <sparseX i="91" alpha="-982.75374572197143" sparseCutoff=".96204359846460474"/>
      <sparseX i="92" alpha="1558.4131465185046" sparseCutoff="1.0000000000000000"/>
      <sparseX i="93" alpha="-46415.460270709758" sparseCutoff=".16479410114942654E-002"/>
      <sparseX i="94" alpha="6306.8186468855147" sparseCutoff=".27490997952508156"/>
      <sparseX i="95" alpha="-22238.260030674977" sparseCutoff=".60811653413420114E-002"/>
      <sparseX i="96" alpha="16046.652537780959" sparseCutoff=".86490572291988732"/>
      <sparseX i="97" alpha="-75194.941900861784" sparseCutoff=".53548412844376400E-002"/>
      <sparseX i="98" alpha="-498.97900066209183" sparseCutoff="1.0000000000000000"/>
      <sparseX i="99" alpha="9970.9122839536067" sparseCutoff=".22149794189287389"/>
      <sparseX i="100" alpha="-9115.9296651096902" sparseCutoff=".99338276226723865"/>
      <sparseX i="101" alpha="1478.2740638746316" sparseCutoff="1.0000000000000000"/>
      <sparseX i="102" alpha="-3114.0284831882768" sparseCutoff=".38649995853260227"/>
      <sparseX i="103" alpha="-961.37869946216085" sparseCutoff="1.0000000000000000"/>
      <sparseX i="104" alpha="-49246.565406210597" sparseCutoff=".15052860255120482E-001"/>
      <sparseX i="105" alpha="-19599.941454082957" sparseCutoff="1.0000000000000000"/>
      <sparseX i="106" alpha="-.35706614401503722" sparseCutoff=".30569564131166516E-005"/>
      <sparseX i="107" alpha="-4310.0959191212432" sparseCutoff=".97365995491368023E-004"/>
      <sparseX i="108" alpha="2476.8295937933549" sparseCutoff=".15005788237180382E-002"/>
      <sparseX i="109" alpha="-1244.3463712771129" sparseCutoff=".45669213212376597"/>
      <sparseX i="110" alpha="2065.6846401397879" sparseCutoff="1.0000000000000000"/>
      <sparseX i="111" alpha="-9666.9761272177020" sparseCutoff="1.0000000000000000"/>
      <sparseX i="112" alpha="-80297.402891746809" sparseCutoff=".17934052980399344E-002"/>
      <sparseX i="113" alpha="2610.1716388982036" sparseCutoff=".95916227367982154"/>
      <sparseX i="114" alpha="22101.696194699740" sparseCutoff=".37545679225784279"/>
      <sparseX i="115" alpha="22267.176907423102" sparseCutoff=".10334090135238028"/>
      <sparseX i="116" alpha="13498.623709575819" sparseCutoff="1.0000000000000000"/>
      <sparseX i="117" alpha="2957.1548524340210" sparseCutoff="1.0000000000000000"/>
      <sparseX i="118" alpha="1039.4078781608357" sparseCutoff=".29334182772516315E-002"/>
      <sparseX i="119" alpha="-502.64935160939854" sparseCutoff=".80100265133986603E-003"/>
      <sparseX i="120" alpha="-100948.79465139260" sparseCutoff=".21291185623228293E-001"/>
      <sparseX i="121" alpha="10335.535881494166" sparseCutoff="1.0000000000000000"/>
      <sparseX i="122" alpha="12851.395471471229" sparseCutoff=".99428571229243423"/>
      <sparseX i="123" alpha="32849.843632169788" sparseCutoff=".22856237612884317"/>
      <sparseX i="124" alpha="4298.1268271804729" sparseCutoff=".89506609203980803"/>
      <sparseX i="125" alpha="-7605.4731772546675" sparseCutoff=".57969145360062452E-001"/>
      <sparseX i="126" alpha="7220.2905351474692" sparseCutoff=".74266871818708434E-002"/>
      <sparseX i="127" alpha="-3285.6775787716792" sparseCutoff=".50962976514040059"/>
      <sparseX i="128" alpha="-80446.975613807925" sparseCutoff=".19529780904221621E-001"/>
      <sparseX i="129" alpha="-20787.182029011874" sparseCutoff=".16222087010271807"/>
      <sparseX i="130" alpha="-545.02070096235968" sparseCutoff="1.0000000000000000"/>
      <sparseX i="131" alpha="2166.6112899281220" sparseCutoff=".41526266790090016"/>
      <sparseX i="132" alpha="2923.8131901890752" sparseCutoff=".93374051465129493"/>
      <sparseX i="133" alpha="-5089.2318552701290" sparseCutoff="1.0000000000000000"/>
      <sparseX i="134" alpha="-55878.774771366036" sparseCutoff=".92049141130760403E-001"/>
      <sparseX i="135" alpha="2192.5480539685486" sparseCutoff="1.0000000000000000"/>
      <sparseX i="136" alpha="1075.3798449051460" sparseCutoff=".98075013832555302"/>
      <sparseX i="137" alpha="4257.8512662174080" sparseCutoff="1.0000000000000000"/>
      <sparseX i="138" alpha="-11030.927170865183" sparseCutoff=".97757573223616745"/>
      <sparseX i="139" alpha="-19556.194512120062" sparseCutoff=".60134372893769550E-001"/>
      <sparseX i="140" alpha="629.11719940331432" sparseCutoff="1.0000000000000000"/>
      <sparseX i="141" alpha="-21967.236000005603" sparseCutoff=".69991308352507287"/>
      <sparseX i="142" alpha="-5720.0450724706734" sparseCutoff="1.0000000000000000"/>
      <sparseX i="143" alpha="-7878.8919096218033" sparseCutoff="1.0000000000000000"/>
      <sparseX i="144" alpha="7148.9792199055173" sparseCutoff=".32935517220032062"/>
      <sparseX i="145" alpha="-16744.613171843695" sparseCutoff=".33748190681425205E-002"/>
      <sparseX i="146" alpha="-145075.25066205687" sparseCutoff=".31242132228173104E-002"/>
      <sparseX i="147" alpha="-9946.4011137795442" sparseCutoff="1.0000000000000000"/>
      <sparseX i="148" alpha="-1961.0861838391422" sparseCutoff=".49831868828285192E-003"/>
      <sparseX i="149" alpha="16985.659475783919" sparseCutoff=".26733458077643435E-001"/>
      <sparseX i="150" alpha="-24401.014215810108" sparseCutoff="1.0000000000000000"/>
      <sparseX i="151" alpha="2749.7819787324879" sparseCutoff="1.0000000000000000"/>
      <sparseX i="152" alpha="14245.541988515199" sparseCutoff="1.0000000000000000"/>
      <sparseX i="153" alpha="-778.05381812657458" sparseCutoff="1.0000000000000000"/>
      <sparseX i="154" alpha="11039.349068751455" sparseCutoff="1.0000000000000000"/>
      <sparseX i="155" alpha="6915.7431990902596" sparseCutoff="1.0000000000000000"/>
      <sparseX i="156" alpha="15253.927724952828" sparseCutoff="1.0000000000000000"/>
      <sparseX i="157" alpha="3879.2515787940592" sparseCutoff=".60242037224025213E-001"/>
      <sparseX i="158" alpha="-9326.8200058808416" sparseCutoff="1.0000000000000000"/>
      <sparseX i="159" alpha="-2177.2800050538126" sparseCutoff="1.0000000000000000"/>
      <sparseX i="160" alpha="7484.6612871860716" sparseCutoff="1.0000000000000000"/>
      <sparseX i="161" alpha="13939.871778178371" sparseCutoff=".18125612053806626E-002"/>
      <sparseX i="162" alpha="-74760.779273848762" sparseCutoff=".13323641708950255E-001"/>
      <sparseX i="163" alpha="32267.688197463962" sparseCutoff=".47652513082062031E-001"/>
      <sparseX i="164" alpha="-3024.2219730338643" sparseCutoff=".44109432133696003E-002"/>
      <sparseX i="165" alpha="2229.5887553377629" sparseCutoff=".45052815156300108E-002"/>
      <sparseX i="166" alpha="-1388.8505729296232" sparseCutoff=".19289738609418183E-003"/>
      <sparseX i="167" alpha="1237.1384141614185" sparseCutoff=".64339005972997587"/>
      <sparseX i="168" alpha="13212.172354212975" sparseCutoff="1.0000000000000000"/>
      <sparseX i="169" alpha="-1898.5433985771140" sparseCutoff=".17610216638703213E-002"/>
      <sparseX i="170" alpha="-19.221020620579036" sparseCutoff=".53466257415313301E-005"/>
      <sparseX i="171" alpha="488.37487343202679" sparseCutoff=".27467484718434187E-002"/>
      <sparseX i="172" alpha="6323.6788930777357" sparseCutoff=".72069973127783993"/>
      <sparseX i="173" alpha="-25991.796289398069" sparseCutoff=".21208292600411827"/>
      <sparseX i="174" alpha="-9832.7992103965444" sparseCutoff="1.0000000000000000"/>
      <sparseX i="175" alpha="31255.346521126037" sparseCutoff=".98118963082852673E-001"/>
      <sparseX i="176" alpha="-5258.9375807198294" sparseCutoff="1.0000000000000000"/>
      <sparseX i="177" alpha="75509.980775103846" sparseCutoff=".37473745849651074E-001"/>
      <sparseX i="178" alpha="-8987.4143975077368" sparseCutoff="1.0000000000000000"/>
      <sparseX i="179" alpha="5330.1973566226161" sparseCutoff="1.0000000000000000"/>
      <sparseX i="180" alpha="-22219.191045019710" sparseCutoff="1.0000000000000000"/>
      <sparseX i="181" alpha="-26698.444323543274" sparseCutoff="1.0000000000000000"/>
      <sparseX i="182" alpha="-3603.1424622900245" sparseCutoff=".41967195664113893"/>
      <sparseX i="183" alpha="-9699.0630346434555" sparseCutoff=".13865833667676408E-002"/>
      <sparseX i="184" alpha="524.32516236192737" sparseCutoff="1.0000000000000000"/>
      <sparseX i="185" alpha="-14533.255945965419" sparseCutoff=".42594544971224035"/>
      <sparseX i="186" alpha="7373.1197534971898" sparseCutoff=".29102722637134704E-001"/>
      <sparseX i="187" alpha="-11727.632207830795" sparseCutoff=".16604040352216770"/>
      <sparseX i="188" alpha="-15565.181833289427" sparseCutoff="1.0000000000000000"/>
      <sparseX i="189" alpha="59885.972678935650" sparseCutoff=".45903535628531184"/>
      <sparseX i="190" alpha="14837.414171525797" sparseCutoff=".47024957238949000"/>
      <sparseX i="191" alpha="-19002.938834618384" sparseCutoff="1.0000000000000000"/>
      <sparseX i="192" alpha="3228.1655825137291" sparseCutoff="1.0000000000000000"/>
      <sparseX i="193" alpha="3668.0190569257002" sparseCutoff=".99999625910907675"/>
      <sparseX i="194" alpha="-22528.116095278667" sparseCutoff=".90939526099770895"/>
      <sparseX i="195" alpha="-11596.900061669272" sparseCutoff=".85257733853953799"/>
      <sparseX i="196" alpha="23448.933913646331" sparseCutoff="1.0000000000000000"/>
      <sparseX i="197" alpha="-56126.612953156749" sparseCutoff=".66313919592741015E-002"/>
      <sparseX i="198" alpha="-23971.728016684268" sparseCutoff=".76065084794162308"/>
      <sparseX i="199" alpha="-45373.949720594937" sparseCutoff=".24462417798135155"/>
      <sparseX i="200" alpha="684.53787788484055" sparseCutoff="1.0000000000000000"/>
    </gpCoordinates>
    <gpCoordinates label="GAP_2026_3_23_120_0_31_50_836" dimensions="3" signal_variance=".10000000000000000E-001" signal_mean=".00000000000000000E+000" sparsified="T" n_permutations="1" covariance_type="4" n_sparseX="200" sparseX_filename="CH.xml.sparseX.GAP_2026_3_23_120_0_31_50_836" sparseX_md5sum="91fd544852b0634cbd9e57564a6892ab">
      <theta>  0.20000000000000000E+001  0.20000000000000000E+001  0.20000000000000000E+001 </theta>
      <descriptor> angle_3b Z_center=6 Z1=6 Z2=6 cutoff=2.0 n_sparse=200 covariance_type=pp delta=0.01 theta_uniform=2.0 sparse_method=uniform add_species=F</descriptor>
      <permutation i="1">1 2 3  </permutation>
      <sparseX i="1" alpha="-7964.9267613755510" sparseCutoff="1.0000000000000000"/>
      <sparseX i="2" alpha="-153435.24939599057" sparseCutoff=".59274799049551075E-001"/>
      <sparseX i="3" alpha="-20594.831139856156" sparseCutoff=".84825793365405411"/>
      <sparseX i="4" alpha="16358.741136518025" sparseCutoff=".84825793365405411"/>
      <sparseX i="5" alpha="42766.691807595904" sparseCutoff=".59274799049551075E-001"/>
      <sparseX i="6" alpha="-12386.250584373915" sparseCutoff=".44893634608438064E-002"/>
      <sparseX i="7" alpha="-18654.107004407440" sparseCutoff=".53514467050350074E-001"/>
      <sparseX i="8" alpha="-27774.259954733363" sparseCutoff=".75071496446729030E-003"/>
      <sparseX i="9" alpha="107752.37916860101" sparseCutoff=".89487321711836931E-002"/>
      <sparseX i="10" alpha="52049.368544267389" sparseCutoff=".20377030143270445E-001"/>
      <sparseX i="11" alpha="472.98081955213513" sparseCutoff=".17811012704430039E-002"/>
      <sparseX i="12" alpha="170880.07623160569" sparseCutoff=".33401103677031929"/>
      <sparseX i="13" alpha="45483.290001305104" sparseCutoff=".14524336581821795"/>
      <sparseX i="14" alpha="-98707.289921406817" sparseCutoff="1.0000000000000000"/>
      <sparseX i="15" alpha="-56995.206133050546" sparseCutoff=".26935819089258729E-001"/>
      <sparseX i="16" alpha="56765.447941214006" sparseCutoff=".56735902302313401E-002"/>
      <sparseX i="17" alpha="8697.3515547509396" sparseCutoff=".37531963769056377E-002"/>
      <sparseX i="18" alpha="-3899.4052096807850" sparseCutoff=".99885079828347623"/>
      <sparseX i="19" alpha="-226655.86908652619" sparseCutoff=".77108881707409171"/>
      <sparseX i="20" alpha="-25644.546500708635" sparseCutoff=".64244960625895270E-001"/>
      <sparseX i="21" alpha="-1029248.8742334899" sparseCutoff=".20031578268747907E-001"/>
      <sparseX i="22" alpha="10716.494538334631" sparseCutoff=".97361713195810418"/>
      <sparseX i="23" alpha="21945.863458097290" sparseCutoff=".13845882307393587"/>
      <sparseX i="24" alpha="-3821.1354027650323" sparseCutoff=".13845882307393587"/>
      <sparseX i="25" alpha="87778.762625841409" sparseCutoff=".63085623016115155"/>
      <sparseX i="26" alpha="48118.223980727191" sparseCutoff="1.0000000000000000"/>
      <sparseX i="27" alpha="104884.45886997710" sparseCutoff=".44237041964647861"/>
      <sparseX i="28" alpha="1222.7057361587470" sparseCutoff=".48504354776744522E-001"/>
      <sparseX i="29" alpha="-94952.065283021031" sparseCutoff="1.0000000000000000"/>
      <sparseX i="30" alpha="-323.59724919605293" sparseCutoff=".22694854365590267E-003"/>
      <sparseX i="31" alpha="79390.151352496221" sparseCutoff="1.0000000000000000"/>
      <sparseX i="32" alpha="-465647.08138567803" sparseCutoff=".20896196698833858E-001"/>
      <sparseX i="33" alpha="4496.9725568077092" sparseCutoff="1.0000000000000000"/>
      <sparseX i="34" alpha="-10004.343270847738" sparseCutoff=".85173350825309924"/>
      <sparseX i="35" alpha="13087.900435068737" sparseCutoff=".99908043564658677"/>
      <sparseX i="36" alpha="-40669.444359542795" sparseCutoff=".15706247169527676"/>
      <sparseX i="37" alpha="-1846.4806179807094" sparseCutoff=".35756741469741771"/>
      <sparseX i="38" alpha="4968.8114755239349" sparseCutoff=".35756741469741771"/>
      <sparseX i="39" alpha="10973.038876784676" sparseCutoff=".45028997347806854E-002"/>
      <sparseX i="40" alpha="39768.441401565484" sparseCutoff=".74229142739355991E-001"/>
      <sparseX i="41" alpha="89003.552814628492" sparseCutoff=".12559920995362645"/>
      <sparseX i="42" alpha="2023.7390284037465" sparseCutoff=".30080033527188865"/>
      <sparseX i="43" alpha="-19764.823186694266" sparseCutoff="1.0000000000000000"/>
      <sparseX i="44" alpha="-12635.120911214233" sparseCutoff=".18051126815720187E-002"/>
      <sparseX i="45" alpha="32608.774037204712" sparseCutoff=".28492291072079690"/>
      <sparseX i="46" alpha="-285243.72253599594" sparseCutoff=".38234216429468615E-001"/>
      <sparseX i="47" alpha="-63931.965080508373" sparseCutoff=".30328440995806272"/>
      <sparseX i="48" alpha="-258161.97907005061" sparseCutoff=".18468019635728694E-001"/>
      <sparseX i="49" alpha="5050.4258045692050" sparseCutoff=".90542102412355125E-003"/>
      <sparseX i="50" alpha="4443.3774846720416" sparseCutoff=".63667960116456188E-001"/>
      <sparseX i="51" alpha="157046.18172632012" sparseCutoff=".24304333401567291E-001"/>
      <sparseX i="52" alpha="-22800.528812020661" sparseCutoff=".62930926578403323E-001"/>
      <sparseX i="53" alpha="-11700.091264494495" sparseCutoff=".19721936625621272E-002"/>
      <sparseX i="54" alpha="532.91494394964457" sparseCutoff=".98864293911376433"/>
      <sparseX i="55" alpha="-41967.138531588978" sparseCutoff=".10179968975366216E-001"/>
      <sparseX i="56" alpha="9363.0089451745935" sparseCutoff=".24182113327211929E-001"/>
      <sparseX i="57" alpha="6909.8407520206974" sparseCutoff=".95727053237676807"/>
      <sparseX i="58" alpha="-8881.0702938890590" sparseCutoff=".11027681954465463"/>
      <sparseX i="59" alpha="-30346.879902391236" sparseCutoff=".10556474975432832"/>
      <sparseX i="60" alpha="76723.108152626606" sparseCutoff=".76952947170620256"/>
      <sparseX i="61" alpha="59016.057818707945" sparseCutoff=".14267636685153240"/>
      <sparseX i="62" alpha="37507.427242407583" sparseCutoff="1.0000000000000000"/>
      <sparseX i="63" alpha="-2899.6461209711129" sparseCutoff=".93210512715713456E-004"/>
      <sparseX i="64" alpha="-49450.575753657045" sparseCutoff="1.0000000000000000"/>
      <sparseX i="65" alpha="-28594.683776010621" sparseCutoff=".87770749897993405"/>
      <sparseX i="66" alpha="29506.239063311306" sparseCutoff=".26572230921522300"/>
      <sparseX i="67" alpha="-138263.51548662610" sparseCutoff=".36461455816275856E-001"/>
      <sparseX i="68" alpha="-2321.5851483436240" sparseCutoff=".27350212364056437E-001"/>
      <sparseX i="69" alpha="98590.680674995383" sparseCutoff=".17471694687682260"/>
      <sparseX i="70" alpha="28026.595807459693" sparseCutoff=".35584063876555028"/>
      <sparseX i="71" alpha="6602.7076248214216" sparseCutoff="1.0000000000000000"/>
      <sparseX i="72" alpha="4353.3998903723386" sparseCutoff="1.0000000000000000"/>
      <sparseX i="73" alpha="-24750.473169819270" sparseCutoff=".96097591317183695"/>
      <sparseX i="74" alpha="-15790.961619844120" sparseCutoff=".11495513397479062E-001"/>
      <sparseX i="75" alpha="47759.011050727793" sparseCutoff=".22496704329215522E-001"/>
      <sparseX i="76" alpha="20718.096547581212" sparseCutoff=".13896238961656725E-001"/>
      <sparseX i="77" alpha="23632.941005262921" sparseCutoff=".14973289637616460E-001"/>
      <sparseX i="78" alpha="-53580.973494121405" sparseCutoff=".19148802252771591"/>
      <sparseX i="79" alpha="8018.0161258234721" sparseCutoff="1.0000000000000000"/>
      <sparseX i="80" alpha="32706.959423048316" sparseCutoff="1.0000000000000000"/>
      <sparseX i="81" alpha="37068.606664923667" sparseCutoff="1.0000000000000000"/>
      <sparseX i="82" alpha="14592.103754363521" sparseCutoff=".71702044351658325E-002"/>
      <sparseX i="83" alpha="-67075.270427860087" sparseCutoff=".33357929843175682"/>
      <sparseX i="84" alpha="-115902.51027375071" sparseCutoff=".59007720563317156E-002"/>
      <sparseX i="85" alpha="47722.905044018160" sparseCutoff=".43072557582457070E-002"/>
      <sparseX i="86" alpha="37157.420170770180" sparseCutoff=".78712871399018092"/>
      <sparseX i="87" alpha="20388.160418578256" sparseCutoff="1.0000000000000000"/>
      <sparseX i="88" alpha="15659.124438248055" sparseCutoff="1.0000000000000000"/>
      <sparseX i="89" alpha="-24850.339828207616" sparseCutoff="1.0000000000000000"/>
      <sparseX i="90" alpha="15645.003134315204" sparseCutoff="1.0000000000000000"/>
      <sparseX i="91" alpha="-48690.973293961004" sparseCutoff="1.0000000000000000"/>
      <sparseX i="92" alpha="-4169.7963992599180" sparseCutoff=".65136338691790285"/>
      <sparseX i="93" alpha="-28832.129278637774" sparseCutoff="1.0000000000000000"/>
      <sparseX i="94" alpha="-22227.608492931042" sparseCutoff="1.0000000000000000"/>
      <sparseX i="95" alpha="-85982.527713519245" sparseCutoff=".29315921186067351"/>
      <sparseX i="96" alpha="-7546.8340733488894" sparseCutoff=".21430771498559542E-003"/>
      <sparseX i="97" alpha="-378.72536271454914" sparseCutoff=".60380155937345137E-004"/>
      <sparseX i="98" alpha="20148.164296116051" sparseCutoff=".10837290671114530E-001"/>
      <sparseX i="99" alpha="-1120.8468930302304" sparseCutoff=".22890211780590697E-004"/>
      <sparseX i="100" alpha="-42261.348456989304" sparseCutoff=".18508932836154790E-001"/>
      <sparseX i="101" alpha="48405.452427264776" sparseCutoff=".10909521600581236"/>
      <sparseX i="102" alpha="869.39232085692606" sparseCutoff=".72553228654015367E-003"/>
      <sparseX i="103" alpha="-47593.860558365071" sparseCutoff=".74014602850321953"/>
      <sparseX i="104" alpha="34726.822741824311" sparseCutoff="1.0000000000000000"/>
      <sparseX i="105" alpha="33296.570239813482" sparseCutoff="1.0000000000000000"/>
      <sparseX i="106" alpha="30367.636999049100" sparseCutoff="1.0000000000000000"/>
      <sparseX i="107" alpha="-13212.697977299285" sparseCutoff=".82542504186438115"/>
      <sparseX i="108" alpha="80574.873215910528" sparseCutoff="1.0000000000000000"/>
      <sparseX i="109" alpha="85.772979730414647" sparseCutoff=".10874745629289046E-002"/>
      <sparseX i="110" alpha="-125925.74549694802" sparseCutoff=".36311177499295244E-001"/>
      <sparseX i="111" alpha="-120506.55677640039" sparseCutoff=".28820448549949459E-001"/>
      <sparseX i="112" alpha="33678.356103566119" sparseCutoff="1.0000000000000000"/>
      <sparseX i="113" alpha="12317.318543274972" sparseCutoff="1.0000000000000000"/>
      <sparseX i="114" alpha="47373.128589527572" sparseCutoff=".12813633609345965"/>
      <sparseX i="115" alpha="118774.58375612104" sparseCutoff=".19756552042206055E-001"/>
      <sparseX i="116" alpha="18083.013763249204" sparseCutoff=".26123516572394129"/>
      <sparseX i="117" alpha="6524.3624560786511" sparseCutoff="1.0000000000000000"/>
      <sparseX i="118" alpha="-57617.086761286642" sparseCutoff="1.0000000000000000"/>
      <sparseX i="119" alpha="-50971.906080818757" sparseCutoff="1.0000000000000000"/>
      <sparseX i="120" alpha="-33206.981410972665" sparseCutoff="1.0000000000000000"/>
      <sparseX i="121" alpha="-12757.427575957356" sparseCutoff=".30976176035637992"/>
      <sparseX i="122" alpha="-92894.299316173187" sparseCutoff=".19538838409800096E-001"/>
      <sparseX i="123" alpha="-139777.72116157110" sparseCutoff=".68202937425500543E-001"/>
      <sparseX i="124" alpha="-29836.365796607763" sparseCutoff=".57580784609274479E-002"/>
      <sparseX i="125" alpha="66578.662591719549" sparseCutoff="1.0000000000000000"/>
      <sparseX i="126" alpha="-9931.8987794482309" sparseCutoff="1.0000000000000000"/>
      <sparseX i="127" alpha="-146506.33097816765" sparseCutoff=".21068356611664379"/>
      <sparseX i="128" alpha="-93331.028246603964" sparseCutoff=".41567090411436663"/>
      <sparseX i="129" alpha="-10325.671766311689" sparseCutoff=".57102442591638103"/>
      <sparseX i="130" alpha="-1005.4609178373446" sparseCutoff="1.0000000000000000"/>
      <sparseX i="131" alpha="40697.566637107178" sparseCutoff=".20545969373589934E-001"/>
      <sparseX i="132" alpha="21069.137226359329" sparseCutoff=".69117827342115579E-002"/>
      <sparseX i="133" alpha="-6105.3718871913870" sparseCutoff=".14551888001655650"/>
      <sparseX i="134" alpha="-5171.0221578541032" sparseCutoff="1.0000000000000000"/>
      <sparseX i="135" alpha="13567.607816920869" sparseCutoff="1.0000000000000000"/>
      <sparseX i="136" alpha="216164.44469271402" sparseCutoff=".80638040571456826"/>
      <sparseX i="137" alpha="-51821.360150844324" sparseCutoff="1.0000000000000000"/>
      <sparseX i="138" alpha="-60767.089132938425" sparseCutoff="1.0000000000000000"/>
      <sparseX i="139" alpha="-14514.303553954813" sparseCutoff="1.0000000000000000"/>
      <sparseX i="140" alpha="-875.13499836857932" sparseCutoff=".11683326183498655E-002"/>
      <sparseX i="141" alpha="24382.900542427938" sparseCutoff="1.0000000000000000"/>
      <sparseX i="142" alpha="-2989.1638100215628" sparseCutoff="1.0000000000000000"/>
      <sparseX i="143" alpha="-28452.204082164324" sparseCutoff=".93171167318297288"/>
      <sparseX i="144" alpha="18988.863444625327" sparseCutoff=".66450491575013537"/>
      <sparseX i="145" alpha="26254.184914704365" sparseCutoff=".21991262508563733"/>
      <sparseX i="146" alpha="39990.493509089480" sparseCutoff=".16218735650688598E-001"/>
      <sparseX i="147" alpha="13017.805702724241" sparseCutoff=".44778579568751314"/>
      <sparseX i="148" alpha="-19914.519501629493" sparseCutoff=".99098739442060202"/>
      <sparseX i="149" alpha="-238138.81211503953" sparseCutoff=".11129597962941018"/>
      <sparseX i="150" alpha="44582.473437671826" sparseCutoff=".74383629601113610E-001"/>
      <sparseX i="151" alpha="-38140.855135110010" sparseCutoff=".91278016998600453"/>
      <sparseX i="152" alpha="88004.517298765131" sparseCutoff=".28299966026041484"/>
      <sparseX i="153" alpha="4725.8991708663834" sparseCutoff="1.0000000000000000"/>
      <sparseX i="154" alpha="-13757.483768325761" sparseCutoff="1.0000000000000000"/>
      <sparseX i="155" alpha="2828.2205904628386" sparseCutoff=".36966914451986010"/>
      <sparseX i="156" alpha="-49463.789400705078" sparseCutoff=".93719387067203375"/>
      <sparseX i="157" alpha="9767.1837999053605" sparseCutoff=".36966914451986010"/>
      <sparseX i="158" alpha="-180094.07447213537" sparseCutoff=".10767023112282670E-001"/>
      <sparseX i="159" alpha="12439.846651114660" sparseCutoff=".21413156933035582E-002"/>
      <sparseX i="160" alpha="238381.52636435570" sparseCutoff=".12801783766093668E-001"/>
      <sparseX i="161" alpha="36150.837220089408" sparseCutoff=".17223689322103153"/>
      <sparseX i="162" alpha="26972.472887224711" sparseCutoff="1.0000000000000000"/>
      <sparseX i="163" alpha="29503.376052291034" sparseCutoff=".17223689322103153"/>
      <sparseX i="164" alpha="-22919.765465820012" sparseCutoff=".31621478391764511E-001"/>
      <sparseX i="165" alpha="6145.0231310082308" sparseCutoff=".98569716579928546"/>
      <sparseX i="166" alpha="7361.8603052705503" sparseCutoff=".21030738361901944E-002"/>
      <sparseX i="167" alpha="-17693.721408121088" sparseCutoff="1.0000000000000000"/>
      <sparseX i="168" alpha="-332.04148510198127" sparseCutoff="1.0000000000000000"/>
      <sparseX i="169" alpha="-4364.5818783762088" sparseCutoff="1.0000000000000000"/>
      <sparseX i="170" alpha="-4776.7994728280619" sparseCutoff=".88499834181358739"/>
      <sparseX i="171" alpha="56405.341272826648" sparseCutoff=".34353133313548345"/>
      <sparseX i="172" alpha="27762.094951174542" sparseCutoff="1.0000000000000000"/>
      <sparseX i="173" alpha="13261.366660766334" sparseCutoff=".11004385892780688E-001"/>
      <sparseX i="174" alpha="90309.142476762951" sparseCutoff=".11198072752553778"/>
      <sparseX i="175" alpha="-5620.6707418575770" sparseCutoff="1.0000000000000000"/>
      <sparseX i="176" alpha="-9008.6725502197951" sparseCutoff=".92329408881631991"/>
      <sparseX i="177" alpha="41142.997189897382" sparseCutoff="1.0000000000000000"/>
      <sparseX i="178" alpha="45116.066520329114" sparseCutoff="1.0000000000000000"/>
      <sparseX i="179" alpha="-31385.335860784067" sparseCutoff=".47073692263602640E-001"/>
      <sparseX i="180" alpha="-12684.849629826198" sparseCutoff=".36879418351711118"/>
      <sparseX i="181" alpha="-28391.696968736720" sparseCutoff=".52504567637659705"/>
      <sparseX i="182" alpha="-71385.947177576847" sparseCutoff=".12210681283791552E-001"/>
      <sparseX i="183" alpha="-71261.171643729642" sparseCutoff=".42718156774557470"/>
      <sparseX i="184" alpha="-25896.031575491230" sparseCutoff=".66608211050646737"/>
      <sparseX i="185" alpha="67204.148630155498" sparseCutoff=".45304135567132031"/>
      <sparseX i="186" alpha="43361.379401641483" sparseCutoff=".36410722626254804E-001"/>
      <sparseX i="187" alpha="64.731396947108493" sparseCutoff=".28722542176629219E-004"/>
      <sparseX i="188" alpha="86118.007480259563" sparseCutoff=".31555073675963508"/>
      <sparseX i="189" alpha="8845.3119725946908" sparseCutoff=".12777978809347446E-001"/>
      <sparseX i="190" alpha="39485.560472429730" sparseCutoff="1.0000000000000000"/>
      <sparseX i="191" alpha="-11168.561899846749" sparseCutoff=".21439229237226631E-001"/>
      <sparseX i="192" alpha="322518.45959020720" sparseCutoff=".45294196193302771E-001"/>
      <sparseX i="193" alpha="37406.350007451336" sparseCutoff="1.0000000000000000"/>
      <sparseX i="194" alpha="-102372.74624873354" sparseCutoff="1.0000000000000000"/>
      <sparseX i="195" alpha="-80730.851314388245" sparseCutoff=".12188228205018806E-001"/>
      <sparseX i="196" alpha="1334.7376748603367" sparseCutoff=".18176405479904401E-002"/>
      <sparseX i="197" alpha="7639.8832930400995" sparseCutoff=".76441806519704625"/>
      <sparseX i="198" alpha="4.7125069130737707" sparseCutoff=".24002868698927433E-005"/>
      <sparseX i="199" alpha="31044.606870301384" sparseCutoff="1.0000000000000000"/>
      <sparseX i="200" alpha="-24918.485521270941" sparseCutoff=".46030334632221137"/>
    </gpCoordinates>
    <gpCoordinates label="GAP_2026_3_23_120_0_31_50_837" dimensions="75" signal_variance=".10000000000000001E+000" signal_mean=".00000000000000000E+000" sparsified="T" n_permutations="1" covariance_type="2" zeta="4.0000000000000000" n_sparseX="1000" sparseX_filename="CH.xml.sparseX.GAP_2026_3_23_120_0_31_50_837" sparseX_md5sum="ca92733d975710e0292a73ae70979868">
      <descriptor> soap_turbo l_max=4 alpha_max={4 4} atom_sigma_r={0.2 0.2} atom_sigma_t={0.2 0.2} atom_sigma_r_scaling={0.1 0.1} atom_sigma_t_scaling={0.1 0.1} zeta=4 rcut_hard=4.0 rcut_soft=3.5 basis=poly3gauss scaling_mode=polynomial add_species=F amplitude_scaling={2.0 2.0} n_species=2 species_Z={1 6} central_index=1 radial_enhancement=1 compress_mode=trivial central_weight={1.0 1.0} n_sparse=1000 delta=0.1 f0=0.0 covariance_type=dot_product sparse_method=cur_points</descriptor>
      <permutation i="1">1  </permutation>
      <sparseX i="1" alpha="-7742.6206127300484" sparseCutoff="1.0000000000000000"/>
      <sparseX i="2" alpha="-133353.26091280041" sparseCutoff="1.0000000000000000"/>
      <sparseX i="3" alpha="121467.07628298206" sparseCutoff="1.0000000000000000"/>
      <sparseX i="4" alpha="-63799.190149369373" sparseCutoff="1.0000000000000000"/>
      <sparseX i="5" alpha="7842.1825155372044" sparseCutoff="1.0000000000000000"/>
      <sparseX i="6" alpha="-25035.377235969776" sparseCutoff="1.0000000000000000"/>
      <sparseX i="7" alpha="-22313.408188302561" sparseCutoff="1.0000000000000000"/>
      <sparseX i="8" alpha="114733.80071284945" sparseCutoff="1.0000000000000000"/>
      <sparseX i="9" alpha="2025.7489252070854" sparseCutoff="1.0000000000000000"/>
      <sparseX i="10" alpha="-22981.250127006730" sparseCutoff="1.0000000000000000"/>
      <sparseX i="11" alpha="3789.5142640288609" sparseCutoff="1.0000000000000000"/>
      <sparseX i="12" alpha="-9198.9326738315049" sparseCutoff="1.0000000000000000"/>
      <sparseX i="13" alpha="85473.599343176305" sparseCutoff="1.0000000000000000"/>
      <sparseX i="14" alpha="14443.723430473607" sparseCutoff="1.0000000000000000"/>
      <sparseX i="15" alpha="112516.21397132039" sparseCutoff="1.0000000000000000"/>
      <sparseX i="16" alpha="8318.5872993340618" sparseCutoff="1.0000000000000000"/>
      <sparseX i="17" alpha="-19335.581933800677" sparseCutoff="1.0000000000000000"/>
      <sparseX i="18" alpha="-8351.2987292236030" sparseCutoff="1.0000000000000000"/>
      <sparseX i="19" alpha="25891.348356501239" sparseCutoff="1.0000000000000000"/>
      <sparseX i="20" alpha="-775.39170887526836" sparseCutoff="1.0000000000000000"/>
      <sparseX i="21" alpha="247776.92973629234" sparseCutoff="1.0000000000000000"/>
      <sparseX i="22" alpha="-31390.976927688869" sparseCutoff="1.0000000000000000"/>
      <sparseX i="23" alpha="-19207.961394090180" sparseCutoff="1.0000000000000000"/>
      <sparseX i="24" alpha="-17493.427058916310" sparseCutoff="1.0000000000000000"/>
      <sparseX i="25" alpha="3563.4676302072885" sparseCutoff="1.0000000000000000"/>
      <sparseX i="26" alpha="10153.026424801239" sparseCutoff="1.0000000000000000"/>
      <sparseX i="27" alpha="-4208.1766690138893" sparseCutoff="1.0000000000000000"/>
      <sparseX i="28" alpha="165.07475773665004" sparseCutoff="1.0000000000000000"/>
      <sparseX i="29" alpha="-55417.376288151318" sparseCutoff="1.0000000000000000"/>
      <sparseX i="30" alpha="33110.658638780733" sparseCutoff="1.0000000000000000"/>
      <sparseX i="31" alpha="10416.484545620502" sparseCutoff="1.0000000000000000"/>
      <sparseX i="32" alpha="38763.407656432209" sparseCutoff="1.0000000000000000"/>
      <sparseX i="33" alpha="8453.6611643083979" sparseCutoff="1.0000000000000000"/>
      <sparseX i="34" alpha="-3118.1174609924560" sparseCutoff="1.0000000000000000"/>
      <sparseX i="35" alpha="-3119.1882491858923" sparseCutoff="1.0000000000000000"/>
      <sparseX i="36" alpha="356.70761680782988" sparseCutoff="1.0000000000000000"/>
      <sparseX i="37" alpha="-77166.263357490912" sparseCutoff="1.0000000000000000"/>
      <sparseX i="38" alpha="-38908.008579813883" sparseCutoff="1.0000000000000000"/>
      <sparseX i="39" alpha="-116687.15198337338" sparseCutoff="1.0000000000000000"/>
      <sparseX i="40" alpha="-25072.604588759812" sparseCutoff="1.0000000000000000"/>
      <sparseX i="41" alpha="-23139.681927821548" sparseCutoff="1.0000000000000000"/>
      <sparseX i="42" alpha="-6033.2731795753762" sparseCutoff="1.0000000000000000"/>
      <sparseX i="43" alpha="18409.730642313079" sparseCutoff="1.0000000000000000"/>
      <sparseX i="44" alpha="-43983.583854176883" sparseCutoff="1.0000000000000000"/>
      <sparseX i="45" alpha="-41903.121178071560" sparseCutoff="1.0000000000000000"/>
      <sparseX i="46" alpha="-10249.916946761730" sparseCutoff="1.0000000000000000"/>
      <sparseX i="47" alpha="-23290.479886523070" sparseCutoff="1.0000000000000000"/>
      <sparseX i="48" alpha="25060.526549597394" sparseCutoff="1.0000000000000000"/>
      <sparseX i="49" alpha="6916.7707792487190" sparseCutoff="1.0000000000000000"/>
      <sparseX i="50" alpha="-3326.8387808334091" sparseCutoff="1.0000000000000000"/>
      <sparseX i="51" alpha="20.755800819284204" sparseCutoff="1.0000000000000000"/>
      <sparseX i="52" alpha="11978.386504536255" sparseCutoff="1.0000000000000000"/>
      <sparseX i="53" alpha="3724.6392908673820" sparseCutoff="1.0000000000000000"/>
      <sparseX i="54" alpha="-13948.631513163047" sparseCutoff="1.0000000000000000"/>
      <sparseX i="55" alpha="14635.821666350081" sparseCutoff="1.0000000000000000"/>
      <sparseX i="56" alpha="-17470.788264765721" sparseCutoff="1.0000000000000000"/>
      <sparseX i="57" alpha="15494.649937497263" sparseCutoff="1.0000000000000000"/>
      <sparseX i="58" alpha="-19632.198185573070" sparseCutoff="1.0000000000000000"/>
      <sparseX i="59" alpha="-179.28792846327170" sparseCutoff="1.0000000000000000"/>
      <sparseX i="60" alpha="6279.8972213402576" sparseCutoff="1.0000000000000000"/>
      <sparseX i="61" alpha="20046.404270577030" sparseCutoff="1.0000000000000000"/>
      <sparseX i="62" alpha="32936.164926033460" sparseCutoff="1.0000000000000000"/>
      <sparseX i="63" alpha="53079.382282813065" sparseCutoff="1.0000000000000000"/>
      <sparseX i="64" alpha="-242565.69696475496" sparseCutoff="1.0000000000000000"/>
      <sparseX i="65" alpha="-17072.688580510279" sparseCutoff="1.0000000000000000"/>
      <sparseX i="66" alpha="-15188.867430352288" sparseCutoff="1.0000000000000000"/>
      <sparseX i="67" alpha="2888.4383995355665" sparseCutoff="1.0000000000000000"/>
      <sparseX i="68" alpha="6433.7604393909551" sparseCutoff="1.0000000000000000"/>
      <sparseX i="69" alpha="502040.45096133027" sparseCutoff="1.0000000000000000"/>
      <sparseX i="70" alpha="127598.94063808971" sparseCutoff="1.0000000000000000"/>
      <sparseX i="71" alpha="-2544.1352078517498" sparseCutoff="1.0000000000000000"/>
      <sparseX i="72" alpha="-11249.254063904436" sparseCutoff="1.0000000000000000"/>
      <sparseX i="73" alpha="2910.7098351259015" sparseCutoff="1.0000000000000000"/>
      <sparseX i="74" alpha="-1290.6148300341845" sparseCutoff="1.0000000000000000"/>
      <sparseX i="75" alpha="-42111.091224358563" sparseCutoff="1.0000000000000000"/>
      <sparseX i="76" alpha="-39520.451610505748" sparseCutoff="1.0000000000000000"/>
      <sparseX i="77" alpha="18666.191116092239" sparseCutoff="1.0000000000000000"/>
      <sparseX i="78" alpha="62479.591085136955" sparseCutoff="1.0000000000000000"/>
      <sparseX i="79" alpha="8918.2250557278494" sparseCutoff="1.0000000000000000"/>
      <sparseX i="80" alpha="32333.735111408252" sparseCutoff="1.0000000000000000"/>
      <sparseX i="81" alpha="87723.259649731888" sparseCutoff="1.0000000000000000"/>
      <sparseX i="82" alpha="-128187.27777335864" sparseCutoff="1.0000000000000000"/>
      <sparseX i="83" alpha="71384.709349703262" sparseCutoff="1.0000000000000000"/>
      <sparseX i="84" alpha="897.65964815853476" sparseCutoff="1.0000000000000000"/>
      <sparseX i="85" alpha="2223.1604873546044" sparseCutoff="1.0000000000000000"/>
      <sparseX i="86" alpha="-24067.857685483377" sparseCutoff="1.0000000000000000"/>
      <sparseX i="87" alpha="-14148.054306376738" sparseCutoff="1.0000000000000000"/>
      <sparseX i="88" alpha="-57022.703064776280" sparseCutoff="1.0000000000000000"/>
      <sparseX i="89" alpha="117.88531105122384" sparseCutoff="1.0000000000000000"/>
      <sparseX i="90" alpha="1917.0717208773176" sparseCutoff="1.0000000000000000"/>
      <sparseX i="91" alpha="-56559.426254167091" sparseCutoff="1.0000000000000000"/>
      <sparseX i="92" alpha="-5752.1352754556137" sparseCutoff="1.0000000000000000"/>
      <sparseX i="93" alpha="-5334.8571487858162" sparseCutoff="1.0000000000000000"/>
      <sparseX i="94" alpha="4514.8379433023483" sparseCutoff="1.0000000000000000"/>
      <sparseX i="95" alpha="16338.821248917067" sparseCutoff="1.0000000000000000"/>
      <sparseX i="96" alpha="21360.620982026299" sparseCutoff="1.0000000000000000"/>
      <sparseX i="97" alpha="-67125.408300449897" sparseCutoff="1.0000000000000000"/>
      <sparseX i="98" alpha="-37042.302053757812" sparseCutoff="1.0000000000000000"/>
      <sparseX i="99" alpha="-19777.992113025386" sparseCutoff="1.0000000000000000"/>
      <sparseX i="100" alpha="-1485.5683672545686" sparseCutoff="1.0000000000000000"/>
      <sparseX i="101" alpha="-35255.049474237734" sparseCutoff="1.0000000000000000"/>
      <sparseX i="102" alpha="-756.68654279652787" sparseCutoff="1.0000000000000000"/>
      <sparseX i="103" alpha="-85740.157721451527" sparseCutoff="1.0000000000000000"/>
      <sparseX i="104" alpha="-72832.230869474355" sparseCutoff="1.0000000000000000"/>
      <sparseX i="105" alpha="24420.589078810746" sparseCutoff="1.0000000000000000"/>
      <sparseX i="106" alpha="3114.1705153825724" sparseCutoff="1.0000000000000000"/>
      <sparseX i="107" alpha="-2586.4205790704600" sparseCutoff="1.0000000000000000"/>
      <sparseX i="108" alpha="-405.15108932423794" sparseCutoff="1.0000000000000000"/>
      <sparseX i="109" alpha="-19.318991582473878" sparseCutoff="1.0000000000000000"/>
      <sparseX i="110" alpha="-1194.7727445035684" sparseCutoff="1.0000000000000000"/>
      <sparseX i="111" alpha="2581.8872030458156" sparseCutoff="1.0000000000000000"/>
      <sparseX i="112" alpha="31943.826051408538" sparseCutoff="1.0000000000000000"/>
      <sparseX i="113" alpha="-147921.97869888146" sparseCutoff="1.0000000000000000"/>
      <sparseX i="114" alpha="-8593.0696216136421" sparseCutoff="1.0000000000000000"/>
      <sparseX i="115" alpha="-980.37332315154890" sparseCutoff="1.0000000000000000"/>
      <sparseX i="116" alpha="34180.509190920093" sparseCutoff="1.0000000000000000"/>
      <sparseX i="117" alpha="106312.21312907794" sparseCutoff="1.0000000000000000"/>
      <sparseX i="118" alpha="81685.088962432987" sparseCutoff="1.0000000000000000"/>
      <sparseX i="119" alpha="-2169.2112898959072" sparseCutoff="1.0000000000000000"/>
      <sparseX i="120" alpha="4660.6405323882791" sparseCutoff="1.0000000000000000"/>
      <sparseX i="121" alpha="12014.596396225958" sparseCutoff="1.0000000000000000"/>
      <sparseX i="122" alpha="79430.896748207000" sparseCutoff="1.0000000000000000"/>
      <sparseX i="123" alpha="-93037.607432188684" sparseCutoff="1.0000000000000000"/>
      <sparseX i="124" alpha="-15002.457683422910" sparseCutoff="1.0000000000000000"/>
      <sparseX i="125" alpha="30106.586062757491" sparseCutoff="1.0000000000000000"/>
      <sparseX i="126" alpha="66010.506601474161" sparseCutoff="1.0000000000000000"/>
      <sparseX i="127" alpha="5023.7130201460441" sparseCutoff="1.0000000000000000"/>
      <sparseX i="128" alpha="-987.75119771365303" sparseCutoff="1.0000000000000000"/>
      <sparseX i="129" alpha="-30068.867943769215" sparseCutoff="1.0000000000000000"/>
      <sparseX i="130" alpha="-40647.795270606301" sparseCutoff="1.0000000000000000"/>
      <sparseX i="131" alpha="14580.529900849971" sparseCutoff="1.0000000000000000"/>
      <sparseX i="132" alpha="-28445.512828975319" sparseCutoff="1.0000000000000000"/>
      <sparseX i="133" alpha="-66593.087642482817" sparseCutoff="1.0000000000000000"/>
      <sparseX i="134" alpha="-91040.418700106529" sparseCutoff="1.0000000000000000"/>
      <sparseX i="135" alpha="47194.278475532788" sparseCutoff="1.0000000000000000"/>
      <sparseX i="136" alpha="-94625.808297031865" sparseCutoff="1.0000000000000000"/>
      <sparseX i="137" alpha="-90037.346888739630" sparseCutoff="1.0000000000000000"/>
      <sparseX i="138" alpha="10739.706724353520" sparseCutoff="1.0000000000000000"/>
      <sparseX i="139" alpha="-44362.594077549846" sparseCutoff="1.0000000000000000"/>
      <sparseX i="140" alpha="9628.1532195649615" sparseCutoff="1.0000000000000000"/>
      <sparseX i="141" alpha="18505.710476646876" sparseCutoff="1.0000000000000000"/>
      <sparseX i="142" alpha="-3440.1864701760719" sparseCutoff="1.0000000000000000"/>
      <sparseX i="143" alpha="-275.64465200327817" sparseCutoff="1.0000000000000000"/>
      <sparseX i="144" alpha="-9674.3602212156093" sparseCutoff="1.0000000000000000"/>
      <sparseX i="145" alpha="-1060.9947171475326" sparseCutoff="1.0000000000000000"/>
      <sparseX i="146" alpha="-17170.122290572835" sparseCutoff="1.0000000000000000"/>
      <sparseX i="147" alpha="28711.610441170746" sparseCutoff="1.0000000000000000"/>
      <sparseX i="148" alpha="-12553.618420923793" sparseCutoff="1.0000000000000000"/>
      <sparseX i="149" alpha="-8429.1902238132297" sparseCutoff="1.0000000000000000"/>
      <sparseX i="150" alpha="8420.7293672129217" sparseCutoff="1.0000000000000000"/>
      <sparseX i="151" alpha="-19595.898127278695" sparseCutoff="1.0000000000000000"/>
      <sparseX i="152" alpha="53498.869916419244" sparseCutoff="1.0000000000000000"/>
      <sparseX i="153" alpha="6086.4323812378716" sparseCutoff="1.0000000000000000"/>
      <sparseX i="154" alpha="-4590.2172158439262" sparseCutoff="1.0000000000000000"/>
      <sparseX i="155" alpha="-730.16571097463645" sparseCutoff="1.0000000000000000"/>
      <sparseX i="156" alpha="-15436.141382220760" sparseCutoff="1.0000000000000000"/>
      <sparseX i="157" alpha="30804.671334677427" sparseCutoff="1.0000000000000000"/>
      <sparseX i="158" alpha="18986.951136872278" sparseCutoff="1.0000000000000000"/>
      <sparseX i="159" alpha="-46451.469749594886" sparseCutoff="1.0000000000000000"/>
      <sparseX i="160" alpha="9555.0754485759844" sparseCutoff="1.0000000000000000"/>
      <sparseX i="161" alpha="4126.7346279486810" sparseCutoff="1.0000000000000000"/>
      <sparseX i="162" alpha="16350.123316850861" sparseCutoff="1.0000000000000000"/>
      <sparseX i="163" alpha="13765.180026994773" sparseCutoff="1.0000000000000000"/>
      <sparseX i="164" alpha="13430.737345367146" sparseCutoff="1.0000000000000000"/>
      <sparseX i="165" alpha="6208.4631519372633" sparseCutoff="1.0000000000000000"/>
      <sparseX i="166" alpha="-2263.4127581024163" sparseCutoff="1.0000000000000000"/>
      <sparseX i="167" alpha="132752.34814703974" sparseCutoff="1.0000000000000000"/>
      <sparseX i="168" alpha="-15283.157986017673" sparseCutoff="1.0000000000000000"/>
      <sparseX i="169" alpha="-36578.703834481843" sparseCutoff="1.0000000000000000"/>
      <sparseX i="170" alpha="22945.946735197540" sparseCutoff="1.0000000000000000"/>
      <sparseX i="171" alpha="18230.180198317725" sparseCutoff="1.0000000000000000"/>
      <sparseX i="172" alpha="-14800.065216096358" sparseCutoff="1.0000000000000000"/>
      <sparseX i="173" alpha="-2734.0705849800988" sparseCutoff="1.0000000000000000"/>
      <sparseX i="174" alpha="-22328.032787572556" sparseCutoff="1.0000000000000000"/>
      <sparseX i="175" alpha="7855.1954696686735" sparseCutoff="1.0000000000000000"/>
      <sparseX i="176" alpha="22038.695604970762" sparseCutoff="1.0000000000000000"/>
      <sparseX i="177" alpha="20397.087747137510" sparseCutoff="1.0000000000000000"/>
      <sparseX i="178" alpha="1192.8750489612244" sparseCutoff="1.0000000000000000"/>
      <sparseX i="179" alpha="-51926.986646646532" sparseCutoff="1.0000000000000000"/>
      <sparseX i="180" alpha="-1874.4631800653610" sparseCutoff="1.0000000000000000"/>
      <sparseX i="181" alpha="-527.09089057679796" sparseCutoff="1.0000000000000000"/>
      <sparseX i="182" alpha="-579.74456495824938" sparseCutoff="1.0000000000000000"/>
      <sparseX i="183" alpha="-10004.830722955014" sparseCutoff="1.0000000000000000"/>
      <sparseX i="184" alpha="-12158.177332922307" sparseCutoff="1.0000000000000000"/>
      <sparseX i="185" alpha="-81421.738224083500" sparseCutoff="1.0000000000000000"/>
      <sparseX i="186" alpha="20944.783934686173" sparseCutoff="1.0000000000000000"/>
      <sparseX i="187" alpha="48115.915977812481" sparseCutoff="1.0000000000000000"/>
      <sparseX i="188" alpha="-271577.86698574451" sparseCutoff="1.0000000000000000"/>
      <sparseX i="189" alpha="13800.595128518509" sparseCutoff="1.0000000000000000"/>
      <sparseX i="190" alpha="-2152.0818344927952" sparseCutoff="1.0000000000000000"/>
      <sparseX i="191" alpha="-1864.4458458218467" sparseCutoff="1.0000000000000000"/>
      <sparseX i="192" alpha="3019.7988184060137" sparseCutoff="1.0000000000000000"/>
      <sparseX i="193" alpha="-57320.042305436560" sparseCutoff="1.0000000000000000"/>
      <sparseX i="194" alpha="-18578.687578841211" sparseCutoff="1.0000000000000000"/>
      <sparseX i="195" alpha="80909.255433120692" sparseCutoff="1.0000000000000000"/>
      <sparseX i="196" alpha="-25641.130195799422" sparseCutoff="1.0000000000000000"/>
      <sparseX i="197" alpha="35665.721540178958" sparseCutoff="1.0000000000000000"/>
      <sparseX i="198" alpha="-39948.624398621847" sparseCutoff="1.0000000000000000"/>
      <sparseX i="199" alpha="-28097.842353631193" sparseCutoff="1.0000000000000000"/>
      <sparseX i="200" alpha="-121891.38617593441" sparseCutoff="1.0000000000000000"/>
      <sparseX i="201" alpha="4371.8689783188829" sparseCutoff="1.0000000000000000"/>
      <sparseX i="202" alpha="1953.4468025408637" sparseCutoff="1.0000000000000000"/>
      <sparseX i="203" alpha="28470.117371799235" sparseCutoff="1.0000000000000000"/>
      <sparseX i="204" alpha="7075.4484511349756" sparseCutoff="1.0000000000000000"/>
      <sparseX i="205" alpha="-903.15689369934591" sparseCutoff="1.0000000000000000"/>
      <sparseX i="206" alpha="2925.7146960182372" sparseCutoff="1.0000000000000000"/>
      <sparseX i="207" alpha="-43361.251672404491" sparseCutoff="1.0000000000000000"/>
      <sparseX i="208" alpha="40496.519179905408" sparseCutoff="1.0000000000000000"/>
      <sparseX i="209" alpha="-15263.050208305704" sparseCutoff="1.0000000000000000"/>
      <sparseX i="210" alpha="-11750.136114597926" sparseCutoff="1.0000000000000000"/>
      <sparseX i="211" alpha="-8630.7739348632149" sparseCutoff="1.0000000000000000"/>
      <sparseX i="212" alpha="-21462.104818431115" sparseCutoff="1.0000000000000000"/>
      <sparseX i="213" alpha="-3875.5830161334161" sparseCutoff="1.0000000000000000"/>
      <sparseX i="214" alpha="19939.308382855445" sparseCutoff="1.0000000000000000"/>
      <sparseX i="215" alpha="42245.673810706212" sparseCutoff="1.0000000000000000"/>
      <sparseX i="216" alpha="89786.207345493080" sparseCutoff="1.0000000000000000"/>
      <sparseX i="217" alpha="83685.624835740964" sparseCutoff="1.0000000000000000"/>
      <sparseX i="218" alpha="-72.938444864063371" sparseCutoff="1.0000000000000000"/>
      <sparseX i="219" alpha="81436.149304942519" sparseCutoff="1.0000000000000000"/>
      <sparseX i="220" alpha="-71513.556049875886" sparseCutoff="1.0000000000000000"/>
      <sparseX i="221" alpha="-139937.66438044075" sparseCutoff="1.0000000000000000"/>
      <sparseX i="222" alpha="-2829.7129921915125" sparseCutoff="1.0000000000000000"/>
      <sparseX i="223" alpha="6621.5924688652585" sparseCutoff="1.0000000000000000"/>
      <sparseX i="224" alpha="27558.780073482314" sparseCutoff="1.0000000000000000"/>
      <sparseX i="225" alpha="-9770.5756758619573" sparseCutoff="1.0000000000000000"/>
      <sparseX i="226" alpha="-1261.6080721014428" sparseCutoff="1.0000000000000000"/>
      <sparseX i="227" alpha="777.94913530986003" sparseCutoff="1.0000000000000000"/>
      <sparseX i="228" alpha="-916.62977235328003" sparseCutoff="1.0000000000000000"/>
      <sparseX i="229" alpha="4142.3725639764734" sparseCutoff="1.0000000000000000"/>
      <sparseX i="230" alpha="-30299.314296926750" sparseCutoff="1.0000000000000000"/>
      <sparseX i="231" alpha="4709.6792558454699" sparseCutoff="1.0000000000000000"/>
      <sparseX i="232" alpha="-65622.361549087451" sparseCutoff="1.0000000000000000"/>
      <sparseX i="233" alpha="25295.974771027053" sparseCutoff="1.0000000000000000"/>
      <sparseX i="234" alpha="10244.161685240158" sparseCutoff="1.0000000000000000"/>
      <sparseX i="235" alpha="9620.1760438166384" sparseCutoff="1.0000000000000000"/>
      <sparseX i="236" alpha="-245.53341409127771" sparseCutoff="1.0000000000000000"/>
      <sparseX i="237" alpha="-1612.6494037442137" sparseCutoff="1.0000000000000000"/>
      <sparseX i="238" alpha="43806.655079330536" sparseCutoff="1.0000000000000000"/>
      <sparseX i="239" alpha="-56797.840892695654" sparseCutoff="1.0000000000000000"/>
      <sparseX i="240" alpha="20304.671533316661" sparseCutoff="1.0000000000000000"/>
      <sparseX i="241" alpha="19508.995440355837" sparseCutoff="1.0000000000000000"/>
      <sparseX i="242" alpha="36191.145149834767" sparseCutoff="1.0000000000000000"/>
      <sparseX i="243" alpha="-6654.3133752550602" sparseCutoff="1.0000000000000000"/>
      <sparseX i="244" alpha="21372.684127694938" sparseCutoff="1.0000000000000000"/>
      <sparseX i="245" alpha="19548.937286819593" sparseCutoff="1.0000000000000000"/>
      <sparseX i="246" alpha="-26109.991596654636" sparseCutoff="1.0000000000000000"/>
      <sparseX i="247" alpha="-1602.7890998644129" sparseCutoff="1.0000000000000000"/>
      <sparseX i="248" alpha="13167.790999929073" sparseCutoff="1.0000000000000000"/>
      <sparseX i="249" alpha="-2565.2643422413043" sparseCutoff="1.0000000000000000"/>
      <sparseX i="250" alpha="32449.935488403091" sparseCutoff="1.0000000000000000"/>
      <sparseX i="251" alpha="11133.690992976462" sparseCutoff="1.0000000000000000"/>
      <sparseX i="252" alpha="-19264.117440968756" sparseCutoff="1.0000000000000000"/>
      <sparseX i="253" alpha="34629.391250467539" sparseCutoff="1.0000000000000000"/>
      <sparseX i="254" alpha="78924.329221020264" sparseCutoff="1.0000000000000000"/>
      <sparseX i="255" alpha="7326.3070214821255" sparseCutoff="1.0000000000000000"/>
      <sparseX i="256" alpha="40204.440821394011" sparseCutoff="1.0000000000000000"/>
      <sparseX i="257" alpha="13738.500953462461" sparseCutoff="1.0000000000000000"/>
      <sparseX i="258" alpha="-384.69314837134056" sparseCutoff="1.0000000000000000"/>
      <sparseX i="259" alpha="17259.232560548207" sparseCutoff="1.0000000000000000"/>
      <sparseX i="260" alpha="98075.988933977671" sparseCutoff="1.0000000000000000"/>
      <sparseX i="261" alpha="11348.677218081270" sparseCutoff="1.0000000000000000"/>
      <sparseX i="262" alpha="12009.538101420403" sparseCutoff="1.0000000000000000"/>
      <sparseX i="263" alpha="6076.0736759184183" sparseCutoff="1.0000000000000000"/>
      <sparseX i="264" alpha="-66104.166679138318" sparseCutoff="1.0000000000000000"/>
      <sparseX i="265" alpha="3929.3468068412385" sparseCutoff="1.0000000000000000"/>
      <sparseX i="266" alpha="43114.137242279328" sparseCutoff="1.0000000000000000"/>
      <sparseX i="267" alpha="1288.5450857318049" sparseCutoff="1.0000000000000000"/>
      <sparseX i="268" alpha="-33360.970458974618" sparseCutoff="1.0000000000000000"/>
      <sparseX i="269" alpha="-13746.204393315127" sparseCutoff="1.0000000000000000"/>
      <sparseX i="270" alpha="-4733.8168967505089" sparseCutoff="1.0000000000000000"/>
      <sparseX i="271" alpha="-177940.79117469638" sparseCutoff="1.0000000000000000"/>
      <sparseX i="272" alpha="-202338.88487605038" sparseCutoff="1.0000000000000000"/>
      <sparseX i="273" alpha="-6476.4751140192857" sparseCutoff="1.0000000000000000"/>
      <sparseX i="274" alpha="-17639.592993040933" sparseCutoff="1.0000000000000000"/>
      <sparseX i="275" alpha="-3308.4951008820917" sparseCutoff="1.0000000000000000"/>
      <sparseX i="276" alpha="-36687.890923869134" sparseCutoff="1.0000000000000000"/>
      <sparseX i="277" alpha="20534.521336859194" sparseCutoff="1.0000000000000000"/>
      <sparseX i="278" alpha="-122586.88933517343" sparseCutoff="1.0000000000000000"/>
      <sparseX i="279" alpha="-22094.419738348468" sparseCutoff="1.0000000000000000"/>
      <sparseX i="280" alpha="6454.8349374343825" sparseCutoff="1.0000000000000000"/>
      <sparseX i="281" alpha="7018.8306806912633" sparseCutoff="1.0000000000000000"/>
      <sparseX i="282" alpha="-624.97161090817326" sparseCutoff="1.0000000000000000"/>
      <sparseX i="283" alpha="-23225.277819012194" sparseCutoff="1.0000000000000000"/>
      <sparseX i="284" alpha="219143.77519991790" sparseCutoff="1.0000000000000000"/>
      <sparseX i="285" alpha="-7638.3061334237709" sparseCutoff="1.0000000000000000"/>
      <sparseX i="286" alpha="-6698.5662594234063" sparseCutoff="1.0000000000000000"/>
      <sparseX i="287" alpha="-14957.738647929504" sparseCutoff="1.0000000000000000"/>
      <sparseX i="288" alpha="1428.6425678998380" sparseCutoff="1.0000000000000000"/>
      <sparseX i="289" alpha="66245.770989940283" sparseCutoff="1.0000000000000000"/>
      <sparseX i="290" alpha="-43243.804936423665" sparseCutoff="1.0000000000000000"/>
      <sparseX i="291" alpha="-9036.5599853588938" sparseCutoff="1.0000000000000000"/>
      <sparseX i="292" alpha="6725.9795267941836" sparseCutoff="1.0000000000000000"/>
      <sparseX i="293" alpha="9994.1898178108058" sparseCutoff="1.0000000000000000"/>
      <sparseX i="294" alpha="327.28993358332895" sparseCutoff="1.0000000000000000"/>
      <sparseX i="295" alpha="36038.025746469335" sparseCutoff="1.0000000000000000"/>
      <sparseX i="296" alpha="-6685.1290173703019" sparseCutoff="1.0000000000000000"/>
      <sparseX i="297" alpha="-35005.121181953407" sparseCutoff="1.0000000000000000"/>
      <sparseX i="298" alpha="19124.025478528118" sparseCutoff="1.0000000000000000"/>
      <sparseX i="299" alpha="-35092.454083321856" sparseCutoff="1.0000000000000000"/>
      <sparseX i="300" alpha="17103.602116833481" sparseCutoff="1.0000000000000000"/>
      <sparseX i="301" alpha="-1220.9035093418677" sparseCutoff="1.0000000000000000"/>
      <sparseX i="302" alpha="1673.6330052287510" sparseCutoff="1.0000000000000000"/>
      <sparseX i="303" alpha="25670.884075396811" sparseCutoff="1.0000000000000000"/>
      <sparseX i="304" alpha="-757.98230614017336" sparseCutoff="1.0000000000000000"/>
      <sparseX i="305" alpha="-1273.7979268531587" sparseCutoff="1.0000000000000000"/>
      <sparseX i="306" alpha="-50812.121313279247" sparseCutoff="1.0000000000000000"/>
      <sparseX i="307" alpha="11010.001221951279" sparseCutoff="1.0000000000000000"/>
      <sparseX i="308" alpha="-99923.700918824718" sparseCutoff="1.0000000000000000"/>
      <sparseX i="309" alpha="573.70050167605064" sparseCutoff="1.0000000000000000"/>
      <sparseX i="310" alpha="-152614.96480455110" sparseCutoff="1.0000000000000000"/>
      <sparseX i="311" alpha="-101119.75405877977" sparseCutoff="1.0000000000000000"/>
      <sparseX i="312" alpha="-15223.714618608095" sparseCutoff="1.0000000000000000"/>
      <sparseX i="313" alpha="3814.0798343459487" sparseCutoff="1.0000000000000000"/>
      <sparseX i="314" alpha="-8675.8029527236995" sparseCutoff="1.0000000000000000"/>
      <sparseX i="315" alpha="-751.07958179309207" sparseCutoff="1.0000000000000000"/>
      <sparseX i="316" alpha="-13569.820430511896" sparseCutoff="1.0000000000000000"/>
      <sparseX i="317" alpha="-12356.348482075458" sparseCutoff="1.0000000000000000"/>
      <sparseX i="318" alpha="-357.33960326024089" sparseCutoff="1.0000000000000000"/>
      <sparseX i="319" alpha="813.28088624227178" sparseCutoff="1.0000000000000000"/>
      <sparseX i="320" alpha="30208.585322138217" sparseCutoff="1.0000000000000000"/>
      <sparseX i="321" alpha="63006.229578604871" sparseCutoff="1.0000000000000000"/>
      <sparseX i="322" alpha="54345.999327835343" sparseCutoff="1.0000000000000000"/>
      <sparseX i="323" alpha="8613.0126042257161" sparseCutoff="1.0000000000000000"/>
      <sparseX i="324" alpha="-44699.125214303720" sparseCutoff="1.0000000000000000"/>
      <sparseX i="325" alpha="-1924.2688230846347" sparseCutoff="1.0000000000000000"/>
      <sparseX i="326" alpha="14058.803767912641" sparseCutoff="1.0000000000000000"/>
      <sparseX i="327" alpha="49057.842920508592" sparseCutoff="1.0000000000000000"/>
      <sparseX i="328" alpha="4545.3813986991463" sparseCutoff="1.0000000000000000"/>
      <sparseX i="329" alpha="-1234.0656914335889" sparseCutoff="1.0000000000000000"/>
      <sparseX i="330" alpha="-1190.5113165973489" sparseCutoff="1.0000000000000000"/>
      <sparseX i="331" alpha="-4660.9942738033815" sparseCutoff="1.0000000000000000"/>
      <sparseX i="332" alpha="-5735.2074829352123" sparseCutoff="1.0000000000000000"/>
      <sparseX i="333" alpha="67395.516458239756" sparseCutoff="1.0000000000000000"/>
      <sparseX i="334" alpha="-39296.376203735708" sparseCutoff="1.0000000000000000"/>
